{"learner":{"attributes":{},"feature_names":["gender","age","height","weight","smoke","alco","active","ap_hi","ap_lo","bp_ratio","BMI","blood_pressure_diff"],"feature_types":["int","int","float","float","int","int","int","float","float","float","float","float"],"gradient_booster":{"model":{"gbtree_model_param":{"num_parallel_tree":"1","num_trees":"300"},"iteration_indptr":[0,1,2,3,4,5,6,7,8,9,10,11,12,13,14,15,16,17,18,19,20,21,22,23,24,25,26,27,28,29,30,31,32,33,34,35,36,37,38,39,40,41,42,43,44,45,46,47,48,49,50,51,52,53,54,55,56,57,58,59,60,61,62,63,64,65,66,67,68,69,70,71,72,73,74,75,76,77,78,79,80,81,82,83,84,85,86,87,88,89,90,91,92,93,94,95,96,97,98,99,100,101,102,103,104,105,106,107,108,109,110,111,112,113,114,115,116,117,118,119,120,121,122,123,124,125,126,127,128,129,130,131,132,133,134,135,136,137,138,139,140,141,142,143,144,145,146,147,148,149,150,151,152,153,154,155,156,157,158,159,160,161,162,163,164,165,166,167,168,169,170,171,172,173,174,175,176,177,178,179,180,181,182,183,184,185,186,187,188,189,190,191,192,193,194,195,196,197,198,199,200,201,202,203,204,205,206,207,208,209,210,211,212,213,214,215,216,217,218,219,220,221,222,223,224,225,226,227,228,229,230,231,232,233,234,235,236,237,238,239,240,241,242,243,244,245,246,247,248,249,250,251,252,253,254,255,256,257,258,259,260,261,262,263,264,265,266,267,268,269,270,271,272,273,274,275,276,277,278,279,280,281,282,283,284,285,286,287,288,289,290,291,292,293,294,295,296,297,298,299,300],"tree_info":[0,0,0,0,0,0,0,0,0,0,0,0,0,0,0,0,0,0,0,0,0,0,0,0,0,0,0,0,0,0,0,0,0,0,0,0,0,0,0,0,0,0,0,0,0,0,0,0,0,0,0,0,0,0,0,0,0,0,0,0,0,0,0,0,0,0,0,0,0,0,0,0,0,0,0,0,0,0,0,0,0,0,0,0,0,0,0,0,0,0,0,0,0,0,0,0,0,0,0,0,0,0,0,0,0,0,0,0,0,0,0,0,0,0,0,0,0,0,0,0,0,0,0,0,0,0,0,0,0,0,0,0,0,0,0,0,0,0,0,0,0,0,0,0,0,0,0,0,0,0,0,0,0,0,0,0,0,0,0,0,0,0,0,0,0,0,0,0,0,0,0,0,0,0,0,0,0,0,0,0,0,0,0,0,0,0,0,0,0,0,0,0,0,0,0,0,0,0,0,0,0,0,0,0,0,0,0,0,0,0,0,0,0,0,0,0,0,0,0,0,0,0,0,0,0,0,0,0,0,0,0,0,0,0,0,0,0,0,0,0,0,0,0,0,0,0,0,0,0,0,0,0,0,0,0,0,0,0,0,0,0,0,0,0,0,0,0,0,0,0,0,0,0,0,0,0,0,0,0,0,0,0,0,0,0,0,0,0,0,0,0,0,0,0,0,0,0,0,0,0],"trees":[{"base_weights":[-0E0,-4.2473382E-1,4.8863E-1,-1.8728736E-1,-1.0321484E0,7.187609E-1,-1.1438337E-1,-5.689989E-1,-9.386703E-2,-9.178323E-1,-1.5677903E0,7.3249894E-1,-8.8032025E-1,7.3830724E-2,-1.0008527E0,-8.049414E-1,-4.088728E-1,-3.9189577E-1,2.1416524E-3,-1.0405592E0,-4.4583195E-1,-8.206471E-2,-1.0576339E0,4.3628082E-1,7.705776E-1,-1.0164267E0,5.420073E-1,-5.8663696E-1,3.541125E-1,-1.3725214E0,-9.073907E-1,-9.9630904E-1,-6.666496E-1,9.135917E-2,-4.690114E-1,-4.7613838E-1,1.284743E-1,-9.017148E-2,2.3029234E-1,-1.578695E0,-9.9747324E-1,-9.8950315E-1,-8.560643E-2,2.3076499E-2,-1.1576737E0,6.979457E-1,2.8312156E-1,7.0646846E-1,9.578302E-1,-1.1484327E0,4.720362E-2,-0E0,4.164178E-2,-1.230546E0,-3.798228E-1,9.856661E-2,2.872613E-1,-7.221047E-2,7.4872337E-3,4.8925985E-2,-9.3050534E-1,-5.897505E-2,-4.0425953E-2,-2.8764961E-2,-5.2227534E-2,-2.1762272E-2,-6.384585E-2,-3.0007485E-2,-5.1224674E-3,4.051201E-4,3.5120152E-2,5.86957E-3,-8.389144E-3,1.2500802E-2,-6.563153E-2,1.3344693E-3,-8.009872E-2,-5.8805257E-2,-4.3673333E-2,-6.862607E-2,-3.51646E-2,7.467821E-2,-8.1330845E-3,-6.43068E-2,-1.763443E-2,2.9741038E-2,9.031074E-2,5.178361E-3,4.517981E-2,3.8165476E-2,-9.448776E-3,1.01352036E-1,4.2664327E-2,7.988812E-3,-6.2097467E-2,-3.631306E-3,1.4960137E-2,-7.179599E-2,-4.315189E-2,-2.624287E-2,9.44168E-3,-6.0083415E-2,1.8354123E-2,-6.2228482E-2,-4.0726513E-2],"categories":[],"categories_nodes":[],"categories_segments":[],"categories_sizes":[],"default_left":[0,0,0,0,0,0,0,0,0,0,0,0,0,0,0,0,0,0,0,0,0,0,0,0,0,0,0,0,0,0,0,0,0,0,0,0,0,0,0,0,0,0,0,0,0,0,0,0,0,0,0,0,0,0,0,0,0,0,0,0,0,0,0,0,0,0,0,0,0,0,0,0,0,0,0,0,0,0,0,0,0,0,0,0,0,0,0,0,0,0,0,0,0,0,0,0,0,0,0,0,0,0,0,0,0],"id":0,"left_children":[1,3,5,7,9,11,13,15,17,19,21,23,25,27,29,31,33,35,37,39,41,-1,43,45,47,49,51,53,55,57,59,61,63,-1,65,67,69,71,73,75,77,79,81,-1,83,85,87,89,91,93,95,-1,-1,97,99,-1,101,-1,-1,-1,103,-1,-1,-1,-1,-1,-1,-1,-1,-1,-1,-1,-1,-1,-1,-1,-1,-1,-1,-1,-1,-1,-1,-1,-1,-1,-1,-1,-1,-1,-1,-1,-1,-1,-1,-1,-1,-1,-1,-1,-1,-1,-1,-1,-1],"loss_changes":[3.2824312E3,1.2194377E3,1.0210509E3,2.1661015E2,1.414375E2,1.1817139E2,3.39735E2,4.389441E1,1.4021198E2,1.12134766E2,1.0721985E1,5.8279297E1,1.0233837E1,3.1092224E2,8.755463E0,1.0541138E1,9.7504425E1,5.2618866E1,7.8076225E1,3.1660278E1,7.9541954E1,0E0,1.0334946E1,2.3461494E1,5.3928467E1,6.6895523E0,1.1317971E0,6.486478E1,1.25293365E2,8.355553E0,1.4521622E1,3.8333893E0,7.866783E0,0E0,1.7139343E1,4.7188812E1,1.1174081E1,4.2517746E1,3.2640728E1,5.0259094E0,2.89906E1,1.4851669E1,3.0144226E1,0E0,4.05764E0,2.1992912E1,4.251201E1,1.783009E2,1.27511475E2,5.673191E0,3.4532502E-1,0E0,0E0,5.437332E0,3.1875126E1,0E0,1.3543298E2,0E0,0E0,0E0,7.4931946E0,0E0,0E0,0E0,0E0,0E0,0E0,0E0,0E0,0E0,0E0,0E0,0E0,0E0,0E0,0E0,0E0,0E0,0E0,0E0,0E0,0E0,0E0,0E0,0E0,0E0,0E0,0E0,0E0,0E0,0E0,0E0,0E0,0E0,0E0,0E0,0E0,0E0,0E0,0E0,0E0,0E0,0E0,0E0,0E0],"parents":[2147483647,0,0,1,1,2,2,3,3,4,4,5,5,6,6,7,7,8,8,9,9,10,10,11,11,12,12,13,13,14,14,15,15,16,16,17,17,18,18,19,19,20,20,22,22,23,23,24,24,25,25,26,26,27,27,28,28,29,29,30,30,31,31,32,32,34,34,35,35,36,36,37,37,38,38,39,39,40,40,41,41,42,42,44,44,45,45,46,46,47,47,48,48,49,49,50,50,53,53,54,54,56,56,60,60],"right_children":[2,4,6,8,10,12,14,16,18,20,22,24,26,28,30,32,34,36,38,40,42,-1,44,46,48,50,52,54,56,58,60,62,64,-1,66,68,70,72,74,76,78,80,82,-1,84,86,88,90,92,94,96,-1,-1,98,100,-1,102,-1,-1,-1,104,-1,-1,-1,-1,-1,-1,-1,-1,-1,-1,-1,-1,-1,-1,-1,-1,-1,-1,-1,-1,-1,-1,-1,-1,-1,-1,-1,-1,-1,-1,-1,-1,-1,-1,-1,-1,-1,-1,-1,-1,-1,-1,-1,-1],"split_conditions":[1.28E2,1E0,1E0,2.3148148E1,1E0,1E0,1E0,1.6209593E2,1.2E2,2.8440954E1,2.978535E1,2.3488081E1,1.7509216E2,1.680728E2,1.6518471E2,1.15E2,1.63E2,3.2467533E1,2.9411764E1,3.8E1,1.6904213E2,-8.206471E-2,3.0062101E1,1.6E2,1.6518471E2,3.633218E1,2.6291723E1,1.6209593E2,1.69E2,1.6E2,1.66E2,2.1559649E1,1.61E2,9.135917E-2,2.313428E1,1.6518471E2,1.66197E2,2.420598E1,1E0,1E2,1.680728E2,1.6411754E2,2.869898E1,2.3076499E-2,1.7509216E2,1.5922986E2,1.7021227E2,1.65E2,1.66E2,2.146915E1,1.4222208E2,-0E0,4.164178E-2,1.6004793E2,1E2,9.856661E-2,1.6904213E2,-7.221047E-2,7.4872337E-3,4.8925985E-2,2.4585701E1,-5.897505E-2,-4.0425953E-2,-2.8764961E-2,-5.2227534E-2,-2.1762272E-2,-6.384585E-2,-3.0007485E-2,-5.1224674E-3,4.051201E-4,3.5120152E-2,5.86957E-3,-8.389144E-3,1.2500802E-2,-6.563153E-2,1.3344693E-3,-8.009872E-2,-5.8805257E-2,-4.3673333E-2,-6.862607E-2,-3.51646E-2,7.467821E-2,-8.1330845E-3,-6.43068E-2,-1.763443E-2,2.9741038E-2,9.031074E-2,5.178361E-3,4.517981E-2,3.8165476E-2,-9.448776E-3,1.01352036E-1,4.2664327E-2,7.988812E-3,-6.2097467E-2,-3.631306E-3,1.4960137E-2,-7.179599E-2,-4.315189E-2,-2.624287E-2,9.44168E-3,-6.0083415E-2,1.8354123E-2,-6.2228482E-2,-4.0726513E-2],"split_indices":[7,0,0,10,4,4,4,2,7,10,10,10,2,2,2,7,2,10,10,11,2,0,10,2,2,10,10,2,2,7,2,10,2,0,10,2,2,10,4,7,2,2,10,0,2,2,2,2,2,10,7,0,0,2,8,0,2,0,0,0,10,0,0,0,0,0,0,0,0,0,0,0,0,0,0,0,0,0,0,0,0,0,0,0,0,0,0,0,0,0,0,0,0,0,0,0,0,0,0,0,0,0,0,0,0],"split_type":[0,0,0,0,0,0,0,0,0,0,0,0,0,0,0,0,0,0,0,0,0,0,0,0,0,0,0,0,0,0,0,0,0,0,0,0,0,0,0,0,0,0,0,0,0,0,0,0,0,0,0,0,0,0,0,0,0,0,0,0,0,0,0,0,0,0,0,0,0,0,0,0,0,0,0,0,0,0,0,0,0,0,0,0,0,0,0,0,0,0,0,0,0,0,0,0,0,0,0,0,0,0,0,0,0],"sum_hessian":[1.5812209E4,8.4598125E3,7.352396E3,6.084673E3,2.37514E3,5.3218413E3,2.0305548E3,1.193313E3,4.89136E3,1.9626366E3,4.1250327E2,5.2778945E3,4.394708E1,1.6759818E3,3.5457303E2,4.7792447E2,7.1538855E2,1.1915651E3,3.6997947E3,1.5548776E3,4.0775897E2,3.558215E2,5.6681744E1,6.055208E2,4.6723735E3,4.0950687E1,2.9963918E0,4.9815012E2,1.1778317E3,6.467212E1,2.899009E2,1.9376666E2,2.841578E2,1.6979553E1,6.98409E2,1.0265139E3,1.6505124E2,2.6333289E3,1.0664657E3,1.091186E2,1.445759E3,1.6055666E2,2.4720232E2,2.7466924E0,5.393505E1,2.197354E2,3.8578543E2,3.4897976E3,1.1825759E3,3.67058E1,4.2448883E0,1.2484965E0,1.7478951E0,1.1810777E2,3.8004236E2,4.4196777E1,1.1336349E3,6.217513E1,2.496993E0,2.2472937E0,2.876536E2,9.1389946E1,1.0237672E2,2.3396825E2,5.018956E1,6.739384E2,2.4470531E1,7.6882416E2,2.576897E2,1.3883281E2,2.6218428E1,7.146394E2,1.9186895E3,1.0549796E3,1.1486168E1,1.2484965E0,1.078701E2,5.83797E2,8.6196204E2,6.467212E1,9.588454E1,9.488574E0,2.3771375E2,4.4945877E1,8.989175E0,2.0425403E2,1.5481358E1,3.0163678E2,8.414867E1,3.2822974E3,2.0750012E2,1.0162762E2,1.0809484E3,1.9975945E0,3.4708202E1,2.496993E0,1.7478951E0,7.116431E1,4.694347E1,3.0363437E2,7.640799E1,5.5932644E1,1.0777023E3,7.116431E1,2.164893E2],"tree_param":{"num_deleted":"0","num_feature":"12","num_nodes":"105","size_leaf_vector":"1"}},{"base_weights":[-8.533922E-5,2.2364375E-1,-5.803149E-1,-4.697363E-1,3.5987735E-1,-9.067397E-1,-1.6216813E-1,-8.513578E-1,-2.4980938E-1,7.900083E-1,2.1059422E-1,-1.1836416E0,-5.8519924E-1,-1.8900802E-3,-9.6445876E-1,-4.0094382E-1,-9.790595E-1,2.4796017E-1,-4.088333E-1,6.398856E-1,1.1021163E0,4.6142254E-2,4.99662E-1,-1.0670633E0,-1.6284488E0,-4.7865194E-1,-1.1541284E0,-6.371025E-1,1.6325456E-1,-1.2450745E0,-6.735028E-1,-2.6268154E-1,-1.0421796E0,-1.5848204E0,-8.7694424E-1,-7.6173745E-2,4.436647E-1,-5.648891E-1,2.0568211E-1,4.162893E-1,7.8258413E-1,7.3177797E-1,1.2263625E0,-1.6766332E-1,2.8973255E-1,9.900746E-2,4.5900023E-1,-1.237272E0,-7.61744E-1,-8.236514E-2,-7.76885E-1,-9.385022E-1,-3.6330333E-1,-1.000792E0,-1.5280294E0,-9.859525E-1,-1.9850983E-1,9.385696E-2,1.3102125E-1,3.8516045E-2,-1.2768841E0,-4.6569505E-1,-6.0685366E-2,-2.3945838E-2,1.9078745E-2,-5.965956E-2,-2.5867608E-3,-8.261691E-2,-3.8765576E-2,-6.689768E-2,-3.812193E-2,3.8908415E-2,-2.0426286E-2,5.262239E-3,4.112256E-2,7.9038724E-2,-2.9584676E-2,-2.3840336E-2,1.9278176E-2,2.2688804E-2,-4.046189E-2,4.1051723E-2,-1.1024014E-2,8.673819E-2,3.217001E-2,6.318612E-2,-1.849599E-2,8.21072E-3,-1.395336E-2,1.5977986E-2,-4.454595E-2,-3.483757E-2,2.5594065E-2,-6.418772E-2,-3.785365E-2,-6.009608E-2,-2.0137673E-2,3.2394843E-3,-5.1208403E-2,-2.1592122E-2,-5.4265708E-2,-1.4917145E-2,-6.465223E-2,-2.495178E-2,-5.4353412E-2,-1.7199088E-2,-7.870506E-2,6.2474232E-2,-5.2275896E-2,1.8569766E-2,-1.9615777E-2,-2.2501253E-2,1.1571261E-2,-7.228104E-2,-3.7064653E-2,2.3716912E-2,-2.8129626E-2],"categories":[],"categories_nodes":[],"categories_segments":[],"categories_sizes":[],"default_left":[0,0,0,0,0,0,0,0,0,0,0,0,0,0,0,0,0,0,0,0,0,0,0,0,0,0,0,0,0,0,0,0,0,0,0,0,0,0,0,0,0,0,0,0,0,0,0,0,0,0,0,0,0,0,0,0,0,0,0,0,0,0,0,0,0,0,0,0,0,0,0,0,0,0,0,0,0,0,0,0,0,0,0,0,0,0,0,0,0,0,0,0,0,0,0,0,0,0,0,0,0,0,0,0,0,0,0,0,0,0,0,0,0,0,0,0,0],"id":1,"left_children":[1,3,5,7,9,11,13,15,17,19,21,23,25,27,29,31,33,35,37,39,41,43,45,47,49,51,53,55,57,59,61,63,65,67,69,71,73,75,77,79,81,83,85,87,89,-1,91,93,95,-1,97,99,101,103,105,107,109,-1,111,-1,113,115,-1,-1,-1,-1,-1,-1,-1,-1,-1,-1,-1,-1,-1,-1,-1,-1,-1,-1,-1,-1,-1,-1,-1,-1,-1,-1,-1,-1,-1,-1,-1,-1,-1,-1,-1,-1,-1,-1,-1,-1,-1,-1,-1,-1,-1,-1,-1,-1,-1,-1,-1,-1,-1,-1,-1],"loss_changes":[2.0526743E3,1.0781326E3,5.9982227E2,1.5630771E2,6.1164197E2,2.1766772E2,2.4799323E2,3.7837677E1,9.468073E1,1.1279028E2,3.364619E2,6.385608E1,6.765469E1,1.6966394E2,2.3591309E1,1.2562334E1,2.878952E1,1.8597948E1,8.723006E1,5.1846924E1,3.375067E1,2.355054E2,1.515315E2,5.199939E1,5.689697E-1,5.0166138E1,5.9332733E0,5.0101135E1,6.928484E1,1.2496597E1,1.6321587E1,1.866526E1,3.1754456E0,2.3075867E-1,2.1136353E1,3.157924E1,2.2641197E1,4.2966843E1,2.2930893E1,3.0599709E1,3.9701233E1,1.4783798E1,3.6591797E1,8.913217E1,7.473396E1,0E0,1.5353137E2,1.2076172E1,5.8952423E1,0E0,2.7385573E0,1.2627884E1,4.556143E1,3.9057922E0,5.372925E-1,2.7121323E1,1.6985905E1,0E0,7.360776E1,0E0,1.111441E1,1.1652967E1,0E0,0E0,0E0,0E0,0E0,0E0,0E0,0E0,0E0,0E0,0E0,0E0,0E0,0E0,0E0,0E0,0E0,0E0,0E0,0E0,0E0,0E0,0E0,0E0,0E0,0E0,0E0,0E0,0E0,0E0,0E0,0E0,0E0,0E0,0E0,0E0,0E0,0E0,0E0,0E0,0E0,0E0,0E0,0E0,0E0,0E0,0E0,0E0,0E0,0E0,0E0,0E0,0E0,0E0,0E0],"parents":[2147483647,0,0,1,1,2,2,3,3,4,4,5,5,6,6,7,7,8,8,9,9,10,10,11,11,12,12,13,13,14,14,15,15,16,16,17,17,18,18,19,19,20,20,21,21,22,22,23,23,24,24,25,25,26,26,27,27,28,28,29,29,30,30,31,31,32,32,33,33,34,34,35,35,36,36,37,37,38,38,39,39,40,40,41,41,42,42,43,43,44,44,46,46,47,47,48,48,50,50,51,51,52,52,53,53,54,54,55,55,56,56,58,58,60,60,61,61],"right_children":[2,4,6,8,10,12,14,16,18,20,22,24,26,28,30,32,34,36,38,40,42,44,46,48,50,52,54,56,58,60,62,64,66,68,70,72,74,76,78,80,82,84,86,88,90,-1,92,94,96,-1,98,100,102,104,106,108,110,-1,112,-1,114,116,-1,-1,-1,-1,-1,-1,-1,-1,-1,-1,-1,-1,-1,-1,-1,-1,-1,-1,-1,-1,-1,-1,-1,-1,-1,-1,-1,-1,-1,-1,-1,-1,-1,-1,-1,-1,-1,-1,-1,-1,-1,-1,-1,-1,-1,-1,-1,-1,-1,-1,-1,-1,-1,-1,-1],"split_conditions":[1E0,4.8E1,7.802012E1,6.520272E1,1E0,5.5E1,1E0,1E0,1E0,7.802012E1,7.529135E1,1E0,1E0,4.9E1,1.5009674E0,6.5E1,1.4305556E0,4.3E1,1.6125958E0,5.5E1,5.4E1,1.5009674E0,7.6E1,1.5407331E0,1.7391304E0,6.3230827E1,1E0,1.5009674E0,7.9E1,7.9E1,1E0,6.2329426E1,1.5719382E0,6.423381E1,5.5329468E1,1.4522732E0,1.5009674E0,6.6E1,4.2E1,7.8E1,6.4E1,7.9E1,6.4E1,1.5E0,6.4E1,9.900746E-2,7.611502E1,5.4E1,6.913243E1,-8.236514E-2,5.4914547E1,1E0,6.4E1,5.6E1,1.4059454E0,7.9E1,1E0,9.385696E-2,8.032053E1,3.8516045E-2,9.2252625E1,7.993712E1,-6.0685366E-2,-2.3945838E-2,1.9078745E-2,-5.965956E-2,-2.5867608E-3,-8.261691E-2,-3.8765576E-2,-6.689768E-2,-3.812193E-2,3.8908415E-2,-2.0426286E-2,5.262239E-3,4.112256E-2,7.9038724E-2,-2.9584676E-2,-2.3840336E-2,1.9278176E-2,2.2688804E-2,-4.046189E-2,4.1051723E-2,-1.1024014E-2,8.673819E-2,3.217001E-2,6.318612E-2,-1.849599E-2,8.21072E-3,-1.395336E-2,1.5977986E-2,-4.454595E-2,-3.483757E-2,2.5594065E-2,-6.418772E-2,-3.785365E-2,-6.009608E-2,-2.0137673E-2,3.2394843E-3,-5.1208403E-2,-2.1592122E-2,-5.4265708E-2,-1.4917145E-2,-6.465223E-2,-2.495178E-2,-5.4353412E-2,-1.7199088E-2,-7.870506E-2,6.2474232E-2,-5.2275896E-2,1.8569766E-2,-1.9615777E-2,-2.2501253E-2,1.1571261E-2,-7.228104E-2,-3.7064653E-2,2.3716912E-2,-2.8129626E-2],"split_indices":[0,1,3,3,6,1,4,6,6,3,3,4,4,1,9,3,9,1,9,1,1,9,3,9,9,3,5,9,3,3,5,3,9,3,3,9,9,3,1,3,1,3,1,9,1,0,3,1,3,0,3,6,1,1,9,3,6,0,3,0,3,3,0,0,0,0,0,0,0,0,0,0,0,0,0,0,0,0,0,0,0,0,0,0,0,0,0,0,0,0,0,0,0,0,0,0,0,0,0,0,0,0,0,0,0,0,0,0,0,0,0,0,0,0,0,0,0],"split_type":[0,0,0,0,0,0,0,0,0,0,0,0,0,0,0,0,0,0,0,0,0,0,0,0,0,0,0,0,0,0,0,0,0,0,0,0,0,0,0,0,0,0,0,0,0,0,0,0,0,0,0,0,0,0,0,0,0,0,0,0,0,0,0,0,0,0,0,0,0,0,0,0,0,0,0,0,0,0,0,0,0,0,0,0,0,0,0,0,0,0,0,0,0,0,0,0,0,0,0,0,0,0,0,0,0,0,0,0,0,0,0,0,0,0,0,0,0],"sum_hessian":[1.5807025E4,1.1408442E4,4.3985825E3,1.8720114E3,9.536432E3,2.4682324E3,1.9303499E3,6.814793E2,1.190532E3,2.4539392E3,7.082492E3,1.3224541E3,1.1457783E3,1.6111162E3,3.192337E2,1.5322769E2,5.2825165E2,2.8722147E2,9.0331055E2,1.6621531E3,7.9178613E2,4.516872E3,2.5656199E3,1.054108E3,2.683461E2,9.6888916E2,1.7688908E2,3.31881E2,1.2792352E3,1.5829109E2,1.609426E2,1.2900983E2,2.4217863E1,7.1307884E1,4.5694376E2,1.0762884E2,1.7959264E2,7.211501E2,1.8216043E2,6.5194684E2,1.01020624E3,2.0337958E2,5.8840656E2,2.4047397E3,2.1121323E3,6.570278E1,2.4999172E3,6.718334E2,3.8227463E2,2.6013065E2,8.215436E0,1.9056662E2,7.783226E2,1.3160748E2,4.52816E1,1.8282707E2,1.4905392E2,2.121517E1,1.25802E3,1.4938205E0,1.5679727E2,1.19588585E2,4.135402E1,9.755596E1,3.1453867E1,2.0220625E1,3.9972382E0,6.3326134E1,7.9817505E0,8.579401E1,3.7114975E2,2.897042E1,7.865842E1,9.689725E1,8.269539E1,7.2369637E0,7.1391315E2,3.672834E1,1.454321E2,6.342147E2,1.7732088E1,9.737414E2,3.6464817E1,1.2994265E1,1.9038531E2,5.7566345E2,1.27430935E1,6.0298395E2,1.8017559E3,2.0619233E3,5.020885E1,1.07899185E2,2.392018E3,6.085399E2,6.3293503E1,1.6898463E2,2.1328998E2,1.7415961E0,6.4738398E0,4.5349728E1,1.4521689E2,7.3046497E2,4.785759E1,2.2150488E1,1.09457E2,2.7365685E0,4.2545033E1,3.4903383E0,1.7933675E2,3.6705414E1,1.1234852E2,1.8359517E2,1.0744249E3,1.15939156E2,4.0858116E1,9.964936E0,1.0962364E2],"tree_param":{"num_deleted":"0","num_feature":"12","num_nodes":"117","size_leaf_vector":"1"}},{"base_weights":[-2.108517E-4,-3.9623904E-1,4.5439076E-1,-3.603E-1,-1.487387E0,5.0559616E-1,-1.021943E0,-4.587669E-1,8.528793E-3,-8.057543E-2,-1.0624264E0,3.700909E-1,6.6947514E-1,4.1747387E-2,-1.0440172E0,-3.3963728E-1,-6.654051E-1,8.442741E-2,-3.0809972E-1,-0E0,-1.3613997E0,6.043055E-1,2.8812516E-1,6.8407404E-1,9.565675E-2,-8.799729E-1,-1.2483588E0,-3.7996522E-1,1.0132798E-1,-1.1698381E0,-5.64763E-1,-1.733381E-1,1.3431546E-1,-6.38759E-1,-4.0656697E-2,-6.043495E-2,8.1720626E-1,-0E0,-6.9377206E-2,5.210896E-1,9.6400544E-2,-7.104311E-1,3.4274197E-1,6.9364214E-1,-9.311549E-2,3.0755505E-1,-5.065079E-1,-1.1092948E0,-4.7626516E-1,-1.3548412E0,-7.148877E-1,-1.6754195E-2,-6.447859E-2,-5.2367236E-2,-7.780341E-2,1.0162455E-1,-3.3771142E-2,-9.0926135E-4,-4.7776844E-2,9.2908956E-2,4.7285003E-3,-1.32063E-2,-4.7218006E-2,1.2271204E-2,-1.8430252E-2,-3.4330815E-2,7.29615E-2,2.9159367E-2,-1.2631336E-2,-4.074667E-2,-0E0,9.773571E-2,1.5108346E-2,2.7573785E-2,3.7592266E-2,1.3366321E-2,-1.7940605E-2,1.858752E-2,-3.8787976E-2,9.671424E-3,-4.494795E-2,7.853916E-3,-5.70041E-2,-5.3600114E-2,-7.7589187E-3,-4.8896383E-2,-7.645607E-2,-4.0524457E-2,-0E0],"categories":[],"categories_nodes":[],"categories_segments":[],"categories_sizes":[],"default_left":[0,0,0,0,0,0,0,0,0,0,0,0,0,0,0,0,0,0,0,0,0,0,0,0,0,0,0,0,0,0,0,0,0,0,0,0,0,0,0,0,0,0,0,0,0,0,0,0,0,0,0,0,0,0,0,0,0,0,0,0,0,0,0,0,0,0,0,0,0,0,0,0,0,0,0,0,0,0,0,0,0,0,0,0,0,0,0,0,0],"id":2,"left_children":[1,3,5,7,9,11,13,15,17,-1,19,21,23,-1,25,27,29,31,33,35,37,39,41,43,45,47,49,51,-1,53,55,57,59,61,63,-1,65,-1,-1,67,-1,69,71,73,75,77,79,81,83,85,87,-1,-1,-1,-1,-1,-1,-1,-1,-1,-1,-1,-1,-1,-1,-1,-1,-1,-1,-1,-1,-1,-1,-1,-1,-1,-1,-1,-1,-1,-1,-1,-1,-1,-1,-1,-1,-1,-1],"loss_changes":[2.8446643E3,3.2917285E2,5.5684546E2,2.9726526E2,9.385437E0,1.5689197E2,1.19687195E1,1.5798315E2,4.1377953E1,0E0,2.1172783E1,7.4048035E1,2.640625E1,0E0,4.9570312E0,3.920542E2,1.1749219E2,1.7949654E1,2.9017899E1,1.8768654E1,1.3764572E0,1.07717285E2,1.5809775E2,2.372998E1,1.0793023E1,1.14936905E1,2.8811798E0,1.6301746E2,0E0,1.386261E1,5.6827527E2,2.6814934E1,7.886865E1,1.5810852E1,1.7770811E1,0E0,1.3212072E1,0E0,0E0,4.614038E1,0E0,1.1351555E1,1.7723447E2,2.413855E1,3.9949808E0,4.769796E0,6.668562E0,4.3438034E0,9.862377E0,1.1999054E0,1.4359875E0,0E0,0E0,0E0,0E0,0E0,0E0,0E0,0E0,0E0,0E0,0E0,0E0,0E0,0E0,0E0,0E0,0E0,0E0,0E0,0E0,0E0,0E0,0E0,0E0,0E0,0E0,0E0,0E0,0E0,0E0,0E0,0E0,0E0,0E0,0E0,0E0,0E0,0E0],"parents":[2147483647,0,0,1,1,2,2,3,3,4,4,5,5,6,6,7,7,8,8,10,10,11,11,12,12,14,14,15,15,16,16,17,17,18,18,19,19,20,20,21,21,22,22,23,23,24,24,25,25,26,26,27,27,29,29,30,30,31,31,32,32,33,33,34,34,36,36,39,39,41,41,42,42,43,43,44,44,45,45,46,46,47,47,48,48,49,49,50,50],"right_children":[2,4,6,8,10,12,14,16,18,-1,20,22,24,-1,26,28,30,32,34,36,38,40,42,44,46,48,50,52,-1,54,56,58,60,62,64,-1,66,-1,-1,68,-1,70,72,74,76,78,80,82,84,86,88,-1,-1,-1,-1,-1,-1,-1,-1,-1,-1,-1,-1,-1,-1,-1,-1,-1,-1,-1,-1,-1,-1,-1,-1,-1,-1,-1,-1,-1,-1,-1,-1,-1,-1,-1,-1,-1,-1],"split_conditions":[1.28E2,1E0,1E0,2.9411764E1,8.230199E1,2.8732164E1,1.3E2,1.68E2,1.5625E0,-8.057543E-2,8.5E1,1.6E2,1.03E2,4.1747387E-2,1.5564862E0,1.6716673E2,1.680728E2,1.5505537E2,3.1644285E1,1.7142378E2,1.5505537E2,1.5922986E2,1.6004793E2,3.734187E1,1.5E2,1.7142378E2,1.7344711E0,1.67E2,1.0132798E-1,7.4E1,1.69E2,1.55E2,1.56E2,3.0361212E1,8.7E1,-6.043495E-2,2.7434843E1,-0E0,-6.9377206E-2,1.59E2,9.6400544E-2,1.6853932E0,1.61E2,3.0487804E1,9E1,9.5E1,1.6995122E2,1.4952835E2,1.4522732E0,1.66E2,1.7606271E2,-1.6754195E-2,-6.447859E-2,-5.2367236E-2,-7.780341E-2,1.0162455E-1,-3.3771142E-2,-9.0926135E-4,-4.7776844E-2,9.2908956E-2,4.7285003E-3,-1.32063E-2,-4.7218006E-2,1.2271204E-2,-1.8430252E-2,-3.4330815E-2,7.29615E-2,2.9159367E-2,-1.2631336E-2,-4.074667E-2,-0E0,9.773571E-2,1.5108346E-2,2.7573785E-2,3.7592266E-2,1.3366321E-2,-1.7940605E-2,1.858752E-2,-3.8787976E-2,9.671424E-3,-4.494795E-2,7.853916E-3,-5.70041E-2,-5.3600114E-2,-7.7589187E-3,-4.8896383E-2,-7.645607E-2,-4.0524457E-2,-0E0],"split_indices":[7,5,5,10,3,10,7,2,9,0,3,2,3,0,9,2,2,2,10,2,2,2,2,10,7,2,9,2,0,3,2,2,2,10,3,0,10,0,0,2,0,9,2,10,8,8,2,2,9,2,2,0,0,0,0,0,0,0,0,0,0,0,0,0,0,0,0,0,0,0,0,0,0,0,0,0,0,0,0,0,0,0,0,0,0,0,0,0,0],"split_type":[0,0,0,0,0,0,0,0,0,0,0,0,0,0,0,0,0,0,0,0,0,0,0,0,0,0,0,0,0,0,0,0,0,0,0,0,0,0,0,0,0,0,0,0,0,0,0,0,0,0,0,0,0,0,0,0,0,0,0,0,0,0,0,0,0,0,0,0,0,0,0,0,0,0,0,0,0,0,0,0,0,0,0,0,0,0,0,0,0],"sum_hessian":[1.5796774E4,8.442986E3,7.353788E3,8.176787E3,2.661994E2,7.1088765E3,2.4491165E2,6.454489E3,1.7222985E3,2.0079166E2,6.540775E1,3.8965422E3,3.2123342E3,1.7459062E0,2.4316574E2,4.0990435E3,2.3554453E3,1.3917336E3,3.3056485E2,1.4931881E1,5.047587E1,1.0052436E3,2.8912986E3,3.13141E3,8.092426E1,1.4212675E2,1.0103899E2,4.032211E3,6.683228E1,3.8742056E2,1.9680248E3,2.2325102E2,1.1684825E3,1.4573532E2,1.8482953E2,5.723161E0,9.20872E0,1.2439489E0,4.9231922E1,9.487638E2,5.6479794E1,1.4822055E2,2.7430781E3,3.0941758E3,3.7234303E1,6.1197906E1,1.9726353E1,8.762068E1,5.4506077E1,8.0878746E1,2.0160234E1,3.845743E3,1.8646817E2,3.00754E2,8.666656E1,7.881994E1,1.8892048E3,1.8853911E2,3.4711914E1,2.3987743E1,1.1444949E3,6.7882996E1,7.7852325E1,9.817056E1,8.6658966E1,2.4806206E0,6.7280993E0,8.793284E2,6.943533E1,1.2925667E2,1.8963882E1,6.473176E1,2.6783464E3,9.0737445E2,2.1868013E3,1.4996312E1,2.2237991E1,5.9450214E1,1.7476931E0,6.9935565E0,1.2732797E1,1.4994409E0,8.612124E1,1.6905485E1,3.7600594E1,3.0660683E1,5.0218067E1,1.7426758E1,2.7334752E0],"tree_param":{"num_deleted":"0","num_feature":"12","num_nodes":"89","size_leaf_vector":"1"}},{"base_weights":[-2.668863E-4,-3.770854E-1,4.3166852E-1,-1.6539836E-1,-9.2237204E-1,6.363364E-1,-1.0582505E-1,-5.1308614E-1,-8.0495946E-2,-1.0558138E0,-5.5478597E-1,3.8843185E-1,7.094101E-1,-6.5134573E-1,9.263384E-2,-7.072222E-1,-4.1965076E-1,-3.6485955E-1,1.102454E-2,-1.271744E0,-9.980209E-1,-1.1068223E0,-4.2897162E-1,4.9023363E-1,-3.767161E-1,9.537741E-2,6.919558E-1,-5.737278E-1,-1.4004474E0,-1.1539941E-2,3.2358631E-1,-8.5681635E-1,-4.2057532E-1,1.1265274E0,-4.6313247E-1,-4.6040758E-1,2.3449006E-2,-5.6834705E-2,2.8795874E-1,3.2796126E-3,-1.2782105E0,-7.042772E-2,-9.6469456E-1,5.0756354E-2,-5.8556635E-2,-3.411547E-1,-1.3553619E0,4.1248125E-1,9.3925565E-2,-5.859502E-1,4.1426282E-2,-2.7910545E-1,7.087125E-1,-8.316498E-1,-3.8724914E-1,-7.129732E-2,-9.785282E-3,-4.3034574E-1,7.581029E-2,8.6853914E-2,2.708505E-1,-4.831378E-2,-1.1866263E-2,5.769254E-2,-2.3851313E-2,8.636768E-2,-1.0577708E-2,-2.0517243E-2,-4.1883815E-2,-4.2549387E-2,-2.027515E-2,1.5232108E-2,-8.342658E-3,-1.4268481E-3,-2.822871E-2,9.3441345E-2,1.1236718E-2,-7.53237E-2,-5.8876134E-2,-4.6167534E-2,-6.4503945E-2,8.172627E-2,-1.897131E-2,2.2931023E-4,-7.616045E-2,2.3621485E-2,-1.743923E-2,-6.3387565E-2,-1.9991629E-2,1.577954E-2,-2.7978126E-2,5.5483575E-3,-2.9806366E-2,9.4272666E-2,3.463074E-2,8.8418415E-4,-4.4176586E-2,7.630766E-2,-2.2066822E-2,1.3537823E-2,-3.6105923E-2,5.9869275E-3,-3.6950212E-2,2.0220043E-2,-6.346012E-3],"categories":[],"categories_nodes":[],"categories_segments":[],"categories_sizes":[],"default_left":[0,0,0,0,0,0,0,0,0,0,0,0,0,0,0,0,0,0,0,0,0,0,0,0,0,0,0,0,0,0,0,0,0,0,0,0,0,0,0,0,0,0,0,0,0,0,0,0,0,0,0,0,0,0,0,0,0,0,0,0,0,0,0,0,0,0,0,0,0,0,0,0,0,0,0,0,0,0,0,0,0,0,0,0,0,0,0,0,0,0,0,0,0,0,0,0,0,0,0,0,0,0,0,0,0],"id":3,"left_children":[1,3,5,7,9,11,13,15,17,19,21,23,25,27,29,31,33,35,37,39,41,43,45,47,49,-1,51,53,55,57,59,61,63,65,67,69,71,73,75,-1,77,-1,79,-1,-1,81,83,85,-1,87,89,91,93,95,97,-1,-1,99,101,-1,103,-1,-1,-1,-1,-1,-1,-1,-1,-1,-1,-1,-1,-1,-1,-1,-1,-1,-1,-1,-1,-1,-1,-1,-1,-1,-1,-1,-1,-1,-1,-1,-1,-1,-1,-1,-1,-1,-1,-1,-1,-1,-1,-1,-1],"loss_changes":[2.569681E3,9.725393E2,8.0956104E2,1.7902869E2,1.1364221E2,9.54187E1,2.2011925E2,2.0452087E1,1.2740373E2,1.7866943E1,4.224649E1,9.537431E1,8.20332E1,2.893689E1,3.5992294E1,1.5038559E1,5.5228027E1,4.4450867E1,6.965653E1,3.8468018E0,1.4877563E1,1.821521E1,4.049038E1,1.13586334E2,1.289217E1,0E0,6.660193E1,2.2572311E1,1.3388062E-1,3.780272E1,3.267784E1,1.576976E1,1.2868326E1,1.9536077E1,1.4316483E1,1.921315E1,1.2808761E1,4.2357983E1,7.104917E1,0E0,3.248291E0,0E0,1.3692505E1,0E0,0E0,3.673214E1,1.0775047E1,4.70791E1,0E0,1.0422852E1,8.30367E0,8.997178E0,7.164075E1,9.497482E0,3.1062534E1,0E0,0E0,3.7125793E1,3.0300451E1,0E0,2.4172009E1,0E0,0E0,0E0,0E0,0E0,0E0,0E0,0E0,0E0,0E0,0E0,0E0,0E0,0E0,0E0,0E0,0E0,0E0,0E0,0E0,0E0,0E0,0E0,0E0,0E0,0E0,0E0,0E0,0E0,0E0,0E0,0E0,0E0,0E0,0E0,0E0,0E0,0E0,0E0,0E0,0E0,0E0,0E0,0E0],"parents":[2147483647,0,0,1,1,2,2,3,3,4,4,5,5,6,6,7,7,8,8,9,9,10,10,11,11,12,12,13,13,14,14,15,15,16,16,17,17,18,18,19,19,20,20,21,21,22,22,23,23,24,24,26,26,27,27,28,28,29,29,30,30,31,31,32,32,33,33,34,34,35,35,36,36,37,37,38,38,40,40,42,42,45,45,46,46,47,47,49,49,50,50,51,51,52,52,53,53,54,54,57,57,58,58,60,60],"right_children":[2,4,6,8,10,12,14,16,18,20,22,24,26,28,30,32,34,36,38,40,42,44,46,48,50,-1,52,54,56,58,60,62,64,66,68,70,72,74,76,-1,78,-1,80,-1,-1,82,84,86,-1,88,90,92,94,96,98,-1,-1,100,102,-1,104,-1,-1,-1,-1,-1,-1,-1,-1,-1,-1,-1,-1,-1,-1,-1,-1,-1,-1,-1,-1,-1,-1,-1,-1,-1,-1,-1,-1,-1,-1,-1,-1,-1,-1,-1,-1,-1,-1,-1,-1,-1,-1,-1,-1],"split_conditions":[1.28E2,1E0,1E0,2.3148148E1,8.032053E1,6.520272E1,7.214258E1,7.9E1,1.2E2,2.2546576E1,2.747563E1,6.5E1,6.6E1,2.5951557E1,9.044729E1,5.9193214E1,8E1,8.032053E1,8.109787E1,1E2,1.4494776E0,8.1E1,3.3749454E1,6.423381E1,2.6107433E1,9.537741E-2,6.619866E1,6.520272E1,1.6E2,1.4522732E0,9.1E1,4.9214676E1,6E1,1.5189873E0,2.3011177E1,6.0098576E1,8.5E1,8E1,8.2E1,3.2796126E-3,7.9574196E1,-7.042772E-2,2.747563E1,5.0756354E-2,-5.8556635E-2,2.770083E1,1.4588207E0,6.4E1,9.3925565E-2,1.5333333E0,2.8125E1,2.5458065E1,6.7E1,1.4059454E0,6.6E1,-7.129732E-2,-9.785282E-3,1.4416255E0,9E1,8.6853914E-2,3.3648453E1,-4.831378E-2,-1.1866263E-2,5.769254E-2,-2.3851313E-2,8.636768E-2,-1.0577708E-2,-2.0517243E-2,-4.1883815E-2,-4.2549387E-2,-2.027515E-2,1.5232108E-2,-8.342658E-3,-1.4268481E-3,-2.822871E-2,9.3441345E-2,1.1236718E-2,-7.53237E-2,-5.8876134E-2,-4.6167534E-2,-6.4503945E-2,8.172627E-2,-1.897131E-2,2.2931023E-4,-7.616045E-2,2.3621485E-2,-1.743923E-2,-6.3387565E-2,-1.9991629E-2,1.577954E-2,-2.7978126E-2,5.5483575E-3,-2.9806366E-2,9.4272666E-2,3.463074E-2,8.8418415E-4,-4.4176586E-2,7.630766E-2,-2.2066822E-2,1.3537823E-2,-3.6105923E-2,5.9869275E-3,-3.6950212E-2,2.0220043E-2,-6.346012E-3],"split_indices":[7,0,0,10,3,3,3,8,7,10,10,3,3,10,3,3,8,3,3,7,9,3,10,3,10,0,3,3,7,9,3,11,3,9,10,3,3,3,3,0,8,0,10,0,0,10,9,3,0,9,10,10,3,9,3,0,0,9,3,0,10,0,0,0,0,0,0,0,0,0,0,0,0,0,0,0,0,0,0,0,0,0,0,0,0,0,0,0,0,0,0,0,0,0,0,0,0,0,0,0,0,0,0,0,0],"split_type":[0,0,0,0,0,0,0,0,0,0,0,0,0,0,0,0,0,0,0,0,0,0,0,0,0,0,0,0,0,0,0,0,0,0,0,0,0,0,0,0,0,0,0,0,0,0,0,0,0,0,0,0,0,0,0,0,0,0,0,0,0,0,0,0,0,0,0,0,0,0,0,0,0,0,0,0,0,0,0,0,0,0,0,0,0,0,0,0,0,0,0,0,0,0,0,0,0,0,0,0,0,0,0,0,0],"sum_hessian":[1.5784206E4,8.430707E3,7.353499E3,6.075606E3,2.3551016E3,5.326012E3,2.0274868E3,1.1892948E3,4.886311E3,1.724108E3,6.309934E2,1.2169501E3,4.109062E3,5.402931E2,1.4871937E3,3.8040845E2,8.088863E2,1.1895978E3,3.6967134E3,3.5332538E2,1.3707827E3,1.1348522E2,5.175082E2,1.0752604E3,1.4168971E2,5.5479492E1,4.0535828E3,4.933718E2,4.6921318E1,1.024718E3,4.6247577E2,2.4620006E2,1.3420837E2,2.0448193E1,7.884381E2,9.5542114E2,2.3417667E2,2.9689849E3,7.277284E2,1.2401813E0,3.520852E2,9.5599205E1,1.2751835E3,2.23974E0,1.11245476E2,4.756914E2,4.181679E1,1.0210305E3,5.422981E1,9.46973E1,4.6992413E1,6.7724976E1,3.9858577E3,2.0299916E2,2.9037262E2,4.518275E1,1.7385669E0,1.7647395E2,8.48244E2,1.3995337E1,4.4848044E2,2.0759325E2,3.860681E1,2.9931066E0,1.3121527E2,1.3968074E1,6.480119E0,6.95887E2,9.255108E1,1.1305632E2,8.423648E2,9.509246E1,1.3908421E2,2.815184E3,1.5380093E2,2.5484564E1,7.0224384E2,9.7701805E1,2.543834E2,1.1395963E3,1.3558714E2,7.206191E0,4.684852E2,4.4805403E0,3.733625E1,9.4780786E2,7.322269E1,1.7238447E1,7.745886E1,3.349437E1,1.3498042E1,3.0239817E1,3.748516E1,5.023717E1,3.9356206E3,1.1207514E1,1.9179166E2,6.2319665E0,2.8414066E2,5.1398533E1,1.25075424E2,8.070539E2,4.1190136E1,3.366686E2,1.1181181E2],"tree_param":{"num_deleted":"0","num_feature":"12","num_nodes":"105","size_leaf_vector":"1"}},{"base_weights":[-3.0764827E-4,1.9880551E-1,-5.195664E-1,-4.0593155E-2,5.463446E-1,-7.807892E-1,-1.3735758E-1,-4.8687375E-1,1.6983643E-1,9.123891E-1,4.200591E-1,-1.0635713E0,-4.77969E-1,-6.8425846E-1,1.1038092E-1,1.6793424E-2,-6.4408064E-1,5.946352E-1,2.0493189E-2,-4.7882712E-1,9.4437784E-1,-8.8369805E-1,4.51927E-1,-1.1667701E0,-5.9895056E-1,-1.2357317E0,-3.7049586E-1,-9.5478636E-1,-3.7130645E-1,-5.163717E-1,3.127092E-1,-5.6581414E-1,1.6718033E-1,-8.941979E-1,-4.2732543E-1,-1.509819E-1,7.087028E-1,3.3451495E-1,-8.684833E-2,-6.3198484E-2,-1.231937E-1,9.650152E-1,-8.515445E-2,-1.1525533E0,3.5383612E-1,4.8111358E-1,-7.7089566E-1,-1.3927009E0,-1.0763772E0,-9.1174275E-1,-9.4173364E-2,-1.3427653E0,-8.958079E-1,-5.137175E-1,6.2734164E-2,-1.5025169E0,-8.405463E-1,9.1178365E-2,-5.284725E-1,8.055354E-2,-5.970822E-1,-2.0619023E-1,4.909563E-1,6.9769584E-3,-4.8782196E-2,1.3224122E-2,-2.0257218E-2,-5.2967258E-2,-2.7844274E-2,-2.5453432E-2,1.3608082E-2,-1.5627244E-2,1.5427898E-2,3.6746234E-2,-2.1334818E-2,-1.0794497E-2,3.0299133E-2,-1.5549222E-2,3.422369E-3,7.776979E-3,-3.2636475E-2,3.765867E-2,5.4856688E-2,-5.65036E-2,1.2095255E-2,3.5200458E-2,-6.3299105E-2,-1.4971512E-3,3.376309E-2,1.6293107E-2,3.1282146E-2,-6.460632E-2,-2.21168E-2,-5.2985128E-2,-7.317489E-2,-6.498654E-2,-4.6490896E-2,-1.5873266E-2,-5.0489258E-2,-3.7489347E-2,1.4162995E-2,-5.2640915E-2,-7.425267E-2,4.001233E-2,-5.0196238E-2,7.111847E-2,-2.6380239E-2,3.2065984E-2,-7.7866814E-3,-2.454876E-3,-7.680734E-2,-6.2089473E-2,-3.3259522E-2,-3.6199886E-2,7.92713E-3,-5.509412E-2,-1.881095E-2,7.414562E-2,-1.5459279E-2,9.0021506E-2,2.1890705E-2],"categories":[],"categories_nodes":[],"categories_segments":[],"categories_sizes":[],"default_left":[0,0,0,0,0,0,0,0,0,0,0,0,0,0,0,0,0,0,0,0,0,0,0,0,0,0,0,0,0,0,0,0,0,0,0,0,0,0,0,0,0,0,0,0,0,0,0,0,0,0,0,0,0,0,0,0,0,0,0,0,0,0,0,0,0,0,0,0,0,0,0,0,0,0,0,0,0,0,0,0,0,0,0,0,0,0,0,0,0,0,0,0,0,0,0,0,0,0,0,0,0,0,0,0,0,0,0,0,0,0,0,0,0,0,0,0,0,0,0,0,0],"id":4,"left_children":[1,3,5,7,9,11,13,15,17,19,21,23,25,27,29,31,33,35,37,39,41,43,45,47,49,51,53,55,57,59,61,63,65,67,69,71,73,75,77,-1,79,81,83,85,87,89,91,93,95,97,99,101,103,105,107,109,111,-1,113,-1,115,117,119,-1,-1,-1,-1,-1,-1,-1,-1,-1,-1,-1,-1,-1,-1,-1,-1,-1,-1,-1,-1,-1,-1,-1,-1,-1,-1,-1,-1,-1,-1,-1,-1,-1,-1,-1,-1,-1,-1,-1,-1,-1,-1,-1,-1,-1,-1,-1,-1,-1,-1,-1,-1,-1,-1,-1,-1,-1,-1],"loss_changes":[1.6304193E3,9.4851086E2,4.3574622E2,6.34153E2,2.1349402E2,2.2045459E2,2.4131029E2,1.7167676E2,2.9069214E2,5.4091187E1,1.4440424E2,6.1949585E1,1.0071042E2,4.5628967E1,1.5551836E2,4.519536E1,8.8028564E1,1.01898254E2,1.146878E2,6.7351823E0,2.5339233E1,2.8795685E1,1.21253235E2,1.8091797E1,3.855345E1,2.106842E0,6.884955E1,1.4801178E1,9.149617E1,5.275953E1,8.614385E1,3.1225224E1,2.3105263E1,4.0524048E1,5.1218857E1,1.2019593E1,3.1596375E1,1.2999953E2,8.829782E1,0E0,3.6594162E0,2.9382935E1,9.27465E0,1.657341E1,2.3359575E0,7.32417E1,1.1549461E1,2.8031616E0,2.23656E1,7.5837708E0,2.488257E1,2.494049E-1,9.812843E0,2.341011E1,3.5259182E1,1.3892136E0,1.4978119E1,0E0,3.3532303E1,0E0,3.0738762E1,4.1712234E1,4.5443085E1,0E0,0E0,0E0,0E0,0E0,0E0,0E0,0E0,0E0,0E0,0E0,0E0,0E0,0E0,0E0,0E0,0E0,0E0,0E0,0E0,0E0,0E0,0E0,0E0,0E0,0E0,0E0,0E0,0E0,0E0,0E0,0E0,0E0,0E0,0E0,0E0,0E0,0E0,0E0,0E0,0E0,0E0,0E0,0E0,0E0,0E0,0E0,0E0,0E0,0E0,0E0,0E0,0E0,0E0,0E0,0E0,0E0,0E0],"parents":[2147483647,0,0,1,1,2,2,3,3,4,4,5,5,6,6,7,7,8,8,9,9,10,10,11,11,12,12,13,13,14,14,15,15,16,16,17,17,18,18,19,19,20,20,21,21,22,22,23,23,24,24,25,25,26,26,27,27,28,28,29,29,30,30,31,31,32,32,33,33,34,34,35,35,36,36,37,37,38,38,40,40,41,41,42,42,43,43,44,44,45,45,46,46,47,47,48,48,49,49,50,50,51,51,52,52,53,53,54,54,55,55,56,56,58,58,60,60,61,61,62,62],"right_children":[2,4,6,8,10,12,14,16,18,20,22,24,26,28,30,32,34,36,38,40,42,44,46,48,50,52,54,56,58,60,62,64,66,68,70,72,74,76,78,-1,80,82,84,86,88,90,92,94,96,98,100,102,104,106,108,110,112,-1,114,-1,116,118,120,-1,-1,-1,-1,-1,-1,-1,-1,-1,-1,-1,-1,-1,-1,-1,-1,-1,-1,-1,-1,-1,-1,-1,-1,-1,-1,-1,-1,-1,-1,-1,-1,-1,-1,-1,-1,-1,-1,-1,-1,-1,-1,-1,-1,-1,-1,-1,-1,-1,-1,-1,-1,-1,-1,-1,-1,-1,-1],"split_conditions":[1E0,4.53472E1,4.53472E1,5.1E1,1E0,5.4E1,1.680728E2,1E0,1E0,4.2E1,4.2E1,2.9136316E1,1.6209593E2,1.6518471E2,2.4977043E1,1.5811905E2,4.6E1,2.3148148E1,1.5E0,2.3916878E1,6.4E1,1.75E0,6.4E1,2.3278555E1,1.7248506E2,1.6004793E2,2.8732164E1,4.9E1,1.66E2,1.69E2,5.1E1,1.4924266E0,1.5235137E0,1.6518471E2,3.2882416E1,1.680728E2,6.4E1,3.8E1,5.6E1,-6.3198484E-2,2.8305996E1,5.5E1,2.677551E1,5E1,2.770083E1,5.6E1,1.5811905E2,1E0,4.6E1,2.9721079E1,4.8E1,5.8E1,1.61E2,1.63E2,1E0,1.5505537E2,1.6004793E2,9.1178365E-2,6.1E1,8.055354E-2,2.2888966E1,5E1,1.69E2,6.9769584E-3,-4.8782196E-2,1.3224122E-2,-2.0257218E-2,-5.2967258E-2,-2.7844274E-2,-2.5453432E-2,1.3608082E-2,-1.5627244E-2,1.5427898E-2,3.6746234E-2,-2.1334818E-2,-1.0794497E-2,3.0299133E-2,-1.5549222E-2,3.422369E-3,7.776979E-3,-3.2636475E-2,3.765867E-2,5.4856688E-2,-5.65036E-2,1.2095255E-2,3.5200458E-2,-6.3299105E-2,-1.4971512E-3,3.376309E-2,1.6293107E-2,3.1282146E-2,-6.460632E-2,-2.21168E-2,-5.2985128E-2,-7.317489E-2,-6.498654E-2,-4.6490896E-2,-1.5873266E-2,-5.0489258E-2,-3.7489347E-2,1.4162995E-2,-5.2640915E-2,-7.425267E-2,4.001233E-2,-5.0196238E-2,7.111847E-2,-2.6380239E-2,3.2065984E-2,-7.7866814E-3,-2.454876E-3,-7.680734E-2,-6.2089473E-2,-3.3259522E-2,-3.6199886E-2,7.92713E-3,-5.509412E-2,-1.881095E-2,7.414562E-2,-1.5459279E-2,9.0021506E-2,2.1890705E-2],"split_indices":[0,11,11,1,6,1,2,6,6,1,1,10,2,2,10,2,1,10,9,10,1,9,1,10,2,2,10,1,2,2,1,9,9,2,10,2,1,11,1,0,10,1,10,11,10,1,2,6,1,10,1,1,2,2,6,2,2,0,1,0,10,11,2,0,0,0,0,0,0,0,0,0,0,0,0,0,0,0,0,0,0,0,0,0,0,0,0,0,0,0,0,0,0,0,0,0,0,0,0,0,0,0,0,0,0,0,0,0,0,0,0,0,0,0,0,0,0,0,0,0,0],"split_type":[0,0,0,0,0,0,0,0,0,0,0,0,0,0,0,0,0,0,0,0,0,0,0,0,0,0,0,0,0,0,0,0,0,0,0,0,0,0,0,0,0,0,0,0,0,0,0,0,0,0,0,0,0,0,0,0,0,0,0,0,0,0,0,0,0,0,0,0,0,0,0,0,0,0,0,0,0,0,0,0,0,0,0,0,0,0,0,0,0,0,0,0,0,0,0,0,0,0,0,0,0,0,0,0,0,0,0,0,0,0,0,0,0,0,0,0,0,0,0,0,0],"sum_hessian":[1.5763863E4,1.1394745E4,4.369118E3,6.74728E3,4.6474653E3,2.593311E3,1.7758071E3,2.1619497E3,4.58533E3,1.1878928E3,3.4595725E3,1.3375723E3,1.2557389E3,5.5316003E2,1.2226471E3,5.139469E2,1.6480028E3,1.1902933E3,3.3950366E3,2.5720465E1,1.1621724E3,8.08952E1,3.3786775E3,1.0911206E3,2.464517E2,1.5279265E2,1.1029462E3,2.936329E2,2.5952713E2,2.9701324E2,9.2563385E2,1.03629745E2,4.1031717E2,7.611464E2,8.868564E2,1.5726703E2,1.0330264E3,8.6498773E2,2.530049E3,5.987489E0,1.9732975E1,1.139933E3,2.2239412E1,6.690205E1,1.3993158E1,3.3014985E3,7.717884E1,3.0198486E2,7.891357E2,1.5055515E2,9.589655E1,1.1059707E2,4.219557E1,8.295031E2,2.7344308E2,4.572419E1,2.479087E2,1.5712342E1,2.4381479E2,9.243635E0,2.877696E2,2.358696E2,6.897643E2,3.8120316E1,6.550943E1,3.5236093E2,5.795623E1,5.0710553E2,2.5404092E2,7.9518866E2,9.1667755E1,1.1763665E2,3.9630383E1,1.0108273E3,2.2199095E1,2.852357E2,5.797521E2,1.036008E3,1.494041E3,1.3234837E1,6.498138E0,4.4446075E2,6.9547217E2,4.495401E0,1.774401E1,2.998717E0,6.3903328E1,6.495595E0,7.497563E0,1.5965135E3,1.704985E3,2.698397E1,5.0194866E1,5.978412E1,2.4220073E2,3.0506854E2,4.8406717E2,2.324332E1,1.2731182E2,3.479982E1,6.1096733E1,4.309427E1,6.75028E1,1.484222E0,4.071135E1,4.2065034E0,8.2529663E2,7.451547E1,1.9892761E2,1.4815612E0,4.424263E1,7.082807E1,1.7708064E2,1.9028079E2,5.3533985E1,8.446849E1,2.033011E2,1.1736879E1,2.2413272E2,2.3969347E1,6.657949E2],"tree_param":{"num_deleted":"0","num_feature":"12","num_nodes":"121","size_leaf_vector":"1"}},{"base_weights":[-4.0313293E-4,-6.243522E-1,1.3588232E-1,-7.947166E-1,-6.322299E-2,1.957774E-1,-1.0512027E0,-7.3378867E-1,-1.4512544E0,4.5130038E-1,-2.4334718E-1,4.5899425E-2,5.044341E-1,-9.187847E-1,-6.968276E-2,-1.0422615E0,-6.120137E-1,-1.464008E0,-0E0,-6.110335E-1,5.6947196E-1,-8.2730514E-1,-8.557218E-2,4.413083E-1,-8.7691605E-2,5.3619283E-1,-7.057731E-1,-1.0771952E0,-6.013492E-1,-1.1952026E0,-8.645678E-1,-2.730478E-1,-7.1617043E-1,-7.5533085E-2,-9.432648E-1,-8.907514E-1,-6.186301E-2,6.69085E-1,-5.509691E-1,-0E0,-9.3296415E-1,-5.584139E-1,1.4104962E-1,1.3381565E-1,6.2555045E-1,-3.838609E-1,6.536708E-2,8.4358203E-1,4.349294E-1,-0E0,-9.1190064E-1,-1.1959991E0,-5.359772E-1,-9.272725E-1,-4.2319787E-1,-3.5201628E-2,-6.528258E-2,7.877161E-2,-4.6585985E-2,-8.971989E-3,-5.4879695E-2,-4.0721994E-2,-2.0827008E-2,-0E0,-5.7819404E-2,-0E0,-5.1116783E-2,2.0088917E-2,-2.8685672E-2,2.2127345E-2,5.442196E-2,-5.5329677E-2,-1.5950429E-3,-3.2383278E-2,1.6985625E-2,-5.3320955E-3,-4.8599612E-2,-2.0037238E-2,-7.55807E-2,1.0008126E-2,-4.6944268E-2,-2.529344E-2,1.0236308E-2,3.384798E-2,-3.946892E-2,-2.9700784E-2,-1.3228692E-2,-7.7737505E-3,1.2812604E-2,5.5585254E-2,3.3991825E-2,2.2951454E-2,-2.6579186E-2,-5.732754E-2,1.4643374E-2,-5.5428352E-2,-3.0215075E-2,-6.458366E-2,-5.1358975E-2,-2.5865316E-4,-3.700047E-2,-9.145088E-3,-5.242732E-2,-1.3564254E-2,-5.3890195E-2],"categories":[],"categories_nodes":[],"categories_segments":[],"categories_sizes":[],"default_left":[0,0,0,0,0,0,0,0,0,0,0,0,0,0,0,0,0,0,0,0,0,0,0,0,0,0,0,0,0,0,0,0,0,0,0,0,0,0,0,0,0,0,0,0,0,0,0,0,0,0,0,0,0,0,0,0,0,0,0,0,0,0,0,0,0,0,0,0,0,0,0,0,0,0,0,0,0,0,0,0,0,0,0,0,0,0,0,0,0,0,0,0,0,0,0,0,0,0,0,0,0,0,0,0,0],"id":5,"left_children":[1,3,5,7,9,11,13,15,17,19,21,23,25,27,-1,29,31,33,-1,35,37,39,41,43,45,47,49,51,53,55,57,59,61,-1,63,65,67,69,71,73,75,77,79,81,83,85,87,89,91,93,95,97,99,101,103,-1,-1,-1,-1,-1,-1,-1,-1,-1,-1,-1,-1,-1,-1,-1,-1,-1,-1,-1,-1,-1,-1,-1,-1,-1,-1,-1,-1,-1,-1,-1,-1,-1,-1,-1,-1,-1,-1,-1,-1,-1,-1,-1,-1,-1,-1,-1,-1,-1,-1],"loss_changes":[1.3388802E3,2.6931177E2,9.18563E2,8.335889E1,6.1307735E1,5.6873193E2,2.4418762E1,7.2476685E1,4.0532227E0,2.216587E1,4.4646675E1,4.3781583E2,1.5515778E2,2.0713074E1,0E0,1.206604E1,4.9582153E1,2.9162598E-1,0E0,2.1290112E0,1.81531E1,8.827164E0,4.2106007E1,1.18036865E2,2.809176E2,1.2058984E2,1.5331184E1,1.7111359E1,7.646534E0,1.3057434E1,4.633252E1,2.5237795E1,3.0833008E1,0E0,4.425419E0,9.366951E-1,2.6159008E0,1.1963226E1,3.220181E0,3.5912426E0,2.2063828E0,1.69674E1,1.6872622E1,3.5792427E1,9.610864E1,5.2182495E1,1.7225641E2,4.0072876E1,6.922632E1,8.762224E0,2.6602707E0,1.156311E-1,5.9333744E0,3.7634392E0,9.289507E0,0E0,0E0,0E0,0E0,0E0,0E0,0E0,0E0,0E0,0E0,0E0,0E0,0E0,0E0,0E0,0E0,0E0,0E0,0E0,0E0,0E0,0E0,0E0,0E0,0E0,0E0,0E0,0E0,0E0,0E0,0E0,0E0,0E0,0E0,0E0,0E0,0E0,0E0,0E0,0E0,0E0,0E0,0E0,0E0,0E0,0E0,0E0,0E0,0E0,0E0],"parents":[2147483647,0,0,1,1,2,2,3,3,4,4,5,5,6,6,7,7,8,8,9,9,10,10,11,11,12,12,13,13,15,15,16,16,17,17,19,19,20,20,21,21,22,22,23,23,24,24,25,25,26,26,27,27,28,28,29,29,30,30,31,31,32,32,34,34,35,35,36,36,37,37,38,38,39,39,40,40,41,41,42,42,43,43,44,44,45,45,46,46,47,47,48,48,49,49,50,50,51,51,52,52,53,53,54,54],"right_children":[2,4,6,8,10,12,14,16,18,20,22,24,26,28,-1,30,32,34,-1,36,38,40,42,44,46,48,50,52,54,56,58,60,62,-1,64,66,68,70,72,74,76,78,80,82,84,86,88,90,92,94,96,98,100,102,104,-1,-1,-1,-1,-1,-1,-1,-1,-1,-1,-1,-1,-1,-1,-1,-1,-1,-1,-1,-1,-1,-1,-1,-1,-1,-1,-1,-1,-1,-1,-1,-1,-1,-1,-1,-1,-1,-1,-1,-1,-1,-1,-1,-1,-1,-1,-1,-1,-1,-1],"split_conditions":[4.8E1,8.262963E1,1E0,1E0,1E0,8.931081E1,1E0,7.5737915E1,3.706931E1,2.3675392E1,4.2E1,1E0,6.4E1,8.931081E1,-6.968276E-2,1.6411754E2,1E0,3.0713085E1,-0E0,1.7334622E2,1E0,1.557003E2,2.6107433E1,5.5E1,2.4691359E1,1E0,1E0,2.978535E1,1.6716673E2,1E0,1.65E2,1.75E2,2.8732164E1,-7.5533085E-2,3.123141E1,4E1,1.7797742E2,1.7021227E2,1.6904213E2,2.8305996E1,9E1,1E2,1E0,1.5611942E2,6.4E1,5.4E1,5.6E1,1.6E2,1E0,1.5217549E2,2.8577961E1,5.7E1,1E0,2.3278555E1,3.0103806E1,-3.5201628E-2,-6.528258E-2,7.877161E-2,-4.6585985E-2,-8.971989E-3,-5.4879695E-2,-4.0721994E-2,-2.0827008E-2,-0E0,-5.7819404E-2,-0E0,-5.1116783E-2,2.0088917E-2,-2.8685672E-2,2.2127345E-2,5.442196E-2,-5.5329677E-2,-1.5950429E-3,-3.2383278E-2,1.6985625E-2,-5.3320955E-3,-4.8599612E-2,-2.0037238E-2,-7.55807E-2,1.0008126E-2,-4.6944268E-2,-2.529344E-2,1.0236308E-2,3.384798E-2,-3.946892E-2,-2.9700784E-2,-1.3228692E-2,-7.7737505E-3,1.2812604E-2,5.5585254E-2,3.3991825E-2,2.2951454E-2,-2.6579186E-2,-5.732754E-2,1.4643374E-2,-5.5428352E-2,-3.0215075E-2,-6.458366E-2,-5.1358975E-2,-2.5865316E-4,-3.700047E-2,-9.145088E-3,-5.242732E-2,-1.3564254E-2,-5.3890195E-2],"split_indices":[1,8,4,4,6,8,5,8,10,10,1,6,1,8,0,2,6,10,0,2,4,2,10,1,10,6,6,10,2,6,2,2,10,0,10,1,2,2,2,10,8,8,5,2,1,1,1,2,5,2,10,1,6,10,10,0,0,0,0,0,0,0,0,0,0,0,0,0,0,0,0,0,0,0,0,0,0,0,0,0,0,0,0,0,0,0,0,0,0,0,0,0,0,0,0,0,0,0,0,0,0,0,0,0,0],"split_type":[0,0,0,0,0,0,0,0,0,0,0,0,0,0,0,0,0,0,0,0,0,0,0,0,0,0,0,0,0,0,0,0,0,0,0,0,0,0,0,0,0,0,0,0,0,0,0,0,0,0,0,0,0,0,0,0,0,0,0,0,0,0,0,0,0,0,0,0,0,0,0,0,0,0,0,0,0,0,0,0,0,0,0,0,0,0,0,0,0,0,0,0,0,0,0,0,0,0,0,0,0,0,0,0,0],"sum_hessian":[1.5738147E4,2.820714E3,1.2917434E4,2.1624497E3,6.582645E2,1.2298973E4,6.1846075E2,1.9833848E3,1.790648E2,1.6918942E2,4.8907513E2,8.281531E3,4.017441E3,4.5236737E2,1.660934E2,5.5592535E2,1.4274595E3,1.7781497E2,1.2498305E0,1.5677737E1,1.5351167E2,1.0155241E2,3.875227E2,2.0911592E3,6.1903726E3,3.9161978E3,1.012433E2,2.9752896E2,1.5483841E2,2.9110483E2,2.648205E2,3.383576E2,1.0891019E3,1.5882378E2,1.8991201E1,8.959697E0,6.718041E0,1.4212772E2,1.1383969E1,1.1985414E1,8.956699E1,1.2532106E2,2.6220166E2,7.858216E2,1.3053375E3,2.109238E3,4.0811345E3,9.655708E2,2.950627E3,2.2962786E1,7.828052E1,2.4123203E2,5.629693E1,5.0759205E1,1.0407921E2,5.69816E1,2.3412323E2,5.6903677E0,2.5913013E2,3.0659277E2,3.1764845E1,8.1628186E2,2.7282004E2,3.7150028E0,1.5276199E1,1.74346E0,7.2162366E0,3.238137E0,3.4799037E0,9.57213E1,4.640641E1,3.939738E0,7.4442315E0,3.7436607E0,8.241753E0,4.954028E0,8.461297E1,1.1042157E2,1.4899488E1,2.5057796E2,1.16237E1,7.648958E1,7.0933203E2,1.2609205E3,4.4416954E1,7.5933075E2,1.3499072E3,1.8910541E3,2.1900806E3,3.6055417E2,6.0501666E2,2.880373E3,7.025372E1,3.2486582E0,1.9714127E1,4.358236E1,3.4698154E1,1.4359137E2,9.7640656E1,1.6881031E1,3.9415897E1,8.391573E0,4.236763E1,8.739121E1,1.6687992E1],"tree_param":{"num_deleted":"0","num_feature":"12","num_nodes":"105","size_leaf_vector":"1"}},{"base_weights":[-5.750421E-4,-3.3643174E-1,3.8323742E-1,-1.4671448E-1,-8.3088E-1,4.5340368E-1,-8.51324E-1,-2.1751632E-1,2.0429924E-1,-7.361373E-1,-1.2851896E0,5.7713646E-1,6.309635E-2,-6.817136E-1,-6.394344E-2,-4.7534442E-1,-1.2303814E-1,8.886384E-2,1.6953291E-1,-8.67738E-1,-3.7327394E-1,-6.6712074E-2,-6.408621E-1,5.95075E-1,-7.8194064E-1,-4.5700097E-1,2.4220483E-1,-9.547501E-1,-4.1341427E-1,-8.16039E-1,-3.631135E-1,-1.07559584E-1,-1.3847269E0,1.9566213E-1,-1.2154402E0,-1.18303E0,-8.165538E-1,-9.133865E-1,-2.581332E-1,6.551952E-2,-4.2599153E-2,3.56618E-1,6.6565794E-1,-4.3856785E-1,-1.0356957E0,-3.7606654E-1,-6.1843198E-2,1.4194839E0,2.2300294E-1,-5.342032E-2,-9.829459E-1,3.4742936E-1,-5.9715694E-1,6.6293715E-3,-4.237452E-2,8.469706E-2,-1.9257983E-2,-1.78176E-2,-2.0115331E-3,-7.313053E-2,-1.31704705E-2,-3.0574093E-2,1.1942727E-2,-6.6547304E-2,-0E0,-4.2445943E-2,-6.264407E-2,7.381987E-2,-4.136173E-2,4.969621E-2,-4.955136E-2,-6.288153E-3,-4.8276998E-2,2.1098347E-2,-2.321033E-2,2.2664068E-2,-1.840253E-2,8.910435E-2,3.245361E-2,-3.3042073E-2,8.541044E-3,-6.730766E-2,-3.47085E-2,-3.2577585E-2,-9.028693E-3,-0E0,7.697957E-2,8.270431E-2,1.0468715E-2,3.0135462E-2,-2.4990506E-2,-6.1030824E-2,-4.0686022E-2,2.7705366E-2,-2.674951E-2,-4.4031154E-2,-9.980767E-3],"categories":[],"categories_nodes":[],"categories_segments":[],"categories_sizes":[],"default_left":[0,0,0,0,0,0,0,0,0,0,0,0,0,0,0,0,0,0,0,0,0,0,0,0,0,0,0,0,0,0,0,0,0,0,0,0,0,0,0,0,0,0,0,0,0,0,0,0,0,0,0,0,0,0,0,0,0,0,0,0,0,0,0,0,0,0,0,0,0,0,0,0,0,0,0,0,0,0,0,0,0,0,0,0,0,0,0,0,0,0,0,0,0,0,0,0,0],"id":6,"left_children":[1,3,5,7,9,11,13,15,17,19,21,23,25,27,-1,29,31,-1,33,35,37,-1,39,41,43,45,47,49,51,53,55,57,59,61,63,65,67,69,71,73,-1,75,77,79,81,83,-1,85,87,89,91,93,95,-1,-1,-1,-1,-1,-1,-1,-1,-1,-1,-1,-1,-1,-1,-1,-1,-1,-1,-1,-1,-1,-1,-1,-1,-1,-1,-1,-1,-1,-1,-1,-1,-1,-1,-1,-1,-1,-1,-1,-1,-1,-1,-1,-1],"loss_changes":[2.0262538E3,7.857252E2,6.359723E2,1.5075703E2,9.711438E1,3.3487805E2,2.5904114E1,1.2252083E2,5.4061993E1,9.081433E1,9.861572E0,1.2932031E2,1.5607944E2,1.9607422E1,0E0,5.0486755E1,7.116597E1,0E0,3.607865E1,1.9864258E1,3.1140198E1,0E0,5.3786764E0,8.658362E1,4.380043E0,2.5331985E1,2.6744759E1,2.9391708E0,2.1453287E1,1.0491608E1,4.6960556E1,6.1002724E1,2.2311172E0,3.4323895E1,2.764574E0,1.2904053E0,3.2072388E1,1.5211121E1,3.950563E1,2.0383465E0,0E0,8.403102E1,7.073511E1,5.0346932E0,1.0828247E0,2.045953E1,0E0,3.8786888E0,2.2368904E1,2.5733998E0,2.4369507E0,6.0436153E0,1.2829567E1,0E0,0E0,0E0,0E0,0E0,0E0,0E0,0E0,0E0,0E0,0E0,0E0,0E0,0E0,0E0,0E0,0E0,0E0,0E0,0E0,0E0,0E0,0E0,0E0,0E0,0E0,0E0,0E0,0E0,0E0,0E0,0E0,0E0,0E0,0E0,0E0,0E0,0E0,0E0,0E0,0E0,0E0,0E0,0E0],"parents":[2147483647,0,0,1,1,2,2,3,3,4,4,5,5,6,6,7,7,8,8,9,9,10,10,11,11,12,12,13,13,15,15,16,16,18,18,19,19,20,20,22,22,23,23,24,24,25,25,26,26,27,27,28,28,29,29,30,30,31,31,32,32,33,33,34,34,35,35,36,36,37,37,38,38,39,39,41,41,42,42,43,43,44,44,45,45,47,47,48,48,49,49,50,50,51,51,52,52],"right_children":[2,4,6,8,10,12,14,16,18,20,22,24,26,28,-1,30,32,-1,34,36,38,-1,40,42,44,46,48,50,52,54,56,58,60,62,64,66,68,70,72,74,-1,76,78,80,82,84,-1,86,88,90,92,94,96,-1,-1,-1,-1,-1,-1,-1,-1,-1,-1,-1,-1,-1,-1,-1,-1,-1,-1,-1,-1,-1,-1,-1,-1,-1,-1,-1,-1,-1,-1,-1,-1,-1,-1,-1,-1,-1,-1,-1,-1,-1,-1,-1,-1],"split_conditions":[1.28E2,1E0,1E0,8.032053E1,1E0,1E0,1E0,1.2E2,8.1E1,8.032053E1,9.2252625E1,1E0,7.214258E1,7.802012E1,-6.394344E-2,5.9193214E1,1E0,8.886384E-2,1E0,6.0098576E1,2.747563E1,-6.6712074E-2,3.0427198E1,6.520272E1,2.903179E1,2.5951557E1,8E1,5.3E1,2.6722872E1,7E1,6E1,2.3148148E1,3.0863035E1,8.109787E1,3.6571335E1,1.9723183E1,6.1E1,8.1E1,3.28125E1,9.5779816E1,-4.2599153E-2,6.5E1,6.6E1,2.7434843E1,8.430373E1,6.520272E1,-6.1843198E-2,2.869898E1,7.3E1,1E0,8.931081E1,8.5E1,9.044729E1,6.6293715E-3,-4.237452E-2,8.469706E-2,-1.9257983E-2,-1.78176E-2,-2.0115331E-3,-7.313053E-2,-1.31704705E-2,-3.0574093E-2,1.1942727E-2,-6.6547304E-2,-0E0,-4.2445943E-2,-6.264407E-2,7.381987E-2,-4.136173E-2,4.969621E-2,-4.955136E-2,-6.288153E-3,-4.8276998E-2,2.1098347E-2,-2.321033E-2,2.2664068E-2,-1.840253E-2,8.910435E-2,3.245361E-2,-3.3042073E-2,8.541044E-3,-6.730766E-2,-3.47085E-2,-3.2577585E-2,-9.028693E-3,-0E0,7.697957E-2,8.270431E-2,1.0468715E-2,3.0135462E-2,-2.4990506E-2,-6.1030824E-2,-4.0686022E-2,2.7705366E-2,-2.674951E-2,-4.4031154E-2,-9.980767E-3],"split_indices":[7,0,4,3,4,0,5,7,3,3,3,5,3,3,0,3,5,0,5,3,10,0,10,3,10,10,8,3,10,8,3,10,10,3,10,10,3,3,10,3,0,3,3,10,3,3,0,10,3,0,8,3,3,0,0,0,0,0,0,0,0,0,0,0,0,0,0,0,0,0,0,0,0,0,0,0,0,0,0,0,0,0,0,0,0,0,0,0,0,0,0,0,0,0,0,0,0],"split_type":[0,0,0,0,0,0,0,0,0,0,0,0,0,0,0,0,0,0,0,0,0,0,0,0,0,0,0,0,0,0,0,0,0,0,0,0,0,0,0,0,0,0,0,0,0,0,0,0,0,0,0,0,0,0,0,0,0,0,0,0,0,0,0,0,0,0,0,0,0,0,0,0,0,0,0,0,0,0,0,0,0,0,0,0,0,0,0,0,0,0,0,0,0,0,0,0,0],"sum_hessian":[1.571503E4,8.381934E3,7.3330967E3,6.060251E3,2.3216829E3,6.940315E3,3.927821E2,5.044855E3,1.01539624E3,1.9263077E3,3.9537497E2,5.268036E3,1.6722784E3,2.8577237E2,1.0700973E2,1.3493003E3,3.6955544E3,1.9478586E1,9.959176E2,1.4105712E3,5.1573663E2,3.6469382E2,3.0681133E1,5.2008813E3,6.715467E1,4.268607E2,1.2454178E3,1.3817601E2,1.4759634E2,3.3013284E2,1.0191674E3,3.6533022E3,4.2252377E1,9.795163E2,1.6401312E1,1.8946735E2,1.2211038E3,8.742544E1,4.283112E2,6.8322783E0,2.3848856E1,1.1922334E3,4.0086482E3,3.1694185E1,3.5460487E1,3.899927E2,3.6867992E1,1.7228695E1,1.2281891E3,4.904886E0,1.3327113E2,2.7834803E1,1.1976155E2,9.8776655E0,3.202552E2,8.958161E0,1.0102093E3,7.746863E2,2.878616E3,3.8522095E1,3.7302792E0,4.7829407E1,9.316869E2,1.4906648E1,1.494664E0,3.854839E1,1.5091896E2,4.172062E0,1.2169318E3,2.2444882E0,8.518095E1,3.6337814E2,6.4933044E1,4.8915415E0,1.9407369E0,1.0531879E3,1.3904552E2,5.5123047E1,3.9535251E3,2.3700933E1,7.9932523E0,1.4726471E1,2.0734015E1,1.5887923E2,2.3111346E2,1.2467921E0,1.5981902E1,8.969018E0,1.2192201E3,1.2488236E0,3.6560621E0,4.902994E1,8.424119E1,2.3614597E1,4.220206E0,6.775846E1,5.200309E1],"tree_param":{"num_deleted":"0","num_feature":"12","num_nodes":"97","size_leaf_vector":"1"}},{"base_weights":[-6.5729365E-4,1.7652246E-1,-4.6612847E-1,-3.4226786E-2,4.8264456E-1,-7.339479E-1,-1.2882338E-1,-1.4100203E-1,5.557824E-1,-1.22849956E-1,5.3500414E-1,-6.3194185E-1,-1.2037727E0,-4.331387E-1,1.7226546E-1,-4.4661775E-1,-6.2329635E-2,5.8687675E-1,-7.6970327E-1,-4.5571886E-2,-7.2630835E-1,5.527203E-1,-8.1192976E-1,-7.8299856E-1,-3.2120177E-1,-6.485213E-2,-9.06517E-1,-2.9933986E-1,-1.0737269E0,2.992969E-1,-5.064405E-1,-8.1341416E-1,-3.3928597E-1,-1.3155328E-1,2.5448593E-1,5.1740396E-1,9.260561E-1,2.5322463E-3,-8.4050316E-1,-4.4720078E-1,1.0810381E-1,9.448046E-1,-9.957898E-1,3.3188984E-1,6.198407E-1,-8.708191E-1,2.1161534E-2,-1.1282687E0,-7.229845E-1,-8.547354E-1,-1.1456595E-1,-7.177686E-1,-1.2361318E0,9.0655416E-2,-3.3470947E-1,3.357602E-2,-1.0984086E0,-3.0736303E-1,4.2539743E-1,4.1116756E-1,-5.8508563E-1,1.0808323E-2,-4.2773653E-2,7.5262554E-2,-1.7850744E-2,3.747525E-2,-7.541042E-3,8.501087E-2,1.1076626E-2,2.7759675E-2,-3.2017257E-2,8.4002554E-2,3.985143E-2,-9.816937E-3,-4.5486096E-2,-5.680252E-3,-4.3681066E-2,2.671714E-2,-2.1666612E-3,5.951785E-2,-0E0,-7.617174E-2,-2.402295E-2,2.0714903E-2,-1.3313244E-2,8.447028E-2,3.023692E-2,-4.9233004E-2,-1.1475494E-2,-5.7748444E-2,-2.7341614E-2,7.481535E-2,-3.6785845E-2,-6.458366E-2,-3.2406803E-2,-2.3222675E-3,-5.792142E-2,-5.8389466E-2,-2.3977105E-2,-3.2162935E-2,-6.827948E-2,-2.5929606E-2,5.1853773E-3,-6.1296877E-2,-3.2752823E-2,-3.457408E-2,-2.1987718E-3,-3.4771796E-2,2.4101885E-2,-2.6076005E-3,5.9178967E-2,-2.1561082E-2,-4.811793E-2],"categories":[],"categories_nodes":[],"categories_segments":[],"categories_sizes":[],"default_left":[0,0,0,0,0,0,0,0,0,0,0,0,0,0,0,0,0,0,0,0,0,0,0,0,0,0,0,0,0,0,0,0,0,0,0,0,0,0,0,0,0,0,0,0,0,0,0,0,0,0,0,0,0,0,0,0,0,0,0,0,0,0,0,0,0,0,0,0,0,0,0,0,0,0,0,0,0,0,0,0,0,0,0,0,0,0,0,0,0,0,0,0,0,0,0,0,0,0,0,0,0,0,0,0,0,0,0,0,0,0,0,0,0],"id":7,"left_children":[1,3,5,7,9,11,13,15,17,19,21,23,25,27,29,31,33,35,37,39,41,43,45,47,49,-1,51,53,55,57,59,61,63,65,67,69,71,-1,73,75,77,79,81,83,85,87,-1,89,91,93,95,97,99,-1,101,-1,103,105,107,109,111,-1,-1,-1,-1,-1,-1,-1,-1,-1,-1,-1,-1,-1,-1,-1,-1,-1,-1,-1,-1,-1,-1,-1,-1,-1,-1,-1,-1,-1,-1,-1,-1,-1,-1,-1,-1,-1,-1,-1,-1,-1,-1,-1,-1,-1,-1,-1,-1,-1,-1,-1,-1],"loss_changes":[1.2937559E3,7.331589E2,3.9011133E2,4.2387003E2,1.4722266E2,1.1304639E2,1.7597762E2,1.3674329E2,4.3298706E1,1.6784838E1,1.0255298E2,9.2117004E1,8.378967E0,8.05291E1,8.33553E1,4.4749786E1,9.950449E1,2.2089325E1,1.881258E0,2.066676E1,2.0412066E1,6.1538696E1,5.021061E0,2.5067932E1,7.1394966E1,0E0,4.0827637E0,5.9759514E1,8.735718E0,6.261538E1,1.1550446E1,1.2005432E1,3.0128914E1,6.3177986E1,3.701526E1,3.7550064E1,1.2401382E1,0E0,1.10054016E-1,1.2503351E1,1.5768515E1,1.2816672E0,7.4906654E0,4.8984406E1,4.8916992E1,2.9066353E0,0E0,8.761749E-1,3.410681E1,1.3742477E1,3.3012074E1,6.159542E0,2.2136688E-2,0E0,6.3383583E1,0E0,6.6331024E0,1.3797577E1,4.34599E1,5.229204E0,6.686943E0,0E0,0E0,0E0,0E0,0E0,0E0,0E0,0E0,0E0,0E0,0E0,0E0,0E0,0E0,0E0,0E0,0E0,0E0,0E0,0E0,0E0,0E0,0E0,0E0,0E0,0E0,0E0,0E0,0E0,0E0,0E0,0E0,0E0,0E0,0E0,0E0,0E0,0E0,0E0,0E0,0E0,0E0,0E0,0E0,0E0,0E0,0E0,0E0,0E0,0E0,0E0,0E0],"parents":[2147483647,0,0,1,1,2,2,3,3,4,4,5,5,6,6,7,7,8,8,9,9,10,10,11,11,12,12,13,13,14,14,15,15,16,16,17,17,18,18,19,19,20,20,21,21,22,22,23,23,24,24,26,26,27,27,28,28,29,29,30,30,31,31,32,32,33,33,34,34,35,35,36,36,38,38,39,39,40,40,41,41,42,42,43,43,44,44,45,45,47,47,48,48,49,49,50,50,51,51,52,52,54,54,56,56,57,57,58,58,59,59,60,60],"right_children":[2,4,6,8,10,12,14,16,18,20,22,24,26,28,30,32,34,36,38,40,42,44,46,48,50,-1,52,54,56,58,60,62,64,66,68,70,72,-1,74,76,78,80,82,84,86,88,-1,90,92,94,96,98,100,-1,102,-1,104,106,108,110,112,-1,-1,-1,-1,-1,-1,-1,-1,-1,-1,-1,-1,-1,-1,-1,-1,-1,-1,-1,-1,-1,-1,-1,-1,-1,-1,-1,-1,-1,-1,-1,-1,-1,-1,-1,-1,-1,-1,-1,-1,-1,-1,-1,-1,-1,-1,-1,-1,-1,-1,-1,-1],"split_conditions":[1E0,4.53472E1,7.802012E1,8.931081E1,7.5737915E1,1E0,4.53472E1,7.5737915E1,1E0,1.6995122E2,1E0,4.53472E1,8.931081E1,1E0,1E0,5.9193214E1,8.032053E1,1.680728E2,1.5022511E2,6.3230827E1,5.6861202E1,6.520272E1,1.7812347E2,6.0098576E1,1.6518471E2,-6.485213E-2,1E0,7.9E1,7.9E1,1.680728E2,7.993712E1,7E1,6E1,8E1,8.1E1,1.68E2,1.69E2,2.5322463E-3,6.496838E1,1.59E2,6.7E1,1.7142378E2,1.7021227E2,6.5E1,6.6E1,9.5E1,2.1161534E-2,1.7334622E2,6.1E1,1.6004793E2,1.7797742E2,1.66197E2,6.520272E1,9.0655416E-2,9.2252625E1,3.357602E-2,9.2252625E1,1.6518471E2,7.5737915E1,7.920498E1,1E0,1.0808323E-2,-4.2773653E-2,7.5262554E-2,-1.7850744E-2,3.747525E-2,-7.541042E-3,8.501087E-2,1.1076626E-2,2.7759675E-2,-3.2017257E-2,8.4002554E-2,3.985143E-2,-9.816937E-3,-4.5486096E-2,-5.680252E-3,-4.3681066E-2,2.671714E-2,-2.1666612E-3,5.951785E-2,-0E0,-7.617174E-2,-2.402295E-2,2.0714903E-2,-1.3313244E-2,8.447028E-2,3.023692E-2,-4.9233004E-2,-1.1475494E-2,-5.7748444E-2,-2.7341614E-2,7.481535E-2,-3.6785845E-2,-6.458366E-2,-3.2406803E-2,-2.3222675E-3,-5.792142E-2,-5.8389466E-2,-2.3977105E-2,-3.2162935E-2,-6.827948E-2,-2.5929606E-2,5.1853773E-3,-6.1296877E-2,-3.2752823E-2,-3.457408E-2,-2.1987718E-3,-3.4771796E-2,2.4101885E-2,-2.6076005E-3,5.9178967E-2,-2.1561082E-2,-4.811793E-2],"split_indices":[0,11,3,8,8,4,11,8,5,2,5,11,8,4,4,3,3,2,2,3,3,3,2,3,2,0,5,3,3,2,3,8,3,8,3,2,2,0,3,2,3,2,2,3,3,8,0,2,3,2,2,2,3,0,3,0,3,2,8,3,5,0,0,0,0,0,0,0,0,0,0,0,0,0,0,0,0,0,0,0,0,0,0,0,0,0,0,0,0,0,0,0,0,0,0,0,0,0,0,0,0,0,0,0,0,0,0,0,0,0,0,0,0],"split_type":[0,0,0,0,0,0,0,0,0,0,0,0,0,0,0,0,0,0,0,0,0,0,0,0,0,0,0,0,0,0,0,0,0,0,0,0,0,0,0,0,0,0,0,0,0,0,0,0,0,0,0,0,0,0,0,0,0,0,0,0,0,0,0,0,0,0,0,0,0,0,0,0,0,0,0,0,0,0,0,0,0,0,0,0,0,0,0,0,0,0,0,0,0,0,0,0,0,0,0,0,0,0,0,0,0,0,0,0,0,0,0,0,0],"sum_hessian":[1.5681449E4,1.1358173E4,4.3232764E3,6.7270737E3,4.6310996E3,2.4077192E3,1.915557E3,5.698223E3,1.0288505E3,3.6762173E2,4.263478E3,1.9829462E3,4.2477295E2,9.530637E2,9.624933E2,1.163338E3,4.5348853E3,1.00672546E3,2.2124954E1,3.2853018E2,3.909154E1,4.2096587E3,5.3818943E1,1.3311836E3,6.517626E2,3.1692303E2,1.0784993E2,7.914663E2,1.6159743E2,8.1231024E2,1.5018304E2,2.5932013E2,9.040179E2,3.7239553E3,8.109298E2,8.4099316E2,1.6573232E2,1.2419426E0,2.088301E1,9.07611E1,2.3776909E2,4.4748135E0,3.4616726E1,9.857649E2,3.223894E3,5.231925E1,1.4996953E0,1.9061499E2,1.1405686E3,1.7952821E2,4.7223434E2,7.3584885E1,3.4265045E1,1.1145437E1,7.8032086E2,1.2400587E0,1.6035736E2,1.3861314E2,6.736971E2,1.0686155E1,1.3949689E2,9.3860855E0,2.4993404E2,6.7402806E0,8.972776E2,7.751757E1,3.6464377E3,1.5478881E1,7.95451E2,8.158366E2,2.5156544E1,2.013763E1,1.455947E2,3.4716415E0,1.741137E1,5.300209E1,3.775901E1,6.187073E1,1.7589836E2,2.9835553E0,1.4912583E0,1.469148E1,1.9925247E1,8.676753E2,1.180896E2,4.13394E1,3.1825547E3,4.2860497E1,9.45875E0,1.7953772E2,1.1077273E1,4.9529114E0,1.1356157E3,5.3486057E1,1.2604215E2,4.4571573E2,2.6518637E1,2.2042582E1,5.1542305E1,8.9727745E0,2.5292273E1,5.502905E2,2.3003036E2,1.20917656E2,3.9439713E1,5.428951E1,8.432363E1,3.0897333E1,6.4279974E2,7.44064E0,3.2455156E0,1.0307208E2,3.6424805E1],"tree_param":{"num_deleted":"0","num_feature":"12","num_nodes":"113","size_leaf_vector":"1"}},{"base_weights":[-7.050529E-4,-3.0645943E-1,3.4819594E-1,-5.7314557E-1,2.6080025E-2,4.121092E-1,-7.863227E-1,-9.0682083E-1,-4.242631E-1,7.206926E-2,-1.011919E0,4.3713385E-1,-6.5763694E-1,-6.281523E-1,-5.9507083E-2,-8.605815E-1,-1.4038857E0,-3.7278277E-1,-1.2924882E0,1.1423653E-1,-9.290165E-1,-7.5568306E-1,-6.298536E-2,1.7968588E-1,5.330723E-1,-3.2301217E-1,-8.6203665E-1,-8.8506544E-1,-3.7774998E-1,-1.0532458E0,-7.337861E-1,-7.1256444E-2,-1.5249355E-1,-4.3068206E-1,-2.8177788E-2,-6.889128E-2,-9.1284823E-1,1.3235739E-1,-1.124762E0,-1.0079994E0,-8.182112E-2,-1.1056889E0,-8.763001E-2,-5.43886E-1,2.5211713E-1,5.5266315E-1,-4.9693772E-1,-2.1541469E-1,-6.0812052E-2,-6.6825426E-1,-1.2268524E0,-7.136905E-2,-7.414322E-1,5.4566838E-2,-4.2367825E-1,-6.343613E-2,-4.406714E-2,8.502579E-2,-3.8115196E-2,-2.5414288E-2,8.2305055E-3,-1.5440953E-2,-2.8414944E-2,8.5113645E-2,-4.239239E-3,6.4264606E-3,-5.462558E-2,2.033768E-3,1.9456899E-2,-6.0088843E-2,-1.0399131E-2,-8.331071E-3,-5.2126892E-2,-1.5688935E-2,3.2625567E-2,-2.6456857E-2,-6.4222336E-2,8.836772E-3,-4.861967E-2,-6.894863E-4,-3.5444956E-2,-7.31155E-3,1.720981E-2,2.1908833E-2,3.5149872E-2,-3.4143414E-2,-0E0,-2.5659068E-2,3.7653956E-3,-4.6498284E-2,-1.4360532E-2,-1.6444616E-2,-6.458582E-2,-5.307253E-2,-2.5913114E-2,-4.407131E-2,-1.5586196E-2],"categories":[],"categories_nodes":[],"categories_segments":[],"categories_sizes":[],"default_left":[0,0,0,0,0,0,0,0,0,0,0,0,0,0,0,0,0,0,0,0,0,0,0,0,0,0,0,0,0,0,0,0,0,0,0,0,0,0,0,0,0,0,0,0,0,0,0,0,0,0,0,0,0,0,0,0,0,0,0,0,0,0,0,0,0,0,0,0,0,0,0,0,0,0,0,0,0,0,0,0,0,0,0,0,0,0,0,0,0,0,0,0,0,0,0,0,0],"id":8,"left_children":[1,3,5,7,9,11,13,15,17,19,21,23,25,27,-1,29,31,33,35,37,39,41,-1,43,45,47,49,51,53,55,57,-1,59,61,63,-1,65,67,69,71,73,75,77,79,81,83,85,87,-1,89,91,-1,93,-1,95,-1,-1,-1,-1,-1,-1,-1,-1,-1,-1,-1,-1,-1,-1,-1,-1,-1,-1,-1,-1,-1,-1,-1,-1,-1,-1,-1,-1,-1,-1,-1,-1,-1,-1,-1,-1,-1,-1,-1,-1,-1,-1],"loss_changes":[1.6694409E3,7.400353E2,5.3039154E2,2.2857031E2,1.7693973E2,1.8572058E2,2.2507568E1,2.9218384E1,1.4151099E2,1.5000507E2,7.0703278E0,1.6651074E2,9.693443E0,1.705893E1,0E0,2.9572632E1,1.8933258E0,6.0204346E1,2.1095886E0,7.650981E1,8.896065E0,1.8682373E1,0E0,9.659662E1,9.995911E1,4.9342685E0,4.21978E0,7.578354E0,1.0644094E1,1.5725891E1,5.75531E1,0E0,8.5699034E-1,4.2693665E1,4.2507618E1,0E0,8.188904E0,7.90794E1,2.2592468E0,2.843155E0,2.7881126E0,3.2978363E0,8.061432E0,1.4270367E1,6.1644356E1,8.202234E1,8.553162E0,5.513135E0,0E0,5.6555977E0,9.409714E-2,0E0,6.2729263E0,0E0,6.3487606E0,0E0,0E0,0E0,0E0,0E0,0E0,0E0,0E0,0E0,0E0,0E0,0E0,0E0,0E0,0E0,0E0,0E0,0E0,0E0,0E0,0E0,0E0,0E0,0E0,0E0,0E0,0E0,0E0,0E0,0E0,0E0,0E0,0E0,0E0,0E0,0E0,0E0,0E0,0E0,0E0,0E0,0E0],"parents":[2147483647,0,0,1,1,2,2,3,3,4,4,5,5,6,6,7,7,8,8,9,9,10,10,11,11,12,12,13,13,15,15,16,16,17,17,18,18,19,19,20,20,21,21,23,23,24,24,25,25,26,26,27,27,28,28,29,29,30,30,32,32,33,33,34,34,36,36,37,37,38,38,39,39,40,40,41,41,42,42,43,43,44,44,45,45,46,46,47,47,49,49,50,50,52,52,54,54],"right_children":[2,4,6,8,10,12,14,16,18,20,22,24,26,28,-1,30,32,34,36,38,40,42,-1,44,46,48,50,52,54,56,58,-1,60,62,64,-1,66,68,70,72,74,76,78,80,82,84,86,88,-1,90,92,-1,94,-1,96,-1,-1,-1,-1,-1,-1,-1,-1,-1,-1,-1,-1,-1,-1,-1,-1,-1,-1,-1,-1,-1,-1,-1,-1,-1,-1,-1,-1,-1,-1,-1,-1,-1,-1,-1,-1,-1,-1,-1,-1,-1,-1],"split_conditions":[1.28E2,5.5E1,1E0,4.6E1,6.4E1,6.4E1,1E0,1E0,1E0,1E0,1.6495276E2,5.2E1,1.3889374E2,7.802012E1,-5.9507083E-2,1.6309195E2,1.84E2,8.307093E1,8.230199E1,1E0,9.367777E1,1.6133066E2,-6.298536E-2,4.2E1,1E0,1.74685E2,1.67E2,4.9E1,7.9E1,1.2E2,1.64E2,-7.1256444E-2,8.613557E1,1.65E2,8.4E1,-6.889128E-2,8.4E1,7.802012E1,9.2252625E1,1.1E2,6.3E1,1.5419395E2,7.1794205E1,1.5E0,6.520272E1,7.802012E1,1.7142378E2,1.6411754E2,-6.0812052E-2,7.420422E1,1.5009674E0,-7.136905E-2,1.6518471E2,5.4566838E-2,1.4476329E0,-6.343613E-2,-4.406714E-2,8.502579E-2,-3.8115196E-2,-2.5414288E-2,8.2305055E-3,-1.5440953E-2,-2.8414944E-2,8.5113645E-2,-4.239239E-3,6.4264606E-3,-5.462558E-2,2.033768E-3,1.9456899E-2,-6.0088843E-2,-1.0399131E-2,-8.331071E-3,-5.2126892E-2,-1.5688935E-2,3.2625567E-2,-2.6456857E-2,-6.4222336E-2,8.836772E-3,-4.861967E-2,-6.894863E-4,-3.5444956E-2,-7.31155E-3,1.720981E-2,2.1908833E-2,3.5149872E-2,-3.4143414E-2,-0E0,-2.5659068E-2,3.7653956E-3,-4.6498284E-2,-1.4360532E-2,-1.6444616E-2,-6.458582E-2,-5.307253E-2,-2.5913114E-2,-4.407131E-2,-1.5586196E-2],"split_indices":[7,1,4,1,1,1,5,4,4,4,2,1,7,3,0,2,2,3,3,5,3,2,0,1,5,2,2,1,3,7,2,0,3,2,3,0,3,3,3,7,1,2,3,9,3,3,2,2,0,3,9,0,2,0,9,0,0,0,0,0,0,0,0,0,0,0,0,0,0,0,0,0,0,0,0,0,0,0,0,0,0,0,0,0,0,0,0,0,0,0,0,0,0,0,0,0,0],"split_type":[0,0,0,0,0,0,0,0,0,0,0,0,0,0,0,0,0,0,0,0,0,0,0,0,0,0,0,0,0,0,0,0,0,0,0,0,0,0,0,0,0,0,0,0,0,0,0,0,0,0,0,0,0,0,0,0,0,0,0,0,0,0,0,0,0,0,0,0,0,0,0,0,0,0,0,0,0,0,0,0,0,0,0,0,0,0,0,0,0,0,0,0,0,0,0,0,0],"sum_hessian":[1.5645539E4,8.339241E3,7.306298E3,4.6278823E3,3.7113591E3,6.9182705E3,3.880275E2,1.4236528E3,3.2042295E3,3.5561445E3,1.552145E2,6.7617427E3,1.5652786E2,2.833805E2,1.0464702E2,1.3084072E3,1.1524567E2,3.0281157E3,1.761137E2,3.4145881E3,1.415565E2,8.128037E1,7.393412E1,1.8386732E3,4.9230693E3,6.224036E1,9.4287506E1,1.363842E2,1.4699629E2,5.1194928E2,7.9645795E2,1.1265605E2,2.5896187E0,2.5908584E3,4.3725726E2,1.3842273E2,3.769096E1,3.3675266E3,4.7061546E1,1.2859772E2,1.2958792E1,5.198553E1,2.929484E1,1.6549495E2,1.6731782E3,4.832566E3,9.0503555E1,5.8264027E1,3.9763336E0,6.617227E1,2.8115234E1,2.408606E1,1.1229814E2,2.7461576E0,1.4425012E2,2.2022821E2,2.9172104E2,7.6616235E0,7.887963E2,1.3951836E0,1.1944351E0,1.3794468E3,1.2114117E3,1.1729047E1,4.255282E2,5.220096E0,3.2470863E1,2.4846577E3,8.828689E2,4.23378E1,4.7237444E0,6.1008945E0,1.2249682E2,1.1235932E1,1.7228601E0,1.4839758E1,3.714577E1,2.3352524E1,5.942317E0,4.0520878E1,1.24974075E2,3.1290344E2,1.3602748E3,2.7496985E3,2.0828674E3,6.5330124E1,2.5173437E1,2.8876913E1,2.9387112E1,3.6742893E1,2.942938E1,3.231306E0,2.4883928E1,4.213089E1,7.016725E1,2.4768173E1,1.1948196E2],"tree_param":{"num_deleted":"0","num_feature":"12","num_nodes":"97","size_leaf_vector":"1"}},{"base_weights":[-8.5803104E-4,-2.9214174E-1,3.3124015E-1,-5.4710126E-1,2.4574395E-2,4.927084E-1,-9.27045E-2,-3.7940806E-1,-9.6509695E-1,1.9001974E-1,-4.476311E-1,8.052984E-1,3.8732406E-1,-5.892712E-1,1.22284316E-1,5.02586E-2,-5.178082E-1,-1.1686918E0,-8.462996E-1,6.265186E-1,2.7424507E-2,-7.5249773E-1,-2.3581639E-1,8.5728437E-1,5.061928E-1,4.117354E-1,-6.356015E-1,-8.5291E-1,-2.2955255E-1,9.091105E-2,5.910474E-2,-5.567657E-1,1.9801104E-1,-8.573011E-1,-3.8074479E-1,-8.576709E-1,-1.24288E0,-9.2969275E-1,-6.828278E-1,6.659481E-1,-5.33405E-1,6.381837E-2,-9.297245E-1,-1.1983438E0,-6.062305E-1,9.2345394E-2,-2.913793E-1,-2.7581686E-1,8.667987E-1,5.9778756E-1,-9.022471E-1,-5.2453333E-1,4.340685E-1,-1.1366564E0,-3.454649E-1,-6.665352E-2,-7.196993E-1,-7.8841287E-1,1.3852632E-1,-5.7246E-2,1.3061135E-1,-4.720187E-2,-1.9280888E-2,-4.3452503E-3,1.894974E-2,-5.2024294E-2,-2.4839133E-2,-5.639732E-2,-1.7963314E-2,-6.877455E-2,-3.501452E-2,-6.387676E-2,-1.7343378E-2,-2.4747213E-2,-4.9495865E-2,6.588473E-2,-3.567558E-2,2.5449717E-2,3.7822645E-2,-1.9464473E-3,-5.665023E-2,9.069315E-3,-7.5541283E-3,-6.752803E-2,-3.9718103E-2,-4.1402277E-2,-6.741355E-2,-2.4579534E-2,-4.7531072E-2,-5.3809997E-2,-1.0597835E-2,-3.1084998E-2,3.1553578E-2,4.3815773E-2,1.5086645E-2,3.2504465E-2,-4.242953E-2,-7.376581E-2,2.7270094E-3,-3.5006553E-2,1.7514078E-2,1.8455345E-2,3.0998591E-2,-6.130138E-2,-1.4456305E-2,-1.341368E-3,-3.269677E-2,-1.5621267E-2,-4.2271387E-2,1.8926084E-2,-4.451038E-2,8.8533826E-2,-3.0133573E-4,9.6363924E-2,1.6728502E-3],"categories":[],"categories_nodes":[],"categories_segments":[],"categories_sizes":[],"default_left":[0,0,0,0,0,0,0,0,0,0,0,0,0,0,0,0,0,0,0,0,0,0,0,0,0,0,0,0,0,0,0,0,0,0,0,0,0,0,0,0,0,0,0,0,0,0,0,0,0,0,0,0,0,0,0,0,0,0,0,0,0,0,0,0,0,0,0,0,0,0,0,0,0,0,0,0,0,0,0,0,0,0,0,0,0,0,0,0,0,0,0,0,0,0,0,0,0,0,0,0,0,0,0,0,0,0,0,0,0,0,0,0,0,0,0],"id":9,"left_children":[1,3,5,7,9,11,13,15,17,19,21,23,25,27,29,31,33,35,37,39,41,43,45,47,49,51,53,55,57,-1,59,61,63,65,67,69,71,73,75,77,79,81,83,85,87,-1,89,91,93,95,97,99,101,103,105,-1,107,109,111,-1,113,-1,-1,-1,-1,-1,-1,-1,-1,-1,-1,-1,-1,-1,-1,-1,-1,-1,-1,-1,-1,-1,-1,-1,-1,-1,-1,-1,-1,-1,-1,-1,-1,-1,-1,-1,-1,-1,-1,-1,-1,-1,-1,-1,-1,-1,-1,-1,-1,-1,-1,-1,-1,-1,-1],"loss_changes":[1.5103632E3,6.7202576E2,4.996527E2,3.2170996E2,2.8996725E2,1.7284558E2,2.1526749E2,1.9616562E2,2.88844E1,1.948415E2,6.131711E1,1.9118652E1,9.9216E1,5.6843338E1,1.4946288E2,7.21036E1,1.1471008E2,7.86438E0,9.3880005E0,3.487393E1,6.959337E1,2.325888E1,6.64819E1,1.293512E1,2.7130505E1,8.1252625E1,1.1925579E1,1.9443192E1,5.4273315E1,0E0,1.1667068E2,9.022873E0,3.3642742E1,4.5366455E1,2.7017334E1,5.181343E0,1.0125732E1,1.2659821E1,1.9602554E1,8.857971E0,6.7983675E0,4.8976875E1,9.481697E-1,1.9051056E0,1.0213959E1,0E0,3.374457E1,4.065113E0,4.903015E0,1.5547867E1,7.9262238E0,1.4561213E1,4.4670532E1,9.8968506E-1,5.728934E0,0E0,1.3187836E1,1.3350006E1,3.8332264E1,0E0,2.2295296E2,0E0,0E0,0E0,0E0,0E0,0E0,0E0,0E0,0E0,0E0,0E0,0E0,0E0,0E0,0E0,0E0,0E0,0E0,0E0,0E0,0E0,0E0,0E0,0E0,0E0,0E0,0E0,0E0,0E0,0E0,0E0,0E0,0E0,0E0,0E0,0E0,0E0,0E0,0E0,0E0,0E0,0E0,0E0,0E0,0E0,0E0,0E0,0E0,0E0,0E0,0E0,0E0,0E0,0E0],"parents":[2147483647,0,0,1,1,2,2,3,3,4,4,5,5,6,6,7,7,8,8,9,9,10,10,11,11,12,12,13,13,14,14,15,15,16,16,17,17,18,18,19,19,20,20,21,21,22,22,23,23,24,24,25,25,26,26,27,27,28,28,30,30,31,31,32,32,33,33,34,34,35,35,36,36,37,37,38,38,39,39,40,40,41,41,42,42,43,43,44,44,46,46,47,47,48,48,49,49,50,50,51,51,52,52,53,53,54,54,56,56,57,57,58,58,60,60],"right_children":[2,4,6,8,10,12,14,16,18,20,22,24,26,28,30,32,34,36,38,40,42,44,46,48,50,52,54,56,58,-1,60,62,64,66,68,70,72,74,76,78,80,82,84,86,88,-1,90,92,94,96,98,100,102,104,106,-1,108,110,112,-1,114,-1,-1,-1,-1,-1,-1,-1,-1,-1,-1,-1,-1,-1,-1,-1,-1,-1,-1,-1,-1,-1,-1,-1,-1,-1,-1,-1,-1,-1,-1,-1,-1,-1,-1,-1,-1,-1,-1,-1,-1,-1,-1,-1,-1,-1,-1,-1,-1,-1,-1,-1,-1,-1,-1],"split_conditions":[1.28E2,5.5E1,1E0,1E0,1E0,1E0,1.680728E2,1E0,4.6E1,1E0,1.680728E2,1.5E2,6.4E1,5.8E1,1.69E2,1.5811905E2,4.6E1,1E0,1.7248506E2,6.4E1,6.4E1,1.6004793E2,1.69E2,4E1,1.69E2,4.2E1,1.5811905E2,4.8E1,1.6411754E2,9.091105E-2,1.6904213E2,4.6E1,4.9E1,1.6518471E2,1.5022511E2,1.2E2,1.82E2,1.61E2,1.73E2,1.6004793E2,1.6382886E2,1.65E2,1.2E2,5.8E1,1.68E2,9.2345394E-2,1.6904213E2,1.7509216E2,6.4E1,6.4E1,5.6E1,1.6923077E0,1.6518471E2,1.666669E0,1.3889374E2,-6.665352E-2,5.1E1,1.4059454E0,1.65E2,-5.7246E-2,1.7E2,-4.720187E-2,-1.9280888E-2,-4.3452503E-3,1.894974E-2,-5.2024294E-2,-2.4839133E-2,-5.639732E-2,-1.7963314E-2,-6.877455E-2,-3.501452E-2,-6.387676E-2,-1.7343378E-2,-2.4747213E-2,-4.9495865E-2,6.588473E-2,-3.567558E-2,2.5449717E-2,3.7822645E-2,-1.9464473E-3,-5.665023E-2,9.069315E-3,-7.5541283E-3,-6.752803E-2,-3.9718103E-2,-4.1402277E-2,-6.741355E-2,-2.4579534E-2,-4.7531072E-2,-5.3809997E-2,-1.0597835E-2,-3.1084998E-2,3.1553578E-2,4.3815773E-2,1.5086645E-2,3.2504465E-2,-4.242953E-2,-7.376581E-2,2.7270094E-3,-3.5006553E-2,1.7514078E-2,1.8455345E-2,3.0998591E-2,-6.130138E-2,-1.4456305E-2,-1.341368E-3,-3.269677E-2,-1.5621267E-2,-4.2271387E-2,1.8926084E-2,-4.451038E-2,8.8533826E-2,-3.0133573E-4,9.6363924E-2,1.6728502E-3],"split_indices":[7,1,0,0,0,6,2,6,1,6,2,7,1,1,2,2,1,6,2,1,1,2,2,1,2,1,2,1,2,0,2,1,1,2,2,7,2,2,2,2,2,2,7,1,2,0,2,2,1,1,1,9,2,9,7,0,1,9,2,0,2,0,0,0,0,0,0,0,0,0,0,0,0,0,0,0,0,0,0,0,0,0,0,0,0,0,0,0,0,0,0,0,0,0,0,0,0,0,0,0,0,0,0,0,0,0,0,0,0,0,0,0,0,0,0],"split_type":[0,0,0,0,0,0,0,0,0,0,0,0,0,0,0,0,0,0,0,0,0,0,0,0,0,0,0,0,0,0,0,0,0,0,0,0,0,0,0,0,0,0,0,0,0,0,0,0,0,0,0,0,0,0,0,0,0,0,0,0,0,0,0,0,0,0,0,0,0,0,0,0,0,0,0,0,0,0,0,0,0,0,0,0,0,0,0,0,0,0,0,0,0,0,0,0,0,0,0,0,0,0,0,0,0,0,0,0,0,0,0,0,0,0,0],"sum_hessian":[1.5609644E4,8.316754E3,7.292889E3,4.6076646E3,3.7090898E3,5.281988E3,2.0109015E3,3.2919846E3,1.31568E3,2.7483958E3,9.6069385E2,1.3272081E3,3.9547795E3,6.072229E2,1.4036787E3,8.01468E2,2.4905166E3,4.7674695E2,8.389331E2,7.435363E2,2.0048596E3,3.90778E2,5.699159E2,1.1260852E3,2.0112292E2,3.8642463E3,9.05334E1,3.4802344E2,2.5919943E2,4.8134247E1,1.3555444E3,1.5514632E2,6.463217E2,7.122309E2,1.7782856E3,9.795389E1,3.7879306E2,5.473012E2,2.9163193E2,7.203327E2,2.3203577E1,1.9337223E3,7.113727E1,9.213417E1,2.9864383E2,1.2899805E1,5.5701605E2,8.47294E0,1.1176123E3,1.9025618E2,1.0866755E1,8.845831E1,3.7757878E3,3.0427546E1,6.0105858E1,7.08555E1,2.7716794E2,1.0255815E2,1.5664128E2,7.3917076E1,1.2816273E3,4.3886696E1,1.1125961E2,2.5040125E2,3.9592044E2,4.6884488E2,2.4338602E2,4.6159637E1,1.732126E3,1.848311E1,7.947077E1,3.633308E2,1.5462242E1,6.984481E1,4.7745636E2,2.8920608E0,2.8873984E2,2.7031827E2,4.5001447E2,1.4340792E1,8.862785E0,1.2516232E3,6.8209906E2,1.2044126E1,5.9093143E1,3.127369E1,6.086048E1,2.2879117E2,6.985266E1,4.8303665E1,5.087124E2,6.9880176E0,1.4849235E0,1.0971477E3,2.0464611E1,1.850128E2,5.243379E0,6.4451246E0,4.42163E0,7.447932E1,1.397899E1,2.8044634E3,9.713244E2,2.6183407E1,4.244138E0,3.1432352E1,2.8673506E1,6.7962555E1,2.0920538E2,7.3982887E0,9.515986E1,1.11953E1,1.4544598E2,6.3551613E1,1.2180757E3],"tree_param":{"num_deleted":"0","num_feature":"12","num_nodes":"115","size_leaf_vector":"1"}},{"base_weights":[-9.70578E-4,1.5763101E-1,-4.2113793E-1,4.953811E-2,4.2002687E-1,-6.9418323E-1,-1.4552864E-1,-2.8013779E-2,2.9023778E-1,9.193607E-2,3.644396E-1,-6.0618937E-1,-1.1077168E0,-2.6154626E-2,-7.6042813E-1,3.1011475E-2,-4.4577765E-1,3.168855E-1,-5.6148255E-1,-6.687114E-1,4.1071448E-1,-8.3780575E-1,-4.9153835E-1,-5.1814377E-2,-6.265623E-2,-5.5099034E-1,9.5679045E-2,-6.041491E-1,-1.1371182E0,-6.210061E-2,4.463964E-1,-5.816035E-1,-1.6949952E-1,3.3132917E-1,-6.4218365E-2,-1.1996913E0,-4.8638992E-2,-8.194522E-1,-9.356604E-3,9.0905145E-2,3.5842913E-1,-7.0419836E-1,-1.2008818E0,9.2266545E-2,-5.2262604E-1,2.2803998E-1,-6.2724656E-1,8.5465565E-2,5.627678E-2,-8.3056444E-1,-3.9094293E-1,-1.1820369E0,-4.7203818E-1,-1.753223E-2,8.6595566E-4,8.7420054E-2,1.9015005E-2,-3.944162E-2,-2.0544205E-2,1.3020798E-2,-3.73042E-2,1.7416013E-2,-4.1565526E-2,-0E0,-7.097933E-2,2.3052981E-2,-4.9655743E-2,-1.1623895E-2,-4.9431376E-2,1.4973898E-2,-3.421518E-2,-1.9984314E-2,2.2271326E-2,-4.1864734E-2,9.981052E-2,-4.4355754E-2,-6.6945635E-2,-3.1610426E-2,-1.0735726E-2,-1.9824617E-2,2.6069665E-2,-4.819372E-2,-1.8535284E-2,-6.132781E-2,5.2716075E-3,-4.8012357E-2,-1.700843E-2,1.0283556E-3,-2.562413E-2,-6.764441E-2,-4.186144E-2,-4.9290057E-2,2.3536181E-2],"categories":[],"categories_nodes":[],"categories_segments":[],"categories_sizes":[],"default_left":[0,0,0,0,0,0,0,0,0,0,0,0,0,0,0,0,0,0,0,0,0,0,0,0,0,0,0,0,0,0,0,0,0,0,0,0,0,0,0,0,0,0,0,0,0,0,0,0,0,0,0,0,0,0,0,0,0,0,0,0,0,0,0,0,0,0,0,0,0,0,0,0,0,0,0,0,0,0,0,0,0,0,0,0,0,0,0,0,0,0,0,0,0],"id":10,"left_children":[1,3,5,7,9,11,13,15,17,-1,19,21,23,25,27,29,31,33,35,37,39,41,43,-1,-1,45,47,49,51,53,55,57,59,61,-1,63,65,67,69,-1,71,73,75,-1,77,79,81,-1,83,85,87,89,91,-1,-1,-1,-1,-1,-1,-1,-1,-1,-1,-1,-1,-1,-1,-1,-1,-1,-1,-1,-1,-1,-1,-1,-1,-1,-1,-1,-1,-1,-1,-1,-1,-1,-1,-1,-1,-1,-1,-1,-1],"loss_changes":[1.0376484E3,3.202794E2,3.2051062E2,1.4963165E2,2.5746808E2,7.575098E1,1.5570479E2,1.4958994E2,4.4563263E1,0E0,1.5218256E2,4.556067E1,1.2634277E-1,1.1441107E2,1.806894E1,2.0554303E2,2.7609406E1,4.4219482E1,1.8703058E1,1.3125484E1,2.2130695E2,2.5605927E1,8.782016E1,0E0,0E0,2.0516785E1,9.104548E1,1.0764145E1,9.8400116E-1,9.955963E1,8.135449E1,1.6492065E1,6.2989124E1,3.7490097E1,0E0,7.5315247E0,1.8250925E1,9.889084E0,6.442536E0,0E0,1.9388226E2,1.5786635E2,3.1295624E0,0E0,3.9036835E1,6.145409E0,2.523774E1,0E0,8.903321E1,6.1935883E0,6.9291344E0,1.9264526E0,6.14176E0,0E0,0E0,0E0,0E0,0E0,0E0,0E0,0E0,0E0,0E0,0E0,0E0,0E0,0E0,0E0,0E0,0E0,0E0,0E0,0E0,0E0,0E0,0E0,0E0,0E0,0E0,0E0,0E0,0E0,0E0,0E0,0E0,0E0,0E0,0E0,0E0,0E0,0E0,0E0,0E0],"parents":[2147483647,0,0,1,1,2,2,3,3,4,4,5,5,6,6,7,7,8,8,10,10,11,11,12,12,13,13,14,14,15,15,16,16,17,17,18,18,19,19,20,20,21,21,22,22,25,25,26,26,27,27,28,28,29,29,30,30,31,31,32,32,33,33,35,35,36,36,37,37,38,38,40,40,41,41,42,42,44,44,45,45,46,46,48,48,49,49,50,50,51,51,52,52],"right_children":[2,4,6,8,10,12,14,16,18,-1,20,22,24,26,28,30,32,34,36,38,40,42,44,-1,-1,46,48,50,52,54,56,58,60,62,-1,64,66,68,70,-1,72,74,76,-1,78,80,82,-1,84,86,88,90,92,-1,-1,-1,-1,-1,-1,-1,-1,-1,-1,-1,-1,-1,-1,-1,-1,-1,-1,-1,-1,-1,-1,-1,-1,-1,-1,-1,-1,-1,-1,-1,-1,-1,-1,-1,-1,-1,-1,-1,-1],"split_conditions":[1E0,7.802012E1,7.611502E1,1.5719382E0,7.9E1,1E0,1E0,1.5625E0,7.8E1,9.193607E-2,7.920498E1,1.6518471E2,1E0,1.680728E2,1E0,1.5009674E0,1.6411754E2,1E0,1.6209593E2,1.680728E2,8E1,1.65E2,1.66E2,-5.1814377E-2,-6.265623E-2,1.4059454E0,1.69E2,1.5009674E0,1.7142857E0,2.3148148E1,1.5189873E0,2.4660976E1,1.68E2,1E0,-6.4218365E-2,1.6043307E0,1.6260433E0,1.4653134E0,1.72E2,9.0905145E-2,8.032053E1,1.6411754E2,6.496838E1,9.2266545E-2,2.4977043E1,1.392405E0,1.6518471E2,8.5465565E-2,1.6904213E2,9.367777E1,2.6643599E1,2.9721079E1,1.7812347E2,-1.753223E-2,8.6595566E-4,8.7420054E-2,1.9015005E-2,-3.944162E-2,-2.0544205E-2,1.3020798E-2,-3.73042E-2,1.7416013E-2,-4.1565526E-2,-0E0,-7.097933E-2,2.3052981E-2,-4.9655743E-2,-1.1623895E-2,-4.9431376E-2,1.4973898E-2,-3.421518E-2,-1.9984314E-2,2.2271326E-2,-4.1864734E-2,9.981052E-2,-4.4355754E-2,-6.6945635E-2,-3.1610426E-2,-1.0735726E-2,-1.9824617E-2,2.6069665E-2,-4.819372E-2,-1.8535284E-2,-6.132781E-2,5.2716075E-3,-4.8012357E-2,-1.700843E-2,1.0283556E-3,-2.562413E-2,-6.764441E-2,-4.186144E-2,-4.9290057E-2,2.3536181E-2],"split_indices":[0,3,3,9,3,4,4,9,3,0,3,2,5,2,5,9,2,4,2,2,3,2,2,0,0,9,2,9,9,10,9,10,2,5,0,9,9,9,2,0,3,2,3,0,10,9,2,0,2,3,10,10,2,0,0,0,0,0,0,0,0,0,0,0,0,0,0,0,0,0,0,0,0,0,0,0,0,0,0,0,0,0,0,0,0,0,0,0,0,0,0,0,0],"split_type":[0,0,0,0,0,0,0,0,0,0,0,0,0,0,0,0,0,0,0,0,0,0,0,0,0,0,0,0,0,0,0,0,0,0,0,0,0,0,0,0,0,0,0,0,0,0,0,0,0,0,0,0,0,0,0,0,0,0,0,0,0,0,0,0,0,0,0,0,0,0,0,0,0,0,0,0,0,0,0,0,0,0,0,0,0,0,0,0,0,0,0,0,0],"sum_hessian":[1.5565171E4,1.1299849E4,4.265322E3,8.006066E3,3.293783E3,2.14019E3,2.1251316E3,6.054905E3,1.9511614E3,1.2143275E2,3.17235E3,1.7697533E3,3.7043677E2,1.7820668E3,3.430648E2,5.305897E3,7.490078E2,1.8937545E3,5.7406815E1,1.3438182E2,3.0379683E3,5.80354E2,1.1893993E3,2.6161478E2,1.08822E2,3.351905E2,1.4468763E3,2.4708897E2,9.59758E1,4.334728E3,9.71169E2,4.9944632E2,2.4956148E2,1.8787067E3,1.5047943E1,2.3949406E1,3.345741E1,1.0836388E2,2.6017944E1,1.0605772E2,2.9319106E3,4.295436E2,1.5081038E2,1.3871544E1,1.1755277E3,2.8945604E1,3.0624487E2,3.216532E1,1.4147109E3,1.1588645E2,1.3120253E2,8.774337E1,8.232432E0,9.354739E2,3.399254E3,4.4094757E1,9.270743E2,2.2100633E2,2.7844E2,1.430955E2,1.0646598E2,1.8534507E3,2.5255903E1,3.679223E0,2.0270182E1,2.2051374E1,1.1406034E1,2.5968128E1,8.2395744E1,1.810531E1,7.9126334E0,3.0048434E2,2.6314263E3,4.1085846E2,1.8685139E1,5.1719555E1,9.909083E1,8.64228E2,3.112997E2,8.481462E0,2.0464144E1,1.2922067E2,1.770242E2,5.0064877E1,1.3646461E3,8.932826E1,2.655819E1,2.9356087E1,1.01846436E2,5.3792225E1,3.3951145E1,5.6127734E0,2.6196587E0],"tree_param":{"num_deleted":"0","num_feature":"12","num_nodes":"93","size_leaf_vector":"1"}},{"base_weights":[-1.022733E-3,-5.3378195E-1,1.1381619E-1,-6.6686314E-1,-1.0383647E-1,-5.247008E-2,3.320768E-1,-7.627475E-1,-2.799839E-1,-4.9881285E-1,4.7881808E-2,-1.318189E-1,3.4358937E-1,3.655497E-1,-7.8700346E-1,-7.014763E-1,-1.0564704E0,-7.733406E-1,-6.1519835E-2,-3.5739222E-1,-1.1708302E0,-5.309515E-1,1.863137E-1,-3.4906912E-1,2.8597688E-2,3.928456E-1,-8.535378E-1,3.941376E-1,-7.094632E-1,-8.7073606E-1,-0E0,-8.266714E-1,-4.9174678E-1,-1.1729889E0,-2.41298E-1,-1.2362537E0,-5.5452037E-1,-5.677481E-1,5.0828014E-2,-5.6957805E-1,2.3778174E-2,-7.022324E-2,-1.9875036E-1,-1.20149165E-1,-7.9524714E-1,2.3468725E-1,-8.1007713E-1,-3.2314715E-1,-1.0886788E0,7.015639E-2,-9.0064687E-1,7.928717E-2,3.7376434E-1,-2.1689218E-1,-9.298481E-1,-1.159148E-1,4.3425596E-1,-9.1240185E-1,-4.6239072E-1,-6.722912E-1,-1.1176956E0,-3.9924603E-2,3.131965E-1,-4.7634285E-2,-2.3078118E-2,1.0239228E-1,-3.0588944E-2,-4.6741605E-2,-6.261621E-2,3.993642E-2,-3.684085E-2,-6.432523E-2,-7.5220144E-3,9.201427E-3,-3.684513E-2,-0E0,-5.9383627E-2,9.41443E-3,-1.7145494E-2,2.1232E-2,-3.218845E-2,1.1285814E-2,-6.513925E-2,-4.725803E-2,1.8637693E-2,2.4461698E-2,-3.9960578E-2,-5.4434992E-2,-4.2009447E-3,1.6472107E-2,-8.615966E-3,-4.800354E-2,-0E0,-1.7934836E-2,1.1689305E-2,-6.75905E-2,-1.5640495E-2,4.8326636E-3,-5.4292418E-2,-3.2131102E-2,-5.7326235E-2,2.7824512E-2,1.4272556E-2,-3.1279765E-2,1.6862586E-2,-5.3462513E-2,-1.6846767E-2,-1.9920593E-2,9.445216E-3,1.6708339E-2,2.8364012E-2,-5.1210385E-2,-1.574067E-2,6.659943E-3,-3.5576284E-2,-4.2814076E-2,-8.874683E-4,-5.7376474E-2,-1.0934205E-2,3.9807208E-2,-3.302866E-3],"categories":[],"categories_nodes":[],"categories_segments":[],"categories_sizes":[],"default_left":[0,0,0,0,0,0,0,0,0,0,0,0,0,0,0,0,0,0,0,0,0,0,0,0,0,0,0,0,0,0,0,0,0,0,0,0,0,0,0,0,0,0,0,0,0,0,0,0,0,0,0,0,0,0,0,0,0,0,0,0,0,0,0,0,0,0,0,0,0,0,0,0,0,0,0,0,0,0,0,0,0,0,0,0,0,0,0,0,0,0,0,0,0,0,0,0,0,0,0,0,0,0,0,0,0,0,0,0,0,0,0,0,0,0,0,0,0,0,0,0,0],"id":11,"left_children":[1,3,5,7,9,11,13,15,17,19,21,23,25,27,29,31,33,35,37,39,41,43,45,47,49,51,53,55,57,59,61,63,65,67,69,71,73,75,77,79,81,-1,83,85,87,89,91,93,95,97,99,-1,101,103,105,107,109,111,113,115,117,-1,119,-1,-1,-1,-1,-1,-1,-1,-1,-1,-1,-1,-1,-1,-1,-1,-1,-1,-1,-1,-1,-1,-1,-1,-1,-1,-1,-1,-1,-1,-1,-1,-1,-1,-1,-1,-1,-1,-1,-1,-1,-1,-1,-1,-1,-1,-1,-1,-1,-1,-1,-1,-1,-1,-1,-1,-1,-1,-1],"loss_changes":[9.506183E2,1.5713751E2,4.6396484E2,7.706024E1,3.9497814E1,2.2793614E2,2.074148E2,2.7928223E1,4.495642E1,1.5766331E1,3.799201E1,2.1086055E2,7.179756E1,1.6539313E2,1.0560974E1,3.52854E1,2.5809113E1,1.0759964E1,1.7109076E1,1.2792974E1,5.516464E0,9.260571E0,1.8627357E1,4.7848236E1,1.3402577E2,2.4331879E1,1.3578339E0,1.0730585E2,5.4550095E0,4.719719E0,4.8929973E0,3.8542114E1,1.6326291E2,1.258606E0,2.109705E1,1.0178642E0,1.2897068E1,1.9440699E1,1.3185782E1,8.043625E0,1.5135287E1,0E0,4.66421E0,1.7004232E1,1.0593235E1,1.4414127E1,2.2400084E0,4.944467E1,1.5777344E1,1.0176074E2,7.0542603E0,0E0,1.7799515E1,2.4805884E0,2.0147667E0,3.316136E1,6.3760376E1,3.5852356E0,1.0568668E1,9.9698715E0,4.3941498E-1,0E0,3.0293665E0,0E0,0E0,0E0,0E0,0E0,0E0,0E0,0E0,0E0,0E0,0E0,0E0,0E0,0E0,0E0,0E0,0E0,0E0,0E0,0E0,0E0,0E0,0E0,0E0,0E0,0E0,0E0,0E0,0E0,0E0,0E0,0E0,0E0,0E0,0E0,0E0,0E0,0E0,0E0,0E0,0E0,0E0,0E0,0E0,0E0,0E0,0E0,0E0,0E0,0E0,0E0,0E0,0E0,0E0,0E0,0E0,0E0,0E0],"parents":[2147483647,0,0,1,1,2,2,3,3,4,4,5,5,6,6,7,7,8,8,9,9,10,10,11,11,12,12,13,13,14,14,15,15,16,16,17,17,18,18,19,19,20,20,21,21,22,22,23,23,24,24,25,25,26,26,27,27,28,28,29,29,30,30,31,31,32,32,33,33,34,34,35,35,36,36,37,37,38,38,39,39,40,40,42,42,43,43,44,44,45,45,46,46,47,47,48,48,49,49,50,50,52,52,53,53,54,54,55,55,56,56,57,57,58,58,59,59,60,60,62,62],"right_children":[2,4,6,8,10,12,14,16,18,20,22,24,26,28,30,32,34,36,38,40,42,44,46,48,50,52,54,56,58,60,62,64,66,68,70,72,74,76,78,80,82,-1,84,86,88,90,92,94,96,98,100,-1,102,104,106,108,110,112,114,116,118,-1,120,-1,-1,-1,-1,-1,-1,-1,-1,-1,-1,-1,-1,-1,-1,-1,-1,-1,-1,-1,-1,-1,-1,-1,-1,-1,-1,-1,-1,-1,-1,-1,-1,-1,-1,-1,-1,-1,-1,-1,-1,-1,-1,-1,-1,-1,-1,-1,-1,-1,-1,-1,-1,-1,-1,-1,-1,-1,-1],"split_conditions":[4.8E1,8.262963E1,4.53472E1,4.0593204E1,2.557322E1,8.931081E1,1E0,1.72E2,7.5737915E1,9.5E1,4.2E1,5.5E1,1E0,6.4E1,1.7812347E2,1.6518471E2,9.2252625E1,4.2E1,6.423381E1,1.7021227E2,4.7E1,5E1,1E0,1E0,6.4E1,9E1,6.496838E1,7.5737915E1,7.529135E1,2.8250969E1,2.5388983E1,4.6E1,1.66E2,1.74E2,2.9503561E1,3.0844416E1,1.59E2,5.9E1,1.71E2,9E1,5.1E1,-7.022324E-2,2.4259777E1,8.277982E1,1.7142378E2,9.5E1,4.7E1,9.044729E1,8.230199E1,1E0,1.6495276E2,7.928717E-2,1.6E2,6.3230827E1,1.7416245E2,5.6E1,7.802012E1,2.8250969E1,7.9E1,2.677551E1,1.7606271E2,-3.9924603E-2,1.81E2,-4.7634285E-2,-2.3078118E-2,1.0239228E-1,-3.0588944E-2,-4.6741605E-2,-6.261621E-2,3.993642E-2,-3.684085E-2,-6.432523E-2,-7.5220144E-3,9.201427E-3,-3.684513E-2,-0E0,-5.9383627E-2,9.41443E-3,-1.7145494E-2,2.1232E-2,-3.218845E-2,1.1285814E-2,-6.513925E-2,-4.725803E-2,1.8637693E-2,2.4461698E-2,-3.9960578E-2,-5.4434992E-2,-4.2009447E-3,1.6472107E-2,-8.615966E-3,-4.800354E-2,-0E0,-1.7934836E-2,1.1689305E-2,-6.75905E-2,-1.5640495E-2,4.8326636E-3,-5.4292418E-2,-3.2131102E-2,-5.7326235E-2,2.7824512E-2,1.4272556E-2,-3.1279765E-2,1.6862586E-2,-5.3462513E-2,-1.6846767E-2,-1.9920593E-2,9.445216E-3,1.6708339E-2,2.8364012E-2,-5.1210385E-2,-1.574067E-2,6.659943E-3,-3.5576284E-2,-4.2814076E-2,-8.874683E-4,-5.7376474E-2,-1.0934205E-2,3.9807208E-2,-3.302866E-3],"split_indices":[1,8,11,11,10,8,5,2,8,8,1,1,5,1,2,2,3,1,3,2,1,11,5,5,1,8,3,8,3,10,10,1,2,2,10,10,2,3,2,8,11,0,10,3,2,8,1,3,3,5,2,0,2,3,2,1,3,10,3,10,2,0,2,0,0,0,0,0,0,0,0,0,0,0,0,0,0,0,0,0,0,0,0,0,0,0,0,0,0,0,0,0,0,0,0,0,0,0,0,0,0,0,0,0,0,0,0,0,0,0,0,0,0,0,0,0,0,0,0,0,0],"split_type":[0,0,0,0,0,0,0,0,0,0,0,0,0,0,0,0,0,0,0,0,0,0,0,0,0,0,0,0,0,0,0,0,0,0,0,0,0,0,0,0,0,0,0,0,0,0,0,0,0,0,0,0,0,0,0,0,0,0,0,0,0,0,0,0,0,0,0,0,0,0,0,0,0,0,0,0,0,0,0,0,0,0,0,0,0,0,0,0,0,0,0,0,0,0,0,0,0,0,0,0,0,0,0,0,0,0,0,0,0,0,0,0,0,0,0,0,0,0,0,0,0],"sum_hessian":[1.5530259E4,2.753467E3,1.2776792E4,2.1009075E3,6.525597E2,7.251397E3,5.525395E3,1.6810416E3,4.1986584E2,1.8074265E2,4.7181705E2,6.0432534E3,1.2081434E3,5.3666655E3,1.5872942E2,1.3979126E3,2.8312897E2,1.26599075E2,2.9326675E2,1.5246524E2,2.827741E1,8.926891E1,3.8254813E2,2.5672388E3,3.4760146E3,1.1620901E3,4.6053272E1,5.2293335E3,1.3733202E2,1.4323262E2,1.5496797E1,8.701946E2,5.27718E2,2.4641573E2,3.671323E1,3.6917027E1,8.968205E1,5.2599976E1,2.4066678E2,9.8150856E1,5.4314384E1,2.1666101E1,6.611308E0,3.682766E1,5.2441257E1,3.667725E2,1.577562E1,2.4837383E3,8.3500534E1,3.329496E3,1.4651834E2,1.5297982E1,1.1467921E3,6.4530544E0,3.9600216E1,3.8013785E2,4.849196E3,7.133224E1,6.599978E1,8.4667244E1,5.8565372E1,3.524616E0,1.197218E1,6.4350604E2,2.2668858E2,2.2178871E1,5.0553915E2,6.953804E1,1.7687769E2,1.1126785E1,2.5586447E1,3.4490677E1,2.4263513E0,1.7214228E1,7.246782E1,2.8340773E1,2.4259205E1,1.8010318E2,6.0563606E1,5.6916428E0,9.245921E1,4.8906178E1,5.408207E0,2.679292E0,3.9320161E0,1.931625E1,1.751141E1,3.5874832E1,1.6566423E1,2.9881522E2,6.795729E1,1.3085464E1,2.6901577E0,2.3362246E3,1.4751375E2,6.07638E1,2.2736732E1,3.2571052E3,7.239106E1,7.6011925E1,7.050641E1,3.6836218E2,7.7843E2,4.0847797E0,2.3682747E0,3.0078316E1,9.521902E0,1.9782547E2,1.823124E2,2.7733064E3,2.0758892E3,5.8182144E1,1.3150098E1,1.9147928E1,4.685185E1,6.501214E1,1.9655102E1,5.5610878E1,2.9544952E0,4.8790393E0,7.093141E0],"tree_param":{"num_deleted":"0","num_feature":"12","num_nodes":"121","size_leaf_vector":"1"}},{"base_weights":[-1.1476544E-3,-2.604063E-1,2.9379308E-1,-1.0382355E-1,-6.819302E-1,4.386539E-1,-8.602461E-2,3.1989467E-1,-2.499528E-1,-7.89904E-1,-3.9499074E-1,7.387956E-1,3.3797932E-1,-4.9935222E-1,6.163725E-2,-1.6436751E-1,4.4614878E-1,-3.0556408E-1,5.211744E-2,-7.534154E-1,-6.348664E-2,7.856877E-2,-4.2007467E-1,7.520038E-1,-5.2029496E-1,3.5656267E-1,-7.718722E-1,-4.453475E-1,-1.055688E0,1.3000095E-1,-7.182084E-1,3.3280183E-2,-5.3200597E-1,1.0959135E0,4.0061015E-1,-2.9069057E-1,-6.364556E-2,8.788664E-2,-7.1625155E-3,-1.0138065E0,-7.104144E-1,-5.4106716E-2,-5.345637E-1,6.693281E-1,9.744885E-1,1.331391E-1,-4.4520646E-2,1.2908171E-1,4.2498237E-1,-0E0,-7.946904E-1,-6.35727E-1,-3.229906E-1,-7.036122E-2,-1.0954278E0,7.891845E-2,1.1744349E-1,-5.099134E-1,-1.0150043E0,-5.0411276E-3,8.63617E-2,-3.900663E-2,-1.6558468E-2,6.091667E-2,1.32603245E-2,-2.8597062E-2,2.1211432E-2,-2.4119593E-2,-1.1099983E-2,-3.1200204E-2,2.9029688E-3,-6.280528E-2,-4.5040276E-2,7.1269184E-2,-3.599455E-2,-1.3942507E-2,1.7134978E-2,-4.3635476E-2,-2.223006E-2,3.601645E-2,2.0482026E-2,5.1640045E-2,2.8956398E-2,-1.7575603E-2,4.0321942E-2,1.0831989E-2,-2.702826E-2,8.000908E-2,2.0388046E-2,-4.327594E-2,-1.3133712E-2,-2.4217246E-2,-6.0010143E-2,7.145982E-2,-1.841362E-2,8.664511E-3,-2.1493984E-2,-5.7038296E-2,-5.1901336E-3,1.0850731E-3,1.609242E-2,-4.8582003E-2,-1.2490104E-2,-6.066188E-2,-7.5097457E-3],"categories":[],"categories_nodes":[],"categories_segments":[],"categories_sizes":[],"default_left":[0,0,0,0,0,0,0,0,0,0,0,0,0,0,0,0,0,0,0,0,0,0,0,0,0,0,0,0,0,0,0,0,0,0,0,0,0,0,0,0,0,0,0,0,0,0,0,0,0,0,0,0,0,0,0,0,0,0,0,0,0,0,0,0,0,0,0,0,0,0,0,0,0,0,0,0,0,0,0,0,0,0,0,0,0,0,0,0,0,0,0,0,0,0,0,0,0,0,0,0,0,0,0,0,0],"id":12,"left_children":[1,3,5,7,9,11,13,15,17,19,21,23,25,27,29,31,33,35,37,39,-1,-1,41,43,45,47,49,51,53,55,57,59,61,63,65,67,-1,-1,69,71,73,75,77,79,81,83,-1,85,87,-1,89,91,93,95,97,-1,99,101,103,-1,-1,-1,-1,-1,-1,-1,-1,-1,-1,-1,-1,-1,-1,-1,-1,-1,-1,-1,-1,-1,-1,-1,-1,-1,-1,-1,-1,-1,-1,-1,-1,-1,-1,-1,-1,-1,-1,-1,-1,-1,-1,-1,-1,-1,-1],"loss_changes":[1.1850675E3,5.4392206E2,3.9911212E2,3.7273834E2,6.7967285E1,1.5757147E2,1.2248036E2,9.463901E1,7.536026E1,2.542511E1,3.111853E1,2.2775513E1,8.151303E1,1.4176559E1,7.858702E1,2.3520544E1,3.463333E1,5.289801E1,7.1305855E1,1.4612732E1,0E0,0E0,2.520121E1,2.1842041E1,4.1094265E0,5.988669E1,1.3863907E0,1.042337E1,1.003521E0,2.3505756E1,5.539688E0,4.8631004E1,4.5492344E0,6.5836105E0,2.6805054E1,4.8526794E1,0E0,0E0,2.7497776E1,2.3476715E0,2.8110657E1,1.3410793E1,1.2658554E1,1.1533508E1,5.997772E0,2.9072993E0,0E0,5.2841915E1,5.7892334E1,0E0,1.3746452E0,1.3919273E1,2.4429579E1,6.581856E-1,1.0337791E0,0E0,2.6238085E1,7.8813095E0,6.828808E0,0E0,0E0,0E0,0E0,0E0,0E0,0E0,0E0,0E0,0E0,0E0,0E0,0E0,0E0,0E0,0E0,0E0,0E0,0E0,0E0,0E0,0E0,0E0,0E0,0E0,0E0,0E0,0E0,0E0,0E0,0E0,0E0,0E0,0E0,0E0,0E0,0E0,0E0,0E0,0E0,0E0,0E0,0E0,0E0,0E0,0E0],"parents":[2147483647,0,0,1,1,2,2,3,3,4,4,5,5,6,6,7,7,8,8,9,9,10,10,11,11,12,12,13,13,14,14,15,15,16,16,17,17,18,18,19,19,22,22,23,23,24,24,25,25,26,26,27,27,28,28,29,29,30,30,31,31,32,32,33,33,34,34,35,35,38,38,39,39,40,40,41,41,42,42,43,43,44,44,45,45,47,47,48,48,50,50,51,51,52,52,53,53,54,54,56,56,57,57,58,58],"right_children":[2,4,6,8,10,12,14,16,18,20,22,24,26,28,30,32,34,36,38,40,-1,-1,42,44,46,48,50,52,54,56,58,60,62,64,66,68,-1,-1,70,72,74,76,78,80,82,84,-1,86,88,-1,90,92,94,96,98,-1,100,102,104,-1,-1,-1,-1,-1,-1,-1,-1,-1,-1,-1,-1,-1,-1,-1,-1,-1,-1,-1,-1,-1,-1,-1,-1,-1,-1,-1,-1,-1,-1,-1,-1,-1,-1,-1,-1,-1,-1,-1,-1,-1,-1,-1,-1,-1,-1],"split_conditions":[1.28E2,1E0,1E0,1E0,8.032053E1,1E0,7.214258E1,6.2329426E1,8.109787E1,1E0,8.1E1,1E0,1E0,1E0,1E0,6E1,6.4E1,1E0,8.2E1,6.0098576E1,-6.348664E-2,7.856877E-2,1E0,8.430373E1,7E1,6.520272E1,5.2E1,6.520272E1,1.4059454E0,7.3E1,1.5564862E0,5.9193214E1,6.0098576E1,1.5153896E0,6.423381E1,7.5737915E1,-6.364556E-2,8.788664E-2,8.230199E1,5.5329468E1,6.1E1,9.2252625E1,8.307093E1,1.6455696E0,1.5E2,6.619866E1,-4.4520646E-2,6.5E1,6.6E1,-0E0,9.119633E1,6.5E1,6.6E1,6.496838E1,1.6E2,7.891845E-2,9.044729E1,1.4950508E0,1.7142857E0,-5.0411276E-3,8.63617E-2,-3.900663E-2,-1.6558468E-2,6.091667E-2,1.32603245E-2,-2.8597062E-2,2.1211432E-2,-2.4119593E-2,-1.1099983E-2,-3.1200204E-2,2.9029688E-3,-6.280528E-2,-4.5040276E-2,7.1269184E-2,-3.599455E-2,-1.3942507E-2,1.7134978E-2,-4.3635476E-2,-2.223006E-2,3.601645E-2,2.0482026E-2,5.1640045E-2,2.8956398E-2,-1.7575603E-2,4.0321942E-2,1.0831989E-2,-2.702826E-2,8.000908E-2,2.0388046E-2,-4.327594E-2,-1.3133712E-2,-2.4217246E-2,-6.0010143E-2,7.145982E-2,-1.841362E-2,8.664511E-3,-2.1493984E-2,-5.7038296E-2,-5.1901336E-3,1.0850731E-3,1.609242E-2,-4.8582003E-2,-1.2490104E-2,-6.066188E-2,-7.5097457E-3],"split_indices":[7,0,0,6,3,6,3,3,3,5,3,5,5,5,5,3,3,5,3,3,0,0,6,3,3,3,3,3,9,3,9,3,3,9,3,8,0,0,3,3,3,3,3,9,7,3,0,3,3,0,3,3,3,3,7,0,3,9,9,0,0,0,0,0,0,0,0,0,0,0,0,0,0,0,0,0,0,0,0,0,0,0,0,0,0,0,0,0,0,0,0,0,0,0,0,0,0,0,0,0,0,0,0,0,0],"split_type":[0,0,0,0,0,0,0,0,0,0,0,0,0,0,0,0,0,0,0,0,0,0,0,0,0,0,0,0,0,0,0,0,0,0,0,0,0,0,0,0,0,0,0,0,0,0,0,0,0,0,0,0,0,0,0,0,0,0,0,0,0,0,0,0,0,0,0,0,0,0,0,0,0,0,0,0,0,0,0,0,0,0,0,0,0,0,0,0,0,0,0,0,0,0,0,0,0,0,0,0,0,0,0,0,0],"sum_hessian":[1.5494198E4,8.246923E3,7.247276E3,6.015889E3,2.2310332E3,5.247072E3,2.0002037E3,1.5412015E3,4.474688E3,1.6172297E3,6.1380334E2,1.3134957E3,3.9335762E3,5.261247E2,1.474079E3,3.1777493E2,1.2234266E3,3.7803547E3,6.9433295E2,1.5086842E3,1.0854549E2,5.9273486E0,6.0787604E2,1.3010499E3,1.2445839E1,3.8705754E3,6.3000893E1,4.8367325E2,4.2451473E1,1.3573934E3,1.1668558E2,2.0696597E2,1.1080896E2,7.6387375E1,1.1470392E3,3.7261807E3,5.4174175E1,2.168011E1,6.7265283E2,2.057844E2,1.3028998E3,1.4659448E2,4.6128156E2,9.5604565E2,3.450042E2,4.4749913E0,7.970848E0,8.979994E2,2.972576E3,1.4839069E0,6.1516983E1,1.843534E2,2.9931985E2,2.348346E0,4.0103127E1,9.181705E0,1.3482117E3,7.274972E1,4.3935863E1,1.9325282E2,1.3713164E1,4.5874355E1,6.493461E1,6.52382E1,1.1149177E1,2.559271E1,1.1214465E3,9.778609E2,2.7483198E3,6.3416573E1,6.0923627E2,5.760655E1,1.4817784E2,4.202341E0,1.2986975E3,9.4772026E1,5.1822456E1,9.2108826E1,3.6917273E2,7.9453186E2,1.6151382E2,2.9674722E2,4.825699E1,2.72601E0,1.7489812E0,7.9601764E2,1.0198174E2,3.9856827E1,2.9327192E3,5.23535E1,9.163483E0,1.4899701E2,3.5356388E1,5.722443E0,2.935974E2,1.1882727E0,1.1600734E0,3.7579906E1,2.52322E0,9.213264E2,4.2688528E2,2.3550945E1,4.919877E1,3.4616947E1,9.318916E0],"tree_param":{"num_deleted":"0","num_feature":"12","num_nodes":"105","size_leaf_vector":"1"}},{"base_weights":[-1.1317283E-3,-2.4828988E-1,2.7987167E-1,-9.875663E-2,-6.5385896E-1,4.1811126E-1,-8.208241E-2,3.0405062E-1,-2.3788281E-1,-7.589333E-1,-3.7659237E-1,7.063438E-1,3.2179233E-1,-4.770674E-1,5.8508977E-2,-1.562255E-1,4.2395055E-1,-3.149955E-1,-3.3212047E-2,-1.1061442E0,-7.2739625E-1,7.536359E-2,-4.0083736E-1,6.297302E-1,9.1285986E-1,1.1055948E-1,3.8525614E-1,-2.1453752E-1,-5.475323E-1,1.2200406E0,4.2548455E-2,3.229329E-2,-5.075251E-1,1.0421978E0,3.8055515E-1,-2.9138315E-1,-8.2985926E-1,9.68296E-2,-8.426273E-2,-0E0,-5.6122877E-2,-5.409736E-1,-7.7491987E-1,-5.1246785E-2,-5.1055956E-1,6.4424706E-1,-1.2815616E-1,9.664098E-1,5.496601E-1,1.9462782E-1,-5.312752E-1,7.740544E-2,3.687342E-1,2.5825143E-1,-4.4575915E-1,-7.6454157E-1,-4.1318867E-1,7.605612E-2,-3.0088061E-2,7.674482E-2,3.039676E-2,-4.793982E-3,8.269637E-2,-3.7237544E-2,-1.5772685E-2,8.523961E-2,4.2248964E-2,-2.7307633E-2,2.0152671E-2,-1.5602528E-2,1.0012696E-1,-6.353339E-2,-3.5110783E-2,-4.362641E-2,-1.7210608E-3,-5.928873E-2,-2.5052318E-2,-4.736833E-2,-3.6347505E-2,-1.3287452E-2,1.6288076E-2,-4.1895013E-2,-2.1197008E-2,3.4429904E-2,1.9784393E-2,1.90224E-2,-2.1428673E-2,3.0975878E-2,5.184821E-2,7.5131664E-3,4.873843E-2,5.720864E-3,8.4192716E-2,-5.083285E-2,-1.9967053E-2,-3.0600497E-2,1.9351717E-2,2.8738393E-2,-4.0336084E-2,1.9093685E-2,-2.4371075E-2,-3.3628527E-2,-5.341497E-2,6.56065E-2,-2.2861617E-2,-9.592831E-3,4.7623767E-3],"categories":[],"categories_nodes":[],"categories_segments":[],"categories_sizes":[],"default_left":[0,0,0,0,0,0,0,0,0,0,0,0,0,0,0,0,0,0,0,0,0,0,0,0,0,0,0,0,0,0,0,0,0,0,0,0,0,0,0,0,0,0,0,0,0,0,0,0,0,0,0,0,0,0,0,0,0,0,0,0,0,0,0,0,0,0,0,0,0,0,0,0,0,0,0,0,0,0,0,0,0,0,0,0,0,0,0,0,0,0,0,0,0,0,0,0,0,0,0,0,0,0,0,0,0,0,0],"id":13,"left_children":[1,3,5,7,9,11,13,15,17,19,21,23,25,27,29,31,33,35,37,39,41,-1,43,45,47,49,51,53,55,57,59,61,63,65,67,69,71,-1,73,-1,-1,75,77,79,81,83,85,87,89,91,93,-1,95,97,99,101,103,-1,-1,-1,105,-1,-1,-1,-1,-1,-1,-1,-1,-1,-1,-1,-1,-1,-1,-1,-1,-1,-1,-1,-1,-1,-1,-1,-1,-1,-1,-1,-1,-1,-1,-1,-1,-1,-1,-1,-1,-1,-1,-1,-1,-1,-1,-1,-1,-1,-1],"loss_changes":[1.0731432E3,4.981203E2,3.61992E2,3.369374E2,6.334955E1,1.4431238E2,1.1126145E2,8.541678E1,7.034427E1,1.5015442E1,2.868103E1,1.8770203E1,5.231479E1,9.11174E0,2.6608526E1,2.1427536E1,3.1373795E1,3.8397156E1,1.2279756E2,2.8472137E0,1.1577759E1,0E0,2.2974854E1,1.100824E1,4.9412537E0,4.9245834E1,5.5870728E1,1.301202E1,1.0784363E1,1.2983948E1,2.5554382E1,4.450644E1,4.1311035E0,6.098175E0,2.4324707E1,1.4766034E2,5.120514E0,0E0,4.6564453E1,0E0,0E0,5.9117203E0,7.4572754E0,1.2149685E1,1.1734978E1,9.330353E0,3.2689419E0,5.208496E0,7.7204046E0,9.529148E1,5.2337093E0,0E0,5.3811768E1,1.3848229E1,3.162449E0,1.9857407E0,2.0537888E1,0E0,0E0,0E0,2.085955E1,0E0,0E0,0E0,0E0,0E0,0E0,0E0,0E0,0E0,0E0,0E0,0E0,0E0,0E0,0E0,0E0,0E0,0E0,0E0,0E0,0E0,0E0,0E0,0E0,0E0,0E0,0E0,0E0,0E0,0E0,0E0,0E0,0E0,0E0,0E0,0E0,0E0,0E0,0E0,0E0,0E0,0E0,0E0,0E0,0E0,0E0],"parents":[2147483647,0,0,1,1,2,2,3,3,4,4,5,5,6,6,7,7,8,8,9,9,10,10,11,11,12,12,13,13,14,14,15,15,16,16,17,17,18,18,19,19,20,20,22,22,23,23,24,24,25,25,26,26,27,27,28,28,29,29,30,30,31,31,32,32,33,33,34,34,35,35,36,36,38,38,41,41,42,42,43,43,44,44,45,45,46,46,47,47,48,48,49,49,50,50,52,52,53,53,54,54,55,55,56,56,60,60],"right_children":[2,4,6,8,10,12,14,16,18,20,22,24,26,28,30,32,34,36,38,40,42,-1,44,46,48,50,52,54,56,58,60,62,64,66,68,70,72,-1,74,-1,-1,76,78,80,82,84,86,88,90,92,94,-1,96,98,100,102,104,-1,-1,-1,106,-1,-1,-1,-1,-1,-1,-1,-1,-1,-1,-1,-1,-1,-1,-1,-1,-1,-1,-1,-1,-1,-1,-1,-1,-1,-1,-1,-1,-1,-1,-1,-1,-1,-1,-1,-1,-1,-1,-1,-1,-1,-1,-1,-1,-1,-1],"split_conditions":[1.28E2,1E0,1E0,1E0,8.032053E1,1E0,7.214258E1,6.2329426E1,7.529135E1,3.8E1,8.1E1,8.430373E1,6.520272E1,1E0,8E1,6E1,6.4E1,7.5E1,7.6E1,1E2,1E0,7.536359E-2,1E0,8.4E1,1.5E2,6.5E1,6.6E1,1.5555556E0,6.520272E1,1.6455696E0,7.3E1,5.9193214E1,6.0098576E1,6.3E1,6.423381E1,7.420422E1,7.9E1,9.68296E-2,7.611502E1,-0E0,-5.6122877E-2,5.718141E1,6.3230827E1,9.2252625E1,8.307093E1,1.5E2,1.5555556E0,4.0593204E1,9.44829E1,6.423381E1,1.5333333E0,7.740544E-2,6.619866E1,6.8978065E1,5.3905457E1,6.496838E1,6.6E1,7.605612E-2,-3.0088061E-2,7.674482E-2,7.802012E1,-4.793982E-3,8.269637E-2,-3.7237544E-2,-1.5772685E-2,8.523961E-2,4.2248964E-2,-2.7307633E-2,2.0152671E-2,-1.5602528E-2,1.0012696E-1,-6.353339E-2,-3.5110783E-2,-4.362641E-2,-1.7210608E-3,-5.928873E-2,-2.5052318E-2,-4.736833E-2,-3.6347505E-2,-1.3287452E-2,1.6288076E-2,-4.1895013E-2,-2.1197008E-2,3.4429904E-2,1.9784393E-2,1.90224E-2,-2.1428673E-2,3.0975878E-2,5.184821E-2,7.5131664E-3,4.873843E-2,5.720864E-3,8.4192716E-2,-5.083285E-2,-1.9967053E-2,-3.0600497E-2,1.9351717E-2,2.8738393E-2,-4.0336084E-2,1.9093685E-2,-2.4371075E-2,-3.3628527E-2,-5.341497E-2,6.56065E-2,-2.2861617E-2,-9.592831E-3,4.7623767E-3],"split_indices":[7,0,0,6,3,6,3,3,3,11,3,3,3,6,8,3,3,3,3,7,6,0,6,3,7,3,3,9,3,9,3,3,3,3,3,3,8,0,3,0,0,3,3,3,3,7,9,11,3,3,9,0,3,3,3,3,3,0,0,0,3,0,0,0,0,0,0,0,0,0,0,0,0,0,0,0,0,0,0,0,0,0,0,0,0,0,0,0,0,0,0,0,0,0,0,0,0,0,0,0,0,0,0,0,0,0,0],"split_type":[0,0,0,0,0,0,0,0,0,0,0,0,0,0,0,0,0,0,0,0,0,0,0,0,0,0,0,0,0,0,0,0,0,0,0,0,0,0,0,0,0,0,0,0,0,0,0,0,0,0,0,0,0,0,0,0,0,0,0,0,0,0,0,0,0,0,0,0,0,0,0,0,0,0,0,0,0,0,0,0,0,0,0,0,0,0,0,0,0,0,0,0,0,0,0,0,0,0,0,0,0,0,0,0,0,0,0],"sum_hessian":[1.5447744E4,8.219898E3,7.227846E3,6.008343E3,2.2115552E3,5.2310464E3,1.9967999E3,1.5409419E3,4.467401E3,1.5999517E3,6.1160345E2,1.3057515E3,3.925295E3,5.238467E2,1.4729532E3,3.17466E2,1.2234758E3,3.242297E3,1.2251039E3,1.2622811E2,1.4737235E3,5.954732E0,6.0564874E2,9.600941E2,3.4565732E2,9.0995703E2,3.015338E3,1.1406424E2,4.0978244E2,1.749561E1,1.4554576E3,2.0685419E2,1.1061182E2,7.6469696E1,1.1470062E3,3.1040444E3,1.3825273E2,2.883498E1,1.1962689E3,1.4402909E0,1.2478782E2,3.065393E2,1.1671843E3,1.464689E2,4.5917984E2,9.4299133E2,1.7102777E1,2.9714777E2,4.8509567E1,8.0649396E2,1.0346308E2,3.9220825E1,2.976117E3,3.667567E1,7.738857E1,1.5167448E2,2.5810797E2,1.5533066E1,1.9625431E0,9.398996E0,1.4460586E3,1.9316032E2,1.36938505E1,4.574922E1,6.48626E1,1.3451873E1,6.3017826E1,2.555645E1,1.1214497E3,3.0782563E3,2.5788074E1,2.6142982E1,1.1210975E2,6.858132E1,1.1276875E3,1.3797571E1,2.9274173E2,2.4358788E2,9.235964E2,9.4575676E1,5.1893227E1,9.1243866E1,3.6793597E2,7.954966E2,1.4749475E2,5.5349684E0,1.1567809E1,5.472606E1,2.4242169E2,2.7013258E1,2.149631E1,7.67638E2,3.8855988E1,1.8436049E1,8.502703E1,5.282641E1,2.9232905E3,2.9344421E1,7.3312473E0,2.3510628E0,7.5037506E1,1.22621765E2,2.905272E1,4.7089562E0,2.5339902E2,3.2400784E2,1.1220508E3],"tree_param":{"num_deleted":"0","num_feature":"12","num_nodes":"107","size_leaf_vector":"1"}},{"base_weights":[-1.0546873E-3,-2.3674224E-1,2.6671886E-1,-4.688858E-1,4.8173103E-2,3.9862925E-1,-7.804195E-2,-3.2672516E-1,-8.3680916E-1,1.829262E-1,-3.4475416E-1,4.1561803E-1,-7.35538E-1,-5.2480155E-1,1.1364096E-1,-5.8225214E-1,-1.7395802E-1,-9.5078236E-1,-4.253947E-1,2.1727021E-1,-7.7084786E-1,-1.0686336E0,-2.6714507E-1,4.3660477E-1,-4.929745E-1,-7.864565E-1,1.7053942E-1,-7.24376E-1,-9.1413364E-2,8.562072E-2,5.4752678E-2,-7.1815544E-1,-3.2302076E-1,-3.331208E-1,-3.655078E-2,-1.1471303E0,-8.686923E-1,7.946061E-2,-4.7489464E-1,-1.4681457E-1,2.8392014E-1,-6.0243756E-1,-5.9813377E-2,-6.972105E-1,-6.1152387E-2,-2.1956587E-1,-1.0605732E0,2.3292373E-1,5.1093805E-1,-1.9619577E-1,-6.829652E-1,-4.483521E-1,-9.768139E-1,-1.4395385E-2,2.9114604E-2,-1.2300242E0,-6.13991E-1,-6.767502E-1,2.9384544E-1,-5.2691605E-2,1.1988901E-1,-5.0329514E-2,-2.6155472E-2,9.6737154E-2,-2.305027E-2,-1.25056775E-2,-5.618384E-2,9.701576E-2,-4.6624388E-3,-5.204584E-2,-6.660727E-2,-1.8050864E-2,-4.5934446E-2,-4.4500466E-2,-1.420237E-2,-3.7188784E-3,-3.3919808E-2,1.4837259E-2,-4.1303024E-2,-4.575073E-2,-8.686557E-3,-4.4164564E-2,1.3937272E-2,-8.696603E-3,-4.5431435E-2,-5.648448E-2,-2.350939E-2,-6.5661627E-3,1.6907763E-2,2.1179935E-2,3.2528013E-2,-2.188759E-2,1.1938756E-2,-5.2668568E-2,-1.8769886E-2,-2.9606512E-2,1.7769752E-2,3.7699442E-3,-5.1722396E-2,-6.528906E-2,-8.044624E-3,-5.6963976E-2,-2.6028425E-2,-5.5168092E-2,-2.107813E-2,2.7216075E-2,-2.3703046E-2,9.14815E-2,1.3784614E-3],"categories":[],"categories_nodes":[],"categories_segments":[],"categories_sizes":[],"default_left":[0,0,0,0,0,0,0,0,0,0,0,0,0,0,0,0,0,0,0,0,0,0,0,0,0,0,0,0,0,0,0,0,0,0,0,0,0,0,0,0,0,0,0,0,0,0,0,0,0,0,0,0,0,0,0,0,0,0,0,0,0,0,0,0,0,0,0,0,0,0,0,0,0,0,0,0,0,0,0,0,0,0,0,0,0,0,0,0,0,0,0,0,0,0,0,0,0,0,0,0,0,0,0,0,0,0,0,0,0],"id":14,"left_children":[1,3,5,7,9,11,13,15,17,19,21,23,25,27,29,31,33,35,37,39,41,43,45,47,49,51,53,55,57,-1,59,61,63,65,67,69,71,-1,73,75,77,79,-1,81,-1,83,85,87,89,91,93,95,97,-1,-1,99,101,103,105,-1,107,-1,-1,-1,-1,-1,-1,-1,-1,-1,-1,-1,-1,-1,-1,-1,-1,-1,-1,-1,-1,-1,-1,-1,-1,-1,-1,-1,-1,-1,-1,-1,-1,-1,-1,-1,-1,-1,-1,-1,-1,-1,-1,-1,-1,-1,-1,-1,-1],"loss_changes":[9.72247E2,5.422633E2,3.2815686E2,2.351131E2,1.9489525E2,1.0096936E2,1.7126462E2,1.2676077E2,5.7422546E1,8.989298E1,5.1542313E1,9.844281E1,4.141472E0,5.1393967E1,1.305184E2,4.1943207E1,4.4529606E1,1.2817261E1,2.8590923E1,6.443927E1,4.4838486E0,2.4780197E0,3.1051117E1,7.550079E1,5.8601494E0,3.1770668E0,1.4702625E0,2.0454514E1,4.3976532E1,0E0,9.729609E1,4.2991425E1,1.3313493E2,6.0820457E1,1.2293213E2,1.5680542E0,1.6517212E1,0E0,2.0479134E1,1.5313722E1,3.2129837E1,8.93494E0,0E0,6.594945E0,0E0,2.451052E1,5.861664E-2,5.1921364E1,4.3781067E1,5.4880967E0,6.3764305E0,4.157999E0,3.3480835E0,0E0,0E0,4.570282E0,1.473645E1,6.743286E0,2.303791E1,0E0,2.0064157E2,0E0,0E0,0E0,0E0,0E0,0E0,0E0,0E0,0E0,0E0,0E0,0E0,0E0,0E0,0E0,0E0,0E0,0E0,0E0,0E0,0E0,0E0,0E0,0E0,0E0,0E0,0E0,0E0,0E0,0E0,0E0,0E0,0E0,0E0,0E0,0E0,0E0,0E0,0E0,0E0,0E0,0E0,0E0,0E0,0E0,0E0,0E0,0E0],"parents":[2147483647,0,0,1,1,2,2,3,3,4,4,5,5,6,6,7,7,8,8,9,9,10,10,11,11,12,12,13,13,14,14,15,15,16,16,17,17,18,18,19,19,20,20,21,21,22,22,23,23,24,24,25,25,26,26,27,27,28,28,30,30,31,31,32,32,33,33,34,34,35,35,36,36,38,38,39,39,40,40,41,41,43,43,45,45,46,46,47,47,48,48,49,49,50,50,51,51,52,52,55,55,56,56,57,57,58,58,60,60],"right_children":[2,4,6,8,10,12,14,16,18,20,22,24,26,28,30,32,34,36,38,40,42,44,46,48,50,52,54,56,58,-1,60,62,64,66,68,70,72,-1,74,76,78,80,-1,82,-1,84,86,88,90,92,94,96,98,-1,-1,100,102,104,106,-1,108,-1,-1,-1,-1,-1,-1,-1,-1,-1,-1,-1,-1,-1,-1,-1,-1,-1,-1,-1,-1,-1,-1,-1,-1,-1,-1,-1,-1,-1,-1,-1,-1,-1,-1,-1,-1,-1,-1,-1,-1,-1,-1,-1,-1,-1,-1,-1,-1],"split_conditions":[1.28E2,5.5E1,1E0,1E0,1E0,1E0,1.680728E2,4.8E1,8.307093E1,6.4E1,1.6004793E2,6.4E1,1.7334622E2,6E1,1.69E2,1.6518471E2,1.6209593E2,2.3225431E1,8.4E1,2.3148148E1,1.6518471E2,5.8E1,1E0,5.2E1,1.3889374E2,2.8190678E1,9.2252625E1,4.8E1,1.6411754E2,8.562072E-2,1.6904213E2,1.2E2,1.66E2,1.62E2,1.63E2,1.74E2,6.496838E1,7.946061E-2,4.6E1,2.3011177E1,1E0,1.6004793E2,-5.9813377E-2,7.746685E1,-6.1152387E-2,6.4E1,9.2252625E1,6.520272E1,7.802012E1,1.6518471E2,2.8305996E1,2.7434843E1,1.4952835E2,-1.4395385E-2,2.9114604E-2,3.4001293E1,1.6004793E2,1.3889374E2,1.68E2,-5.2691605E-2,1.7E2,-5.0329514E-2,-2.6155472E-2,9.6737154E-2,-2.305027E-2,-1.25056775E-2,-5.618384E-2,9.701576E-2,-4.6624388E-3,-5.204584E-2,-6.660727E-2,-1.8050864E-2,-4.5934446E-2,-4.4500466E-2,-1.420237E-2,-3.7188784E-3,-3.3919808E-2,1.4837259E-2,-4.1303024E-2,-4.575073E-2,-8.686557E-3,-4.4164564E-2,1.3937272E-2,-8.696603E-3,-4.5431435E-2,-5.648448E-2,-2.350939E-2,-6.5661627E-3,1.6907763E-2,2.1179935E-2,3.2528013E-2,-2.188759E-2,1.1938756E-2,-5.2668568E-2,-1.8769886E-2,-2.9606512E-2,1.7769752E-2,3.7699442E-3,-5.1722396E-2,-6.528906E-2,-8.044624E-3,-5.6963976E-2,-2.6028425E-2,-5.5168092E-2,-2.107813E-2,2.7216075E-2,-2.3703046E-2,9.14815E-2,1.3784614E-3],"split_indices":[7,1,0,0,0,5,2,1,3,1,2,1,2,1,2,2,2,10,3,10,2,1,5,1,7,10,3,1,2,0,2,7,2,2,2,2,3,0,1,10,5,2,0,3,0,1,3,3,3,2,10,10,2,0,0,10,2,7,2,0,2,0,0,0,0,0,0,0,0,0,0,0,0,0,0,0,0,0,0,0,0,0,0,0,0,0,0,0,0,0,0,0,0,0,0,0,0,0,0,0,0,0,0,0,0,0,0,0,0],"split_type":[0,0,0,0,0,0,0,0,0,0,0,0,0,0,0,0,0,0,0,0,0,0,0,0,0,0,0,0,0,0,0,0,0,0,0,0,0,0,0,0,0,0,0,0,0,0,0,0,0,0,0,0,0,0,0,0,0,0,0,0,0,0,0,0,0,0,0,0,0,0,0,0,0,0,0,0,0,0,0,0,0,0,0,0,0,0,0,0,0,0,0,0,0,0,0,0,0,0,0,0,0,0,0,0,0,0,0,0,0],"sum_hessian":[1.5401611E4,8.1927E3,7.20891E3,4.5146855E3,3.6780151E3,5.214794E3,1.9941161E3,3.2601445E3,1.2545409E3,2.7405085E3,9.3750684E2,5.1395166E3,7.527733E1,5.984434E2,1.3956727E3,1.2164858E3,2.0436587E3,9.7938635E2,2.7515448E2,2.6472534E3,9.325511E1,8.768313E1,8.4982367E2,5.025037E3,1.1447953E2,7.204454E1,3.2327926E0,4.0804358E2,1.9039986E2,4.72845E1,1.3483882E3,7.944973E2,4.219885E2,9.438651E2,1.0997936E3,2.7930035E2,7.0008606E2,4.864432E0,2.7029004E2,4.0809082E2,2.2391626E3,7.111172E1,2.2143396E1,2.993849E1,5.7744637E1,8.047492E2,4.5074448E1,1.347564E3,3.6774734E3,4.7296356E1,6.7183174E1,2.9314564E1,4.2729973E1,1.2397165E0,1.9930762E0,6.8669365E1,