{"learner":{"attributes":{},"feature_names":["gender","age","height","weight","smoke","alco","active","ap_hi","ap_lo","bp_ratio","BMI","blood_pressure_diff"],"feature_types":["int","int","float","float","int","int","int","float","float","float","float","float"],"gradient_booster":{"model":{"gbtree_model_param":{"num_parallel_tree":"1","num_trees":"300"},"iteration_indptr":[0,1,2,3,4,5,6,7,8,9,10,11,12,13,14,15,16,17,18,19,20,21,22,23,24,25,26,27,28,29,30,31,32,33,34,35,36,37,38,39,40,41,42,43,44,45,46,47,48,49,50,51,52,53,54,55,56,57,58,59,60,61,62,63,64,65,66,67,68,69,70,71,72,73,74,75,76,77,78,79,80,81,82,83,84,85,86,87,88,89,90,91,92,93,94,95,96,97,98,99,100,101,102,103,104,105,106,107,108,109,110,111,112,113,114,115,116,117,118,119,120,121,122,123,124,125,126,127,128,129,130,131,132,133,134,135,136,137,138,139,140,141,142,143,144,145,146,147,148,149,150,151,152,153,154,155,156,157,158,159,160,161,162,163,164,165,166,167,168,169,170,171,172,173,174,175,176,177,178,179,180,181,182,183,184,185,186,187,188,189,190,191,192,193,194,195,196,197,198,199,200,201,202,203,204,205,206,207,208,209,210,211,212,213,214,215,216,217,218,219,220,221,222,223,224,225,226,227,228,229,230,231,232,233,234,235,236,237,238,239,240,241,242,243,244,245,246,247,248,249,250,251,252,253,254,255,256,257,258,259,260,261,262,263,264,265,266,267,268,269,270,271,272,273,274,275,276,277,278,279,280,281,282,283,284,285,286,287,288,289,290,291,292,293,294,295,296,297,298,299,300],"tree_info":[0,0,0,0,0,0,0,0,0,0,0,0,0,0,0,0,0,0,0,0,0,0,0,0,0,0,0,0,0,0,0,0,0,0,0,0,0,0,0,0,0,0,0,0,0,0,0,0,0,0,0,0,0,0,0,0,0,0,0,0,0,0,0,0,0,0,0,0,0,0,0,0,0,0,0,0,0,0,0,0,0,0,0,0,0,0,0,0,0,0,0,0,0,0,0,0,0,0,0,0,0,0,0,0,0,0,0,0,0,0,0,0,0,0,0,0,0,0,0,0,0,0,0,0,0,0,0,0,0,0,0,0,0,0,0,0,0,0,0,0,0,0,0,0,0,0,0,0,0,0,0,0,0,0,0,0,0,0,0,0,0,0,0,0,0,0,0,0,0,0,0,0,0,0,0,0,0,0,0,0,0,0,0,0,0,0,0,0,0,0,0,0,0,0,0,0,0,0,0,0,0,0,0,0,0,0,0,0,0,0,0,0,0,0,0,0,0,0,0,0,0,0,0,0,0,0,0,0,0,0,0,0,0,0,0,0,0,0,0,0,0,0,0,0,0,0,0,0,0,0,0,0,0,0,0,0,0,0,0,0,0,0,0,0,0,0,0,0,0,0,0,0,0,0,0,0,0,0,0,0,0,0,0,0,0,0,0,0,0,0,0,0,0,0,0,0,0,0,0,0],"trees":[{"base_weights":[-0E0,-4.8824236E-1,5.6176156E-1,-2.5003985E-1,-1.0975405E0,7.80104E-1,-1.0446462E-2,-6.583345E-1,-1.5010071E-1,-1.2292717E0,-5.8732706E-1,6.0210073E-1,8.786862E-1,-5.821885E-1,2.3952276E-1,-8.708666E-1,-5.136239E-1,-4.689067E-1,-4.7092725E-2,-1.1315877E0,-8.393254E-2,-1.2623346E0,-2.9039997E-1,6.7312086E-1,1.9286676E-1,8.908419E-1,-5.1590747E-1,-1.1435543E0,-3.952082E-1,4.2098436E-1,-6.6292167E-1,-8.084496E-1,-6.8578444E-2,8.779046E-2,-5.743612E-1,-5.5982673E-1,9.35013E-2,-1.5245014E-1,2.1238822E-1,-7.121789E-2,-1.0649332E0,-1.4215094E0,-7.9400194E-1,-4.8227623E-1,2.850546E-1,4.8230812E-1,7.595976E-1,4.2102763E-1,7.387389E-3,8.400067E-1,1.0737312E0,-9.810745E-1,1.7816588E-1,-7.324397E-2,-9.2325604E-1,-2.3152195E-1,-8.780532E-1,-1.8332532E-1,5.954352E-1,6.372047E-2,-7.112926E-1,-4.1727956E-2,6.2225938E-2,-2.560302E-2,-5.0700802E-2,-3.3712596E-2,-1.0697626E-2,-1.2928545E-3,3.5015807E-2,-3.3178588E-3,-1.7185235E-2,6.7614764E-4,1.681372E-2,-8.107823E-2,-5.1246017E-2,-7.4525714E-2,-2.3591613E-2,4.9771495E-2,-4.8245467E-2,6.756357E-2,-2.653462E-2,7.599142E-2,6.202091E-3,3.842132E-2,1.5993908E-2,2.047573E-2,4.0199276E-2,-5.8371045E-2,2.5986833E-2,2.159499E-2,-8.214249E-3,4.424022E-2,-1.3493518E-3,9.6724585E-2,4.832653E-2,-5.9521545E-2,3.061091E-2,-3.9118234E-2,2.9208643E-2,-5.6448173E-2,-2.5893798E-2,-1.8149514E-2,8.92823E-2,-5.849072E-2,-2.7093543E-2,8.090769E-2,-1.3422853E-2,9.340519E-2,2.7065186E-2,-4.1503724E-2,-2.0471305E-2],"categories":[],"categories_nodes":[],"categories_segments":[],"categories_sizes":[],"default_left":[0,0,0,0,0,0,0,0,0,0,0,0,0,0,0,0,0,0,0,0,0,0,0,0,0,0,0,0,0,0,0,0,0,0,0,0,0,0,0,0,0,0,0,0,0,0,0,0,0,0,0,0,0,0,0,0,0,0,0,0,0,0,0,0,0,0,0,0,0,0,0,0,0,0,0,0,0,0,0,0,0,0,0,0,0,0,0,0,0,0,0,0,0,0,0,0,0,0,0,0,0,0,0,0,0,0,0,0,0,0,0],"id":0,"left_children":[1,3,5,7,9,11,13,15,17,19,21,23,25,27,29,31,33,35,37,39,-1,41,43,45,47,49,51,53,55,57,59,61,-1,-1,63,65,67,69,71,-1,73,75,77,79,81,83,85,87,89,91,93,95,97,-1,99,101,103,105,107,-1,109,-1,-1,-1,-1,-1,-1,-1,-1,-1,-1,-1,-1,-1,-1,-1,-1,-1,-1,-1,-1,-1,-1,-1,-1,-1,-1,-1,-1,-1,-1,-1,-1,-1,-1,-1,-1,-1,-1,-1,-1,-1,-1,-1,-1,-1,-1,-1,-1,-1,-1],"loss_changes":[4.343152E3,1.2283517E3,9.203301E2,2.4805716E2,1.5760742E2,9.173486E1,2.9128323E2,3.521936E1,1.6058432E2,7.7716064E1,9.729982E1,5.4760315E1,5.9154297E1,6.342975E1,2.3243884E2,1.1708801E1,1.0042763E2,6.144217E1,1.0135544E2,2.6139404E1,0E0,7.779434E0,3.8521667E1,2.5443237E1,1.1882639E1,2.8810059E1,1.0598117E1,6.94899E0,3.610547E1,1.2495239E2,2.3787277E1,2.5081482E1,0E0,0E0,1.740599E1,4.0020813E1,1.24869E1,4.3193295E1,2.6170612E1,0E0,2.3838623E1,4.7060394E0,1.5132545E1,2.4148994E1,1.6097586E1,2.2839958E1,1.6018188E1,2.0802189E1,1.2008725E1,1.04117676E2,6.209973E1,8.08437E0,6.0796585E0,0E0,6.1167603E0,9.43957E1,9.376648E0,4.0911156E1,5.999695E1,0E0,7.063881E0,0E0,0E0,0E0,0E0,0E0,0E0,0E0,0E0,0E0,0E0,0E0,0E0,0E0,0E0,0E0,0E0,0E0,0E0,0E0,0E0,0E0,0E0,0E0,0E0,0E0,0E0,0E0,0E0,0E0,0E0,0E0,0E0,0E0,0E0,0E0,0E0,0E0,0E0,0E0,0E0,0E0,0E0,0E0,0E0,0E0,0E0,0E0,0E0,0E0,0E0],"parents":[2147483647,0,0,1,1,2,2,3,3,4,4,5,5,6,6,7,7,8,8,9,9,10,10,11,11,12,12,13,13,14,14,15,15,16,16,17,17,18,18,19,19,21,21,22,22,23,23,24,24,25,25,26,26,27,27,28,28,29,29,30,30,31,31,34,34,35,35,36,36,37,37,38,38,40,40,41,41,42,42,43,43,44,44,45,45,46,46,47,47,48,48,49,49,50,50,51,51,52,52,54,54,55,55,56,56,57,57,58,58,60,60],"right_children":[2,4,6,8,10,12,14,16,18,20,22,24,26,28,30,32,34,36,38,40,-1,42,44,46,48,50,52,54,56,58,60,62,-1,-1,64,66,68,70,72,-1,74,76,78,80,82,84,86,88,90,92,94,96,98,-1,100,102,104,106,108,-1,110,-1,-1,-1,-1,-1,-1,-1,-1,-1,-1,-1,-1,-1,-1,-1,-1,-1,-1,-1,-1,-1,-1,-1,-1,-1,-1,-1,-1,-1,-1,-1,-1,-1,-1,-1,-1,-1,-1,-1,-1,-1,-1,-1,-1,-1,-1,-1,-1,-1,-1],"split_conditions":[1.28E2,1E0,1E0,2.3148148E1,2.8440954E1,2.6674875E1,1.680728E2,1.6209593E2,1.2E2,1E0,1.6716673E2,1.5E2,1E0,1.6209593E2,1E0,1.6197928E2,1.63E2,3.2467533E1,2.9411764E1,2.2546576E1,-8.393254E-2,1.6518471E2,1.7606271E2,2.3488081E1,2.3828125E1,1.6518471E2,3.299526E1,1.3889374E2,1.68E2,2.4977043E1,1.69E2,1.6133066E2,-6.8578444E-2,8.779046E-2,2.3011177E1,1.6518471E2,1.66197E2,1.66E2,1.5811905E2,-7.121789E-2,3.8E1,4.53472E1,1.66E2,1.6794777E2,1.77E2,1.6E2,1.5505537E2,1.532251E2,5.5E1,1.65E2,1.66E2,1.7509216E2,1.5505537E2,-7.324397E-2,2.890625E1,1.6716673E2,2.6643599E1,1.69E2,1.69E2,6.372047E-2,1.7606271E2,-4.1727956E-2,6.2225938E-2,-2.560302E-2,-5.0700802E-2,-3.3712596E-2,-1.0697626E-2,-1.2928545E-3,3.5015807E-2,-3.3178588E-3,-1.7185235E-2,6.7614764E-4,1.681372E-2,-8.107823E-2,-5.1246017E-2,-7.4525714E-2,-2.3591613E-2,4.9771495E-2,-4.8245467E-2,6.756357E-2,-2.653462E-2,7.599142E-2,6.202091E-3,3.842132E-2,1.5993908E-2,2.047573E-2,4.0199276E-2,-5.8371045E-2,2.5986833E-2,2.159499E-2,-8.214249E-3,4.424022E-2,-1.3493518E-3,9.6724585E-2,4.832653E-2,-5.9521545E-2,3.061091E-2,-3.9118234E-2,2.9208643E-2,-5.6448173E-2,-2.5893798E-2,-1.8149514E-2,8.92823E-2,-5.849072E-2,-2.7093543E-2,8.090769E-2,-1.3422853E-2,9.340519E-2,2.7065186E-2,-4.1503724E-2,-2.0471305E-2],"split_indices":[7,0,0,10,10,10,2,2,7,4,2,7,4,2,4,2,2,10,10,10,0,2,2,10,10,2,10,7,2,10,2,2,0,0,10,2,2,2,2,0,11,11,2,2,2,2,2,2,11,2,2,2,2,0,10,2,10,2,2,0,2,0,0,0,0,0,0,0,0,0,0,0,0,0,0,0,0,0,0,0,0,0,0,0,0,0,0,0,0,0,0,0,0,0,0,0,0,0,0,0,0,0,0,0,0,0,0,0,0,0,0],"split_type":[0,0,0,0,0,0,0,0,0,0,0,0,0,0,0,0,0,0,0,0,0,0,0,0,0,0,0,0,0,0,0,0,0,0,0,0,0,0,0,0,0,0,0,0,0,0,0,0,0,0,0,0,0,0,0,0,0,0,0,0,0,0,0,0,0,0,0,0,0,0,0,0,0,0,0,0,0,0,0,0,0,0,0,0,0,0,0,0,0,0,0,0,0,0,0,0,0,0,0,0,0,0,0,0,0,0,0,0,0,0,0],"sum_hessian":[1.5830981E4,8.469856E3,7.361125E3,6.0918965E3,2.3779597E3,5.3281597E3,2.0329655E3,1.1947297E3,4.897167E3,1.8869679E3,4.9099167E2,1.9059677E3,3.422192E3,6.182395E2,1.414726E3,4.7849188E2,7.1623785E2,1.1929797E3,3.704187E3,1.5567235E3,3.302444E2,1.474975E2,3.4349417E2,1.6219724E3,2.8399518E2,3.3936924E3,2.8499516E1,1.5124744E2,4.6699207E2,1.17923E3,2.35496E2,4.3099268E2,4.749919E1,1.6999712E1,6.992381E2,1.0277325E3,1.652472E2,2.6364553E3,1.0677318E3,2.7974524E2,1.2769783E3,1.0624819E2,4.12493E1,2.584956E2,8.499856E1,5.117413E2,1.1102311E3,1.2499788E2,1.589973E2,2.6664546E3,7.272377E2,1.6999712E1,1.14998045E1,5.599905E1,9.524838E1,3.5174402E2,1.1524804E2,2.634955E2,9.1573444E2,4.249928E0,2.3124608E2,4.2699274E2,3.999932E0,6.172395E2,8.1998604E1,7.6973694E2,2.579956E2,1.3899763E2,2.6249554E1,1.821719E3,8.1473615E2,4.12243E2,6.554889E2,7.949865E1,1.1974796E3,9.7498344E1,8.749851E0,2.4999576E0,3.874934E1,4.999915E0,2.534957E2,7.4998727E0,7.749868E1,1.8149692E2,3.302444E2,1.2849782E2,9.8173334E2,5.7499022E0,1.1924797E2,4.574922E1,1.1324808E2,2.535957E3,1.3049779E2,7.62487E1,6.5098895E2,1.5749732E1,1.2499788E0,2.4999576E0,8.999847E0,5.999898E1,3.52494E1,3.3199435E2,1.9749664E1,5.8249012E1,5.699903E1,9.99983E0,2.534957E2,3.4249416E1,8.8148505E2,1.6224724E2,6.8998825E1],"tree_param":{"num_deleted":"0","num_feature":"12","num_nodes":"111","size_leaf_vector":"1"}},{"base_weights":[-0E0,2.1917617E-1,-5.6743747E-1,-3.118736E-1,4.2310172E-1,-8.6491835E-1,-5.1415756E-2,-8.2190025E-1,-1.6308668E-1,2.584827E-1,7.927382E-1,-1.2020968E0,-4.8202333E-1,-5.3505707E-1,2.0659211E-1,-8.793848E-1,6.06526E-1,3.37882E-1,-3.1564203E-1,4.6360567E-2,4.9459395E-1,9.564065E-2,7.455763E-1,-1.3719091E0,-9.1993755E-1,-6.655247E-1,-2.1442129E-1,-7.700421E-1,-1.2135135E-1,3.4346154E-1,-6.1864924E-1,-3.590185E-1,-1.0606778E0,-3.3235878E-1,5.0676595E-2,-8.606049E-1,3.767994E-1,-5.28148E-1,1.0949798E-1,4.7918376E-1,-1.0449371E-1,2.343654E-1,6.3411975E-1,1.0982627E0,6.0430413E-1,-1.4173986E0,-8.99597E-1,-1.3452307E0,-6.368635E-1,-2.090405E-1,-7.9751927E-1,-5.9649765E-1,1.2874067E-1,7.772982E-2,-8.368693E-1,3.2796755E-1,-3.1887895E-1,3.853764E-1,-1.1152338E0,-6.884531E-1,1.6905913E-1,-3.2299593E-2,4.809844E-3,-8.1204854E-2,-4.6631392E-2,1.38478E-2,-5.6102373E-2,-2.5667723E-3,-5.81216E-2,1.9950094E-2,-5.926591E-2,-3.3334907E-2,3.1940618E-3,-5.1665515E-2,9.964942E-3,2.515679E-3,3.0563978E-2,1.1601889E-2,-1.1055573E-2,3.5409834E-2,2.4358374E-3,3.416174E-2,-2.0673787E-2,5.6099035E-2,-6.7720707E-3,-1.8825732E-2,3.2433663E-2,-6.751278E-2,-8.32514E-2,-6.225112E-2,-2.0207917E-2,-6.942521E-2,-2.9590601E-2,-2.2503585E-2,-6.7091435E-2,-6.1786077E-3,-5.210138E-2,-3.6888015E-2,-8.07328E-2,6.95803E-2,-3.2560907E-2,1.310976E-2,-2.7128993E-2,-5.426789E-2,-2.610007E-2,2.6583552E-2,-2.634951E-2,-2.8401528E-2,1.0089825E-2,6.4880536E-3,2.9859174E-2,-6.369414E-2,-1.4770909E-2,-2.5549222E-2,-5.484694E-2,3.9338723E-2,-2.2385241E-2],"categories":[],"categories_nodes":[],"categories_segments":[],"categories_sizes":[],"default_left":[0,0,0,0,0,0,0,0,0,0,0,0,0,0,0,0,0,0,0,0,0,0,0,0,0,0,0,0,0,0,0,0,0,0,0,0,0,0,0,0,0,0,0,0,0,0,0,0,0,0,0,0,0,0,0,0,0,0,0,0,0,0,0,0,0,0,0,0,0,0,0,0,0,0,0,0,0,0,0,0,0,0,0,0,0,0,0,0,0,0,0,0,0,0,0,0,0,0,0,0,0,0,0,0,0,0,0,0,0,0,0,0,0,0,0,0,0],"id":1,"left_children":[1,3,5,7,9,11,13,15,17,19,21,23,25,27,29,31,33,35,37,39,41,-1,43,45,47,49,51,53,55,57,59,61,63,65,-1,67,69,71,73,75,77,79,81,83,85,87,89,91,93,95,97,99,101,-1,103,105,107,109,111,113,115,-1,-1,-1,-1,-1,-1,-1,-1,-1,-1,-1,-1,-1,-1,-1,-1,-1,-1,-1,-1,-1,-1,-1,-1,-1,-1,-1,-1,-1,-1,-1,-1,-1,-1,-1,-1,-1,-1,-1,-1,-1,-1,-1,-1,-1,-1,-1,-1,-1,-1,-1,-1,-1,-1,-1,-1],"loss_changes":[1.9687284E3,1.23687E3,6.765383E2,2.3969019E2,5.0117896E2,3.5911743E2,2.0199445E2,5.9859924E1,1.87923E2,2.8582007E2,1.3003052E2,6.749756E1,6.3789154E1,5.4128296E1,1.19379456E2,6.3420654E1,1.1898419E1,2.7159462E1,1.7059622E2,1.9699927E2,9.738666E1,0E0,1.1948108E2,1.6102417E1,6.534354E1,4.599872E1,7.099112E1,5.787387E1,1.859396E1,5.5899788E1,8.7506485E0,2.410473E1,3.2371216E1,5.7344704E0,0E0,3.7301435E0,1.9882637E1,1.03551056E2,6.454341E1,4.3788986E1,8.780588E1,8.29108E1,9.108795E1,2.1130005E1,7.673187E1,7.906494E0,1.3134346E1,4.648987E0,4.3176422E1,1.1825699E1,2.5808472E1,2.9275406E1,2.5646137E1,0E0,2.5416565E1,1.1619085E1,1.9315207E1,4.7271652E1,1.7782478E0,8.147301E0,5.9214725E0,0E0,0E0,0E0,0E0,0E0,0E0,0E0,0E0,0E0,0E0,0E0,0E0,0E0,0E0,0E0,0E0,0E0,0E0,0E0,0E0,0E0,0E0,0E0,0E0,0E0,0E0,0E0,0E0,0E0,0E0,0E0,0E0,0E0,0E0,0E0,0E0,0E0,0E0,0E0,0E0,0E0,0E0,0E0,0E0,0E0,0E0,0E0,0E0,0E0,0E0,0E0,0E0,0E0,0E0,0E0,0E0],"parents":[2147483647,0,0,1,1,2,2,3,3,4,4,5,5,6,6,7,7,8,8,9,9,10,10,11,11,12,12,13,13,14,14,15,15,16,16,17,17,18,18,19,19,20,20,22,22,23,23,24,24,25,25,26,26,27,27,28,28,29,29,30,30,31,31,32,32,33,33,35,35,36,36,37,37,38,38,39,39,40,40,41,41,42,42,43,43,44,44,45,45,46,46,47,47,48,48,49,49,50,50,51,51,52,52,54,54,55,55,56,56,57,57,58,58,59,59,60,60],"right_children":[2,4,6,8,10,12,14,16,18,20,22,24,26,28,30,32,34,36,38,40,42,-1,44,46,48,50,52,54,56,58,60,62,64,66,-1,68,70,72,74,76,78,80,82,84,86,88,90,92,94,96,98,100,102,-1,104,106,108,110,112,114,116,-1,-1,-1,-1,-1,-1,-1,-1,-1,-1,-1,-1,-1,-1,-1,-1,-1,-1,-1,-1,-1,-1,-1,-1,-1,-1,-1,-1,-1,-1,-1,-1,-1,-1,-1,-1,-1,-1,-1,-1,-1,-1,-1,-1,-1,-1,-1,-1,-1,-1,-1,-1,-1,-1,-1,-1],"split_conditions":[1E0,5.1E1,8.032053E1,4.3E1,7.802012E1,5.5E1,5.2E1,1.75E0,1E0,1.5009674E0,7.9E1,1.5294118E0,7.214258E1,9.2252625E1,1E0,1E0,6.619866E1,5.3E1,7.529135E1,1E0,5.6E1,9.564065E-2,1E0,5.4E1,6.913243E1,1E0,1.5009674E0,8.1E1,1E0,6.4E1,1.7152619E0,7.214258E1,5.9193214E1,5.9193214E1,5.0676595E-2,4.9E1,1E0,1.6043307E0,1.4416255E0,6.2329426E1,1.5E0,1.5625E0,6.4E1,6.4E1,7.920498E1,1E0,7.214258E1,1.75E0,1E0,6.4E1,1.666669E0,7.3E1,1E0,7.772982E-2,1.5009674E0,1E0,1.5719382E0,1.5009674E0,1.6043307E0,1E0,5.7E1,-3.2299593E-2,4.809844E-3,-8.1204854E-2,-4.6631392E-2,1.38478E-2,-5.6102373E-2,-2.5667723E-3,-5.81216E-2,1.9950094E-2,-5.926591E-2,-3.3334907E-2,3.1940618E-3,-5.1665515E-2,9.964942E-3,2.515679E-3,3.0563978E-2,1.1601889E-2,-1.1055573E-2,3.5409834E-2,2.4358374E-3,3.416174E-2,-2.0673787E-2,5.6099035E-2,-6.7720707E-3,-1.8825732E-2,3.2433663E-2,-6.751278E-2,-8.32514E-2,-6.225112E-2,-2.0207917E-2,-6.942521E-2,-2.9590601E-2,-2.2503585E-2,-6.7091435E-2,-6.1786077E-3,-5.210138E-2,-3.6888015E-2,-8.07328E-2,6.95803E-2,-3.2560907E-2,1.310976E-2,-2.7128993E-2,-5.426789E-2,-2.610007E-2,2.6583552E-2,-2.634951E-2,-2.8401528E-2,1.0089825E-2,6.4880536E-3,2.9859174E-2,-6.369414E-2,-1.4770909E-2,-2.5549222E-2,-5.484694E-2,3.9338723E-2,-2.2385241E-2],"split_indices":[0,1,3,1,3,1,1,9,6,9,3,9,3,3,4,6,3,3,3,6,1,0,6,1,3,6,9,3,6,1,9,3,3,3,0,3,4,9,9,3,9,9,1,1,3,4,3,9,4,1,9,3,4,0,9,4,9,9,9,5,1,0,0,0,0,0,0,0,0,0,0,0,0,0,0,0,0,0,0,0,0,0,0,0,0,0,0,0,0,0,0,0,0,0,0,0,0,0,0,0,0,0,0,0,0,0,0,0,0,0,0,0,0,0,0,0,0],"split_type":[0,0,0,0,0,0,0,0,0,0,0,0,0,0,0,0,0,0,0,0,0,0,0,0,0,0,0,0,0,0,0,0,0,0,0,0,0,0,0,0,0,0,0,0,0,0,0,0,0,0,0,0,0,0,0,0,0,0,0,0,0,0,0,0,0,0,0,0,0,0,0,0,0,0,0,0,0,0,0,0,0,0,0,0,0,0,0,0,0,0,0,0,0,0,0,0,0,0,0,0,0,0,0,0,0,0,0,0,0,0,0,0,0,0,0,0,0],"sum_hessian":[1.5825182E4,1.1416392E4,4.4087896E3,3.1666072E3,8.249785E3,2.795115E3,1.6136746E3,7.123465E2,2.4542605E3,5.711083E3,2.5387017E3,1.483317E3,1.311798E3,5.612986E2,1.052376E3,6.858639E2,2.6482643E1,5.7157794E2,1.8826826E3,3.010744E3,2.7003394E3,9.895041E1,2.4397512E3,9.200846E2,5.632325E2,7.7530774E2,5.364903E2,3.561015E2,2.051971E2,9.041866E2,1.4818932E2,1.7946442E2,5.0639948E2,7.7479444E0,1.8734697E1,1.6244444E1,5.553335E2,1.2557089E3,6.2697375E2,7.778729E2,2.2328708E3,9.4561755E2,1.7547217E3,6.9288214E2,1.7468691E3,8.3463837E2,8.544626E1,2.2137128E2,3.4186118E2,1.759086E2,5.993992E2,2.538426E2,2.8264767E2,8.497603E0,3.4760388E2,6.148477E1,1.4371233E2,8.806947E2,2.349191E1,1.3694087E2,1.1248444E1,1.1023261E2,6.92318E1,8.872745E1,4.1767203E2,4.7490444E0,2.9989E0,5.498477E0,1.0745968E1,5.49335E2,5.998496E0,1.018051E3,2.3765785E2,4.374117E1,5.832326E2,1.847145E2,5.9315845E2,5.7301556E2,1.6598553E3,2.638557E2,6.817619E2,1.6772587E3,7.746301E1,6.8038806E2,1.2494041E1,7.4467064E1,1.6724021E3,6.683458E2,1.6629251E2,4.7967575E1,3.7478683E1,2.0712529E2,1.424599E1,2.7340442E2,6.845677E1,1.6216652E2,1.3742088E1,5.626676E2,3.6731552E1,5.2459846E0,2.4859662E2,2.3741469E2,4.5232967E1,1.9065787E2,1.5694603E2,5.073715E1,1.0747622E1,9.7726845E1,4.5985477E1,4.016079E2,4.790868E2,1.8243786E1,5.2481265E0,9.94571E1,3.748377E1,5.7494793E0,5.498964E0],"tree_param":{"num_deleted":"0","num_feature":"12","num_nodes":"117","size_leaf_vector":"1"}},{"base_weights":[-1.0223127E-4,-4.5346907E-1,5.216389E-1,-5.588813E-1,-5.670059E-2,5.64138E-1,-7.0006305E-1,-5.258836E-1,-1.5444608E0,-1.7959861E-2,-1.230013E0,4.097155E-1,7.5115865E-1,-4.8273894E-1,-9.844291E-1,-3.9675385E-1,-7.497624E-1,-8.375507E-2,-6.167511E-1,5.8653794E-2,-3.4036437E-1,-1.3250432E0,-3.510983E-1,6.635255E-1,3.209958E-1,7.60213E-1,-2.2728404E-3,-7.0046604E-1,-1.1138417E-1,3.4601342E-2,-1.0271659E0,-4.3680632E-1,9.7810954E-2,-1.2393218E0,-6.5197104E-1,3.9602247E-1,-6.7684464E-2,-4.2187717E-2,1.9651945E-1,-6.805822E-1,-6.473964E-2,-0E0,-1.3665165E0,-0E0,-3.4825146E-2,5.8781606E-1,9.3172185E-2,-6.246745E-1,3.7270397E-1,6.148991E-1,8.033615E-1,2.0486264E-1,-6.2164116E-1,-7.911865E-2,-8.200717E-1,-7.786428E-1,1.9853984E-1,-5.379296E-1,-1.2831435E0,-1.9613639E-2,-6.690899E-2,-5.5387236E-2,-8.275919E-2,9.8142676E-2,-3.81582E-2,6.5517776E-2,-3.393129E-2,-2.2609415E-2,8.7516534E-4,1.8879358E-2,-5.266192E-3,-1.3175398E-2,-4.8777055E-2,1.06922E-2,-2.5258696E-2,-7.497463E-2,-3.2786626E-2,-2.4967676E-2,3.4082633E-2,3.2973908E-2,-1.5273723E-2,-3.5949413E-2,7.059892E-5,9.379795E-2,1.6743101E-2,3.509104E-2,-1.4799054E-2,2.0796297E-2,4.103403E-2,-2.0131439E-3,3.728519E-2,2.5237674E-2,-4.9898375E-2,-2.3522226E-2,2.6747817E-2,-5.044776E-2,-9.242547E-3,-5.907605E-2,-2.15018E-2,-1.8885843E-2,2.3018075E-2,-3.1751607E-2,3.4036882E-2,-7.336247E-2,-2.2558425E-2],"categories":[],"categories_nodes":[],"categories_segments":[],"categories_sizes":[],"default_left":[0,0,0,0,0,0,0,0,0,0,0,0,0,0,0,0,0,0,0,0,0,0,0,0,0,0,0,0,0,0,0,0,0,0,0,0,0,0,0,0,0,0,0,0,0,0,0,0,0,0,0,0,0,0,0,0,0,0,0,0,0,0,0,0,0,0,0,0,0,0,0,0,0,0,0,0,0,0,0,0,0,0,0,0,0,0,0,0,0,0,0,0,0,0,0,0,0,0,0,0,0,0,0,0,0],"id":2,"left_children":[1,3,5,7,9,11,13,15,17,19,21,23,25,27,29,31,33,-1,35,37,39,41,43,45,47,49,51,53,55,-1,57,59,-1,61,63,65,-1,67,69,71,73,-1,75,77,-1,79,-1,81,83,85,87,89,91,93,95,97,99,101,103,-1,-1,-1,-1,-1,-1,-1,-1,-1,-1,-1,-1,-1,-1,-1,-1,-1,-1,-1,-1,-1,-1,-1,-1,-1,-1,-1,-1,-1,-1,-1,-1,-1,-1,-1,-1,-1,-1,-1,-1,-1,-1,-1,-1,-1,-1],"loss_changes":[3.7414907E3,3.536267E2,3.8253882E2,2.147832E2,8.023616E1,2.0408643E2,1.3624451E1,1.8596191E2,2.2854431E1,4.2799923E1,2.9462128E0,8.688391E1,2.2286133E1,1.1188374E1,9.067909E0,3.88365E2,1.1062073E2,0E0,2.408081E1,1.9482162E1,3.0750355E1,2.7479172E0,9.8283803E-1,8.802954E1,1.4188217E2,1.820044E1,5.526361E0,6.1379128E0,1.2374549E1,0E0,1.059359E1,1.6041193E2,0E0,1.6321411E1,5.7679944E2,1.5826437E1,0E0,1.993422E1,3.254854E1,1.7066177E1,2.3293533E1,0E0,1.5121613E0,2.871244E0,0E0,6.1405945E1,0E0,9.2366295E0,1.5386353E2,5.9028076E1,1.5055786E1,4.452932E0,5.913323E0,4.6712923E0,8.017796E0,8.433285E-1,6.4186234E0,5.510664E0,7.738777E0,0E0,0E0,0E0,0E0,0E0,0E0,0E0,0E0,0E0,0E0,0E0,0E0,0E0,0E0,0E0,0E0,0E0,0E0,0E0,0E0,0E0,0E0,0E0,0E0,0E0,0E0,0E0,0E0,0E0,0E0,0E0,0E0,0E0,0E0,0E0,0E0,0E0,0E0,0E0,0E0,0E0,0E0,0E0,0E0,0E0,0E0],"parents":[2147483647,0,0,1,1,2,2,3,3,4,4,5,5,6,6,7,7,8,8,9,9,10,10,11,11,12,12,13,13,14,14,15,15,16,16,18,18,19,19,20,20,21,21,22,22,23,23,24,24,25,25,26,26,27,27,28,28,30,30,31,31,33,33,34,34,35,35,37,37,38,38,39,39,40,40,42,42,43,43,45,45,47,47,48,48,49,49,50,50,51,51,52,52,53,53,54,54,55,55,56,56,57,57,58,58],"right_children":[2,4,6,8,10,12,14,16,18,20,22,24,26,28,30,32,34,-1,36,38,40,42,44,46,48,50,52,54,56,-1,58,60,-1,62,64,66,-1,68,70,72,74,-1,76,78,-1,80,-1,82,84,86,88,90,92,94,96,98,100,102,104,-1,-1,-1,-1,-1,-1,-1,-1,-1,-1,-1,-1,-1,-1,-1,-1,-1,-1,-1,-1,-1,-1,-1,-1,-1,-1,-1,-1,-1,-1,-1,-1,-1,-1,-1,-1,-1,-1,-1,-1,-1,-1,-1,-1,-1,-1],"split_conditions":[1.28E2,2.9411764E1,1E0,1E0,1E0,2.8732164E1,1.5711775E0,1.68E2,8.230199E1,1.5625E0,3.511111E1,1.6E2,1.0458553E2,1.7142378E2,1.3E2,1.6716673E2,1.680728E2,-8.375507E-2,1.75E2,3.2467533E1,3.1644285E1,7.024676E1,9.7E1,1.5922986E2,1.6004793E2,3.0120169E1,1.6634548E0,6.496838E1,1.4522732E0,3.4601342E-2,1.66E2,1.67E2,9.7810954E-2,7.4E1,1.69E2,2.8066423E1,-6.7684464E-2,1.4736842E0,3.4659695E1,3.0258022E1,8.9E1,-0E0,1.7334622E2,1.5922986E2,-3.4825146E-2,1.59E2,9.3172185E-2,1.6853932E0,1.61E2,3.0062101E1,1.4305556E0,1.4222208E2,1.680728E2,2.3828125E1,3.299526E1,1.7416245E2,2.6291723E1,1.6518471E2,1.7142857E0,-1.9613639E-2,-6.690899E-2,-5.5387236E-2,-8.275919E-2,9.8142676E-2,-3.81582E-2,6.5517776E-2,-3.393129E-2,-2.2609415E-2,8.7516534E-4,1.8879358E-2,-5.266192E-3,-1.3175398E-2,-4.8777055E-2,1.06922E-2,-2.5258696E-2,-7.497463E-2,-3.2786626E-2,-2.4967676E-2,3.4082633E-2,3.2973908E-2,-1.5273723E-2,-3.5949413E-2,7.059892E-5,9.379795E-2,1.6743101E-2,3.509104E-2,-1.4799054E-2,2.0796297E-2,4.103403E-2,-2.0131439E-3,3.728519E-2,2.5237674E-2,-4.9898375E-2,-2.3522226E-2,2.6747817E-2,-5.044776E-2,-9.242547E-3,-5.907605E-2,-2.15018E-2,-1.8885843E-2,2.3018075E-2,-3.1751607E-2,3.4036882E-2,-7.336247E-2,-2.2558425E-2],"split_indices":[7,10,5,5,5,10,9,2,3,9,10,2,3,2,7,2,2,0,2,10,10,3,3,2,2,10,9,3,9,0,2,2,0,3,2,10,0,9,10,10,3,0,2,2,0,2,0,9,2,10,9,7,2,10,10,2,10,2,9,0,0,0,0,0,0,0,0,0,0,0,0,0,0,0,0,0,0,0,0,0,0,0,0,0,0,0,0,0,0,0,0,0,0,0,0,0,0,0,0,0,0,0,0,0,0],"split_type":[0,0,0,0,0,0,0,0,0,0,0,0,0,0,0,0,0,0,0,0,0,0,0,0,0,0,0,0,0,0,0,0,0,0,0,0,0,0,0,0,0,0,0,0,0,0,0,0,0,0,0,0,0,0,0,0,0,0,0,0,0,0,0,0,0,0,0,0,0,0,0,0,0,0,0,0,0,0,0,0,0,0,0,0,0,0,0,0,0,0,0,0,0,0,0,0,0,0,0,0,0,0,0,0,0],"sum_hessian":[1.5813718E4,8.461938E3,7.3517793E3,6.68406E3,1.777878E3,7.106068E3,2.4571146E2,6.4709834E3,2.1307704E2,1.7234302E3,5.44479E1,3.8972087E3,3.208859E3,1.4332793E2,1.0238353E2,4.1088438E3,2.3621394E3,1.8489047E2,2.8186571E1,1.3925912E3,3.3083905E2,4.770578E1,6.7421184E0,1.0046124E3,2.8925964E3,3.1713926E3,3.7466408E1,8.838719E1,5.4940742E1,1.498932E0,1.008846E2,4.0418838E3,6.6960014E1,3.8854764E2,1.9735917E3,1.1975454E1,1.6211117E1,8.0299994E2,5.895912E2,1.4594234E2,1.848967E2,1.4997723E0,4.620601E1,4.494726E0,2.247392E0,9.481828E2,5.642965E1,1.4831375E2,2.7442827E3,7.3572705E2,2.4356655E3,2.8474785E1,8.991623E0,1.5478793E1,7.29084E1,1.6977396E1,3.7963345E1,3.7455048E1,6.342955E1,3.8548547E3,1.8702916E2,3.016398E2,8.690784E1,7.895991E1,1.8946317E3,6.48472E0,5.4907346E0,1.0144294E2,7.01557E2,3.692454E2,2.203458E2,6.2727303E1,8.3215034E1,1.1319332E2,7.170338E1,3.6461876E1,9.744133E0,2.9969888E0,1.4977375E0,8.7876886E2,6.94139E1,1.2933287E2,1.8980883E1,6.46765E1,2.6796062E3,6.725557E2,6.3171345E1,1.07596245E2,2.3280693E3,2.0231764E1,8.243021E0,1.7481155E0,7.2435074E0,1.0237112E1,5.2416816E0,5.468418E1,1.8224216E1,4.9935894E0,1.1983808E1,1.0986843E1,2.6976501E1,3.5958046E1,1.4970007E0,5.0194088E1,1.3235463E1],"tree_param":{"num_deleted":"0","num_feature":"12","num_nodes":"105","size_leaf_vector":"1"}},{"base_weights":[-1.5155548E-4,-4.3130296E-1,4.961433E-1,-2.1983942E-1,-9.74149E-1,6.9161475E-1,-1.5284498E-2,-5.8986574E-1,-1.2933247E-1,-1.1143794E0,-5.870571E-1,4.3500364E-1,7.6734155E-1,-5.536691E-1,1.8107389E-1,-7.848459E-1,-4.958188E-1,-4.292614E-1,-3.2446053E-2,-1.3190053E0,-1.0594416E0,-1.2249693E0,-4.4180948E-1,5.280478E-1,-2.651617E-1,9.184271E-2,7.5166965E-1,-4.57859E-1,-1.2306787E0,7.810613E-2,4.0721953E-1,-8.1054664E-1,1.8878385E-1,1.1584182E0,-5.421088E-1,-5.293279E-1,-1.7196462E-2,-1.0501544E-1,2.3744923E-1,1.840057E-2,-1.3283602E0,-7.172765E-2,-1.0287067E0,4.8999887E-2,-1.2901185E0,-3.530514E-1,-1.3782245E0,4.557424E-1,9.083526E-2,-5.4072565E-1,2.8024808E-1,-5.8518212E-2,7.656014E-1,-7.156376E-1,-2.6294193E-1,-6.2407155E-2,-0E0,-3.6285877E-1,1.7116159E-1,5.7997847E-1,6.921663E-2,-4.4043146E-2,-2.2185579E-2,2.9544983E-2,-3.850405E-2,8.367197E-2,-1.2338664E-3,-2.4335891E-2,-4.6713594E-2,-4.5768507E-2,-2.3742428E-2,1.04429005E-2,-1.2947756E-2,-3.786221E-3,-4.565475E-2,8.4558435E-2,1.0227732E-2,-7.841159E-2,-6.113978E-2,-5.0005574E-2,-7.006393E-2,-3.1939935E-2,-6.711259E-2,-2.7429461E-2,1.784817E-3,1.6503325E-2,-8.072648E-2,2.5713459E-2,-1.4440452E-2,-5.7208754E-2,-1.8730557E-2,2.694715E-2,-1.5801927E-2,1.2689642E-2,-1.617611E-2,9.0550505E-2,3.756028E-2,5.0988332E-3,-3.833941E-2,7.374085E-2,-1.5778547E-2,1.401782E-2,-3.1552218E-2,1.4885939E-2,5.885582E-4,8.229961E-2,2.5895087E-2,-4.2622153E-2,1.2680443E-2],"categories":[],"categories_nodes":[],"categories_segments":[],"categories_sizes":[],"default_left":[0,0,0,0,0,0,0,0,0,0,0,0,0,0,0,0,0,0,0,0,0,0,0,0,0,0,0,0,0,0,0,0,0,0,0,0,0,0,0,0,0,0,0,0,0,0,0,0,0,0,0,0,0,0,0,0,0,0,0,0,0,0,0,0,0,0,0,0,0,0,0,0,0,0,0,0,0,0,0,0,0,0,0,0,0,0,0,0,0,0,0,0,0,0,0,0,0,0,0,0,0,0,0,0,0,0,0,0,0],"id":3,"left_children":[1,3,5,7,9,11,13,15,17,19,21,23,25,27,29,31,33,35,37,39,41,43,45,47,49,-1,51,53,55,57,59,61,63,65,67,69,71,73,75,-1,77,-1,79,-1,81,83,85,87,-1,89,91,93,95,97,99,-1,-1,101,103,105,107,-1,-1,-1,-1,-1,-1,-1,-1,-1,-1,-1,-1,-1,-1,-1,-1,-1,-1,-1,-1,-1,-1,-1,-1,-1,-1,-1,-1,-1,-1,-1,-1,-1,-1,-1,-1,-1,-1,-1,-1,-1,-1,-1,-1,-1,-1,-1,-1],"loss_changes":[3.3813337E3,9.697384E2,7.34703E2,2.0341467E2,1.2646265E2,1.0201831E2,2.1525233E2,2.0495178E1,1.4201881E2,1.5533936E1,5.69478E1,7.971074E1,6.4664795E1,3.3337494E1,3.439235E1,1.0218124E1,6.32294E1,4.8942703E1,7.253332E1,7.0980835E0,1.1736572E1,1.9355576E1,4.148368E1,9.7444244E1,2.19985E1,0E0,4.6095947E1,2.3287033E1,8.977814E-1,4.220793E1,2.6701912E1,8.221329E0,5.0578394E0,1.4606661E1,1.5602829E1,1.8618805E1,1.3049675E1,6.853099E1,3.5854145E1,0E0,3.7875977E0,0E0,9.682007E0,0E0,1.1590881E0,3.6728596E1,1.9450356E1,4.4929276E1,0E0,8.068277E0,7.99059E0,5.961503E0,5.5849365E1,9.049896E0,2.5774984E1,0E0,0E0,3.1376356E1,1.7006424E1,1.745916E1,2.7369375E1,0E0,0E0,0E0,0E0,0E0,0E0,0E0,0E0,0E0,0E0,0E0,0E0,0E0,0E0,0E0,0E0,0E0,0E0,0E0,0E0,0E0,0E0,0E0,0E0,0E0,0E0,0E0,0E0,0E0,0E0,0E0,0E0,0E0,0E0,0E0,0E0,0E0,0E0,0E0,0E0,0E0,0E0,0E0,0E0,0E0,0E0,0E0,0E0],"parents":[2147483647,0,0,1,1,2,2,3,3,4,4,5,5,6,6,7,7,8,8,9,9,10,10,11,11,12,12,13,13,14,14,15,15,16,16,17,17,18,18,19,19,20,20,21,21,22,22,23,23,24,24,26,26,27,27,28,28,29,29,30,30,31,31,32,32,33,33,34,34,35,35,36,36,37,37,38,38,40,40,42,42,44,44,45,45,46,46,47,47,49,49,50,50,51,51,52,52,53,53,54,54,57,57,58,58,59,59,60,60],"right_children":[2,4,6,8,10,12,14,16,18,20,22,24,26,28,30,32,34,36,38,40,42,44,46,48,50,-1,52,54,56,58,60,62,64,66,68,70,72,74,76,-1,78,-1,80,-1,82,84,86,88,-1,90,92,94,96,98,100,-1,-1,102,104,106,108,-1,-1,-1,-1,-1,-1,-1,-1,-1,-1,-1,-1,-1,-1,-1,-1,-1,-1,-1,-1,-1,-1,-1,-1,-1,-1,-1,-1,-1,-1,-1,-1,-1,-1,-1,-1,-1,-1,-1,-1,-1,-1,-1,-1,-1,-1,-1,-1],"split_conditions":[1.28E2,1E0,1E0,2.3148148E1,8.032053E1,6.520272E1,7.214258E1,7.9E1,1.2E2,2.2546576E1,2.747563E1,6.5E1,6.6E1,2.5648918E1,9.044729E1,6.913243E1,8E1,8.032053E1,8.032053E1,1E2,1.4494776E0,8.1E1,3.3749454E1,6.423381E1,2.6107433E1,9.184271E-2,6.619866E1,6.520272E1,2.9387754E1,1.4522732E0,3.28125E1,1.666669E0,1.15E2,1.5189873E0,2.3011177E1,6.0098576E1,8.6E1,8E1,8.1E1,1.840057E-2,7.9574196E1,-7.172765E-2,8E1,4.8999887E-2,2.4913494E1,9.2252625E1,1.4606742E0,6.4E1,9.083526E-2,1.5333333E0,2.8125E1,2.5458065E1,6.7E1,1.4059454E0,6.6E1,-6.2407155E-2,-0E0,1.4416255E0,2.7681662E1,9.1E1,9.5779816E1,-4.4043146E-2,-2.2185579E-2,2.9544983E-2,-3.850405E-2,8.367197E-2,-1.2338664E-3,-2.4335891E-2,-4.6713594E-2,-4.5768507E-2,-2.3742428E-2,1.04429005E-2,-1.2947756E-2,-3.786221E-3,-4.565475E-2,8.4558435E-2,1.0227732E-2,-7.841159E-2,-6.113978E-2,-5.0005574E-2,-7.006393E-2,-3.1939935E-2,-6.711259E-2,-2.7429461E-2,1.784817E-3,1.6503325E-2,-8.072648E-2,2.5713459E-2,-1.4440452E-2,-5.7208754E-2,-1.8730557E-2,2.694715E-2,-1.5801927E-2,1.2689642E-2,-1.617611E-2,9.0550505E-2,3.756028E-2,5.0988332E-3,-3.833941E-2,7.374085E-2,-1.5778547E-2,1.401782E-2,-3.1552218E-2,1.4885939E-2,5.885582E-4,8.229961E-2,2.5895087E-2,-4.2622153E-2,1.2680443E-2],"split_indices":[7,0,0,10,3,3,3,8,7,10,10,3,3,10,3,3,8,3,3,7,9,3,10,3,10,0,3,3,10,9,10,9,7,9,10,3,3,3,3,0,8,0,3,0,10,3,9,3,0,9,10,10,3,9,3,0,0,9,10,3,3,0,0,0,0,0,0,0,0,0,0,0,0,0,0,0,0,0,0,0,0,0,0,0,0,0,0,0,0,0,0,0,0,0,0,0,0,0,0,0,0,0,0,0,0,0,0,0,0],"split_type":[0,0,0,0,0,0,0,0,0,0,0,0,0,0,0,0,0,0,0,0,0,0,0,0,0,0,0,0,0,0,0,0,0,0,0,0,0,0,0,0,0,0,0,0,0,0,0,0,0,0,0,0,0,0,0,0,0,0,0,0,0,0,0,0,0,0,0,0,0,0,0,0,0,0,0,0,0,0,0,0,0,0,0,0,0,0,0,0,0,0,0,0,0,0,0,0,0,0,0,0,0,0,0,0,0,0,0,0,0],"sum_hessian":[1.5798383E4,8.454707E3,7.3436763E3,6.087195E3,2.367512E3,5.313204E3,2.0304724E3,1.1930403E3,4.8941543E3,1.734215E3,6.33297E2,1.2152489E3,4.097955E3,5.42347E2,1.4881254E3,3.8169492E2,8.113454E2,1.1920214E3,3.7021333E3,3.553877E2,1.3788273E3,1.1405775E2,5.1923926E2,1.0737634E3,1.4148547E2,5.5364155E1,4.0425908E3,4.7869363E2,6.3653362E1,1.0259126E3,4.6221283E2,3.727052E2,8.9896965E0,2.0483595E1,7.908618E2,9.5767535E2,2.3434601E2,2.9200618E3,7.820713E2,1.2422522E0,3.5414545E2,9.62694E1,1.2825579E3,2.24705E0,1.1181069E2,4.7728757E2,4.1951683E1,1.0196472E3,5.4116207E1,9.46156E1,4.6869865E1,6.762502E1,3.9749658E3,2.0270598E2,2.7598767E2,6.2405224E1,1.2481391E0,1.7682315E2,8.490894E2,3.0394855E2,1.5826428E2,3.092597E2,6.3445515E1,7.241715E0,1.7479813E0,1.3988062E1,6.495533E0,6.980265E2,9.283533E1,1.1339238E2,8.4428296E2,1.2017828E2,1.1416772E2,2.8206267E3,9.9435074E1,1.4737753E1,7.6733356E2,9.8310234E1,2.5583522E2,1.1992269E3,8.333087E1,1.0961527E1,1.0084917E2,3.178665E2,1.594211E2,4.7443657E0,3.7207317E1,9.4653345E2,7.311381E1,1.7231709E1,7.738389E1,3.3407227E1,1.346264E1,3.021457E1,3.7410458E1,5.0131622E1,3.9248342E3,1.1242248E1,1.9146373E2,6.244783E0,2.697429E2,5.145604E1,1.2536711E2,4.7057596E2,3.7851346E2,1.3474363E1,2.9047418E2,2.4724518E1,1.3353976E2],"tree_param":{"num_deleted":"0","num_feature":"12","num_nodes":"109","size_leaf_vector":"1"}},{"base_weights":[-1.8922973E-4,-2.7928555E-1,4.074394E-1,-8.729992E-1,-9.1072544E-2,5.8971417E-1,-6.686833E-2,-6.779237E-1,-1.249749E0,9.46174E-2,-6.2103117E-1,-7.7153844E-1,6.222E-1,-5.785298E-1,1.657385E-1,-1.432148E-1,-8.4471667E-1,-1.3219271E0,-8.678262E-1,5.1029027E-1,-4.857127E-2,-7.839807E-1,-1.6571029E-1,-1.0476227E0,4.44956E-1,9.3779355E-1,5.1304036E-1,-1.2826792E0,-4.3402484E-1,-4.7151974E-1,3.6717728E-1,4.467993E-1,-3.690669E-1,-7.2775894E-1,-1.2463953E0,-8.1291996E-2,-1.2447664E0,-0E0,-1.1151837E0,-1.628938E-1,6.191016E-1,3.3286232E-1,-1.7670028E-1,-1.0876014E0,-5.875438E-1,-8.390204E-1,1.644638E-1,6.0363394E-1,-1.1347052E0,-1.6323927E-1,9.388107E-1,1.0400063E0,6.8776596E-1,1.9483283E-1,5.953818E-1,-1.4399639E0,-4.759286E-1,-9.414301E-1,-2.596131E-1,7.8001104E-2,-5.500031E-1,-2.3993383E-1,5.760982E-1,-6.897028E-3,5.0406676E-2,-4.2834163E-2,-1.1989694E-2,-6.293166E-2,-2.9866248E-2,-8.0012865E-2,-3.4984354E-2,-4.992456E-2,-6.733809E-2,-2.1485072E-2,4.5503546E-2,-7.2908975E-2,-3.9524503E-2,-4.0487584E-2,1.600799E-3,1.659343E-2,3.8918056E-2,-1.30160395E-2,3.2524712E-2,-2.2241341E-2,5.4636126E-4,-5.840806E-2,-2.9386213E-2,-6.735321E-2,-2.5257139E-2,1.3897821E-2,-5.3478904E-2,3.8119595E-2,-3.6571042E-3,3.8849767E-2,-0E0,-5.8669668E-2,-0E0,1.34008825E-2,-3.02457E-2,5.0927784E-2,-0E0,4.441816E-2,5.8373243E-2,1.7434692E-2,4.885445E-2,3.6268303E-4,2.2022747E-2,3.0834839E-2,-1.4963654E-2,-7.94452E-2,-4.2478133E-2,-5.4213745E-3,-4.5260277E-2,-5.1908433E-2,-8.134202E-3,-3.205482E-3,-3.5422023E-2,-1.4083104E-2,-5.635838E-2,7.056537E-2,-1.7070219E-2,8.5752524E-2,2.6485959E-2],"categories":[],"categories_nodes":[],"categories_segments":[],"categories_sizes":[],"default_left":[0,0,0,0,0,0,0,0,0,0,0,0,0,0,0,0,0,0,0,0,0,0,0,0,0,0,0,0,0,0,0,0,0,0,0,0,0,0,0,0,0,0,0,0,0,0,0,0,0,0,0,0,0,0,0,0,0,0,0,0,0,0,0,0,0,0,0,0,0,0,0,0,0,0,0,0,0,0,0,0,0,0,0,0,0,0,0,0,0,0,0,0,0,0,0,0,0,0,0,0,0,0,0,0,0,0,0,0,0,0,0,0,0,0,0,0,0,0,0,0,0,0,0],"id":4,"left_children":[1,3,5,7,9,11,13,15,17,19,21,23,25,27,29,31,33,35,37,39,41,43,45,47,49,51,53,55,57,59,61,63,65,67,69,-1,71,73,75,77,79,81,83,85,87,89,91,93,95,97,99,101,103,105,107,109,111,113,115,-1,117,119,121,-1,-1,-1,-1,-1,-1,-1,-1,-1,-1,-1,-1,-1,-1,-1,-1,-1,-1,-1,-1,-1,-1,-1,-1,-1,-1,-1,-1,-1,-1,-1,-1,-1,-1,-1,-1,-1,-1,-1,-1,-1,-1,-1,-1,-1,-1,-1,-1,-1,-1,-1,-1,-1,-1,-1,-1,-1,-1,-1,-1],"loss_changes":[1.7949977E3,1.0460123E3,5.546715E2,1.6297498E2,7.0053375E2,2.0575488E2,2.1236961E2,1.3215894E2,1.7715088E1,3.1393423E2,1.3630573E2,3.7679794E1,1.5424341E2,5.4780533E1,1.575826E2,4.7918385E1,5.050525E1,9.501099E0,2.7760857E1,9.9409515E1,1.9164474E2,7.893225E1,1.0957761E2,1.448732E1,7.044328E0,2.734137E1,8.7637085E1,9.517609E0,4.0184723E1,4.8177956E1,1.1874894E2,3.3284866E1,1.5441563E1,5.8819366E1,4.538382E1,0E0,9.18573E0,1.2737762E1,7.730217E0,2.4265324E1,5.2188293E1,1.8621881E2,1.479799E2,1.9110779E1,4.9685944E1,4.2735107E1,4.7346615E1,2.6075816E-1,3.5525742E0,2.5353658E0,6.5216064E-1,1.2704712E1,3.238571E1,3.1870068E1,5.151837E1,2.8185883E0,2.252932E0,7.936905E0,3.028517E1,0E0,4.28515E1,4.0573303E1,3.377951E1,0E0,0E0,0E0,0E0,0E0,0E0,0E0,0E0,0E0,0E0,0E0,0E0,0E0,0E0,0E0,0E0,0E0,0E0,0E0,0E0,0E0,0E0,0E0,0E0,0E0,0E0,0E0,0E0,0E0,0E0,0E0,0E0,0E0,0E0,0E0,0E0,0E0,0E0,0E0,0E0,0E0,0E0,0E0,0E0,0E0,0E0,0E0,0E0,0E0,0E0,0E0,0E0,0E0,0E0,0E0,0E0,0E0,0E0,0E0,0E0],"parents":[2147483647,0,0,1,1,2,2,3,3,4,4,5,5,6,6,7,7,8,8,9,9,10,10,11,11,12,12,13,13,14,14,15,15,16,16,17,17,18,18,19,19,20,20,21,21,22,22,23,23,24,24,25,25,26,26,27,27,28,28,29,29,30,30,31,31,32,32,33,33,34,34,36,36,37,37,38,38,39,39,40,40,41,41,42,42,43,43,44,44,45,45,46,46,47,47,48,48,49,49,50,50,51,51,52,52,53,53,54,54,55,55,56,56,57,57,58,58,60,60,61,61,62,62],"right_children":[2,4,6,8,10,12,14,16,18,20,22,24,26,28,30,32,34,36,38,40,42,44,46,48,50,52,54,56,58,60,62,64,66,68,70,-1,72,74,76,78,80,82,84,86,88,90,92,94,96,98,100,102,104,106,108,110,112,114,116,-1,118,120,122,-1,-1,-1,-1,-1,-1,-1,-1,-1,-1,-1,-1,-1,-1,-1,-1,-1,-1,-1,-1,-1,-1,-1,-1,-1,-1,-1,-1,-1,-1,-1,-1,-1,-1,-1,-1,-1,-1,-1,-1,-1,-1,-1,-1,-1,-1,-1,-1,-1,-1,-1,-1,-1,-1,-1,-1,-1,-1,-1,-1],"split_conditions":[4.53472E1,4.9E1,1E0,1E0,1E0,4.2E1,1.680728E2,1E0,2.9065744E1,1E0,2.8440954E1,1.75E0,1E0,4.9E1,2.493372E1,1.4653134E0,1.5555556E0,2.2546576E1,2.9721079E1,2.3148148E1,1.5E0,5.5E1,1.680728E2,5E1,2.770083E1,1.6455696E0,2.4535124E1,3.0120169E1,1.6209593E2,1.69E2,5.1E1,3.5E1,1.5811905E2,3.8E1,1.6411754E2,-8.1291996E-2,2.403461E1,1.7606271E2,4.5E1,2.0957273E1,5.5E1,3.8E1,5.5E1,2.734375E1,1.6004793E2,1.4059454E0,1E0,1.6E2,1.7509216E2,1.6004793E2,3.2430973E1,2.869898E1,5.7E1,5.7E1,6.4E1,1.6716673E2,1.67E2,1.7344711E0,1.6428572E0,7.8001104E-2,1.6260433E0,5E1,1.69E2,-6.897028E-3,5.0406676E-2,-4.2834163E-2,-1.1989694E-2,-6.293166E-2,-2.9866248E-2,-8.0012865E-2,-3.4984354E-2,-4.992456E-2,-6.733809E-2,-2.1485072E-2,4.5503546E-2,-7.2908975E-2,-3.9524503E-2,-4.0487584E-2,1.600799E-3,1.659343E-2,3.8918056E-2,-1.30160395E-2,3.2524712E-2,-2.2241341E-2,5.4636126E-4,-5.840806E-2,-2.9386213E-2,-6.735321E-2,-2.5257139E-2,1.3897821E-2,-5.3478904E-2,3.8119595E-2,-3.6571042E-3,3.8849767E-2,-0E0,-5.8669668E-2,-0E0,1.34008825E-2,-3.02457E-2,5.0927784E-2,-0E0,4.441816E-2,5.8373243E-2,1.7434692E-2,4.885445E-2,3.6268303E-4,2.2022747E-2,3.0834839E-2,-1.4963654E-2,-7.94452E-2,-4.2478133E-2,-5.4213745E-3,-4.5260277E-2,-5.1908433E-2,-8.134202E-3,-3.205482E-3,-3.5422023E-2,-1.4083104E-2,-5.635838E-2,7.056537E-2,-1.7070219E-2,8.5752524E-2,2.6485959E-2],"split_indices":[11,1,0,0,0,1,2,6,10,6,10,9,6,1,10,9,9,10,10,10,9,1,2,11,10,9,10,10,2,2,1,11,2,11,2,0,10,2,1,10,1,11,1,10,2,9,6,2,2,2,10,10,1,1,1,2,2,9,9,0,9,11,2,0,0,0,0,0,0,0,0,0,0,0,0,0,0,0,0,0,0,0,0,0,0,0,0,0,0,0,0,0,0,0,0,0,0,0,0,0,0,0,0,0,0,0,0,0,0,0,0,0,0,0,0,0,0,0,0,0,0,0,0],"split_type":[0,0,0,0,0,0,0,0,0,0,0,0,0,0,0,0,0,0,0,0,0,0,0,0,0,0,0,0,0,0,0,0,0,0,0,0,0,0,0,0,0,0,0,0,0,0,0,0,0,0,0,0,0,0,0,0,0,0,0,0,0,0,0,0,0,0,0,0,0,0,0,0,0,0,0,0,0,0,0,0,0,0,0,0,0,0,0,0,0,0,0,0,0,0,0,0,0,0,0,0,0,0,0,0,0,0,0,0,0,0,0,0,0,0,0,0,0,0,0,0,0,0,0],"sum_hessian":[1.5774315E4,9.364477E3,6.4098394E3,2.2516772E3,7.112799E3,4.630805E3,1.779034E3,1.4880913E3,7.6358606E2,5.267753E3,1.845046E3,1.0651758E2,4.5242876E3,5.5574536E2,1.2232888E3,3.5541345E2,1.1326779E3,6.369749E2,1.2661114E2,1.3492578E3,3.9184949E3,1.356899E3,4.881469E2,8.737615E1,1.9141424E1,1.1576426E3,3.3666448E3,9.135827E1,4.6438705E2,2.9257007E2,9.307187E2,9.723283E1,2.5818063E2,8.8256714E2,2.5011069E2,1.19536125E2,5.1743884E2,2.8404243E1,9.8206894E1,1.8696579E2,1.162292E3,9.8351685E2,2.934978E3,5.284647E2,8.284344E2,1.6009796E2,3.2804895E2,3.4951913E0,8.388096E1,8.724027E0,1.0417398E1,8.1581433E2,3.4182825E2,6.9471826E2,2.6719265E3,7.462062E1,1.673765E1,1.1580896E2,3.485781E2,9.241032E0,2.83329E2,2.3759436E2,6.931243E2,4.7926136E1,4.930669E1,5.093453E1,2.072461E2,1.6990622E2,7.1266095E2,1.4893948E2,1.01171196E2,1.592938E2,3.5814502E2,1.9909082E1,8.495161E0,4.3613373E1,5.4593525E1,4.2424744E1,1.4454105E2,4.1789792E2,7.443941E2,3.4256238E2,6.4095447E2,1.2082574E3,1.7267206E3,4.5195413E2,7.6510574E1,7.748292E1,7.509515E2,2.6950718E1,1.3314725E2,9.263153E1,2.3541743E2,1.7485198E0,1.7466717E0,8.089135E1,2.9896128E0,4.2391596E0,4.484867E0,9.177758E0,1.2396405E0,3.8163223E2,4.341821E2,1.6020941E2,1.8161884E2,3.9622208E2,2.984962E2,2.6109026E3,6.1023968E1,5.6211002E1,1.840962E1,1.0994902E1,5.742749E0,1.0184865E2,1.3960317E1,2.4518037E2,1.0339773E2,1.9603078E2,8.729825E1,1.1975246E1,2.2561913E2,2.3882854E1,6.692415E2],"tree_param":{"num_deleted":"0","num_feature":"12","num_nodes":"123","size_leaf_vector":"1"}},{"base_weights":[-2.7677207E-4,-4.8412663E-1,2.0070022E-1,-6.843966E-1,1.2621528E-1,2.5335032E-1,-8.7195134E-1,-9.530969E-1,-4.4414416E-1,2.0819624E-1,-8.570149E-1,8.408391E-2,5.7948685E-1,-1.0616868E0,-5.230098E-1,-5.8064425E-1,-1.0583304E0,-3.8178506E-1,-1.3490242E0,-6.532255E-1,3.0970052E-1,-9.5614654E-1,-1.6042963E-1,-1.2829614E-1,3.2149902E-1,6.0990727E-1,-4.307669E-1,-1.2091508E0,-3.7071663E-1,-3.6082006E-1,-9.353578E-1,-5.1014596E-1,-7.8680515E-2,-1.340059E0,-9.3815213E-1,-2.2502301E-2,-4.898194E-1,-6.824914E-2,-0E0,1.3121377E-1,-9.115375E-1,-1.2516653E-2,4.5876893E-1,-1.2510105E0,-6.944461E-1,5.863951E-1,-5.4347564E-2,2.6447123E-1,-2.5963745E-1,-7.204977E-2,4.6522015E-1,4.91733E-1,8.0505323E-1,-7.291841E-1,-8.902469E-2,-7.159086E-1,-1.2951283E0,-6.623081E-1,4.159101E-2,-5.720528E-1,-7.8219354E-2,-1.0204039E0,4.308814E-3,-2.1170927E-2,-6.316168E-2,-6.797633E-2,-1.5080414E-3,-7.2626956E-2,-4.3011323E-2,-3.5279285E-2,5.9518204E-3,-2.672509E-2,9.200965E-3,1.8803146E-2,-5.1153746E-2,-0E0,-5.227232E-2,-1.0927769E-2,1.3994547E-2,3.9735626E-2,1.7007658E-2,-7.6522686E-2,-2.69547E-2,-1.9870995E-2,-5.093049E-2,4.347179E-2,-1.3724915E-2,-4.5977174E-3,1.8537605E-2,-1.9712968E-2,-1.4625374E-3,-1.7251642E-2,1.3329971E-2,2.5371779E-2,-3.311512E-2,2.5231374E-2,-1.9304266E-2,4.1703068E-2,-2.7884094E-2,1.1135419E-2,-3.886831E-2,-5.9770096E-2,3.6223165E-3,-2.2298746E-2,-6.969567E-2,-6.691371E-2,-3.81501E-2,1.1980573E-2,-4.3277264E-2,-3.4178227E-2,7.87591E-3,-5.3827446E-2,-1.0745897E-2,-0E0,-3.6110263E-2,-2.0395642E-2,-5.5977385E-2,1.4307775E-2,-4.4859415E-3],"categories":[],"categories_nodes":[],"categories_segments":[],"categories_sizes":[],"default_left":[0,0,0,0,0,0,0,0,0,0,0,0,0,0,0,0,0,0,0,0,0,0,0,0,0,0,0,0,0,0,0,0,0,0,0,0,0,0,0,0,0,0,0,0,0,0,0,0,0,0,0,0,0,0,0,0,0,0,0,0,0,0,0,0,0,0,0,0,0,0,0,0,0,0,0,0,0,0,0,0,0,0,0,0,0,0,0,0,0,0,0,0,0,0,0,0,0,0,0,0,0,0,0,0,0,0,0,0,0,0,0,0,0,0,0,0,0,0,0],"id":5,"left_children":[1,3,5,7,9,11,13,15,17,19,21,23,25,27,29,31,33,35,37,39,41,43,45,47,49,51,53,55,57,59,61,63,-1,65,67,69,71,-1,-1,73,75,77,79,81,83,85,-1,87,89,91,93,95,97,99,101,103,105,107,109,111,113,115,117,-1,-1,-1,-1,-1,-1,-1,-1,-1,-1,-1,-1,-1,-1,-1,-1,-1,-1,-1,-1,-1,-1,-1,-1,-1,-1,-1,-1,-1,-1,-1,-1,-1,-1,-1,-1,-1,-1,-1,-1,-1,-1,-1,-1,-1,-1,-1,-1,-1,-1,-1,-1,-1,-1,-1,-1],"loss_changes":[1.5315394E3,5.6545935E2,6.284662E2,2.2319312E2,9.2171486E1,5.8513434E2,3.256134E1,6.2255005E1,1.02081726E2,9.267071E1,5.2044067E0,3.524485E2,1.1195471E2,3.237982E1,1.1265003E1,2.3036842E1,3.953955E1,6.676201E1,1.848938E0,2.3235603E1,4.5750984E1,3.1476898E0,1.1199685E1,1.9038315E2,1.8694131E2,7.96958E1,1.033169E1,8.761993E0,7.853483E0,7.8957253E0,4.5931664E0,2.0686134E1,0E0,8.799866E0,3.2506958E1,3.9371696E1,4.031784E1,0E0,0E0,8.615477E0,1.0166069E1,1.8203157E1,2.4753342E1,3.7411194E0,2.874136E0,2.9049127E0,0E0,3.5218636E1,8.554387E1,8.191545E1,1.1572534E2,2.5328491E1,5.3337463E1,3.1848545E0,1.0158185E1,6.2581196E0,2.1885376E0,7.566963E0,2.2197704E0,1.3005857E1,3.1310995E0,1.1934433E0,3.016059E-1,0E0,0E0,0E0,0E0,0E0,0E0,0E0,0E0,0E0,0E0,0E0,0E0,0E0,0E0,0E0,0E0,0E0,0E0,0E0,0E0,0E0,0E0,0E0,0E0,0E0,0E0,0E0,0E0,0E0,0E0,0E0,0E0,0E0,0E0,0E0,0E0,0E0,0E0,0E0,0E0,0E0,0E0,0E0,0E0,0E0,0E0,0E0,0E0,0E0,0E0,0E0,0E0,0E0,0E0,0E0,0E0],"parents":[2147483647,0,0,1,1,2,2,3,3,4,4,5,5,6,6,7,7,8,8,9,9,10,10,11,11,12,12,13,13,14,14,15,15,16,16,17,17,18,18,19,19,20,20,21,21,22,22,23,23,24,24,25,25,26,26,27,27,28,28,29,29,30,30,31,31,33,33,34,34,35,35,36,36,39,39,40,40,41,41,42,42,43,43,44,44,45,45,47,47,48,48,49,49,50,50,51,51,52,52,53,53,54,54,55,55,56,56,57,57,58,58,59,59,60,60,61,61,62,62],"right_children":[2,4,6,8,10,12,14,16,18,20,22,24,26,28,30,32,34,36,38,40,42,44,46,48,50,52,54,56,58,60,62,64,-1,66,68,70,72,-1,-1,74,76,78,80,82,84,86,-1,88,90,92,94,96,98,100,102,104,106,108,110,112,114,116,118,-1,-1,-1,-1,-1,-1,-1,-1,-1,-1,-1,-1,-1,-1,-1,-1,-1,-1,-1,-1,-1,-1,-1,-1,-1,-1,-1,-1,-1,-1,-1,-1,-1,-1,-1,-1,-1,-1,-1,-1,-1,-1,-1,-1,-1,-1,-1,-1,-1,-1,-1,-1,-1,-1,-1,-1],"split_conditions":[5.1E1,8.931081E1,1E0,4.6E1,1E0,8.262963E1,8.5E1,1E0,1E0,4.2E1,3.271862E1,2.6674875E1,6.4E1,2.978535E1,1E0,1E0,7.5737915E1,1E0,3.5555557E1,1E0,2.6107433E1,1.7021227E2,4.4E1,1E0,5.5E1,3.0120169E1,2.8305996E1,1E0,1.7021227E2,5.8E1,3.3090424E1,1.75E2,-7.8680515E-2,1.81E2,2.2229061E1,7.5737915E1,3.3749454E1,-6.824914E-2,-0E0,3.1202564E1,1.557003E2,4.9E1,1E0,4.9E1,2.709925E1,1E0,-5.4347564E-2,2.2888966E1,2.4691359E1,3.0487804E1,6.4E1,3.0062101E1,1E0,1.49E2,1.5161888E2,1.7334622E2,1.7812347E2,5.3E1,7.5737915E1,1.680728E2,6.4E1,2.354788E1,1.6309195E2,-2.1170927E-2,-6.316168E-2,-6.797633E-2,-1.5080414E-3,-7.2626956E-2,-4.3011323E-2,-3.5279285E-2,5.9518204E-3,-2.672509E-2,9.200965E-3,1.8803146E-2,-5.1153746E-2,-0E0,-5.227232E-2,-1.0927769E-2,1.3994547E-2,3.9735626E-2,1.7007658E-2,-7.6522686E-2,-2.69547E-2,-1.9870995E-2,-5.093049E-2,4.347179E-2,-1.3724915E-2,-4.5977174E-3,1.8537605E-2,-1.9712968E-2,-1.4625374E-3,-1.7251642E-2,1.3329971E-2,2.5371779E-2,-3.311512E-2,2.5231374E-2,-1.9304266E-2,4.1703068E-2,-2.7884094E-2,1.1135419E-2,-3.886831E-2,-5.9770096E-2,3.6223165E-3,-2.2298746E-2,-6.969567E-2,-6.691371E-2,-3.81501E-2,1.1980573E-2,-4.3277264E-2,-3.4178227E-2,7.87591E-3,-5.3827446E-2,-1.0745897E-2,-0E0,-3.6110263E-2,-2.0395642E-2,-5.5977385E-2,1.4307775E-2,-4.4859415E-3],"split_indices":[1,8,4,1,4,8,8,6,4,1,10,10,1,10,5,4,8,6,10,6,10,2,1,6,1,10,10,6,2,1,10,2,0,2,10,8,10,0,0,10,2,1,6,1,10,5,0,10,10,10,1,10,5,2,2,2,2,1,8,2,1,10,2,0,0,0,0,0,0,0,0,0,0,0,0,0,0,0,0,0,0,0,0,0,0,0,0,0,0,0,0,0,0,0,0,0,0,0,0,0,0,0,0,0,0,0,0,0,0,0,0,0,0,0,0,0,0,0,0],"split_type":[0,0,0,0,0,0,0,0,0,0,0,0,0,0,0,0,0,0,0,0,0,0,0,0,0,0,0,0,0,0,0,0,0,0,0,0,0,0,0,0,0,0,0,0,0,0,0,0,0,0,0,0,0,0,0,0,0,0,0,0,0,0,0,0,0,0,0,0,0,0,0,0,0,0,0,0,0,0,0,0,0,0,0,0,0,0,0,0,0,0,0,0,0,0,0,0,0,0,0,0,0,0,0,0,0,0,0,0,0,0,0,0,0,0,0,0,0,0,0],"sum_hessian":[1.5744204E4,4.6203745E3,1.1123829E4,3.4792976E3,1.1410769E3,1.0605273E4,5.185562E2,1.6386278E3,1.8406698E3,1.0551818E3,8.5895195E1,6.98439E3,3.6208833E3,3.323333E2,1.862229E2,3.649054E2,1.2737224E3,1.725177E3,1.15492805E2,1.0956399E2,9.4561774E2,7.3913475E1,1.1981721E1,3.6859402E3,3.29845E3,3.5162896E3,1.0459381E2,2.7205005E2,6.028328E1,1.3721463E2,4.900827E1,3.440124E2,2.0893023E1,3.7355414E2,9.001683E2,4.004549E2,1.324722E3,1.1375389E2,1.7389148E0,2.690564E1,8.265835E1,2.9861902E2,6.469987E2,3.0301203E1,4.3612274E1,6.7419257E0,5.239795E0,9.222323E2,2.7637078E3,8.8168024E2,2.4167695E3,2.1960393E3,1.3202502E3,5.384477E1,5.074904E1,4.40143E1,2.2803574E2,3.531082E1,2.4972458E1,7.633757E1,6.0877052E1,4.5271187E1,3.7370803E0,3.1188354E2,3.212885E1,3.6763297E2,5.921192E0,1.1294203E2,7.8722626E2,6.797268E1,3.324822E2,1.2434259E3,8.1296234E1,2.3666952E1,3.238688E0,1.0997015E1,7.166134E1,1.7648073E2,1.2213829E2,1.6475752E2,4.822412E2,1.9604239E1,1.0696964E1,2.5886904E1,1.772537E1,5.495941E0,1.2459847E0,2.1081253E2,7.114198E2,1.7421335E3,1.0215743E3,4.8896625E2,3.92714E2,2.3310369E3,8.573268E1,2.1656475E3,3.0391802E1,1.2938513E3,2.6398981E1,1.7451711E0,5.2099598E1,5.2266808E0,4.5522358E1,3.4379726E1,9.634575E0,2.0726106E2,2.0774664E1,5.9753733E0,2.933545E1,1.4977264E0,2.3474731E1,2.9390749E1,4.6946823E1,5.613639E1,4.740664E0,8.43477E0,3.683642E1,1.2427907E0,2.4942896E0],"tree_param":{"num_deleted":"0","num_feature":"12","num_nodes":"119","size_leaf_vector":"1"}},{"base_weights":[-4.6063316E-4,-3.832133E-1,4.4036755E-1,-1.9364126E-1,-8.7448645E-1,6.149232E-1,-1.45960655E-2,-2.6614082E-1,1.6706277E-1,-1.0006922E0,-5.290095E-1,6.3058865E-1,-4.3965024E-1,1.2263436E-1,-6.62918E-1,-5.361873E-1,-1.6704686E-1,8.1930466E-2,1.3465746E-1,-9.182719E-1,-6.974391E-2,-1.1174374E0,-3.9610925E-1,3.9449927E-1,7.007507E-1,-5.312314E-1,1.0597491E-2,-3.860605E-1,2.9894543E-1,-5.081868E-1,-1.0317973E0,-8.817377E-1,-4.2189738E-1,-4.3474385E-1,-9.4351165E-2,-6.649883E-1,1.7801785E-1,-1.2478548E0,-8.6466604E-1,4.7760926E-2,-1.1803623E0,8.1546865E-2,-4.3197876E-1,4.8227224E-1,-2.6479554E-1,8.626424E-2,6.8556386E-1,-7.46954E-1,-1.2210341E-1,3.5895222E-1,-3.0980468E-1,-2.9932004E-1,-1.0119524E0,1.534067E0,2.7880588E-1,-4.0510975E-2,-2.7905995E-1,-0E0,-1.0615315E0,8.245497E-3,-4.581773E-2,8.3382905E-2,-2.2207595E-2,-1.1752232E-2,-2.9523415E-2,-3.3183375E-3,-4.331538E-2,-6.972612E-2,-1.8872553E-2,9.066678E-2,5.6881537E-3,-4.775537E-2,-6.583901E-2,7.175572E-2,-4.376395E-2,-2.8082553E-2,-6.1530758E-2,-1.517491E-2,-5.1698502E-2,2.0730382E-2,8.522643E-2,-2.6246518E-2,1.2740557E-2,2.8962452E-2,3.9536364E-2,-1.0472614E-2,-5.3750295E-2,6.517995E-3,-2.753674E-2,-6.2218667E-3,4.237408E-2,1.9400356E-2,-3.4071814E-2,-2.9220453E-2,-4.4275844E-3,-2.7469425E-2,-5.545496E-2,-0E0,8.073463E-2,7.8162335E-2,1.3319062E-2,1.1919748E-2,-2.1717085E-2,5.1524136E-3,-2.514811E-3,-6.046862E-2,-3.7347686E-2],"categories":[],"categories_nodes":[],"categories_segments":[],"categories_sizes":[],"default_left":[0,0,0,0,0,0,0,0,0,0,0,0,0,0,0,0,0,0,0,0,0,0,0,0,0,0,0,0,0,0,0,0,0,0,0,0,0,0,0,0,0,0,0,0,0,0,0,0,0,0,0,0,0,0,0,0,0,0,0,0,0,0,0,0,0,0,0,0,0,0,0,0,0,0,0,0,0,0,0,0,0,0,0,0,0,0,0,0,0,0,0,0,0,0,0,0,0,0,0,0,0,0,0,0,0,0,0],"id":6,"left_children":[1,3,5,7,9,11,13,15,17,19,21,23,25,27,29,31,33,-1,35,37,-1,39,41,43,45,47,49,51,53,55,57,59,61,63,65,67,69,71,73,-1,75,-1,77,79,81,-1,83,85,87,89,91,93,95,97,99,-1,101,103,105,-1,-1,-1,-1,-1,-1,-1,-1,-1,-1,-1,-1,-1,-1,-1,-1,-1,-1,-1,-1,-1,-1,-1,-1,-1,-1,-1,-1,-1,-1,-1,-1,-1,-1,-1,-1,-1,-1,-1,-1,-1,-1,-1,-1,-1,-1,-1,-1],"loss_changes":[2.6526917E3,7.8290967E2,5.8053503E2,1.5902805E2,1.0028943E2,8.789441E1,1.8077365E2,1.3490051E2,4.7164574E1,5.1904175E1,4.777664E1,8.5117676E1,3.4883156E0,1.5032109E2,1.8446594E1,5.2169678E1,7.178603E1,0E0,3.4580048E1,2.1924683E1,0E0,1.7318954E1,3.8567154E1,6.972908E1,5.8796387E1,5.189348E0,1.8345468E0,2.2137276E1,2.9206093E1,1.6651962E1,3.2972565E0,1.2786011E1,4.849466E1,2.3864075E1,6.247822E1,8.788168E0,9.827653E1,2.4777222E-1,3.229364E1,0E0,1.2159271E0,0E0,3.831082E1,8.512796E1,1.952254E1,0E0,4.2601685E1,6.292818E0,3.1568818E0,2.5770628E0,2.681419E0,2.251807E1,2.4019623E-1,1.6021881E0,1.7846817E1,0E0,1.2278005E1,4.308201E-2,1.8340302E0,0E0,0E0,0E0,0E0,0E0,0E0,0E0,0E0,0E0,0E0,0E0,0E0,0E0,0E0,0E0,0E0,0E0,0E0,0E0,0E0,0E0,0E0,0E0,0E0,0E0,0E0,0E0,0E0,0E0,0E0,0E0,0E0,0E0,0E0,0E0,0E0,0E0,0E0,0E0,0E0,0E0,0E0,0E0,0E0,0E0,0E0,0E0,0E0],"parents":[2147483647,0,0,1,1,2,2,3,3,4,4,5,5,6,6,7,7,8,8,9,9,10,10,11,11,12,12,13,13,14,14,15,15,16,16,18,18,19,19,21,21,22,22,23,23,24,24,25,25,26,26,27,27,28,28,29,29,30,30,31,31,32,32,33,33,34,34,35,35,36,36,37,37,38,38,40,40,42,42,43,43,44,44,46,46,47,47,48,48,49,49,50,50,51,51,52,52,53,53,54,54,56,56,57,57,58,58],"right_children":[2,4,6,8,10,12,14,16,18,20,22,24,26,28,30,32,34,-1,36,38,-1,40,42,44,46,48,50,52,54,56,58,60,62,64,66,68,70,72,74,-1,76,-1,78,80,82,-1,84,86,88,90,92,94,96,98,100,-1,102,104,106,-1,-1,-1,-1,-1,-1,-1,-1,-1,-1,-1,-1,-1,-1,-1,-1,-1,-1,-1,-1,-1,-1,-1,-1,-1,-1,-1,-1,-1,-1,-1,-1,-1,-1,-1,-1,-1,-1,-1,-1,-1,-1,-1,-1,-1,-1,-1,-1],"split_conditions":[1.28E2,1E0,1E0,8.032053E1,8.032053E1,1E0,1E0,1.2E2,8.1E1,1E0,2.747563E1,6.520272E1,9.5E1,7.214258E1,1E0,5.9193214E1,2.3148148E1,8.1930466E-2,8.109787E1,6.0098576E1,-6.974391E-2,8.1E1,2.770083E1,6.5E1,6.6E1,8.430373E1,2.7755102E1,2.5711008E1,8E1,7.611502E1,5.4914547E1,7E1,6E1,2.1872423E1,8E1,2.9411764E1,8.2E1,2.0028841E1,6.1E1,4.7760926E-2,2.4913494E1,8.1546865E-2,1E0,6.423381E1,2.6107433E1,8.626424E-2,7.802012E1,6.8642365E1,3.4659695E1,6.619866E1,1.48E2,6.520272E1,2.5951557E1,2.869898E1,7.3E1,-4.0510975E-2,2.6643599E1,8.262963E1,8.230199E1,8.245497E-3,-4.581773E-2,8.3382905E-2,-2.2207595E-2,-1.1752232E-2,-2.9523415E-2,-3.3183375E-3,-4.331538E-2,-6.972612E-2,-1.8872553E-2,9.066678E-2,5.6881537E-3,-4.775537E-2,-6.583901E-2,7.175572E-2,-4.376395E-2,-2.8082553E-2,-6.1530758E-2,-1.517491E-2,-5.1698502E-2,2.0730382E-2,8.522643E-2,-2.6246518E-2,1.2740557E-2,2.8962452E-2,3.9536364E-2,-1.0472614E-2,-5.3750295E-2,6.517995E-3,-2.753674E-2,-6.2218667E-3,4.237408E-2,1.9400356E-2,-3.4071814E-2,-2.9220453E-2,-4.4275844E-3,-2.7469425E-2,-5.545496E-2,-0E0,8.073463E-2,7.8162335E-2,1.3319062E-2,1.1919748E-2,-2.1717085E-2,5.1524136E-3,-2.514811E-3,-6.046862E-2,-3.7347686E-2],"split_indices":[7,0,0,3,3,5,4,7,3,4,10,3,8,3,5,3,10,0,3,3,0,3,10,3,3,3,10,10,8,3,3,8,3,10,3,10,3,10,3,0,10,0,4,3,10,0,3,3,10,3,7,3,10,10,3,0,10,8,3,0,0,0,0,0,0,0,0,0,0,0,0,0,0,0,0,0,0,0,0,0,0,0,0,0,0,0,0,0,0,0,0,0,0,0,0,0,0,0,0,0,0,0,0,0,0,0,0],"split_type":[0,0,0,0,0,0,0,0,0,0,0,0,0,0,0,0,0,0,0,0,0,0,0,0,0,0,0,0,0,0,0,0,0,0,0,0,0,0,0,0,0,0,0,0,0,0,0,0,0,0,0,0,0,0,0,0,0,0,0,0,0,0,0,0,0,0,0,0,0,0,0,0,0,0,0,0,0,0,0,0,0,0,0,0,0,0,0,0,0,0,0,0,0,0,0,0,0,0,0,0,0,0,0,0,0,0,0],"sum_hessian":[1.5717857E4,8.4138545E3,7.304003E3,6.073878E3,2.3399768E3,5.2790054E3,2.0249973E3,5.058964E3,1.014914E3,1.7100425E3,6.299344E2,5.202994E3,7.601134E1,1.6719465E3,3.5305078E2,1.3543317E3,3.7046323E3,1.9399698E1,9.955143E2,1.4208784E3,2.8916412E2,1.1263858E2,5.1729584E2,1.1966702E3,4.006324E3,6.37876E1,1.222374E1,4.2899365E2,1.2429529E3,2.5302638E2,1.000244E2,3.3218387E2,1.0221478E3,7.8758075E2,2.9170515E3,4.913683E1,9.4637744E2,1.912344E2,1.2296439E3,2.2491279E0,1.1038945E2,7.2058244E0,5.1009E2,1.0572167E3,1.3945355E2,5.47487E1,3.9515752E3,3.9884163E1,2.3903439E1,6.4887743E0,5.7349653E0,3.800755E2,4.891818E1,1.7131626E1,1.2258213E3,1.0601891E2,1.4700746E2,2.709423E0,9.731498E1,9.931489E0,3.2225238E2,8.976477E0,1.0131713E3,3.4867432E2,4.3890646E2,2.8177249E3,9.932652E1,1.1223104E1,3.7913723E1,3.3426712E1,9.1295074E2,4.3489464E1,1.4774493E2,4.1989183E0,1.2254451E3,1.0869316E1,9.9520134E1,4.2353543E2,8.655455E1,1.00468445E3,5.253224E1,9.35571E1,4.5896458E1,1.9738673E3,1.9777079E3,1.6936077E1,2.2948084E1,1.518483E1,8.718609E0,3.4963212E0,2.992453E0,1.4947431E0,4.240222E0,1.590389E2,2.2103659E2,1.1694098E1,3.722408E1,1.2483606E0,1.58832655E1,8.966822E0,1.2168545E3,3.2942085E1,1.14065384E2,1.2276367E0,1.4817864E0,6.1250874E1,3.6064106E1],"tree_param":{"num_deleted":"0","num_feature":"12","num_nodes":"107","size_leaf_vector":"1"}},{"base_weights":[-4.663084E-4,-2.4734749E-1,3.6026385E-1,-6.499572E-2,-7.232494E-1,5.2299726E-1,-6.1919466E-2,-1.8592255E-1,6.098743E-1,-8.073482E-1,-3.6266414E-3,-1.5794756E-1,5.823957E-1,-6.21055E-1,1.5576349E-1,-5.0352126E-1,-1.0400184E-1,6.311913E-1,-3.0262792E-1,-8.869531E-1,-3.1773177E-1,7.162112E-2,-8.547477E-1,-8.254965E-2,-7.439978E-1,4.859535E-1,7.3994005E-1,-6.0203284E-2,-5.124762E-1,2.8642547E-1,-5.114178E-1,-8.661215E-1,-3.9679518E-1,-1.7602071E-1,2.2703381E-1,5.6769204E-1,9.3975013E-1,3.554012E-1,-4.9208894E-1,-7.9991496E-1,-1.2995669E0,-1.2797052E0,-2.087006E-1,-5.576806E-1,1.8168628E-1,-9.4807285E-1,-0E0,-4.4654024E-1,5.726199E-2,5.226309E-2,-1.0336851E0,5.154785E-1,-4.686669E-1,8.241143E-2,7.056717E-1,-8.5428745E-1,-3.2465744E-1,-2.1952507E-1,4.1700643E-1,-3.4492198E-1,-9.3935627E-1,1.2528668E-2,-4.5579273E-2,7.465827E-2,-2.073979E-2,3.6411744E-2,-9.787071E-3,7.8325234E-2,9.837521E-3,3.0136282E-2,-2.547735E-2,8.034899E-2,4.117448E-2,2.778092E-2,-1.0477035E-4,-4.090892E-2,4.6456936E-3,-4.9009345E-2,-3.3530887E-2,-6.0835775E-2,-7.6867715E-2,-6.693988E-2,-1.26115875E-2,-6.417542E-3,-4.3800276E-2,-4.6719473E-2,3.2506686E-2,1.48239555E-2,-2.4552656E-2,-0E0,-4.9338095E-2,-5.9075635E-3,-4.3287E-2,2.5070513E-2,-5.007689E-3,-8.400453E-2,-2.1245359E-2,2.5043745E-2,8.309426E-2,-4.2607106E-2,-2.3429205E-3,-1.9050693E-2,3.711931E-2,5.7167467E-3,-4.421187E-2,7.6733015E-2,-1.911277E-2,-7.0301197E-3,-3.5200667E-2,-4.615192E-2,2.4651553E-2,-6.9878876E-2,-1.25727E-2,-6.1079748E-2,-2.9606003E-2],"categories":[],"categories_nodes":[],"categories_segments":[],"categories_sizes":[],"default_left":[0,0,0,0,0,0,0,0,0,0,0,0,0,0,0,0,0,0,0,0,0,0,0,0,0,0,0,0,0,0,0,0,0,0,0,0,0,0,0,0,0,0,0,0,0,0,0,0,0,0,0,0,0,0,0,0,0,0,0,0,0,0,0,0,0,0,0,0,0,0,0,0,0,0,0,0,0,0,0,0,0,0,0,0,0,0,0,0,0,0,0,0,0,0,0,0,0,0,0,0,0,0,0,0,0,0,0,0,0,0,0,0,0,0,0],"id":7,"left_children":[1,3,5,7,9,11,13,15,17,19,21,23,25,27,29,31,33,35,37,39,41,43,45,47,49,51,53,-1,55,57,59,61,63,65,67,69,71,73,75,77,79,81,83,85,87,89,-1,91,93,-1,95,97,99,-1,101,103,105,107,109,111,113,-1,-1,-1,-1,-1,-1,-1,-1,-1,-1,-1,-1,-1,-1,-1,-1,-1,-1,-1,-1,-1,-1,-1,-1,-1,-1,-1,-1,-1,-1,-1,-1,-1,-1,-1,-1,-1,-1,-1,-1,-1,-1,-1,-1,-1,-1,-1,-1,-1,-1,-1,-1,-1,-1],"loss_changes":[1.3966741E3,8.076106E2,4.3804523E2,5.496755E2,1.5564697E2,1.8645166E2,2.163005E2,1.4825574E2,2.0451447E1,8.8798096E1,1.7963223E1,1.5811231E1,6.2968872E1,2.943573E1,1.11552246E2,4.395334E1,1.08436264E2,1.7794617E1,3.432183E0,6.810144E1,3.299742E1,1.7443415E1,2.270029E0,1.7079857E1,2.3492409E1,7.471417E1,4.633374E1,0E0,2.60802E1,7.09903E1,1.3623634E1,1.4153503E1,3.1609924E1,6.664352E1,3.1437084E1,3.2236023E1,9.051376E0,7.068352E-1,4.3681135E0,3.6181885E1,1.605957E0,4.9702454E-1,1.516428E1,1.8316309E1,1.690196E1,3.6453056E-1,0E0,1.2108532E1,1.7065065E1,0E0,1.1952236E1,4.0034424E1,1.2334381E1,0E0,6.2466248E1,4.886818E0,3.0353025E1,7.7949343E0,8.751074E1,1.3692543E1,3.1960297E0,0E0,0E0,0E0,0E0,0E0,0E0,0E0,0E0,0E0,0E0,0E0,0E0,0E0,0E0,0E0,0E0,0E0,0E0,0E0,0E0,0E0,0E0,0E0,0E0,0E0,0E0,0E0,0E0,0E0,0E0,0E0,0E0,0E0,0E0,0E0,0E0,0E0,0E0,0E0,0E0,0E0,0E0,0E0,0E0,0E0,0E0,0E0,0E0,0E0,0E0,0E0,0E0,0E0,0E0],"parents":[2147483647,0,0,1,1,2,2,3,3,4,4,5,5,6,6,7,7,8,8,9,9,10,10,11,11,12,12,13,13,14,14,15,15,16,16,17,17,18,18,19,19,20,20,21,21,22,22,23,23,24,24,25,25,26,26,28,28,29,29,30,30,31,31,32,32,33,33,34,34,35,35,36,36,37,37,38,38,39,39,40,40,41,41,42,42,43,43,44,44,45,45,47,47,48,48,50,50,51,51,52,52,54,54,55,55,56,56,57,57,58,58,59,59,60,60],"right_children":[2,4,6,8,10,12,14,16,18,20,22,24,26,28,30,32,34,36,38,40,42,44,46,48,50,52,54,-1,56,58,60,62,64,66,68,70,72,74,76,78,80,82,84,86,88,90,-1,92,94,-1,96,98,100,-1,102,104,106,108,110,112,114,-1,-1,-1,-1,-1,-1,-1,-1,-1,-1,-1,-1,-1,-1,-1,-1,-1,-1,-1,-1,-1,-1,-1,-1,-1,-1,-1,-1,-1,-1,-1,-1,-1,-1,-1,-1,-1,-1,-1,-1,-1,-1,-1,-1,-1,-1,-1,-1,-1,-1,-1,-1,-1,-1],"split_conditions":[4.53472E1,1E0,1E0,8.931081E1,9.2252625E1,7.5737915E1,7.214258E1,7.5737915E1,1E0,8.5E1,1E0,1.6995122E2,7.802012E1,7.9574196E1,1E0,5.9193214E1,8.032053E1,1.680728E2,6.496838E1,1E0,1.6209593E2,1.6904213E2,4.0593204E1,6.3230827E1,5.6861202E1,7.8E1,7.9E1,-6.0203284E-2,1.6518471E2,1.680728E2,1E0,7E1,6E1,8E1,8.1E1,1.68E2,1.69E2,1.5811905E2,8.814573E1,1.680728E2,1.75E2,1E0,1E0,1E2,1.03E2,3.5E1,-0E0,1.59E2,6.7E1,5.226309E-2,1.7021227E2,7.746685E1,1.6309195E2,8.241143E-2,7.920498E1,5.1E1,1.66E2,9.2E1,7.5737915E1,7.9574196E1,8.230199E1,1.2528668E-2,-4.5579273E-2,7.465827E-2,-2.073979E-2,3.6411744E-2,-9.787071E-3,7.8325234E-2,9.837521E-3,3.0136282E-2,-2.547735E-2,8.034899E-2,4.117448E-2,2.778092E-2,-1.0477035E-4,-4.090892E-2,4.6456936E-3,-4.9009345E-2,-3.3530887E-2,-6.0835775E-2,-7.6867715E-2,-6.693988E-2,-1.26115875E-2,-6.417542E-3,-4.3800276E-2,-4.6719473E-2,3.2506686E-2,1.48239555E-2,-2.4552656E-2,-0E0,-4.9338095E-2,-5.9075635E-3,-4.3287E-2,2.5070513E-2,-5.007689E-3,-8.400453E-2,-2.1245359E-2,2.5043745E-2,8.309426E-2,-4.2607106E-2,-2.3429205E-3,-1.9050693E-2,3.711931E-2,5.7167467E-3,-4.421187E-2,7.6733015E-2,-1.911277E-2,-7.0301197E-3,-3.5200667E-2,-4.615192E-2,2.4651553E-2,-6.9878876E-2,-1.25727E-2,-6.1079748E-2,-2.9606003E-2],"split_indices":[11,0,0,8,3,8,3,8,5,8,5,2,3,8,4,3,3,2,3,4,2,2,11,3,3,3,3,0,2,2,5,8,3,8,3,2,2,2,3,2,2,5,5,8,3,11,0,2,3,0,2,3,2,0,3,3,2,3,8,8,3,0,0,0,0,0,0,0,0,0,0,0,0,0,0,0,0,0,0,0,0,0,0,0,0,0,0,0,0,0,0,0,0,0,0,0,0,0,0,0,0,0,0,0,0,0,0,0,0,0,0,0,0,0,0],"split_type":[0,0,0,0,0,0,0,0,0,0,0,0,0,0,0,0,0,0,0,0,0,0,0,0,0,0,0,0,0,0,0,0,0,0,0,0,0,0,0,0,0,0,0,0,0,0,0,0,0,0,0,0,0,0,0,0,0,0,0,0,0,0,0,0,0,0,0,0,0,0,0,0,0,0,0,0,0,0,0,0,0,0,0,0,0,0,0,0,0,0,0,0,0,0,0,0,0,0,0,0,0,0,0,0,0,0,0,0,0,0,0,0,0,0,0],"sum_hessian":[1.5679469E4,9.309872E3,6.369596E3,6.733221E3,2.576651E3,4.5979805E3,1.7716158E3,5.711919E3,1.02130237E3,2.3061982E3,2.7045273E2,3.679584E2,4.230022E3,4.960539E2,1.275562E3,1.1678563E3,4.5440625E3,9.991262E2,2.2176144E1,1.9814045E3,3.2479358E2,2.4962738E2,2.0825357E1,3.287927E2,3.9165726E1,2.6308606E3,1.5991614E3,7.3988914E1,4.2206497E2,1.0682456E3,2.0731633E2,2.6127222E2,9.0658405E2,3.734127E3,8.099357E2,8.346591E2,1.6446713E2,3.9760165E0,1.8200129E1,1.6421028E3,3.3930185E2,3.041189E1,2.9438168E2,3.5273487E1,2.143539E2,1.907833E1,1.7470288E0,9.101903E1,2.3777367E2,4.4900923E0,3.4675632E1,2.5533335E3,7.752703E1,5.4185158E1,1.5449763E3,1.46213E2,2.75852E2,2.1807979E2,8.5016583E2,1.526903E2,5.462603E1,9.437829E0,2.518344E2,6.7447424E0,8.998393E2,7.762379E1,3.6565032E3,1.5298482E1,7.9463727E2,8.096723E2,2.4986765E1,1.9961458E1,1.4450568E2,2.7346797E0,1.2413368E0,1.1723044E1,6.4770837E0,6.787417E2,9.633611E2,2.622599E2,7.704194E1,2.7724743E1,2.6871479E0,2.655419E2,2.8839762E1,2.7548143E1,7.7253423E0,1.8469952E2,2.9654367E1,1.2460996E0,1.783223E1,5.3144E1,3.7875023E1,6.1907513E1,1.7586615E2,1.4712698E1,1.9962934E1,2.524485E3,2.8848452E1,3.891907E1,3.860796E1,4.9434113E1,1.4955421E3,3.7156017E0,1.424974E2,6.4866605E0,2.6936533E2,1.9063754E2,2.7442242E1,4.409353E1,8.060723E2,9.740167E0,1.4295013E2,2.6560896E1,2.8065136E1],"tree_param":{"num_deleted":"0","num_feature":"12","num_nodes":"115","size_leaf_vector":"1"}},{"base_weights":[-5.1900686E-4,-3.478787E-1,3.999291E-1,-6.2942904E-1,4.0240726E-3,4.585466E-1,-6.1504227E-1,-9.7447836E-1,-4.750384E-1,4.655098E-2,-9.519095E-1,1.5855287E-1,5.4234046E-1,-8.3695954E-1,-3.913985E-1,-9.256355E-1,-1.4915307E0,-4.2438418E-1,-1.3167639E0,8.699616E-2,-8.970962E-1,-6.5859187E-1,-1.2420721E0,-5.3511506E-1,2.4550287E-1,5.717791E-1,-4.312377E-1,-1.398882E0,-7.040654E-1,4.9049234E-1,-4.6189383E-1,-1.0897498E0,-7.419092E-1,-7.56305E-2,-2.1056956E-1,-4.8457813E-1,-6.469513E-2,-6.9742404E-2,-9.6407E-1,2.2894123E-1,-7.511634E-2,-1.0034219E0,-0E0,-9.9919385E-1,-1.3589999E-2,-6.3258365E-2,-3.128045E-3,-6.670935E-1,1.5898857E-1,-1.3375159E-1,3.310395E-1,4.6335667E-1,7.1434456E-1,-2.7846697E-1,-9.5237917E-1,-7.413174E-2,-3.1039244E-1,3.0456695E-1,-7.574452E-1,-3.7035223E-2,7.9076535E-1,-3.0614045E-1,-8.351983E-1,-5.103262E-2,-7.388298E-2,9.553501E-2,-4.1721676E-2,5.875092E-3,-2.7100042E-2,-2.0719951E-2,-4.0688347E-2,8.321417E-2,-6.0468907E-3,8.832691E-3,-5.8071315E-2,7.78401E-3,9.68573E-2,-1.0147429E-2,1.0161787E-2,-5.489809E-2,-2.4251526E-2,2.0237682E-2,-1.688954E-2,-2.3805467E-2,-5.8021355E-2,9.89815E-3,-3.7615325E-2,-5.885322E-3,-4.3989882E-2,2.3226965E-2,-1.9403314E-2,3.4031072E-3,-3.875351E-2,2.5331048E-2,9.557579E-3,2.498479E-2,-2.8010413E-2,8.2890466E-2,3.40923E-2,-2.7436752E-2,2.6742346E-4,-2.473595E-2,-7.309138E-2,-3.4854744E-2,5.3944807E-3,-2.3249736E-2,3.9977495E-2,9.014569E-4,-3.9637018E-2,5.1528778E-2,-2.4544073E-3,-2.5822822E-2,1.4031202E-3,-6.0268994E-2,-3.2755587E-2],"categories":[],"categories_nodes":[],"categories_segments":[],"categories_sizes":[],"default_left":[0,0,0,0,0,0,0,0,0,0,0,0,0,0,0,0,0,0,0,0,0,0,0,0,0,0,0,0,0,0,0,0,0,0,0,0,0,0,0,0,0,0,0,0,0,0,0,0,0,0,0,0,0,0,0,0,0,0,0,0,0,0,0,0,0,0,0,0,0,0,0,0,0,0,0,0,0,0,0,0,0,0,0,0,0,0,0,0,0,0,0,0,0,0,0,0,0,0,0,0,0,0,0,0,0,0,0,0,0,0,0,0,0,0,0],"id":8,"left_children":[1,3,5,7,9,11,13,15,17,19,21,23,25,27,29,31,33,35,37,39,41,43,45,47,49,51,53,55,57,59,61,63,65,-1,67,69,71,-1,73,75,77,79,81,83,85,-1,-1,87,89,91,93,95,97,99,101,-1,103,105,107,-1,109,111,113,-1,-1,-1,-1,-1,-1,-1,-1,-1,-1,-1,-1,-1,-1,-1,-1,-1,-1,-1,-1,-1,-1,-1,-1,-1,-1,-1,-1,-1,-1,-1,-1,-1,-1,-1,-1,-1,-1,-1,-1,-1,-1,-1,-1,-1,-1,-1,-1,-1,-1,-1,-1],"loss_changes":[2.1758538E3,8.303191E2,4.3274048E2,2.4631165E2,1.5105235E2,1.7218091E2,1.8437668E1,3.2294434E1,1.3533026E2,1.3594183E2,1.0880798E1,9.083996E1,1.5441931E2,1.1647202E1,1.3037241E1,3.7213135E1,1.7357788E0,6.551117E1,1.124115E0,7.8902504E1,1.4331886E1,1.7877071E1,1.2598724E0,1.5813049E1,4.361226E1,7.931213E1,1.1449099E1,1.3577576E0,9.496399E0,6.906375E0,9.918842E0,1.4243652E1,1.571817E2,0E0,8.4487104E-1,5.8865784E1,4.236914E1,0E0,1.0020477E1,2.270804E2,5.6954895E1,4.572998E0,2.6409009E0,2.6570015E0,5.497044E0,0E0,0E0,1.585918E1,5.0414767E0,3.2388412E1,2.6326065E1,1.10931946E2,6.542822E1,9.93517E0,5.5710926E0,0E0,1.3256131E0,4.4072633E0,4.69738E0,0E0,3.3532734E0,9.945129E0,1.0635605E0,0E0,0E0,0E0,0E0,0E0,0E0,0E0,0E0,0E0,0E0,0E0,0E0,0E0,0E0,0E0,0E0,0E0,0E0,0E0,0E0,0E0,0E0,0E0,0E0,0E0,0E0,0E0,0E0,0E0,0E0,0E0,0E0,0E0,0E0,0E0,0E0,0E0,0E0,0E0,0E0,0E0,0E0,0E0,0E0,0E0,0E0,0E0,0E0,0E0,0E0,0E0,0E0],"parents":[2147483647,0,0,1,1,2,2,3,3,4,4,5,5,6,6,7,7,8,8,9,9,10,10,11,11,12,12,13,13,14,14,15,15,16,16,17,17,18,18,19,19,20,20,21,21,22,22,23,23,24,24,25,25,26,26,27,27,28,28,29,29,30,30,31,31,32,32,34,34,35,35,36,36,38,38,39,39,40,40,41,41,42,42,43,43,44,44,47,47,48,48,49,49,50,50,51,51,52,52,53,53,54,54,56,56,57,57,58,58,60,60,61,61,62,62],"right_children":[2,4,6,8,10,12,14,16,18,20,22,24,26,28,30,32,34,36,38,40,42,44,46,48,50,52,54,56,58,60,62,64,66,-1,68,70,72,-1,74,76,78,80,82,84,86,-1,-1,88,90,92,94,96,98,100,102,-1,104,106,108,-1,110,112,114,-1,-1,-1,-1,-1,-1,-1,-1,-1,-1,-1,-1,-1,-1,-1,-1,-1,-1,-1,-1,-1,-1,-1,-1,-1,-1,-1,-1,-1,-1,-1,-1,-1,-1,-1,-1,-1,-1,-1,-1,-1,-1,-1,-1,-1,-1,-1,-1,-1,-1,-1,-1],"split_conditions":[1.28E2,5.5E1,1E0,4.6E1,6.4E1,5.1E1,7.802012E1,1E0,1E0,1E0,1.6495276E2,4.2E1,6.4E1,4.8E1,7.993712E1,1.6518471E2,1.84E2,8.307093E1,8.230199E1,1.65E2,9.2252625E1,1.6133066E2,9.9E1,1.666669E0,6.520272E1,7.802012E1,1.6396065E0,1.7391304E0,1.4285715E0,1.680728E2,1E0,1.65E2,1.66E2,-7.56305E-2,4.2E1,1.7E2,8.4E1,-6.9742404E-2,8.4E1,1.6411754E2,7.802012E1,6.2E1,9.5779816E1,1.5419395E2,7.1794205E1,-6.3258365E-2,-3.128045E-3,1.5E0,1.6680406E2,6.4E1,1.65E2,7.8E1,7.9E1,7.529135E1,1.64E2,-7.413174E-2,1.66197E2,5.8E1,5.3E1,-3.7035223E-2,1.6043307E0,9.044729E1,8.230199E1,-5.103262E-2,-7.388298E-2,9.553501E-2,-4.1721676E-2,5.875092E-3,-2.7100042E-2,-2.0719951E-2,-4.0688347E-2,8.321417E-2,-6.0468907E-3,8.832691E-3,-5.8071315E-2,7.78401E-3,9.68573E-2,-1.0147429E-2,1.0161787E-2,-5.489809E-2,-2.4251526E-2,2.0237682E-2,-1.688954E-2,-2.3805467E-2,-5.8021355E-2,9.89815E-3,-3.7615325E-2,-5.885322E-3,-4.3989882E-2,2.3226965E-2,-1.9403314E-2,3.4031072E-3,-3.875351E-2,2.5331048E-2,9.557579E-3,2.498479E-2,-2.8010413E-2,8.2890466E-2,3.40923E-2,-2.7436752E-2,2.6742346E-4,-2.473595E-2,-7.309138E-2,-3.4854744E-2,5.3944807E-3,-2.3249736E-2,3.9977495E-2,9.014569E-4,-3.9637018E-2,5.1528778E-2,-2.4544073E-3,-2.5822822E-2,1.4031202E-3,-6.0268994E-2,-3.2755587E-2],"split_indices":[7,1,4,1,1,1,3,4,4,4,2,1,1,1,3,2,2,3,3,2,3,2,3,9,3,3,9,9,9,2,5,2,2,0,1,2,3,0,3,2,3,1,3,2,3,0,0,9,2,3,2,3,3,3,2,0,2,1,3,0,9,3,3,0,0,0,0,0,0,0,0,0,0,0,0,0,0,0,0,0,0,0,0,0,0,0,0,0,0,0,0,0,0,0,0,0,0,0,0,0,0,0,0,0,0,0,0,0,0,0,0,0,0,0,0],"split_type":[0,0,0,0,0,0,0,0,0,0,0,0,0,0,0,0,0,0,0,0,0,0,0,0,0,0,0,0,0,0,0,0,0,0,0,0,0,0,0,0,0,0,0,0,0,0,0,0,0,0,0,0,0,0,0,0,0,0,0,0,0,0,0,0,0,0,0,0,0,0,0,0,0,0,0,0,0,0,0,0,0,0,0,0,0,0,0,0,0,0,0,0,0,0,0,0,0,0,0,0,0,0,0,0,0,0,0,0,0,0,0,0,0,0,0],"sum_hessian":[1.5638609E4,8.375223E3,7.2633867E3,4.6526074E3,3.722615E3,6.868311E3,3.9507544E2,1.4339641E3,3.2186436E3,3.566382E3,1.5623308E2,1.5021511E3,5.36616E3,1.94428E2,2.0064746E2,1.3161798E3,1.17784225E2,3.0393413E3,1.7930228E2,3.4220564E3,1.4432555E2,8.180314E1,7.442995E1,1.6553004E2,1.3366211E3,5.2099624E3,1.5619766E2,3.282359E1,1.6160442E2,1.34448805E1,1.8720258E2,6.885476E2,6.2763226E2,1.15137535E2,2.6466935E0,2.6018389E3,4.3750232E2,1.4080217E2,3.8500107E1,1.8257217E3,1.5963348E3,1.2919261E2,1.5132931E1,5.2307823E1,2.9495316E1,7.244236E1,1.9875822E0,1.3975491E2,2.577513E1,2.4469833E2,1.0919227E3,2.966169E3,2.2437932E3,1.2390382E2,3.2293842E1,2.9379457E1,3.4441307E0,7.178866E0,1.5442554E2,1.7344588E0,1.1710422E1,1.3560416E2,5.1598415E1,5.917006E2,9.6846954E1,1.9647446E1,6.079848E2,1.2207013E0,1.4259923E0,2.1496055E3,4.5223352E2,1.1701759E1,4.2580057E2,5.335736E0,3.316437E1,1.7530138E3,7.270781E1,1.0955468E3,5.007881E2,1.0655875E2,2.2633865E1,7.2066884E0,7.926242E0,1.4917696E1,3.7390125E1,2.3540884E1,5.954432E0,4.0529625E1,9.922529E1,1.731802E1,8.4571085E0,1.8689369E2,5.7804653E1,4.8027902E2,6.116437E2,2.8659333E3,1.0023561E2,7.0873E1,2.1729202E3,6.341278E1,6.0491035E1,1.9605225E1,1.2688618E1,1.7180362E0,1.7260944E0,2.4620662E0,4.7167997E0,6.148483E0,1.4827705E2,9.219162E0,2.491259E0,8.347699E1,5.212717E1,1.2251468E1,3.9346947E1],"tree_param":{"num_deleted":"0","num_feature":"12","num_nodes":"115","size_leaf_vector":"1"}},{"base_weights":[-6.19002E-4,-3.3150882E-1,3.8096327E-1,-6.005795E-1,3.6994806E-3,5.381375E-1,-2.6328547E-2,-4.3319756E-1,-1.0150825E0,1.6495779E-1,-4.5347553E-1,8.212884E-1,4.4258922E-1,-4.8489746E-1,1.7415063E-1,-1.5081156E-3,-5.7149655E-1,-1.2214751E0,-8.943945E-1,5.8670986E-1,8.320064E-3,-1.1101043E0,-3.5080308E-1,8.786617E-1,4.9246857E-1,-3.7723157E-1,4.6884716E-1,-7.211135E-1,2.4638155E-2,8.669387E-2,1.16293795E-1,-6.147839E-1,1.4681195E-1,-9.300099E-1,-4.263233E-1,-1.2488517E0,-4.9997833E-1,-4.7909737E-1,-9.3029016E-1,6.27968E-1,-6.0921174E-1,1.3512716E-1,-2.234348E-1,-1.2305229E0,-7.135108E-1,-4.9901044E-1,-1.8145037E-1,-2.3920424E-1,8.880652E-1,5.9292E-1,-1.0422796E0,-5.875747E-1,5.82521E-1,4.88771E-1,-3.3574507E-1,-1.2573632E0,-5.7936573E-1,-8.1437427E-1,3.2352373E-1,-1.0260272E0,1.8456168E-1,1.179996E-2,-3.431898E-2,-1.4861158E-2,1.38285775E-2,-5.640179E-2,-2.6942907E-2,-1.0715771E-2,-2.4552127E-2,-4.609529E-2,-6.631546E-2,-2.90523E-2,-0E0,-5.3918738E-2,1.0854946E-3,-5.7020374E-2,-4.1313726E-2,2.933209E-2,5.0003063E-2,-3.9496805E-4,-6.774019E-2,3.5557933E-3,9.146126E-2,-3.492851E-2,-4.062193E-3,-4.4003997E-2,-6.8435974E-2,3.5619013E-2,-4.0981624E-2,7.0981294E-2,-2.6181294E-2,9.366878E-2,-1.3468611E-2,-2.8595576E-2,3.062565E-2,5.0632495E-2,3.987321E-2,-4.4204164E-2,3.212272E-2,-7.6622136E-2,-0E0,2.1538471E-3,-4.3141395E-2,-0E0,3.109008E-2,1.817385E-2,3.0266259E-2,-4.0043343E-2,-3.6813614E-3,-6.5336384E-2,-0E0,2.8739346E-3,-3.3048E-2,-4.809781E-2,5.392169E-3,2.6015216E-2,-2.1947704E-2,-6.947078E-2,-3.2895725E-2,9.1068015E-2,4.814452E-3],"categories":[],"categories_nodes":[],"categories_segments":[],"categories_sizes":[],"default_left":[0,0,0,0,0,0,0,0,0,0,0,0,0,0,0,0,0,0,0,0,0,0,0,0,0,0,0,0,0,0,0,0,0,0,0,0,0,0,0,0,0,0,0,0,0,0,0,0,0,0,0,0,0,0,0,0,0,0,0,0,0,0,0,0,0,0,0,0,0,0,0,0,0,0,0,0,0,0,0,0,0,0,0,0,0,0,0,0,0,0,0,0,0,0,0,0,0,0,0,0,0,0,0,0,0,0,0,0,0,0,0,0,0,0,0,0,0,0,0,0,0],"id":9,"left_children":[1,3,5,7,9,11,13,15,17,19,21,23,25,27,29,31,33,35,37,39,41,43,45,47,49,51,53,55,57,-1,59,61,63,65,67,69,71,73,75,77,79,81,83,85,87,89,91,93,95,97,99,101,103,105,107,109,111,113,115,117,119,-1,-1,-1,-1,-1,-1,-1,-1,-1,-1,-1,-1,-1,-1,-1,-1,-1,-1,-1,-1,-1,-1,-1,-1,-1,-1,-1,-1,-1,-1,-1,-1,-1,-1,-1,-1,-1,-1,-1,-1,-1,-1,-1,-1,-1,-1,-1,-1,-1,-1,-1,-1,-1,-1,-1,-1,-1,-1,-1,-1],"loss_changes":[1.9697448E3,7.5397345E2,4.6405615E2,3.200531E2,2.7439603E2,1.4009253E2,1.8587152E2,1.9713977E2,2.991748E1,1.8160704E2,6.3900787E1,2.3266357E1,8.4674255E1,7.4433975E1,1.2546359E2,7.36606E1,1.2883453E2,7.441101E0,1.1060852E1,3.752652E1,5.911081E1,3.4618378E0,2.0627647E1,1.2482788E1,3.2041603E1,2.531912E1,6.1238525E1,2.9633255E1,4.9467056E1,0E0,1.058006E2,1.016497E1,3.7570133E1,5.3636658E1,2.3952362E1,8.193848E0,9.236007E-1,2.2417849E1,1.4141357E1,9.126404E0,1.0707641E1,1.4001627E2,4.7497826E1,1.1009674E0,6.6560154E0,2.2132713E1,7.210606E1,3.6396809E0,9.983887E0,1.4952034E1,5.8555E0,1.8104141E1,3.9401484E-1,5.3175537E1,1.0695213E1,5.3400116E0,1.7915482E1,7.663967E0,2.2477085E1,7.371933E0,1.8403633E2,0E0,0E0,0E0,0E0,0E0,0E0,0E0,0E0,0E0,0E0,0E0,0E0,0E0,0E0,0E0,0E0,0E0,0E0,0E0,0E0,0E0,0E0,0E0,0E0,0E0,0E0,0E0,0E0,0E0,0E0,0E0,0E0,0E0,0E0,0E0,0E0,0E0,0E0,0E0,0E0,0E0,0E0,0E0,0E0,0E0,0E0,0E0,0E0,0E0,0E0,0E0,0E0,0E0,0E0,0E0,0E0,0E0,0E0,0E0,0E0],"parents":[2147483647,0,0,1,1,2,2,3,3,4,4,5,5,6,6,7,7,8,8,9,9,10,10,11,11,12,12,13,13,14,14,15,15,16,16,17,17,18,18,19,19,20,20,21,21,22,22,23,23,24,24,25,25,26,26,27,27,28,28,30,30,31,31,32,32,33,33,34,34,35,35,36,36,37,37,38,38,39,39,40,40,41,41,42,42,43,43,44,44,45,45,46,46,47,47,48,48,49,49,50,50,51,51,52,52,53,53,54,54,55,55,56,56,57,57,58,58,59,59,60,60],"right_children":[2,4,6,8,10,12,14,16,18,20,22,24,26,28,30,32,34,36,38,40,42,44,46,48,50,52,54,56,58,-1,60,62,64,66,68,70,72,74,76,78,80,82,84,86,88,90,92,94,96,98,100,102,104,106,108,110,112,114,116,118,120,-1,-1,-1,-1,-1,-1,-1,-1,-1,-1,-1,-1,-1,-1,-1,-1,-1,-1,-1,-1,-1,-1,-1,-1,-1,-1,-1,-1,-1,-1,-1,-1,-1,-1,-1,-1,-1,-1,-1,-1,-1,-1,-1,-1,-1,-1,-1,-1,-1,-1,-1,-1,-1,-1,-1,-1,-1,-1,-1,-1],"split_conditions":[1.28E2,5.5E1,1E0,1E0,1E0,1E0,1.680728E2,1E0,4.6E1,1E0,1.6209593E2,1.5E2,4.3E1,6E1,1.69E2,1.5811905E2,4.6E1,1.82E2,1.61E2,6.4E1,1.65E2,1.6004793E2,1.7021227E2,4E1,1.69E2,1.6923077E0,6.4E1,4.9E1,1.6209593E2,8.669387E-2,1.6904213E2,1.5E2,1.2E2,1.6518471E2,1.58E2,1E0,1.5009674E0,1.5922986E2,1.680728E2,1.666669E0,1.6382886E2,1.6411754E2,1.6518471E2,5.8E1,1.61E2,1.63E2,1.71E2,1.7509216E2,1.6E2,1.5022511E2,5.6E1,5E1,1.5611942E2,5.6E1,1.5811905E2,1.6E2,5E1,1.666669E0,5.1E1,5.6E1,1.7E2,1.179996E-2,-3.431898E-2,-1.4861158E-2,1.38285775E-2,-5.640179E-2,-2.6942907E-2,-1.0715771E-2,-2.4552127E-2,-4.609529E-2,-6.631546E-2,-2.90523E-2,-0E0,-5.3918738E-2,1.0854946E-3,-5.7020374E-2,-4.1313726E-2,2.933209E-2,5.0003063E-2,-3.9496805E-4,-6.774019E-2,3.5557933E-3,9.146126E-2,-3.492851E-2,-4.062193E-3,-4.4003997E-2,-6.8435974E-2,3.5619013E-2,-4.0981624E-2,7.0981294E-2,-2.6181294E-2,9.366878E-2,-1.3468611E-2,-2.8595576E-2,3.062565E-2,5.0632495E-2,3.987321E-2,-4.4204164E-2,3.212272E-2,-7.6622136E-2,-0E0,2.1538471E-3,-4.3141395E-2,-0E0,3.109008E-2,1.817385E-2,3.0266259E-2,-4.0043343E-2,-3.6813614E-3,-6.5336384E-2,-0E0,2.8739346E-3,-3.3048E-2,-4.809781E-2,5.392169E-3,2.6015216E-2,-2.1947704E-2,-6.947078E-2,-3.2895725E-2,9.1068015E-2,4.814452E-3],"split_indices":[7,1,0,0,0,6,2,6,1,6,2,7,1,1,2,2,1,2,2,1,2,2,2,1,2,9,1,1,2,0,2,2,7,2,2,6,9,2,2,9,2,2,2,1,2,2,2,2,2,2,1,11,2,1,2,7,1,9,11,1,2,0,0,0,0,0,0,0,0,0,0,0,0,0,0,0,0,0,0,0,0,0,0,0,0,0,0,0,0,0,0,0,0,0,0,0,0,0,0,0,0,0,0,0,0,0,0,0,0,0,0,0,0,0,0,0,0,0,0,0,0],"split_type":[0,0,0,0,0,0,0,0,0,0,0,0,0,0,0,0,0,0,0,0,0,0,0,0,0,0,0,0,0,0,0,0,0,0,0,0,0,0,0,0,0,0,0,0,0,0,0,0,0,0,0,0,0,0,0,0,0,0,0,0,0,0,0,0,0,0,0,0,0,0,0,0,0,0,0,0,0,0,0,0,0,0,0,0,0,0,0,0,0,0,0,0,0,0,0,0,0,0,0,0,0,0,0,0,0,0,0,0,0,0,0,0,0,0,0,0,0,0,0,0,0],"sum_hessian":[1.5596688E4,8.354039E3,7.242649E3,4.6341387E3,3.7199006E3,5.2263726E3,2.0162764E3,3.30488E3,1.3292589E3,2.751679E3,9.682215E2,1.313495E3,3.9128777E3,6.132368E2,1.4030396E3,8.0324646E2,2.5016335E3,4.8221732E2,8.470416E2,7.4284955E2,2.0088295E3,1.276105E2,8.40611E2,1.1142186E3,1.9927635E2,1.200149E2,3.7928628E3,4.1909778E2,1.9413905E2,4.780178E1,1.3552377E3,1.5586305E2,6.473834E2,7.1691534E2,1.7847181E3,4.6251285E2,1.9704453E1,7.077927E1,7.762624E2,7.1939886E2,2.345068E1,1.3003312E3,7.0849835E2,9.369536E1,3.3915142E1,4.4464166E2,3.9596936E2,8.443408E0,1.1057753E3,1.8849239E2,1.0783967E1,9.95038E1,2.05111E1,3.7025835E3,9.0279305E1,8.3591675E1,3.355061E2,4.964802E1,1.4449103E2,7.442964E1,1.2808081E3,1.1199646E1,1.446634E2,1.4494606E2,5.0243735E2,4.726061E2,2.4430927E2,4.2122247E2,1.3634956E3,9.476632E1,3.6774655E2,1.6806198E1,2.8982546E0,3.1626326E1,3.915294E1,2.4884576E2,5.274166E2,6.533338E2,6.606509E1,1.4471421E1,8.9792595E0,1.2552797E3,4.5051483E1,1.6057843E2,5.479199E2,3.168988E1,6.2005478E1,1.2314618E0,3.2683678E1,3.9392827E0,4.4070236E2,1.4347679E1,3.8162167E2,6.9662585E0,1.4771495E0,4.5467834E2,6.5109686E2,4.6954308E0,1.8379695E2,6.407207E0,4.37676E0,3.0194221E1,6.930958E1,1.7352343E0,1.8775867E1,1.7904274E3,1.912156E3,3.037007E1,5.9909233E1,8.037432E1,3.21736E0,3.7475136E1,2.9803098E2,4.3192024E1,6.4560003E0,1.1587656E2,2.861448E1,3.3979298E1,4.0450344E1,6.3240368E1,1.2175677E3],"tree_param":{"num_deleted":"0","num_feature":"12","num_nodes":"121","size_leaf_vector":"1"}},{"base_weights":[-6.711305E-4,1.5491235E-1,-4.0841982E-1,-3.0135224E-2,3.3814454E-1,-6.290616E-1,-3.3370815E-2,-1.1792123E-1,2.6433742E-1,9.051609E-2,3.0461073E-1,-5.4677397E-1,-1.0135299E0,8.270145E-2,-6.254274E-1,-4.9732823E-2,-5.5521953E-1,3.2802525E-1,-4.79793E-1,-8.344954E-1,3.3707064E-1,-7.368578E-1,-3.8470238E-1,-9.1415113E-1,-1.2323743E0,8.617997E-2,5.144775E-2,-8.4718186E-1,-4.0159553E-1,-1.4449899E-1,4.302323E-1,-4.852964E-1,-1.0257604E0,2.7518678E-1,8.454653E-2,7.402456E-1,-6.8018204E-1,-9.339864E-1,-4.0027797E-1,9.0760574E-2,2.9961345E-1,-5.9802063E-2,-6.733784E-1,9.01591E-2,-4.564387E-1,-9.75068E-1,-6.3240665E-1,-0E0,-6.296487E-2,-5.7745785E-1,1.3490517E-1,-1.0078145E0,-3.939014E-1,5.286279E-1,-4.7923952E-1,-2.0452665E-2,-1.6070398E-3,8.5408375E-2,1.7544953E-2,-3.1466007E-2,3.42516E-2,2.1607745E-2,-5.349056E-2,1.5651321E-2,-3.0958096E-2,5.561456E-2,-3.5971206E-2,-3.9562117E-2,-5.4810164E-3,-4.0791024E-2,-7.454274E-2,3.7270838E-3,-4.55916E-2,-2.9935157E-2,1.7305084E-2,-2.8777828E-2,-5.312813E-2,-3.1121409E-2,-8.148111E-3,-4.5421947E-2,-6.208377E-2,3.8564447E-2,-3.4793194E-2,-7.96824E-3,8.372287E-3,1.8499905E-2,-3.3951815E-2,-8.97322E-3,1.3610787E-2,-2.1353658E-2,-6.423368E-2,2.5020675E-3,-3.1337667E-2,6.839106E-2,-2.4142483E-2,-3.4467455E-2,-1.2699671E-2],"categories":[],"categories_nodes":[],"categories_segments":[],"categories_sizes":[],"default_left":[0,0,0,0,0,0,0,0,0,0,0,0,0,0,0,0,0,0,0,0,0,0,0,0,0,0,0,0,0,0,0,0,0,0,0,0,0,0,0,0,0,0,0,0,0,0,0,0,0,0,0,0,0,0,0,0,0,0,0,0,0,0,0,0,0,0,0,0,0,0,0,0,0,0,0,0,0,0,0,0,0,0,0,0,0,0,0,0,0,0,0,0,0,0,0,0,0],"id":10,"left_children":[1,3,5,7,9,11,13,15,17,-1,19,21,23,25,27,29,31,33,35,37,39,41,43,45,47,-1,49,51,53,55,57,59,61,63,-1,65,67,69,71,-1,73,-1,75,-1,77,79,81,83,-1,85,87,89,91,93,95,-1,-1,-1,-1,-1,-1,-1,-1,-1,-1,-1,-1,-1,-1,-1,-1,-1,-1,-1,-1,-1,-1,-1,-1,-1,-1,-1,-1,-1,-1,-1,-1,-1,-1,-1,-1,-1,-1,-1,-1,-1,-1],"loss_changes":[9.866324E2,3.8178693E2,3.551007E2,1.4475587E2,2.7709583E2,8.3645996E1,1.0992055E2,1.2836209E2,6.1155907E1,0E0,2.0491345E2,6.764618E1,6.965576E0,6.733937E1,1.1711037E1,1.6998517E2,1.7369003E1,8.3484116E1,2.5799751E1,5.214737E0,2.9583777E2,2.729712E1,1.9097606E2,3.7084045E0,4.552109E0,0E0,6.875838E1,7.883354E0,1.0263397E1,9.260463E1,6.021541E1,8.690964E1,5.8972473E0,3.8961014E1,0E0,9.904517E0,4.990547E0,4.4694443E0,8.58083E0,0E0,2.1960385E2,0E0,3.241159E1,0E0,5.6593536E1,1.4668884E0,6.9736156E0,1.8800832E-1,0E0,1.5410618E1,5.0215256E1,1.2999977E1,4.2584615E0,1.1005348E1,5.1667976E0,0E0,0E0,0E0,0E0,0E0,0E0,0E0,0E0,0E0,0E0,0E0,0E0,0E0,0E0,0E0,0E0,0E0,0E0,0E0,0E0,0E0,0E0,0E0,0E0,0E0,0E0,0E0,0E0,0E0,0E0,0E0,0E0,0E0,0E0,0E0,0E0,0E0,0E0,0E0,0E0,0E0,0E0],"parents":[2147483647,0,0,1,1,2,2,3,3,4,4,5,5,6,6,7,7,8,8,10,10,11,11,12,12,13,13,14,14,15,15,16,16,17,17,18,18,19,19,20,20,21,21,22,22,23,23,24,24,26,26,27,27,28,28,29,29,30,30,31,31,32,32,33,33,35,35,36,36,37,37,38,38,40,40,42,42,44,44,45,45,46,46,47,47,49,49,50,50,51,51,52,52,53,53,54,54],"right_children":[2,4,6,8,10,12,14,16,18,-1,20,22,24,26,28,30,32,34,36,38,40,42,44,46,48,-1,50,52,54,56,58,60,62,64,-1,66,68,70,72,-1,74,-1,76,-1,78,80,82,84,-1,86,88,90,92,94,96,-1,-1,-1,-1,-1,-1,-1,-1,-1,-1,-1,-1,-1,-1,-1,-1,-1,-1,-1,-1,-1,-1,-1,-1,-1,-1,-1,-1,-1,-1,-1,-1,-1,-1,-1,-1,-1,-1,-1,-1,-1,-1],"split_conditions":[1E0,7.024676E1,8.032053E1,1.5719382E0,7.1E1,1E0,1E0,1.5625E0,7E1,9.051609E-2,7.106955E1,1.680728E2,1E0,8.1E1,1.5009674E0,1.5009674E0,1.6794777E2,6.913243E1,1.5161888E2,1.5719382E0,7.2E1,1.5922986E2,1.69E2,7.611502E1,5.3E1,8.617997E-2,1.6716673E2,9.367777E1,2.5880571E1,2.3148148E1,1.5189873E0,1.6518471E2,5E1,6.9E1,8.454653E-2,1.6470588E0,1.7152619E0,1.5564862E0,1.657513E0,9.0760574E-2,7.214258E1,-5.9802063E-2,1.68E2,9.01591E-2,2.4977043E1,1.74E2,7.7E1,1.5564862E0,-6.296487E-2,1.4059454E0,2.8440954E1,8.4E1,9.5779816E1,1.81E2,3.0103806E1,-2.0452665E-2,-1.6070398E-3,8.5408375E-2,1.7544953E-2,-3.1466007E-2,3.42516E-2,2.1607745E-2,-5.349056E-2,1.5651321E-2,-3.0958096E-2,5.561456E-2,-3.5971206E-2,-3.9562117E-2,-5.4810164E-3,-4.0791024E-2,-7.454274E-2,3.7270838E-3,-4.55916E-2,-2.9935157E-2,1.7305084E-2,-2.8777828E-2,-5.312813E-2,-3.1121409E-2,-8.148111E-3,-4.5421947E-2,-6.208377E-2,3.8564447E-2,-3.4793194E-2,-7.96824E-3,8.372287E-3,1.8499905E-2,-3.3951815E-2,-8.97322E-3,1.3610787E-2,-2.1353658E-2,-6.423368E-2,2.5020675E-3,-3.1337667E-2,6.839106E-2,-2.4142483E-2,-3.4467455E-2,-1.2699671E-2],"split_indices":[0,3,3,9,3,4,4,9,3,0,3,2,5,3,9,9,2,3,2,9,3,2,2,3,3,0,2,3,10,10,9,2,3,3,0,9,9,9,9,0,3,0,2,0,10,2,3,9,0,9,10,3,3,2,10,0,0,0,0,0,0,0,0,0,0,0,0,0,0,0,0,0,0,0,0,0,0,0,0,0,0,0,0,0,0,0,0,0,0,0,0,0,0,0,0,0,0],"split_type":[0,0,0,0,0,0,0,0,0,0,0,0,0,0,0,0,0,0,0,0,0,0,0,0,0,0,0,0,0,0,0,0,0,0,0,0,0,0,0,0,0,0,0,0,0,0,0,0,0,0,0,0,0,0,0,0,0,0,0,0,0,0,0,0,0,0,0,0,0,0,0,0,0,0,0,0,0,0,0,0,0,0,0,0,0,0,0,0,0,0,0,0,0,0,0,0,0],"sum_hessian":[1.5546475E4,1.1252793E4,4.2936816E3,5.5981357E3,5.654657E3,2.701625E3,1.5920569E3,4.314751E3,1.2833846E3,1.2324315E2,5.531414E3,2.2303984E3,4.7122635E2,1.3318289E3,2.6022797E2,3.735622E3,5.7912885E2,1.1838525E3,9.9532E1,1.5145987E2,5.3799546E3,1.0218065E3,1.208592E3,3.3275784E2,1.384685E2,2.2569656E1,1.3092592E3,1.268006E2,1.3342737E2,3.121701E3,6.1392114E2,5.086656E2,7.046324E1,1.142336E3,4.1516552E1,1.2929492E1,8.660251E1,1.2041589E2,3.1043976E1,1.3028693E2,5.2496675E3,1.18811874E2,9.029946E2,3.6615456E1,1.1719766E3,2.6809576E2,6.466208E1,3.071581E0,1.3539693E2,1.5129842E2,1.1579608E3,9.100175E1,3.5798855E1,8.88794E0,1.2453943E2,9.2768304E2,2.194018E3,3.3115536E1,5.808056E2,4.541308E2,5.4534782E1,1.2169089E0,6.924633E1,1.0977496E3,4.4586456E1,1.0955602E1,1.9738896E0,7.111085E1,1.5491662E1,1.041446E2,1.6271294E1,1.6479246E1,1.4564729E1,2.566068E2,4.9930605E3,7.2660443E2,1.763902E2,7.46061E2,4.259156E2,2.2304405E2,4.5051723E1,1.4910614E0,6.3171013E1,1.8869544E0,1.1846263E0,1.3661917E1,1.376365E2,3.5072592E2,8.0723486E2,3.1602743E1,5.9399002E1,1.2118082E1,2.3680773E1,4.7427473E0,4.145193E0,6.115417E1,6.3385258E1],"tree_param":{"num_deleted":"0","num_feature":"12","num_nodes":"97","size_leaf_vector":"1"}},{"base_weights":[-6.9179496E-4,-4.1071582E-1,1.6859724E-1,-5.6713086E-1,6.102706E-2,-2.229696E-2,4.0982345E-1,-8.0067563E-1,-3.610496E-1,-6.0727346E-1,1.4676873E-1,-1.1330468E-1,4.1693732E-1,4.3918723E-1,-5.502681E-1,-8.501993E-1,1.16873585E-1,-4.7869697E-1,2.4989964E-3,-1.2668239E-1,-8.7423676E-1,1.9686212E-1,-8.7227875E-1,-3.809107E-1,8.891696E-3,4.517252E-1,-4.5069847E-1,-1.3614513E-1,4.8157156E-1,-1.0063747E0,-2.0900273E-1,-8.888522E-1,-1.7059813E-1,-2.8668875E-1,4.9269432E-1,-5.1578295E-1,7.8562476E-2,-3.974314E-1,1.4410974E-1,3.1861213E-1,-8.474691E-1,-1.0516158E0,1.8639854E-1,-8.198845E-2,3.2933962E-1,-1.9807048E-1,-9.892418E-1,-4.45314E-1,7.787248E-2,4.8198584E-2,-8.622124E-1,3.3366913E-1,6.0653126E-1,3.9554933E-1,-6.361334E-1,3.1226503E-2,-8.7358713E-1,5.0740874E-1,-3.9471203E-1,-5.3501602E-2,-2.8005123E-1,-5.3356465E-2,-1.02695435E-1,-5.393603E-2,-4.0171217E-2,3.6328357E-2,-1.7362515E-2,-1.3610733E-3,-6.627695E-2,3.102538E-2,-4.968452E-2,-1.9135986E-2,-3.1552352E-2,-1.5307369E-3,4.625302E-2,1.4920003E-2,-3.2437243E-2,9.08606E-3,-6.6162355E-2,-2.7663145E-2,3.291757E-2,4.2312886E-3,-6.1627638E-2,-2.2400718E-2,-5.5324342E-2,-2.523585E-2,3.152653E-2,2.9658552E-3,-3.881051E-2,2.780965E-2,1.0250244E-2,-3.9429843E-2,1.1350706E-2,-5.6985844E-2,-1.4625482E-2,-2.3618339E-2,3.421363E-2,-5.8273114E-2,8.770856E-3,-5.0637573E-3,1.3468735E-2,-2.9033048E-2,-5.6731522E-2,2.3661155E-2,2.141067E-3,3.165065E-2,-4.326084E-2,-9.920747E-3,3.8291156E-2,-5.438177E-2,-1.4240178E-2,-2.7054181E-2,1.1545509E-2,4.9115364E-2,-5.1368143E-2,1.966896E-2,3.2854963E-2,-1.0100533E-2,-3.8105182E-2,2.6682427E-2,-5.615288E-2,4.8341467E-3,-1.790694E-2],"categories":[],"categories_nodes":[],"categories_segments":[],"categories_sizes":[],"default_left":[0,0,0,0,0,0,0,0,0,0,0,0,0,0,0,0,0,0,0,0,0,0,0,0,0,0,0,0,0,0,0,0,0,0,0,0,0,0,0,0,0,0,0,0,0,0,0,0,0,0,0,0,0,0,0,0,0,0,0,0,0,0,0,0,0,0,0,0,0,0,0,0,0,0,0,0,0,0,0,0,0,0,0,0,0,0,0,0,0,0,0,0,0,0,0,0,0,0,0,0,0,0,0,0,0,0,0,0,0,0,0,0,0,0,0,0,0,0,0,0,0,0,0],"id":11,"left_children":[1,3,5,7,9,11,13,15,17,19,21,23,25,27,29,31,33,35,37,39,41,43,45,47,49,51,53,55,57,59,61,63,65,67,69,71,73,75,77,79,81,83,85,87,89,91,93,95,97,99,101,103,105,107,109,111,113,115,117,-1,119,-1,121,-1,-1,-1,-1,-1,-1,-1,-1,-1,-1,-1,-1,-1,-1,-1,-1,-1,-1,-1,-1,-1,-1,-1,-1,-1,-1,-1,-1,-1,-1,-1,-1,-1,-1,-1,-1,-1,-1,-1,-1,-1,-1,-1,-1,-1,-1,-1,-1,-1,-1,-1,-1,-1,-1,-1,-1,-1,-1,-1,-1],"loss_changes":[1.0770891E3,3.3493823E2,5.0585507E2,1.6279944E2,6.471062E1,2.4500317E2,1.372171E2,7.300342E1,7.784779E1,1.5731522E1,5.1256016E1,1.6633893E2,3.215126E1,1.1515021E2,2.1444271E1,3.891797E1,1.2955132E1,2.8652557E1,2.5166296E1,1.6469032E1,1.6145771E1,3.5605656E1,2.716076E0,4.7353775E1,1.19132614E2,1.7633133E1,7.0557337E0,4.0454132E1,9.979999E1,1.5293617E0,7.0172033E0,2.0530762E1,1.3723997E1,1.0191326E1,9.460871E0,1.875589E1,8.498031E0,2.0823713E1,1.8162052E1,1.0020552E1,7.822195E0,5.6542206E-1,4.6783547E0,3.0788465E1,1.7774963E1,3.167184E0,2.692131E0,4.3295105E1,2.3803215E1,1.1057811E2,9.343704E0,2.327668E1,1.7889435E1,2.3725471E0,4.2260723E0,3.042114E1,1.931763E1,7.173291E1,8.147392E0,0E0,7.137608E0,0E0,4.224311E0,0E0,0E0,0E0,0E0,0E0,0E0,0E0,0E0,0E0,0E0,0E0,0E0,0E0,0E0,0E0,0E0,0E0,0E0,0E0,0E0,0E0,0E0,0E0,0E0,0E0,0E0,0E0,0E0,0E0,0E0,0E0,0E0,0E0,0E0,0E0,0E0,0E0,0E0,0E0,0E0,0E0,0E0,0E0,0E0,0E0,0E0,0E0,0E0,0E0,0E0,0E0,0E0,0E0,0E0,0E0,0E0,0E0,0E0,0E0,0E0],"parents":[2147483647,0,0,1,1,2,2,3,3,4,4,5,5,6,6,7,7,8,8,9,9,10,10,11,11,12,12,13,13,14,14,15,15,16,16,17,17,18,18,19,19,20,20,21,21,22,22,23,23,24,24,25,25,26,26,27,27,28,28,29,29,30,30,31,31,32,32,33,33,34,34,35,35,36,36,37,37,38,38,39,39,40,40,41,41,42,42,43,43,44,44,45,45,46,46,47,47,48,48,49,49,50,50,51,51,52,52,53,53,54,54,55,55,56,56,57,57,58,58,60,60,62,62],"right_children":[2,4,6,8,10,12,14,16,18,20,22,24,26,28,30,32,34,36,38,40,42,44,46,48,50,52,54,56,58,60,62,64,66,68,70,72,74,76,78,80,82,84,86,88,90,92,94,96,98,100,102,104,106,108,110,112,114,116,118,-1,120,-1,122,-1,-1,-1,-1,-1,-1,-1,-1,-1,-1,-1,-1,-1,-1,-1,-1,-1,-1,-1,-1,-1,-1,-1,-1,-1,-1,-1,-1,-1,-1,-1,-1,-1,-1,-1,-1,-1,-1,-1,-1,-1,-1,-1,-1,-1,-1,-1,-1,-1,-1,-1,-1,-1,-1,-1,-1,-1,-1,-1,-1],"split_conditions":[5.1E1,8.931081E1,4.53472E1,4.6E1,4.2E1,8.931081E1,6.4E1,5.1E1,4.0593204E1,5E1,1E0,5.5E1,1E0,7.5737915E1,2.6854406E1,9.2252625E1,2.791552E1,3.3203125E1,7.9E1,8.032053E1,9.44829E1,2.6107433E1,4.4E1,3.1248795E1,6.4E1,2.9136316E1,6.496838E1,1.6995122E2,1E0,7.746685E1,1.5022511E2,7.5737915E1,3.0120169E1,1.7334622E2,8.262963E1,1.65E2,1.7142378E2,1.59E2,1.8E2,6.830104E1,1.6031636E2,1.557003E2,4E1,5.1E1,7.8E1,7.746685E1,3.212138E1,9.044729E1,1.532251E2,2.718163E1,1.6495276E2,7.2E1,1.79E2,5.3E1,7.802012E1,6.423381E1,5.6861202E1,7.802012E1,5.1E1,-5.3501602E-2,1.77E2,-5.3356465E-2,8.1E1,-5.393603E-2,-4.0171217E-2,3.6328357E-2,-1.7362515E-2,-1.3610733E-3,-6.627695E-2,3.102538E-2,-4.968452E-2,-1.9135986E-2,-3.1552352E-2,-1.5307369E-3,4.625302E-2,1.4920003E-2,-3.2437243E-2,9.08606E-3,-6.6162355E-2,-2.7663145E-2,3.291757E-2,4.2312886E-3,-6.1627638E-2,-2.2400718E-2,-5.5324342E-2,-2.523585E-2,3.152653E-2,2.9658552E-3,-3.881051E-2,2.780965E-2,1.0250244E-2,-3.9429843E-2,1.1350706E-2,-5.6985844E-2,-1.4625482E-2,-2.3618339E-2,3.421363E-2,-5.8273114E-2,8.770856E-3,-5.0637573E-3,1.3468735E-2,-2.9033048E-2,-5.6731522E-2,2.3661155E-2,2.141067E-3,3.165065E-2,-4.326084E-2,-9.920747E-3,3.8291156E-2,-5.438177E-2,-1.4240178E-2,-2.7054181E-2,1.1545509E-2,4.9115364E-2,-5.1368143E-2,1.966896E-2,3.2854963E-2,-1.0100533E-2,-3.8105182E-2,2.6682427E-2,-5.615288E-2,4.8341467E-3,-1.790694E-2],"split_indices":[1,8,11,1,1,8,1,11,11,11,5,1,5,8,10,3,10,10,8,3,3,10,1,10,1,10,3,2,5,3,2,8,10,2,8,2,2,2,2,3,2,2,1,11,3,3,10,3,2,10,2,3,2,1,3,3,3,3,11,0,2,0,3,0,0,0,0,0,0,0,0,0,0,0,0,0,0,0,0,0,0,0,0,0,0,0,0,0,0,0,0,0,0,0,0,0,0,0,0,0,0,0,0,0,0,0,0,0,0,0,0,0,0,0,0,0,0,0,0,0,0,0,0],"split_type":[0,0,0,0,0,0,0,0,0,0,0,0,0,0,0,0,0,0,0,0,0,0,0,0,0,0,0,0,0,0,0,0,0,0,0,0,0,0,0,0,0,0,0,0,0,0,0,0,0,0,0,0,0,0,0,0,0,0,0,0,0,0,0,0,0,0,0,0,0,0,0,0,0,0,0,0,0,0,0,0,0,0,0,0,0,0,0,0,0,0,0,0,0,0,0,0,0,0,0,0,0,0,0,0,0,0,0,0,0,0,0,0,0,0,0,0,0,0,0,0,0,0,0],"sum_hessian":[1.5511466E4,4.532848E3,1.0978617E4,3.4046343E3,1.1282137E3,6.128542E3,4.850075E3,1.5921309E3,1.8125035E3,1.262421E2,1.0019717E3,5.078846E3,1.0496958E3,4.707699E3,1.423761E2,1.5112544E3,8.087644E1,1.3699258E3,4.425777E2,4.6805023E1,7.943708E1,9.570311E2,4.494056E1,1.5920867E3,3.4867598E3,1.0107064E3,3.8989292E1,3.2190347E2,4.385796E3,5.8639908E1,8.373619E1,1.4286473E3,8.260709E1,3.858604E1,4.2290398E1,1.285426E3,8.449983E1,1.13864136E2,3.2871356E2,2.9192467E1,1.7612555E1,6.8474014E1,1.0963069E1,3.0726343E2,6.497677E2,8.072146E0,3.6868412E1,1.3971108E3,1.9497581E2,3.3385762E3,1.4818347E2,5.7882874E2,4.3187775E2,6.115976E0,3.2873318E1,2.6336646E2,5.8537003E1,4.261556E3,1.2423943E2,5.2411564E1,6.228346E0,6.719098E0,7.70171E1,4.3429468E2,9.9435266E2,1.2099721E1,7.050738E1,3.290201E1,5.6840267E0,4.0324394E1,1.9660052E0,6.026698E2,6.8275616E2,7.6030754E1,8.46908E0,2.958514E1,8.4279E1,3.2253925E2,6.174299E0,7.420496E0,2.177197E1,5.2257323E0,1.2386823E1,7.9927535E0,6.048126E1,3.7418091E0,7.2212596E0,2.5621994E2,5.1043476E1,2.2616078E2,4.236069E2,3.1550672E0,4.9170794E0,2.8684172E1,8.18424E0,1.3660024E3,3.1108442E1,1.2218108E1,1.827577E2,1.9915106E3,1.3470656E3,7.685261E1,7.133086E1,3.891395E2,1.8968924E2,4.256975E2,6.1802335E0,2.1864967E0,3.9294791E0,1.1928732E1,2.0944586E1,6.659016E1,1.967763E2,3.405784E0,5.5131218E1,2.4249219E3,1.8366344E3,8.44205E1,3.981893E1,3.240919E0,2.9874268E0,4.285421E1,3.4162884E1],"tree_param":{"num_deleted":"0","num_feature":"12","num_nodes":"123","size_leaf_vector":"1"}},{"base_weights":[-7.852816E-4,-2.9654762E-1,3.4043473E-1,-1.413011E-1,-7.1108186E-1,4.8201418E-1,-2.4446458E-2,2.7600864E-1,-2.8479153E-1,-8.206453E-1,-4.189214E-1,7.5474215E-1,3.9044312E-1,-4.2338294E-1,1.2037836E-1,-1.9794993E-1,4.0006867E-1,-3.7053135E-1,-5.6134727E-2,-7.824211E-1,-6.5548226E-2,7.296426E-2,-4.427201E-1,8.100584E-1,4.3887267E-1,1.6381633E-1,4.5883703E-1,-3.790614E-1,-8.5977894E-1,1.7968571E-1,-5.358189E-1,6.356958E-4,-5.672386E-1,1.0790985E0,3.5256982E-1,-3.4704682E-1,-8.816972E-1,9.655519E-2,-1.07506625E-1,-1.035998E0,-7.401977E-1,-5.808338E-1,-1.3975513E-1,7.285349E-1,1.0249399E0,-4.4133525E-2,4.6194375E-1,2.4438731E-1,-4.5144174E-1,7.870348E-2,4.4259262E-1,-5.6646556E-1,-2.581232E-1,9.696181E-2,-9.3906677E-1,8.97989E-2,3.7465626E-1,-2.1386322E-1,-1.0232016E0,-6.7665796E-3,8.637475E-2,-4.1042607E-2,-1.8077647E-2,6.011043E-2,1.2406455E-2,-3.0031422E-2,1.8791202E-2,-1.8368531E-2,9.595743E-2,-3.8818225E-2,-6.554903E-2,-4.4986945E-2,-2.84761E-3,-6.3737E-2,-4.7571853E-2,7.409199E-2,-3.7494633E-2,-1.965013E-2,-3.512962E-2,1.5284396E-2,-1.5438588E-2,3.8246576E-2,2.2737546E-2,5.2195687E-2,-1.7078523E-2,3.601983E-2,1.631435E-2,8.6817155E-3,7.870181E-2,-4.0801074E-2,-1.7456273E-2,-2.3969172E-2,2.299341E-2,-2.1735113E-2,-5.2908964E-2,4.8529855E-3,-2.3753949E-2,6.9473493E-3,-0E0,-0E0,-4.9287464E-2,-1.3956504E-2,8.305567E-3,7.486967E-2,1.6445609E-2,-3.8397305E-2,3.2772438E-3,-6.395418E-2,-0E0],"categories":[],"categories_nodes":[],"categories_segments":[],"categories_sizes":[],"default_left":[0,0,0,0,0,0,0,0,0,0,0,0,0,0,0,0,0,0,0,0,0,0,0,0,0,0,0,0,0,0,0,0,0,0,0,0,0,0,0,0,0,0,0,0,0,0,0,0,0,0,0,0,0,0,0,0,0,0,0,0,0,0,0,0,0,0,0,0,0,0,0,0,0,0,0,0,0,0,0,0,0,0,0,0,0,0,0,0,0,0,0,0,0,0,0,0,0,0,0,0,0,0,0,0,0,0,0,0,0],"id":12,"left_children":[1,3,5,7,9,11,13,15,17,19,21,23,25,27,29,31,33,35,37,39,-1,-1,41,43,45,47,49,51,53,55,57,59,61,63,65,67,69,-1,71,73,75,77,79,81,83,-1,85,87,89,-1,91,93,95,97,99,101,103,105,107,-1,-1,-1,-1,-1,-1,-1,-1,-1,-1,-1,-1,-1,-1,-1,-1,-1,-1,-1,-1,-1,-1,-1,-1,-1,-1,-1,-1,-1,-1,-1,-1,-1,-1,-1,-1,-1,-1,-1,-1,-1,-1,-1,-1,-1,-1,-1,-1,-1,-1],"loss_changes":[1.561416E3,5.328031E2,3.7133197E2,3.6146527E2,7.094177E1,1.2810889E2,1.1632206E2,9.104421E1,8.780725E1,2.760437E1,2.8537674E1,2.1336914E1,5.968756E1,9.104103E0,5.7398956E1,2.3810213E1,3.803897E1,3.7967133E1,1.24961975E2,1.3912598E1,0E0,0E0,2.5208527E1,1.6908386E1,6.675148E0,4.495202E1,5.155188E1,1.0436653E1,4.1563683E0,2.3438438E1,1.809143E1,5.0508713E1,4.713356E0,6.7027435E0,2.5801743E1,1.4459766E2,3.3044357E0,0E0,4.748397E1,7.224426E-1,3.0217773E1,8.519485E0,1.4970766E1,6.7302856E0,8.741089E0,0E0,5.9259796E0,7.400368E1,2.7535896E0,0E0,4.7237E1,1.0612072E1,2.371252E1,1.5732747E-2,1.5689278E0,2.6260742E1,1.9930573E1,1.2315293E1,1.2247009E1,0E0,0E0,0E0,0E0,0E0,0E0,0E0,0E0,0E0,0E0,0E0,0E0,0E0,0E0,0E0,0E0,0E0,0E0,0E0,0E0,0E0,0E0,0E0,0E0,0E0,0E0,0E0,0E0,0E0,0E0,0E0,0E0,0E0,0E0,0E0,0E0,0E0,0E0,0E0,0E0,0E0,0E0,0E0,0E0,0E0,0E0,0E0,0E0,0E0,0E0],"parents":[2147483647,0,0,1,1,2,2,3,3,4,4,5,5,6,6,7,7,8,8,9,9,10,10,11,11,12,12,13,13,14,14,15,15,16,16,17,17,18,18,19,19,22,22,23,23,24,24,25,25,26,26,27,27,28,28,29,29,30,30,31,31,32,32,33,33,34,34,35,35,36,36,38,38,39,39,40,40,41,41,42,42,43,43,44,44,46,46,47,47,48,48,50,50,51,51,52,52,53,53,54,54,55,55,56,56,57,57,58,58],"right_children":[2,4,6,8,10,12,14,16,18,20,22,24,26,28,30,32,34,36,38,40,-1,-1,42,44,46,48,50,52,54,56,58,60,62,64,66,68,70,-1,72,74,76,78,80,82,84,-1,86,88,90,-1,92,94,96,98,100,102,104,106,108,-1,-1,-1,-1,-1,-1,-1,-1,-1,-1,-1,-1,-1,-1,-1,-1,-1,-1,-1,-1,-1,-1,-1,-1,-1,-1,-1,-1,-1,-1,-1,-1,-1,-1,-1,-1,-1,-1,-1,-1,-1,-1,-1,-1,-1,-1,-1,-1,-1,-1],"split_conditions":[1.28E2,1E0,1E0,1E0,8.032053E1,1E0,7.214258E1,6.2329426E1,7.529135E1,1E0,8.1E1,1.5E2,6.520272E1,1E0,1E0,6E1,6.4E1,7.5E1,7.6E1,6.0098576E1,-6.5548226E-2,7.296426E-2,9.2252625E1,8.430373E1,5.2E1,6.5E1,6.6E1,6.520272E1,5.4914547E1,9.044729E1,1.5564862E0,5.9193214E1,6.0098576E1,1.5153896E0,6.423381E1,7.420422E1,1.5009674E0,9.655519E-2,7.611502E1,5.4914547E1,6.1E1,8.5E1,1E0,1.6455696E0,1E0,-4.4133525E-2,6.8978065E1,6.423381E1,1.5333333E0,7.870348E-2,6.619866E1,6.5E1,6.8978065E1,8.262963E1,1.4059454E0,1.4522732E0,9.1E1,1.4950508E0,1.7142857E0,-6.7665796E-3,8.637475E-2,-4.1042607E-2,-1.8077647E-2,6.011043E-2,1.2406455E-2,-3.0031422E-2,1.8791202E-2,-1.8368531E-2,9.595743E-2,-3.8818225E-2,-6.554903E-2,-4.4986945E-2,-2.84761E-3,-6.3737E-2,-4.7571853E-2,7.409199E-2,-3.7494633E-2,-1.965013E-2,-3.512962E-2,1.5284396E-2,-1.5438588E-2,3.8246576E-2,2.2737546E-2,5.2195687E-2,-1.7078523E-2,3.601983E-2,1.631435E-2,8.6817155E-3,7.870181E-2,-4.0801074E-2,-1.7456273E-2,-2.3969172E-2,2.299341E-2,-2.1735113E-2,-5.2908964E-2,4.8529855E-3,-2.3753949E-2,6.9473493E-3,-0E0,-0E0,-4.9287464E-2,-1.3956504E-2,8.305567E-3,7.486967E-2,1.6445609E-2,-3.8397305E-2,3.2772438E-3,-6.395418E-2,-0E0],"split_indices":[7,0,0,6,3,6,3,3,3,5,3,7,3,5,5,3,3,3,3,3,0,0,3,3,3,3,3,3,3,3,9,3,3,9,3,3,9,0,3,3,3,3,6,9,5,0,3,3,9,0,3,3,3,8,9,9,3,9,9,0,0,0,0,0,0,0,0,0,0,0,0,0,0,0,0,0,0,0,0,0,0,0,0,0,0,0,0,0,0,0,0,0,0,0,0,0,0,0,0,0,0,0,0,0,0,0,0,0,0],"split_type":[0,0,0,0,0,0,0,0,0,0,0,0,0,0,0,0,0,0,0,0,0,0,0,0,0,0,0,0,0,0,0,0,0,0,0,0,0,0,0,0,0,0,0,0,0,0,0,0,0,0,0,0,0,0,0,0,0,0,0,0,0,0,0,0,0,0,0,0,0,0,0,0,0,0,0,0,0,0,0,0,0,0,0,0,0,0,0,0,0,0,0,0,0,0,0,0,0,0,0,0,0,0,0,0,0,0,0,0,0],"sum_hessian":[1.546803E4,8.286871E3,7.181159E3,6.0318E3,2.2550715E3,5.174214E3,2.0069453E3,1.5419763E3,4.4898237E3,1.6361631E3,6.189083E2,1.2955894E3,3.8786243E3,5.3442267E2,1.4725226E3,3.1880255E2,1.2231737E3,3.2629006E3,1.2269231E3,1.5235983E3,1.1256487E2,5.9717064E0,6.1293665E2,1.0985033E3,1.9708609E2,9.0244086E2,2.9761836E3,4.895824E2,4.4840282E1,1.3524977E3,1.20024925E2,2.077352E2,1.1106735E2,7.6440445E1,1.1467333E3,3.1237231E3,1.3917746E2,2.8828411E1,1.1980946E3,2.0907349E2,1.3145248E3,4.18616E2,1.9432066E2,8.044224E2,2.9408084E2,1.7311931E0,1.9535489E2,7.997306E2,1.027103E2,3.9532974E1,2.9366506E3,1.8751286E2,3.0206955E2,2.914921E0,4.192536E1,9.294713E2,4.2302634E2,7.462956E1,4.539537E1,1.9401297E2,1.372223E1,4.5971416E1,6.509593E1,6.527463E1,1.1165814E1,2.5614813E1,1.1211185E3,3.0978374E3,2.588572E1,1.1720162E2,2.197584E1,6.9259056E1,1.1288356E3,4.5774673E1,1.6329881E2,4.1671524E0,1.3103577E3,1.6957802E2,2.4903796E2,5.2192333E1,1.4212833E2,7.052526E2,9.9169785E1,2.9088004E2,3.2007928E0,6.300717E1,1.3234772E2,7.6182947E2,3.79011E1,1.837995E1,8.4330345E1,5.249724E1,2.8841533E3,1.5165831E2,3.5854553E1,1.14090385E2,1.8797914E2,1.2083285E0,1.7065926E0,2.4472427E0,3.947812E1,1.5727328E2,7.72198E2,1.3648196E1,4.0937814E2,2.444541E1,5.018415E1,3.5814857E1,9.580511E0],"tree_param":{"num_deleted":"0","num_feature":"12","num_nodes":"109","size_leaf_vector":"1"}},{"base_weights":[-7.5626804E-4,-2.826748E-1,3.2464117E-1,-1.3437368E-1,-6.8153363E-1,4.6009135E-1,-2.3431094E-2,2.6243117E-1,-2.7093396E-1,-7.8812885E-1,-3.99266E-1,7.227326E-1,3.7226468E-1,-4.038596E-1,1.1446692E-1,-1.8818578E-1,3.8033858E-1,-3.5268214E-1,-5.3262353E-2,-1.1182787E0,-7.5787175E-1,7.0260525E-2,-4.222386E-1,7.761909E-1,4.18671E-1,1.559106E-1,4.377172E-1,-3.1474248E-1,-7.3547494E-1,1.332553E0,9.78864E-2,1.2449096E-3,-5.4099655E-1,1.0270443E0,3.3505046E-1,-3.3022663E-1,-8.420042E-1,9.194702E-2,-1.0225382E-1,1.5300922E-2,-5.7137858E-2,-5.7603335E-1,-8.040191E-1,-5.5468017E-1,-1.3273115E-1,6.97038E-1,9.859157E-1,3.4158063E-1,9.5196515E-1,2.3285878E-1,-4.295855E-1,7.623374E-2,4.22079E-1,-2.6131454E-1,-7.818518E-1,-6.566759E-2,-7.7013713E-1,4.7085495E-4,7.375284E-2,7.423682E-2,8.653747E-2,-6.4352886E-3,8.270398E-2,9.147446E-3,-2.946715E-2,8.4281646E-2,4.1565716E-2,-2.8666768E-2,1.7861104E-2,-1.7482294E-2,9.1378696E-2,-3.700864E-2,-6.291223E-2,-4.292951E-2,-2.7054956E-3,-3.1715374E-2,-1.721502E-2,-3.781089E-2,-4.76143E-2,-1.8742003E-2,-3.357019E-2,3.0178204E-2,-1.1504988E-2,3.6602538E-2,2.1711241E-2,1.6680466E-2,5.072349E-2,2.0675045E-2,-1.4489047E-2,5.387313E-2,-4.4235387E-3,8.257187E-3,7.622083E-2,-3.889172E-2,-1.6580936E-2,-2.2761611E-2,2.1931345E-2,-1.5396801E-2,8.069462E-2,-4.2438354E-2,-0E0,2.760973E-2,-4.4567805E-2,-4.8559695E-2,-3.086448E-2,-6.751928E-3,7.58312E-3],"categories":[],"categories_nodes":[],"categories_segments":[],"categories_sizes":[],"default_left":[0,0,0,0,0,0,0,0,0,0,0,0,0,0,0,0,0,0,0,0,0,0,0,0,0,0,0,0,0,0,0,0,0,0,0,0,0,0,0,0,0,0,0,0,0,0,0,0,0,0,0,0,0,0,0,0,0,0,0,0,0,0,0,0,0,0,0,0,0,0,0,0,0,0,0,0,0,0,0,0,0,0,0,0,0,0,0,0,0,0,0,0,0,0,0,0,0,0,0,0,0,0,0,0,0,0,0],"id":13,"left_children":[1,3,5,7,9,11,13,15,17,19,21,23,25,27,29,31,33,35,37,39,41,-1,43,45,47,49,51,53,55,57,59,61,63,65,67,69,71,-1,73,-1,-1,75,77,79,81,83,85,87,89,91,93,-1,95,97,99,101,103,-1,-1,-1,105,-1,-1,-1,-1,-1,-1,-1,-1,-1,-1,-1,-1,-1,-1,-1,-1,-1,-1,-1,-1,-1,-1,-1,-1,-1,-1,-1,-1,-1,-1,-1,-1,-1,-1,-1,-1,-1,-1,-1,-1,-1,-1,-1,-1,-1,-1],"loss_changes":[1.4146104E3,4.881867E2,3.3769318E2,3.2673413E2,6.6121826E1,1.177926E2,1.0546891E2,8.2230736E1,7.958029E1,1.356311E1,2.6350136E1,1.9687561E1,5.433661E1,1.4824738E1,2.8770464E1,2.1691559E1,3.449951E1,3.466794E1,1.1341399E2,5.6684113E0,1.09105835E1,0E0,2.3010002E1,1.5905334E1,6.8561897E0,4.0793022E1,4.8164185E1,9.711872E0,2.0499458E0,2.8531303E0,2.1868103E1,4.6210037E1,4.370144E0,6.052849E0,2.3427322E1,1.3128851E2,3.1032028E0,0E0,4.3141953E1,0E0,0E0,3.279251E0,6.0927734E0,7.763138E0,1.4156771E1,6.1524353E0,4.0980835E0,8.348253E0,3.7025394E0,6.8646866E1,2.5069122E0,0E0,4.2893433E1,3.4141068E1,2.2747612E0,5.40904E0,1.212326E0,0E0,0E0,0E0,2.0919662E1,0E0,0E0,0E0,0E0,0E0,0E0,0E0,0E0,0E0,0E0,0E0,0E0,0E0,0E0,0E0,0E0,0E0,0E0,0E0,0E0,0E0,0E0,0E0,0E0,0E0,0E0,0E0,0E0,0E0,0E0,0E0,0E0,0E0,0E0,0E0,0E0,0E0,0E0,0E0,0E0,0E0,0E0,0E0,0E0,0E0,0E0],"parents":[2147483647,0,0,1,1,2,2,3,3,4,4,5,5,6,6,7,7,8,8,9,9,10,10,11,11,12,12,13,13,14,14,15,15,16,16,17,17,18,18,19,19,20,20,22,22,23,23,24,24,25,25,26,26,27,27,28,28,29,29,30,30,31,31,32,32,33,33,34,34,35,35,36,36,38,38,41,41,42,42,43,43,44,44,45,45,46,46,47,47,48,48,49,49,50,50,52,52,53,53,54,54,55,55,56,56,60,60],"right_children":[2,4,6,8,10,12,14,16,18,20,22,24,26,28,30,32,34,36,38,40,42,-1,44,46,48,50,52,54,56,58,60,62,64,66,68,70,72,-1,74,-1,-1,76,78,80,82,84,86,88,90,92,94,-1,96,98,100,102,104,-1,-1,-1,106,-1,-1,-1,-1,-1,-1,-1,-1,-1,-1,-1,-1,-1,-1,-1,-1,-1,-1,-1,-1,-1,-1,-1,-1,-1,-1,-1,-1,-1,-1,-1,-1,-1,-1,-1,-1,-1,-1,-1,-1,-1,-1,-1,-1,-1,-1],"split_conditions":[1.28E2,1E0,1E0,1E0,8.032053E1,1E0,7.214258E1,6.2329426E1,7.529135E1,3.8E1,8.1E1,1.5E2,6.520272E1,5.5E1,8E1,6E1,6.4E1,7.5E1,7.6E1,1E2,1E0,7.0260525E-2,9.2252625E1,8.430373E1,9.44829E1,6.5E1,6.6E1,7.2E1,5.4914547E1,8.5355095E1,7.3E1,5.9193214E1,1.3854886E0,6.3E1,6.423381E1,7.420422E1,1.5009674E0,9.194702E-2,7.611502E1,1.5300922E-2,-5.7137858E-2,1.5009674E0,1.5153896E0,8.5E1,4E1,1.6455696E0,1.4285715E0,8.7E1,1.03E2,6.423381E1,1.5333333E0,7.623374E-2,6.619866E1,7.106955E1,1.4222208E2,1.4222208E2,6.520272E1,4.7085495E-4,7.375284E-2,7.423682E-2,7.802012E1,-6.4352886E-3,8.270398E-2,9.147446E-3,-2.946715E-2,8.4281646E-2,4.1565716E-2,-2.8666768E-2,1.7861104E-2,-1.7482294E-2,9.1378696E-2,-3.700864E-2,-6.291223E-2,-4.292951E-2,-2.7054956E-3,-3.1715374E-2,-1.721502E-2,-3.781089E-2,-4.76143E-2,-1.8742003E-2,-3.357019E-2,3.0178204E-2,-1.1504988E-2,3.6602538E-2,2.1711241E-2,1.6680466E-2,5.072349E-2,2.0675045E-2,-1.4489047E-2,5.387313E-2,-4.4235387E-3,8.257187E-3,7.622083E-2,-3.889172E-2,-1.6580936E-2,-2.2761611E-2,2.1931345E-2,-1.5396801E-2,8.069462E-2,-4.2438354E-2,-0E0,2.760973E-2,-4.4567805E-2,-4.8559695E-2,-3.086448E-2,-6.751928E-3,7.58312E-3],"split_indices":[7,0,0,6,3,6,3,3,3,11,3,7,3,11,8,3,3,3,3,7,6,0,3,3,3,3,3,3,3,3,3,3,9,3,3,3,9,0,3,0,0,9,9,3,11,9,9,3,3,3,9,0,3,3,7,7,3,0,0,0,3,0,0,0,0,0,0,0,0,0,0,0,0,0,0,0,0,0,0,0,0,0,0,0,0,0,0,0,0,0,0,0,0,0,0,0,0,0,0,0,0,0,0,0,0,0,0],"split_type":[0,0,0,0,0,0,0,0,0,0,0,0,0,0,0,0,0,0,0,0,0,0,0,0,0,0,0,0,0,0,0,0,0,0,0,0,0,0,0,0,0,0,0,0,0,0,0,0,0,0,0,0,0,0,0,0,0,0,0,0,0,0,0,0,0,0,0,0,0,0,0,0,0,0,0,0,0,0,0,0,0,0,0,0,0,0,0,0,0,0,0,0,0,0,0,0,0,0,0,0,0,0,0,0,0,0,0],"sum_hessian":[1.5416749E4,8.261195E3,7.155553E3,6.024961E3,2.2362349E3,5.1516235E3,2.00393E3,1.541193E3,4.4837676E3,1.6193497E3,6.168851E2,1.2859385E3,3.8656848E3,5.3307336E2,1.4708567E3,3.1850443E2,1.2226886E3,3.257029E3,1.2267386E3,1.2852351E2,1.4908263E3,5.968412E0,6.109166E2,1.0896184E3,1.9632008E2,9.0119073E2,2.9644941E3,4.244218E2,1.0865156E2,1.7215683E1,1.453641E3,2.0761032E2,1.108941E2,7.645986E1,1.1462288E3,3.1182986E3,1.3873053E2,2.885843E1,1.1978801E3,1.4377537E0,1.2708576E2,3.0941415E2,1.1814121E3,4.1671994E2,1.9419672E2,7.9907007E2,2.9054834E2,1.7521103E2,2.1109058E1,7.983297E2,1.02861046E2,3.8854885E1,2.9256392E3,3.8461847E2,3.980336E1,6.3406005E0,1.0231096E2,2.2223344E0,1.4993349E1,9.333786E0,1.4443073E3,1.9390657E2,1.370375E1,5.946103E0,1.04948E2,1.3444259E1,6.3015602E1,2.5588327E1,1.1206404E3,3.0923762E3,2.5922377E1,1.1689128E2,2.183924E1,6.905045E1,1.1288297E3,2.4273991E2,6.667424E1,9.05161E2,2.7625107E2,1.6901654E2,2.477034E2,2.086725E1,1.7332947E2,7.003004E2,9.8769646E1,1.3983257E1,2.765651E2,1.586238E2,1.6587234E1,1.9202272E1,1.9067861E0,7.6107043E2,3.7259277E1,1.8415375E1,8.444567E1,5.2621014E1,2.873018E3,3.7717923E2,7.4392385E0,3.6629402E1,3.1739576E0,3.6592748E0,2.6813257E0,3.8149544E1,6.4161415E1,3.2584677E2,1.1184604E3],"tree_param":{"num_deleted":"0","num_feature":"12","num_nodes":"107","size_leaf_vector":"1"}},{"base_weights":[-6.702803E-4,-2.694686E-1,3.0967522E-1,-5.1503694E-1,3.3000145E-2,4.3927374E-1,-2.2196127E-2,-3.7257454E-1,-8.80706E-1,1.6438946E-1,-3.4658045E-1,-3.7565526E-1,4.5876077E-1,-4.2952734E-1,1.555261E-1,-6.670748E-1,-2.2989573E-1,-9.97367E-1,-4.567495E-1,1.9794108E-1,-7.5716156E-1,-1.0912602E0,-2.6560038E-1,-2.377329E-1,-1.1600982E0,4.7262883E-1,-4.6919143E-1,-6.5498215E-1,5.439855E-2,8.1078455E-2,1.0203373E-1,-8.4241474E-1,-3.4006146E-1,-3.83729E-1,-9.401527E-2,-9.3711704E-1,-6.855962E-2,7.8811914E-2,-5.064005E-1,3.118609E-2,3.6656842E-1,-5.60605E-1,-6.346286E-2,-7.467713E-1,-1.2302549E0,-2.1684371E-1,-1.0483724E0,-5.602368E-1,1.5995912E-1,-7.9804406E-2,-3.9401793E-1,4.901029E-1,-2.5999936E-1,-6.5259236E-1,2.9756532E-3,-1.1579868E0,-5.2376443E-1,