{"learner":{"attributes":{},"feature_names":["gender","age","height","weight","smoke","alco","active","ap_hi","ap_lo","bp_ratio","BMI","blood_pressure_diff"],"feature_types":["int","int","float","float","int","int","int","float","float","float","float","float"],"gradient_booster":{"model":{"gbtree_model_param":{"num_parallel_tree":"1","num_trees":"300"},"iteration_indptr":[0,1,2,3,4,5,6,7,8,9,10,11,12,13,14,15,16,17,18,19,20,21,22,23,24,25,26,27,28,29,30,31,32,33,34,35,36,37,38,39,40,41,42,43,44,45,46,47,48,49,50,51,52,53,54,55,56,57,58,59,60,61,62,63,64,65,66,67,68,69,70,71,72,73,74,75,76,77,78,79,80,81,82,83,84,85,86,87,88,89,90,91,92,93,94,95,96,97,98,99,100,101,102,103,104,105,106,107,108,109,110,111,112,113,114,115,116,117,118,119,120,121,122,123,124,125,126,127,128,129,130,131,132,133,134,135,136,137,138,139,140,141,142,143,144,145,146,147,148,149,150,151,152,153,154,155,156,157,158,159,160,161,162,163,164,165,166,167,168,169,170,171,172,173,174,175,176,177,178,179,180,181,182,183,184,185,186,187,188,189,190,191,192,193,194,195,196,197,198,199,200,201,202,203,204,205,206,207,208,209,210,211,212,213,214,215,216,217,218,219,220,221,222,223,224,225,226,227,228,229,230,231,232,233,234,235,236,237,238,239,240,241,242,243,244,245,246,247,248,249,250,251,252,253,254,255,256,257,258,259,260,261,262,263,264,265,266,267,268,269,270,271,272,273,274,275,276,277,278,279,280,281,282,283,284,285,286,287,288,289,290,291,292,293,294,295,296,297,298,299,300],"tree_info":[0,0,0,0,0,0,0,0,0,0,0,0,0,0,0,0,0,0,0,0,0,0,0,0,0,0,0,0,0,0,0,0,0,0,0,0,0,0,0,0,0,0,0,0,0,0,0,0,0,0,0,0,0,0,0,0,0,0,0,0,0,0,0,0,0,0,0,0,0,0,0,0,0,0,0,0,0,0,0,0,0,0,0,0,0,0,0,0,0,0,0,0,0,0,0,0,0,0,0,0,0,0,0,0,0,0,0,0,0,0,0,0,0,0,0,0,0,0,0,0,0,0,0,0,0,0,0,0,0,0,0,0,0,0,0,0,0,0,0,0,0,0,0,0,0,0,0,0,0,0,0,0,0,0,0,0,0,0,0,0,0,0,0,0,0,0,0,0,0,0,0,0,0,0,0,0,0,0,0,0,0,0,0,0,0,0,0,0,0,0,0,0,0,0,0,0,0,0,0,0,0,0,0,0,0,0,0,0,0,0,0,0,0,0,0,0,0,0,0,0,0,0,0,0,0,0,0,0,0,0,0,0,0,0,0,0,0,0,0,0,0,0,0,0,0,0,0,0,0,0,0,0,0,0,0,0,0,0,0,0,0,0,0,0,0,0,0,0,0,0,0,0,0,0,0,0,0,0,0,0,0,0,0,0,0,0,0,0,0,0,0,0,0,0,0,0,0,0,0,0],"trees":[{"base_weights":[-0E0,-6.3067484E-1,7.2563934E-1,-3.8682035E-1,-1.254325E0,3.9841336E-1,1.00921325E-1,-7.5680655E-1,-2.9618305E-1,-1.1392921E0,-1.7923024E0,3.138868E-1,1.00298814E-1,-9.706184E-1,-6.109653E-1,-5.7424325E-1,-2.0623378E-1,-1.259428E0,-6.760609E-1,-9.232413E-2,-1.3923869E0,5.562078E-1,-3.5585508E-1,-9.038875E-1,-7.5251E-2,8.9117765E-2,-6.747822E-1,-6.905943E-1,-2.0591386E-1,-2.9734728E-1,1.8412545E-2,-1.4246513E0,-1.1441983E0,-1.4296688E0,-3.5661379E-1,6.153048E-4,-1.4707361E0,5.7025594E-1,-1.183157E0,-1.0867071E0,-4.214589E-2,-4.6558183E-2,6.321325E-2,-3.1969503E-2,-7.544045E-2,-3.9561015E-2,-1.4520775E-2,9.2501625E-2,-2.05438E-2,-1.4330921E-2,-8.075651E-2,-9.877355E-4,4.3494843E-2,-6.816105E-2,-8.2742155E-2,8.5929446E-2,-5.9453238E-2,-8.287333E-2,-5.498105E-2,7.262381E-2,-2.1484936E-2,-7.824628E-2,-3.777035E-2,2.4682594E-2,3.862692E-2,-6.843624E-2,1.5638698E-2,-7.718688E-2,-4.0319465E-2,9.330074E-3,-5.9794385E-2],"categories":[],"categories_nodes":[],"categories_segments":[],"categories_sizes":[],"default_left":[0,0,0,0,0,0,0,0,0,0,0,0,0,0,0,0,0,0,0,0,0,0,0,0,0,0,0,0,0,0,0,0,0,0,0,0,0,0,0,0,0,0,0,0,0,0,0,0,0,0,0,0,0,0,0,0,0,0,0,0,0,0,0,0,0,0,0,0,0,0,0],"id":0,"left_children":[1,3,5,7,9,11,-1,13,15,17,19,21,-1,23,25,27,29,31,33,-1,35,37,39,41,-1,-1,43,45,47,49,51,53,55,57,59,-1,61,63,65,67,69,-1,-1,-1,-1,-1,-1,-1,-1,-1,-1,-1,-1,-1,-1,-1,-1,-1,-1,-1,-1,-1,-1,-1,-1,-1,-1,-1,-1,-1,-1],"loss_changes":[7.2460625E3,1.2864844E3,3.1117327E3,2.033617E2,1.4171997E2,7.963054E2,0E0,3.533673E1,1.2189575E2,1.0678198E2,2.2294922E0,9.0724365E2,0E0,1.3208008E1,1.1154068E2,5.0473938E1,7.600252E1,2.5128662E1,9.6838776E1,0E0,7.2305374E0,1.01324585E2,3.3983624E2,2.7792175E1,0E0,0E0,1.7693634E1,3.548871E1,1.2330643E2,3.542305E1,3.5221127E1,2.893921E0,1.2329321E2,4.072571E0,3.9240803E1,0E0,2.4819183E-1,6.171472E1,1.0613285E1,5.3403503E1,2.7585382E2,0E0,0E0,0E0,0E0,0E0,0E0,0E0,0E0,0E0,0E0,0E0,0E0,0E0,0E0,0E0,0E0,0E0,0E0,0E0,0E0,0E0,0E0,0E0,0E0,0E0,0E0,0E0,0E0,0E0,0E0],"parents":[2147483647,0,0,1,1,2,2,3,3,4,4,5,5,7,7,8,8,9,9,10,10,11,11,13,13,14,14,15,15,16,16,17,17,18,18,20,20,21,21,22,22,23,23,26,26,27,27,28,28,29,29,30,30,31,31,32,32,33,33,34,34,36,36,37,37,38,38,39,39,40,40],"right_children":[2,4,6,8,10,12,-1,14,16,18,20,22,-1,24,26,28,30,32,34,-1,36,38,40,42,-1,-1,44,46,48,50,52,54,56,58,60,-1,62,64,66,68,70,-1,-1,-1,-1,-1,-1,-1,-1,-1,-1,-1,-1,-1,-1,-1,-1,-1,-1,-1,-1,-1,-1,-1,-1,-1,-1,-1,-1,-1,-1],"split_conditions":[1.28E2,1E0,1.4222208E2,2.3148148E1,1E0,9.5E1,1.00921325E-1,1.6209593E2,1.2E2,2.8440954E1,2.978535E1,1E0,1.00298814E-1,1.6197928E2,1.63E2,1.6518471E2,2.9411764E1,1.680728E2,1.6716673E2,-9.232413E-2,3.0062101E1,1E0,1.680728E2,1.6133066E2,-7.5251E-2,8.9117765E-2,2.313428E1,3.1310493E1,1.66E2,1E0,1.7021227E2,1.68E2,1.69E2,1.6411754E2,2.869898E1,6.153048E-4,1.7509216E2,1.6518471E2,1.7509216E2,1.6411754E2,1E0,-4.6558183E-2,6.321325E-2,-3.1969503E-2,-7.544045E-2,-3.9561015E-2,-1.4520775E-2,9.2501625E-2,-2.05438E-2,-1.4330921E-2,-8.075651E-2,-9.877355E-4,4.3494843E-2,-6.816105E-2,-8.2742155E-2,8.5929446E-2,-5.9453238E-2,-8.287333E-2,-5.498105E-2,7.262381E-2,-2.1484936E-2,-7.824628E-2,-3.777035E-2,2.4682594E-2,3.862692E-2,-6.843624E-2,1.5638698E-2,-7.718688E-2,-4.0319465E-2,9.330074E-3,-5.9794385E-2],"split_indices":[7,0,7,10,4,8,0,2,7,10,10,0,0,2,2,2,10,2,2,0,10,4,2,2,0,0,10,10,2,4,2,2,2,2,10,0,2,2,2,2,4,0,0,0,0,0,0,0,0,0,0,0,0,0,0,0,0,0,0,0,0,0,0,0,0,0,0,0,0,0,0],"split_type":[0,0,0,0,0,0,0,0,0,0,0,0,0,0,0,0,0,0,0,0,0,0,0,0,0,0,0,0,0,0,0,0,0,0,0,0,0,0,0,0,0,0,0,0,0,0,0,0,0,0,0,0,0,0,0,0,0,0,0,0,0,0,0,0,0,0,0,0,0,0,0],"sum_hessian":[1.5829461E4,8.469043E3,7.360418E3,6.0913115E3,2.3777312E3,5.876086E3,1.4843323E3,1.194615E3,4.896697E3,1.964778E3,4.1295334E2,5.5851187E3,2.909671E2,4.7844592E2,7.1616907E2,1.1928652E3,3.7038313E3,1.5565741E3,4.0820386E2,3.5620975E2,5.6743587E1,4.102036E3,1.4830824E3,4.309513E2,4.7494633E1,1.699808E1,6.9917096E2,9.041478E2,2.8871738E2,2.6362021E3,1.0676293E3,6.2842896E2,9.281451E2,1.1898655E2,2.8921732E2,2.749689E0,5.3993896E1,4.0707898E3,3.1246468E1,4.434499E2,1.0396324E3,4.2695175E2,3.999548E0,6.7467377E2,2.449723E1,7.1991864E2,1.8422917E2,2.449723E1,2.6422012E2,2.617704E3,1.849791E1,1.02313434E3,4.4494972E1,5.086925E2,1.19736465E2,1.2998531E1,9.1514655E2,6.474268E1,5.424387E1,9.498926E0,2.7971838E2,4.4994915E1,8.998983E0,2.9594155E3,1.1113744E3,2.8246807E1,2.999661E0,1.6448141E2,2.7896848E2,8.686518E2,1.7098068E2],"tree_param":{"num_deleted":"0","num_feature":"12","num_nodes":"71","size_leaf_vector":"1"}},{"base_weights":[-5.4742093E-5,-2.1345302E-1,6.074715E-1,-3.8823674E-3,-7.460136E-1,9.173924E-1,-2.9076036E-2,-4.599859E-1,1.9163543E-1,-1.0116863E0,-2.2660294E-1,6.0497326E-1,9.333526E-2,-5.938986E-1,3.303735E-1,9.5751084E-2,-6.4045876E-1,6.4729226E-1,2.9551964E-2,-1.3262815E0,-6.936137E-1,-5.565279E-2,-1.0668931E0,1.6473496E0,2.6629913E-1,1.7807573E-1,-9.151313E-1,5.306427E-1,-2.8414103E-1,2.1727066E-1,-7.969054E-1,-5.135219E-1,-1.2701746E0,4.5722482E-1,1.049753E0,-1.1520603E-1,4.0444824E-1,-1.2458428E0,-1.6377083E0,-5.932439E-1,-1.2470881E0,-6.7758816E-1,1.1781482E-1,1.09802045E-1,-1.1505214E0,6.805501E-1,1.7688406E0,3.6382055E-1,-1.3354275E0,4.6787333E-1,-1.1330637E0,-6.8706816E-1,-1.3414222E0,5.5847394E-1,-5.017215E-2,-1.1889999E0,1.2307615E-1,2.4223032E-3,4.270696E-2,-2.7760586E-2,-5.5680465E-2,-3.4705084E-2,-6.578777E-3,-7.535646E-2,-4.5139175E-2,2.5604302E-2,-7.437326E-3,5.3820234E-2,-1.6587455E-2,-4.497764E-3,-5.1082607E-2,9.596529E-2,1.6878044E-2,-6.6075526E-2,-4.9805265E-2,-4.568618E-2,-8.455983E-2,-5.3706057E-2,-2.4317807E-2,-6.552746E-3,-6.705945E-2,-5.5680033E-3,-4.3830164E-2,5.9388842E-2,2.2710934E-4,-6.1221756E-2,6.981729E-2,-6.798514E-2,-3.3061337E-2,5.1106762E-2,-6.0391944E-2,1.297227E-2,8.862198E-2,3.950533E-2,1.0669998E-2,-8.10248E-2,-3.9314236E-2,-2.4514517E-2,3.661848E-2,-7.714924E-2,-2.0580275E-2,-8.4150545E-2,-3.059267E-2,-8.0501825E-2,-4.4130195E-2,2.9069994E-2,-5.2794356E-2,-6.959253E-2,-3.7165973E-2,-4.39327E-2,1.5552573E-2],"categories":[],"categories_nodes":[],"categories_segments":[],"categories_sizes":[],"default_left":[0,0,0,0,0,0,0,0,0,0,0,0,0,0,0,0,0,0,0,0,0,0,0,0,0,0,0,0,0,0,0,0,0,0,0,0,0,0,0,0,0,0,0,0,0,0,0,0,0,0,0,0,0,0,0,0,0,0,0,0,0,0,0,0,0,0,0,0,0,0,0,0,0,0,0,0,0,0,0,0,0,0,0,0,0,0,0,0,0,0,0,0,0,0,0,0,0,0,0,0,0,0,0,0,0,0,0,0,0,0,0],"id":1,"left_children":[1,3,5,7,9,11,13,15,17,19,21,23,-1,25,27,29,31,33,35,37,39,41,43,45,47,49,51,53,55,57,59,61,63,65,67,69,71,73,75,77,79,81,83,85,87,89,91,93,95,97,99,101,103,105,-1,107,109,-1,-1,-1,-1,-1,-1,-1,-1,-1,-1,-1,-1,-1,-1,-1,-1,-1,-1,-1,-1,-1,-1,-1,-1,-1,-1,-1,-1,-1,-1,-1,-1,-1,-1,-1,-1,-1,-1,-1,-1,-1,-1,-1,-1,-1,-1,-1,-1,-1,-1,-1,-1,-1,-1],"loss_changes":[2.0512793E3,1.3066757E3,8.1186084E2,7.4998303E2,4.5518262E2,8.170425E2,2.7422937E2,2.5351556E2,4.342478E2,2.1591992E2,1.6050719E2,7.342026E2,0E0,1.3102095E2,1.0190556E2,6.728151E1,1.5015985E2,1.1633142E2,2.3596721E2,2.1937622E1,5.8269897E1,1.0131413E2,1.938005E1,5.633423E1,2.4672328E2,5.986745E1,3.329901E1,2.7507004E1,7.576149E1,5.8336426E1,3.6080437E0,1.090892E2,2.3734558E1,3.532544E1,1.922461E1,7.099938E1,1.20321976E2,1.2852905E1,4.0248413E0,4.592816E1,1.6247864E1,2.239376E1,8.813065E1,2.7495625E1,1.5318909E1,4.1533195E1,5.1916504E-1,9.456151E1,1.0431854E1,3.3582073E1,6.1653633E0,1.53066025E1,1.1533539E1,2.3704773E1,0E0,2.6208878E0,2.6941586E1,0E0,0E0,0E0,0E0,0E0,0E0,0E0,0E0,0E0,0E0,0E0,0E0,0E0,0E0,0E0,0E0,0E0,0E0,0E0,0E0,0E0,0E0,0E0,0E0,0E0,0E0,0E0,0E0,0E0,0E0,0E0,0E0,0E0,0E0,0E0,0E0,0E0,0E0,0E0,0E0,0E0,0E0,0E0,0E0,0E0,0E0,0E0,0E0,0E0,0E0,0E0,0E0,0E0,0E0],"parents":[2147483647,0,0,1,1,2,2,3,3,4,4,5,5,6,6,7,7,8,8,9,9,10,10,11,11,13,13,14,14,15,15,16,16,17,17,18,18,19,19,20,20,21,21,22,22,23,23,24,24,25,25,26,26,27,27,28,28,29,29,30,30,31,31,32,32,33,33,34,34,35,35,36,36,37,37,38,38,39,39,40,40,41,41,42,42,43,43,44,44,45,45,46,46,47,47,48,48,49,49,50,50,51,51,52,52,53,53,55,55,56,56],"right_children":[2,4,6,8,10,12,14,16,18,20,22,24,-1,26,28,30,32,34,36,38,40,42,44,46,48,50,52,54,56,58,60,62,64,66,68,70,72,74,76,78,80,82,84,86,88,90,92,94,96,98,100,102,104,106,-1,108,110,-1,-1,-1,-1,-1,-1,-1,-1,-1,-1,-1,-1,-1,-1,-1,-1,-1,-1,-1,-1,-1,-1,-1,-1,-1,-1,-1,-1,-1,-1,-1,-1,-1,-1,-1,-1,-1,-1,-1,-1,-1,-1,-1,-1,-1,-1,-1,-1,-1,-1,-1,-1,-1,-1],"split_conditions":[1.5719382E0,1E0,1.6875E0,5.1E1,8.032053E1,1.65E0,1.7152619E0,1E0,1E0,5.4E1,1E0,1.625E0,9.333526E-2,1E0,1E0,1.5598968E0,1.5711775E0,7.802012E1,7.802012E1,1E0,1E0,4.9E1,1.4059454E0,1.5948297E0,1E0,1E0,1E0,6.4E1,7.529135E1,1.5009674E0,4.5E1,7.529135E1,4.7E1,1.5711775E0,6.4E1,6.4E1,7.9E1,1.5235137E0,1.4285715E0,6.3230827E1,1.4059454E0,1E0,1.4117647E0,1.4E0,9.2252625E1,1.5942029E0,5.1E1,1E0,8.032053E1,5.1E1,5.6E1,4.2E1,7.611502E1,1E0,-5.017215E-2,7.106955E1,5E1,2.4223032E-3,4.270696E-2,-2.7760586E-2,-5.5680465E-2,-3.4705084E-2,-6.578777E-3,-7.535646E-2,-4.5139175E-2,2.5604302E-2,-7.437326E-3,5.3820234E-2,-1.6587455E-2,-4.497764E-3,-5.1082607E-2,9.596529E-2,1.6878044E-2,-6.6075526E-2,-4.9805265E-2,-4.568618E-2,-8.455983E-2,-5.3706057E-2,-2.4317807E-2,-6.552746E-3,-6.705945E-2,-5.5680033E-3,-4.3830164E-2,5.9388842E-2,2.2710934E-4,-6.1221756E-2,6.981729E-2,-6.798514E-2,-3.3061337E-2,5.1106762E-2,-6.0391944E-2,1.297227E-2,8.862198E-2,3.950533E-2,1.0669998E-2,-8.10248E-2,-3.9314236E-2,-2.4514517E-2,3.661848E-2,-7.714924E-2,-2.0580275E-2,-8.4150545E-2,-3.059267E-2,-8.0501825E-2,-4.4130195E-2,2.9069994E-2,-5.2794356E-2,-6.959253E-2,-3.7165973E-2,-4.39327E-2,1.5552573E-2],"split_indices":[9,0,9,1,3,9,9,6,6,1,4,9,0,6,0,9,9,3,3,4,4,1,9,9,4,0,0,1,3,9,1,3,1,9,1,1,3,9,9,3,9,6,9,9,3,9,3,6,3,1,1,1,3,5,0,3,1,0,0,0,0,0,0,0,0,0,0,0,0,0,0,0,0,0,0,0,0,0,0,0,0,0,0,0,0,0,0,0,0,0,0,0,0,0,0,0,0,0,0,0,0,0,0,0,0,0,0,0,0,0,0],"split_type":[0,0,0,0,0,0,0,0,0,0,0,0,0,0,0,0,0,0,0,0,0,0,0,0,0,0,0,0,0,0,0,0,0,0,0,0,0,0,0,0,0,0,0,0,0,0,0,0,0,0,0,0,0,0,0,0,0,0,0,0,0,0,0,0,0,0,0,0,0,0,0,0,0,0,0,0,0,0,0,0,0,0,0,0,0,0,0,0,0,0,0,0,0,0,0,0,0,0,0,0,0,0,0,0,0,0,0,0,0,0,0],"sum_hessian":[1.5819788E4,1.1709023E4,4.1107646E3,8.404629E3,3.3043955E3,2.7646306E3,1.3461339E3,2.521749E3,5.8828794E3,2.184295E3,1.1201005E3,2.0829368E3,6.816938E2,5.235453E2,8.225887E2,6.1772705E2,1.9040221E3,1.541177E3,4.341702E3,1.0941727E3,1.0901222E3,9.33014E2,1.8708655E2,5.0854004E2,1.5743967E3,1.5364532E2,3.6989996E2,6.212206E2,2.0136807E2,5.455353E2,7.2191765E1,1.5882839E3,3.1573816E2,1.0505536E3,4.9062335E2,3.132289E3,1.2094132E3,8.7879443E2,2.1537831E2,9.270528E2,1.6306938E2,2.0283989E2,7.301741E2,1.1975786E1,1.7511076E2,5.8704063E1,4.49836E2,1.4857919E3,8.8604836E1,1.2719862E2,2.6446712E1,2.4514516E2,1.2475481E2,6.1172064E2,9.499936E0,6.1686195E1,1.3968187E2,4.3354584E2,1.1198948E2,4.4963028E1,2.7228735E1,1.0764211E3,5.1186276E2,1.8734293E2,1.2839522E2,9.643792E2,8.617444E1,4.8212585E2,8.4974985E0,3.0500737E3,8.221542E1,4.848418E1,1.1609291E3,6.663212E2,2.1247318E2,1.7948706E1,1.974296E2,1.644469E2,7.626059E2,1.3465673E1,1.496037E2,5.4216675E1,1.4862321E2,6.766175E1,6.625123E2,5.7355385E0,6.2402477E0,1.1945999E2,5.565078E1,5.071297E1,7.9910946E0,1.7482353E0,4.4808774E2,3.8444913E2,1.1013428E3,5.5158695E1,3.3446136E1,2.6738394E1,1.0046023E2,1.4970348E1,1.1476363E1,1.3744899E1,2.3140027E2,7.483491E1,4.9919895E1,6.047223E2,6.998364E0,3.8702827E1,2.2983366E1,2.048859E1,1.1919328E2],"tree_param":{"num_deleted":"0","num_feature":"12","num_nodes":"111","size_leaf_vector":"1"}},{"base_weights":[-2.0758552E-4,-5.852862E-1,6.727954E-1,-5.484507E-1,-1.700825E0,3.728631E-1,9.318287E-2,-6.452157E-1,-1.8488973E-1,-8.99863E-2,-1.3452628E0,9.463765E-2,2.9070225E-1,-5.252856E-1,-8.530554E-1,-1.1817556E-1,-4.620447E-1,-1.842927E-1,-8.294898E-2,3.4606227E-1,-1.3276991E0,-5.68099E-1,9.963873E-2,-1.3663237E0,-7.505011E-1,3.611227E-1,-1.4080983E-1,-7.6977116E-1,-2.1105482E-1,-6.8056665E-2,6.147594E-1,7.87017E-2,4.228109E-1,-1.4350145E0,-6.3397485E-1,-2.6102114E-2,-7.497177E-2,-6.214499E-2,-8.7571084E-2,9.873423E-2,-4.3321956E-2,-3.2013822E-2,5.1581807E-2,-3.699043E-2,-5.3806505E-3,-1.8579734E-2,-5.2416094E-2,5.839659E-3,-2.9119505E-2,-3.5463423E-2,6.057514E-2,2.1330113E-2,-2.3116362E-3,1.657646E-2,2.7250681E-2,1.2170881E-2,-7.300708E-2,4.1556336E-2,-4.0383168E-2],"categories":[],"categories_nodes":[],"categories_segments":[],"categories_sizes":[],"default_left":[0,0,0,0,0,0,0,0,0,0,0,0,0,0,0,0,0,0,0,0,0,0,0,0,0,0,0,0,0,0,0,0,0,0,0,0,0,0,0,0,0,0,0,0,0,0,0,0,0,0,0,0,0,0,0,0,0,0,0],"id":2,"left_children":[1,3,5,7,9,11,-1,13,15,-1,17,-1,19,21,23,25,27,29,-1,31,33,35,-1,37,39,41,43,45,47,-1,49,51,53,55,57,-1,-1,-1,-1,-1,-1,-1,-1,-1,-1,-1,-1,-1,-1,-1,-1,-1,-1,-1,-1,-1,-1,-1,-1],"loss_changes":[6.223936E3,3.4447974E2,2.6229407E3,2.8743848E2,3.041565E0,7.313907E2,0E0,1.5958276E2,3.1502106E1,0E0,2.3066376E1,0E0,5.0000098E2,4.442821E2,1.2117285E2,1.5122374E1,2.4872513E1,1.799264E1,0E0,1.1035248E2,1.088443E1,1.7070813E2,0E0,1.2683533E1,6.262849E2,4.345511E1,2.5948843E1,1.4899002E1,2.3113974E1,0E0,1.0838168E1,5.268407E1,4.5923157E1,7.9662476E0,8.692625E0,0E0,0E0,0E0,0E0,0E0,0E0,0E0,0E0,0E0,0E0,0E0,0E0,0E0,0E0,0E0,0E0,0E0,0E0,0E0,0E0,0E0,0E0,0E0,0E0],"parents":[2147483647,0,0,1,1,2,2,3,3,4,4,5,5,7,7,8,8,10,10,12,12,13,13,14,14,15,15,16,16,17,17,19,19,20,20,21,21,23,23,24,24,25,25,26,26,27,27,28,28,30,30,31,31,32,32,33,33,34,34],"right_children":[2,4,6,8,10,12,-1,14,16,-1,18,-1,20,22,24,26,28,30,-1,32,34,36,-1,38,40,42,44,46,48,-1,50,52,54,56,58,-1,-1,-1,-1,-1,-1,-1,-1,-1,-1,-1,-1,-1,-1,-1,-1,-1,-1,-1,-1,-1,-1,-1,-1],"split_conditions":[1.28E2,1E0,1.4222208E2,2.9411764E1,8.230199E1,1.4444444E0,9.318287E-2,1.68E2,1.5625E0,-8.99863E-2,8.5E1,9.463765E-2,1E0,1.6716673E2,1.680728E2,2.9666548E1,3.1644285E1,1.7142378E2,-8.294898E-2,2.4691359E1,1.7706831E2,1.67E2,9.963873E-2,7.4E1,1.69E2,1.5811905E2,2.978535E1,3.0258022E1,8.7E1,-6.8056665E-2,2.7434843E1,1.6E2,3.0120169E1,1.3E2,1.7797742E2,-2.6102114E-2,-7.497177E-2,-6.214499E-2,-8.7571084E-2,9.873423E-2,-4.3321956E-2,-3.2013822E-2,5.1581807E-2,-3.699043E-2,-5.3806505E-3,-1.8579734E-2,-5.2416094E-2,5.839659E-3,-2.9119505E-2,-3.5463423E-2,6.057514E-2,2.1330113E-2,-2.3116362E-3,1.657646E-2,2.7250681E-2,1.2170881E-2,-7.300708E-2,4.1556336E-2,-4.0383168E-2],"split_indices":[7,5,7,10,3,9,0,2,9,0,3,0,5,2,2,10,10,2,0,10,2,2,0,3,2,2,10,10,3,0,10,2,10,7,2,0,0,0,0,0,0,0,0,0,0,0,0,0,0,0,0,0,0,0,0,0,0,0,0],"split_type":[0,0,0,0,0,0,0,0,0,0,0,0,0,0,0,0,0,0,0,0,0,0,0,0,0,0,0,0,0,0,0,0,0,0,0,0,0,0,0,0,0,0,0,0,0,0,0,0,0,0,0,0,0,0,0,0,0,0,0],"sum_hessian":[1.5802544E4,8.454011E3,7.348533E3,8.1871006E3,2.669096E2,5.872518E3,1.4760154E3,6.4637827E3,1.7233181E3,2.0136864E2,6.5540985E1,2.985985E2,5.5739194E3,4.1047007E3,2.3590818E3,1.3927299E3,3.3058823E2,1.4957299E1,5.0583687E1,5.39138E3,1.8253946E2,4.0377954E3,6.690545E1,3.8794702E2,1.9711348E3,6.0459255E1,1.3322705E3,1.4575685E2,1.8483139E2,5.7328515E0,9.224447E0,1.2048269E3,4.186553E3,1.5560962E2,2.6929846E1,3.8510117E3,1.8678362E2,3.01174E2,8.6772995E1,7.895185E1,1.892183E3,2.3984037E1,3.6475216E1,6.693172E1,1.2653389E3,6.265592E1,8.310094E1,9.817669E1,8.66547E1,2.488364E0,6.7360835E0,3.1812582E2,8.867011E2,2.4030586E3,1.7834945E3,1.7454228E0,1.538642E2,1.7467321E0,2.5183113E1],"tree_param":{"num_deleted":"0","num_feature":"12","num_nodes":"59","size_leaf_vector":"1"}},{"base_weights":[-2.1586065E-4,-5.5708045E-1,6.407316E-1,-3.3845887E-1,-1.119508E0,3.5447633E-1,8.933597E-2,-4.137042E-1,3.5935905E-2,-1.2455834E0,-7.711383E-1,9.050436E-2,2.7624658E-1,-6.7320526E-1,-3.1820047E-1,8.788068E-2,-6.7221985E-4,-7.6130204E-2,-1.1982636E0,7.709797E-2,-7.9884744E-1,4.9511844E-1,-3.2813868E-1,-1.019862E0,-5.579371E-1,-5.9509605E-1,-2.4278522E-1,-9.40486E-1,4.946686E-2,6.9304496E-2,-1.2078197E0,-6.792164E-2,-6.7182654E-1,2.7646354E-1,5.6308323E-1,-8.5173017E-1,-1.19667046E-1,-0E0,-5.2521553E-2,8.3013E-2,-2.9064313E-2,-2.493124E-2,-4.3784425E-2,-1.0680924E-2,-5.2200682E-2,-5.797651E-2,-2.2873899E-2,9.447297E-2,-1.0673455E-3,-5.8704942E-2,-7.4523814E-2,7.974861E-2,-3.5446525E-2,1.878417E-2,-2.3831114E-2,9.3559235E-2,2.7165968E-2,-3.8161885E-2,-8.2671635E-2,-2.8119115E-2,-1.1386919E-3],"categories":[],"categories_nodes":[],"categories_segments":[],"categories_sizes":[],"default_left":[0,0,0,0,0,0,0,0,0,0,0,0,0,0,0,0,0,0,0,0,0,0,0,0,0,0,0,0,0,0,0,0,0,0,0,0,0,0,0,0,0,0,0,0,0,0,0,0,0,0,0,0,0,0,0,0,0,0,0,0,0],"id":3,"left_children":[1,3,5,7,9,11,-1,13,15,17,19,-1,21,23,25,-1,27,-1,29,-1,31,33,35,37,39,41,43,45,47,-1,49,-1,51,53,55,57,59,-1,-1,-1,-1,-1,-1,-1,-1,-1,-1,-1,-1,-1,-1,-1,-1,-1,-1,-1,-1,-1,-1,-1,-1],"loss_changes":[5.630953E3,1.0365864E3,2.4035918E3,1.715813E2,1.00793945E2,6.665168E2,0E0,1.2463275E2,6.508472E1,1.766504E1,4.2718445E1,0E0,7.378053E2,5.2404846E1,7.6733E1,0E0,4.7620953E1,0E0,4.0014893E1,0E0,4.1789E1,6.0105957E1,1.6114304E2,1.0242065E1,5.4525543E1,1.9852142E1,6.715016E1,3.5487099E0,1.2479163E2,0E0,9.313232E0,0E0,4.525241E1,7.326629E1,7.740497E1,2.6149353E1,4.529802E1,0E0,0E0,0E0,0E0,0E0,0E0,0E0,0E0,0E0,0E0,0E0,0E0,0E0,0E0,0E0,0E0,0E0,0E0,0E0,0E0,0E0,0E0,0E0,0E0],"parents":[2147483647,0,0,1,1,2,2,3,3,4,4,5,5,7,7,8,8,9,9,10,10,12,12,13,13,14,14,16,16,18,18,20,20,21,21,22,22,23,23,24,24,25,25,26,26,27,27,28,28,30,30,32,32,33,33,34,34,35,35,36,36],"right_children":[2,4,6,8,10,12,-1,14,16,18,20,-1,22,24,26,-1,28,-1,30,-1,32,34,36,38,40,42,44,46,48,-1,50,-1,52,54,56,58,60,-1,-1,-1,-1,-1,-1,-1,-1,-1,-1,-1,-1,-1,-1,-1,-1,-1,-1,-1,-1,-1,-1,-1,-1],"split_conditions":[1.28E2,1E0,1.4222208E2,8.032053E1,8.032053E1,1.4444444E0,8.933597E-2,1.2E2,8.1E1,6.0098576E1,8.1E1,9.050436E-2,1E0,5.9193214E1,2.3148148E1,8.788068E-2,8.109787E1,-7.6130204E-2,6.1E1,7.709797E-2,2.747563E1,6.520272E1,7.214258E1,7E1,6E1,2.2758307E1,8E1,3.1644285E1,8.2E1,6.9304496E-2,2.747563E1,-6.792164E-2,2.770083E1,6.5E1,6.6E1,2.5951557E1,1.4476329E0,-0E0,-5.2521553E-2,8.3013E-2,-2.9064313E-2,-2.493124E-2,-4.3784425E-2,-1.0680924E-2,-5.2200682E-2,-5.797651E-2,-2.2873899E-2,9.447297E-2,-1.0673455E-3,-5.8704942E-2,-7.4523814E-2,7.974861E-2,-3.5446525E-2,1.878417E-2,-2.3831114E-2,9.3559235E-2,2.7165968E-2,-3.8161885E-2,-8.2671635E-2,-2.8119115E-2,-1.1386919E-3],"split_indices":[7,0,7,3,3,9,0,7,3,3,3,0,0,3,10,0,3,0,3,0,10,3,3,8,3,10,3,10,3,0,10,0,10,3,3,10,9,0,0,0,0,0,0,0,0,0,0,0,0,0,0,0,0,0,0,0,0,0,0,0,0],"split_type":[0,0,0,0,0,0,0,0,0,0,0,0,0,0,0,0,0,0,0,0,0,0,0,0,0,0,0,0,0,0,0,0,0,0,0,0,0,0,0,0,0,0,0,0,0,0,0,0,0,0,0,0,0,0,0,0,0,0,0,0,0],"sum_hessian":[1.577259E4,8.440447E3,7.332143E3,6.080849E3,2.359598E3,5.869149E3,1.4629941E3,5.0641826E3,1.01666644E3,1.727741E3,6.3185693E2,2.967573E2,5.572392E3,1.3577078E3,3.7064749E3,1.9494125E1,9.9717236E2,2.4143071E2,1.4863102E3,5.9721823E0,6.2588477E2,4.0917837E3,1.4806082E3,3.338017E2,1.02390607E3,7.890345E2,2.9174404E3,4.921104E1,9.479613E2,4.221508E0,1.4820887E3,1.1147237E2,5.144124E2,9.744134E2,3.1173704E3,4.1919647E2,1.0614116E3,9.977956E0,3.2382376E2,8.981994E0,1.0149241E3,5.9262024E2,1.9641428E2,2.818015E3,9.942554E1,3.1217451E1,1.7993587E1,3.3489227E1,9.144721E2,1.3349109E3,1.4717787E2,6.715119E0,5.0769727E2,8.624508E2,1.1196258E2,4.3233696E1,3.0741367E3,3.816026E2,3.7593864E1,1.8793738E2,8.7347424E2],"tree_param":{"num_deleted":"0","num_feature":"12","num_nodes":"61","size_leaf_vector":"1"}},{"base_weights":[-1.8623027E-4,-3.6689544E-1,5.362137E-1,-1.644895E-1,-8.923793E-1,3.1844673E-1,1.0774364E0,-7.3660725E-1,-2.3484113E-2,9.617759E-3,-9.787397E-1,8.8036835E-2,1.7910475E-1,8.489563E-2,2.617041E-1,-2.3435082E-1,-8.924304E-1,4.4150528E-1,-1.8374018E-1,-1.2382246E0,8.563648E-2,-1.2085694E0,-7.3166835E-1,3.870188E-1,-3.7441406E-1,4.4177935E-1,-2.8463614E-1,3.5634103E-1,-4.5023787E-1,-7.7817047E-1,-1.2763884E0,-1.7701931E-1,5.424801E-1,2.8628078E-1,-3.4167385E-1,-1.4521257E0,-3.5963362E-1,-1.3417999E0,-8.8267905E-1,-1.1406113E0,-4.7095627E-1,8.3250314E-1,2.1276619E-1,-9.1115314E-1,-1.1666604E-1,4.692776E-1,-1.000071E0,-1.1680124E0,8.258809E-2,-1.3649562E-2,5.0339844E-2,-4.708884E-2,-1.5934346E-2,-6.6367075E-2,-3.194569E-2,-7.987266E-2,-3.7807994E-2,-3.902274E-2,2.8108023E-4,3.0506054E-2,-2.0067436E-3,-1.9745154E-2,3.2809626E-2,-2.6736198E-2,-7.221043E-3,-0E0,-7.3643774E-2,-6.2325E-2,4.1373773E-3,-7.846663E-2,-6.350377E-2,-6.1140306E-2,-1.9451372E-2,-7.591959E-2,-4.772329E-2,8.658343E-2,-2.6386032E-2,-2.9893592E-2,4.3206546E-2,1.6119866E-2,-3.1923603E-2,-7.589303E-2,-3.5853595E-2,1.3924427E-3,-6.658237E-2,2.4955196E-2,-1.7620461E-2,-0E0,-6.287054E-2,-4.6124584E-3,-6.0411334E-2,-4.70788E-2,1.6429758E-2],"categories":[],"categories_nodes":[],"categories_segments":[],"categories_sizes":[],"default_left":[0,0,0,0,0,0,0,0,0,0,0,0,0,0,0,0,0,0,0,0,0,0,0,0,0,0,0,0,0,0,0,0,0,0,0,0,0,0,0,0,0,0,0,0,0,0,0,0,0,0,0,0,0,0,0,0,0,0,0,0,0,0,0,0,0,0,0,0,0,0,0,0,0,0,0,0,0,0,0,0,0,0,0,0,0,0,0,0,0,0,0,0,0],"id":4,"left_children":[1,3,5,7,9,11,13,15,17,19,21,-1,23,-1,25,27,29,31,33,35,-1,37,39,41,43,45,47,49,51,53,55,57,59,61,63,65,67,69,71,73,75,77,79,81,83,85,87,89,91,-1,-1,-1,-1,-1,-1,-1,-1,-1,-1,-1,-1,-1,-1,-1,-1,-1,-1,-1,-1,-1,-1,-1,-1,-1,-1,-1,-1,-1,-1,-1,-1,-1,-1,-1,-1,-1,-1,-1,-1,-1,-1,-1,-1],"loss_changes":[3.0945708E3,9.931144E2,7.514751E2,5.44079E2,2.0283472E2,9.1452246E2,9.250029E2,1.0340631E2,4.0374564E2,4.8994556E2,1.3189648E2,0E0,4.7897925E2,0E0,7.843133E1,4.1085464E1,4.1581543E1,8.708737E1,2.9947543E2,2.3012314E1,0E0,4.9673706E1,1.2059595E2,2.339674E2,1.5644733E2,2.4404106E1,6.474604E1,3.6104095E1,1.3987041E1,5.769937E1,3.4655914E1,2.1960321E1,4.7416718E1,2.5620084E2,1.1447308E2,2.6823273E0,1.22139845E1,8.69519E0,5.9056183E1,2.7164185E1,8.9456116E1,3.9580933E1,2.0352457E2,3.9997345E1,1.3600528E2,1.4861099E1,2.3327293E0,1.6564484E0,3.5799225E1,0E0,0E0,0E0,0E0,0E0,0E0,0E0,0E0,0E0,0E0,0E0,0E0,0E0,0E0,0E0,0E0,0E0,0E0,0E0,0E0,0E0,0E0,0E0,0E0,0E0,0E0,0E0,0E0,0E0,0E0,0E0,0E0,0E0,0E0,0E0,0E0,0E0,0E0,0E0,0E0,0E0,0E0,0E0,0E0],"parents":[2147483647,0,0,1,1,2,2,3,3,4,4,5,5,6,6,7,7,8,8,9,9,10,10,12,12,14,14,15,15,16,16,17,17,18,18,19,19,21,21,22,22,23,23,24,24,25,25,26,26,27,27,28,28,29,29,30,30,31,31,32,32,33,33,34,34,35,35,36,36,37,37,38,38,39,39,40,40,41,41,42,42,43,43,44,44,45,45,46,46,47,47,48,48],"right_children":[2,4,6,8,10,12,14,16,18,20,22,-1,24,-1,26,28,30,32,34,36,-1,38,40,42,44,46,48,50,52,54,56,58,60,62,64,66,68,70,72,74,76,78,80,82,84,86,88,90,92,-1,-1,-1,-1,-1,-1,-1,-1,-1,-1,-1,-1,-1,-1,-1,-1,-1,-1,-1,-1,-1,-1,-1,-1,-1,-1,-1,-1,-1,-1,-1,-1,-1,-1,-1,-1,-1,-1,-1,-1,-1,-1,-1,-1],"split_conditions":[4.53472E1,1E0,5.8E1,4.8E1,1.4117647E0,1.5555556E0,1.75E0,1E0,1E0,1.4E0,5.4E1,8.8036835E-2,1E0,8.489563E-2,1E0,1.4653134E0,1.5555556E0,2.3148148E1,1.5E0,2.9065744E1,8.563648E-2,2.747563E1,1.680728E2,1E0,1.680728E2,6.4E1,1.680728E2,3.5E1,1.5811905E2,3.8E1,1.6411754E2,2.0957273E1,1.5189873E0,3.8E1,5.6E1,1.375E0,5E1,2.2675737E1,1.7248506E2,1.6209593E2,1.69E2,4.2E1,1.6875E0,1.6209593E2,1.6853932E0,1.71884E2,1.532251E2,2.1107267E1,2.493372E1,-1.3649562E-2,5.0339844E-2,-4.708884E-2,-1.5934346E-2,-6.6367075E-2,-3.194569E-2,-7.987266E-2,-3.7807994E-2,-3.902274E-2,2.8108023E-4,3.0506054E-2,-2.0067436E-3,-1.9745154E-2,3.2809626E-2,-2.6736198E-2,-7.221043E-3,-0E0,-7.3643774E-2,-6.2325E-2,4.1373773E-3,-7.846663E-2,-6.350377E-2,-6.1140306E-2,-1.9451372E-2,-7.591959E-2,-4.772329E-2,8.658343E-2,-2.6386032E-2,-2.9893592E-2,4.3206546E-2,1.6119866E-2,-3.1923603E-2,-7.589303E-2,-3.5853595E-2,1.3924427E-3,-6.658237E-2,2.4955196E-2,-1.7620461E-2,-0E0,-6.287054E-2,-4.6124584E-3,-6.0411334E-2,-4.70788E-2,1.6429758E-2],"split_indices":[11,0,11,1,9,9,9,6,6,9,1,0,0,0,0,9,9,10,9,10,0,10,2,6,2,1,2,11,2,11,2,10,9,11,1,9,1,10,2,2,2,1,9,2,9,2,2,10,10,0,0,0,0,0,0,0,0,0,0,0,0,0,0,0,0,0,0,0,0,0,0,0,0,0,0,0,0,0,0,0,0,0,0,0,0,0,0,0,0,0,0,0,0],"split_type":[0,0,0,0,0,0,0,0,0,0,0,0,0,0,0,0,0,0,0,0,0,0,0,0,0,0,0,0,0,0,0,0,0,0,0,0,0,0,0,0,0,0,0,0,0,0,0,0,0,0,0,0,0,0,0,0,0,0,0,0,0,0,0,0,0,0,0,0,0,0,0,0,0,0,0,0,0,0,0,0,0,0,0,0,0,0,0,0,0,0,0,0,0],"sum_hessian":[1.5728645E4,9.342928E3,6.385718E3,6.747501E3,2.595426E3,4.556471E3,1.8292463E3,1.3318075E3,5.415694E3,2.2643187E2,2.3689941E3,3.9905927E2,4.157412E3,1.0373918E3,7.9185455E2,3.1729718E2,1.0145104E3,1.386392E3,4.0293018E3,1.3082838E2,9.5603485E1,1.2222401E3,1.1467542E3,3.0232983E3,1.1341135E3,5.9653345E2,1.953211E2,8.3958855E1,2.3333832E2,7.87514E2,2.269964E2,1.9366045E2,1.1927316E3,1.0121841E3,3.0171177E3,1.0370562E2,2.7122757E1,8.620485E2,3.601916E2,4.4308313E2,7.0367096E2,8.471353E2,2.1761628E3,3.6565567E2,7.684579E2,5.870336E2,9.499771E0,5.6472927E1,1.3884819E2,4.2871517E1,4.108734E1,4.5860832E1,1.8747748E2,1.5512218E2,6.323918E2,1.3721204E2,8.978436E1,4.4111095E1,1.4954935E2,1.0693455E3,1.233861E2,3.5569437E2,6.564897E2,1.5217932E3,1.4953245E3,1.7209235E0,1.01984695E2,8.192875E0,1.8929882E1,1.9493178E2,6.671167E2,2.1090831E2,1.4928328E2,1.4064513E2,3.0243802E2,1.5974941E1,6.8769604E2,1.7209621E1,8.299257E2,1.9294932E3,2.466698E2,8.46907E1,2.8096497E2,6.8814923E2,8.0308685E1,5.678162E2,1.9217455E1,2.7499807E0,6.74979E0,2.720437E0,5.375249E1,2.5403267E1,1.13444916E2],"tree_param":{"num_deleted":"0","num_feature":"12","num_nodes":"93","size_leaf_vector":"1"}},{"base_weights":[-2.8020117E-4,-3.3672112E-1,7.6028776E-1,-6.20306E-1,-2.7719798E-2,5.068278E-1,8.448986E-2,-1.0108887E0,-4.6173486E-1,3.0331315E-2,-1.3867184E0,5.7089365E-1,-6.081342E-1,-6.2767124E-1,-1.1192701E0,-4.004044E-1,-1.4374208E0,4.7397536E-1,-1.2676504E-1,-7.359781E-2,-9.82499E-1,8.795226E-1,4.6379504E-1,-4.2262155E-1,-1.0447464E0,-5.59957E-1,-7.890221E-2,-1.5150986E0,-1.050507E0,-4.5060944E-2,-5.092297E-1,-1.4570097E0,-0E0,5.3173125E-1,-1.1042235E0,-7.544971E-2,-1.2445797E0,-1.4380497E0,-4.59443E-1,6.8158823E-1,1.0792364E0,-6.129087E-1,4.9094498E-1,-5.85485E-1,-5.149026E-2,-3.7249538E-1,-5.8014657E-2,-2.3777038E-2,-6.444108E-2,-7.634577E-2,-0E0,-4.967665E-2,-7.8729235E-2,-2.6402745E-2,2.7118092E-3,-3.039517E-2,-2.9234006E-3,-7.5067095E-2,-4.7578406E-2,-2.7173257E-2,2.1378387E-2,1.7655486E-2,4.033258E-2,-1.7501796E-2,-6.829327E-2,-1.9245818E-2,4.7755716E-3,-7.540283E-2,-5.0546367E-2,-7.67537E-2,-0E0,3.7912596E-2,-3.148344E-2,5.1876854E-2,2.472605E-2,5.563393E-2,-4.3867644E-2,-3.531065E-2,9.132228E-3,2.5751268E-2,-2.4763593E-2,-4.2423945E-2,-1.727412E-2,4.6505217E-2,-7.461627E-3,6.7124586E-3,-3.282531E-2],"categories":[],"categories_nodes":[],"categories_segments":[],"categories_sizes":[],"default_left":[0,0,0,0,0,0,0,0,0,0,0,0,0,0,0,0,0,0,0,0,0,0,0,0,0,0,0,0,0,0,0,0,0,0,0,0,0,0,0,0,0,0,0,0,0,0,0,0,0,0,0,0,0,0,0,0,0,0,0,0,0,0,0,0,0,0,0,0,0,0,0,0,0,0,0,0,0,0,0,0,0,0,0,0,0,0,0],"id":5,"left_children":[1,3,5,7,9,11,-1,13,15,17,19,21,23,25,27,29,31,33,35,-1,37,39,41,43,45,47,-1,49,51,53,55,57,59,61,63,65,67,69,71,73,75,77,79,81,83,85,-1,-1,-1,-1,-1,-1,-1,-1,-1,-1,-1,-1,-1,-1,-1,-1,-1,-1,-1,-1,-1,-1,-1,-1,-1,-1,-1,-1,-1,-1,-1,-1,-1,-1,-1,-1,-1,-1,-1,-1,-1],"loss_changes":[4.0120486E3,9.5228796E2,1.1300139E3,3.4937476E2,4.1143384E2,2.7078778E2,0E0,6.558972E1,2.3943439E2,3.4834183E2,3.2414856E0,1.1675952E2,1.5070244E1,2.0706055E1,3.0107544E1,1.4664185E2,6.6131287E0,1.2003772E2,2.1074017E2,0E0,8.271812E0,3.394391E1,7.833557E1,8.612129E0,2.9731598E0,1.912452E1,0E0,2.566742E0,2.8128052E1,4.3184483E1,1.289455E2,1.1642761E0,1.6849028E0,6.085669E1,7.3602066E0,1.8694522E2,5.6243134E0,3.559311E0,5.87474E0,2.9358582E1,3.1668152E1,5.410784E0,6.2203247E1,5.2708473E0,4.5400443E0,2.2038364E0,0E0,0E0,0E0,0E0,0E0,0E0,0E0,0E0,0E0,0E0,0E0,0E0,0E0,0E0,0E0,0E0,0E0,0E0,0E0,0E0,0E0,0E0,0E0,0E0,0E0,0E0,0E0,0E0,0E0,0E0,0E0,0E0,0E0,0E0,0E0,0E0,0E0,0E0,0E0,0E0,0E0],"parents":[2147483647,0,0,1,1,2,2,3,3,4,4,5,5,7,7,8,8,9,9,10,10,11,11,12,12,13,13,14,14,15,15,16,16,17,17,18,18,20,20,21,21,22,22,23,23,24,24,25,25,27,27,28,28,29,29,30,30,31,31,32,32,33,33,34,34,35,35,36,36,37,37,38,38,39,39,40,40,41,41,42,42,43,43,44,44,45,45],"right_children":[2,4,6,8,10,12,-1,14,16,18,20,22,24,26,28,30,32,34,36,-1,38,40,42,44,46,48,-1,50,52,54,56,58,60,62,64,66,68,70,72,74,76,78,80,82,84,86,-1,-1,-1,-1,-1,-1,-1,-1,-1,-1,-1,-1,-1,-1,-1,-1,-1,-1,-1,-1,-1,-1,-1,-1,-1,-1,-1,-1,-1,-1,-1,-1,-1,-1,-1,-1,-1,-1,-1,-1,-1],"split_conditions":[8.931081E1,5.5E1,9.5E1,4.6E1,1E0,1E0,8.448986E-2,1E0,1E0,1E0,2.9903028E1,1E0,1E0,1E0,2.2151022E1,1E0,3.5555557E1,6.4E1,6.4E1,-7.359781E-2,1.680728E2,2.9065744E1,4.2E1,1.7334622E2,1E0,1.75E2,-7.890221E-2,8.262963E1,1E0,7.5737915E1,3.0487804E1,1.7812347E2,1.6004793E2,2.8440954E1,2.3711845E1,2.5E1,2.557322E1,8.262963E1,1.69E2,1.6E2,1E0,1.7606271E2,6.4E1,5.5E1,1.74E2,4.9E1,-5.8014657E-2,-2.3777038E-2,-6.444108E-2,-7.634577E-2,-0E0,-4.967665E-2,-7.8729235E-2,-2.6402745E-2,2.7118092E-3,-3.039517E-2,-2.9234006E-3,-7.5067095E-2,-4.7578406E-2,-2.7173257E-2,2.1378387E-2,1.7655486E-2,4.033258E-2,-1.7501796E-2,-6.829327E-2,-1.9245818E-2,4.7755716E-3,-7.540283E-2,-5.0546367E-2,-7.67537E-2,-0E0,3.7912596E-2,-3.148344E-2,5.1876854E-2,2.472605E-2,5.563393E-2,-4.3867644E-2,-3.531065E-2,9.132228E-3,2.5751268E-2,-2.4763593E-2,-4.2423945E-2,-1.727412E-2,4.6505217E-2,-7.461627E-3,6.7124586E-3,-3.282531E-2],"split_indices":[8,1,8,1,4,4,0,6,4,6,10,6,5,4,10,6,10,1,1,0,2,10,1,2,6,2,0,8,4,8,10,2,2,10,10,10,10,8,2,2,5,2,1,1,2,1,0,0,0,0,0,0,0,0,0,0,0,0,0,0,0,0,0,0,0,0,0,0,0,0,0,0,0,0,0,0,0,0,0,0,0,0,0,0,0,0,0],"split_type":[0,0,0,0,0,0,0,0,0,0,0,0,0,0,0,0,0,0,0,0,0,0,0,0,0,0,0,0,0,0,0,0,0,0,0,0,0,0,0,0,0,0,0,0,0,0,0,0,0,0,0,0,0,0,0,0,0,0,0,0,0,0,0,0,0,0,0,0,0,0,0,0,0,0,0,0,0,0,0,0,0,0,0,0,0,0,0],"sum_hessian":[1.5675861E4,1.0869471E4,4.806391E3,5.6659404E3,5.2035303E3,3.779437E3,1.026954E3,1.6320566E3,4.0338838E3,4.991884E3,2.1164633E2,3.5754172E3,2.0401964E2,3.6382672E2,1.26823E3,3.798451E3,2.3543292E2,1.3051777E3,3.686706E3,1.6940414E2,4.224219E1,9.161708E2,2.6592466E3,1.4674855E2,5.7271076E1,3.4308627E2,2.074044E1,1.8040536E2,1.0878246E3,8.9229474E2,2.906156E3,2.3220668E2,3.2262464E0,1.2606846E3,4.4493153E1,3.5273586E3,1.5934756E2,2.019713E1,2.2045061E1,4.6582523E2,4.5034555E2,6.3891502E1,2.595355E3,1.0025244E2,4.6496117E1,1.02736635E1,4.6997414E1,3.110515E2,3.2034763E1,1.7869392E2,1.7114471E0,9.8724396E2,1.00580635E2,1.5154755E2,7.407472E2,2.3827544E3,5.2340173E2,2.0894974E2,2.3256939E1,1.233002E0,1.9932444E0,7.680523E2,4.9263226E2,1.3156373E1,3.1336779E1,1.2553672E3,2.2719915E3,6.876104E1,9.0586525E1,1.8990316E1,1.206813E0,1.4961858E0,2.0548876E1,1.564221E2,3.094031E2,4.4387698E2,6.468595E0,5.794829E1,5.9432116E0,2.5349226E3,6.0432514E1,4.442157E1,5.5830868E1,2.2049766E0,4.429114E1,3.4364042E0,6.8372593E0],"tree_param":{"num_deleted":"0","num_feature":"12","num_nodes":"87","size_leaf_vector":"1"}},{"base_weights":[-3.760372E-4,-4.9058264E-1,5.659366E-1,-2.9407275E-1,-1.00304E0,3.1017438E-1,8.1322365E-2,-2.7586955E-1,-8.127956E-2,-9.0546143E-1,-1.4696009E0,3.827677E-1,-9.8612607E-1,-3.4661728E-1,7.644299E-2,-1.0345609E0,-5.489829E-1,-7.538756E-2,-9.356712E-1,3.185029E-1,8.297992E-2,-1.1383417E0,7.2524555E-2,-5.771478E-1,-2.6245043E-1,8.4022485E-2,4.070994E-2,-6.806686E-2,-9.8130226E-1,7.317706E-2,-5.772611E-1,-3.8276282E-1,-6.0796883E-2,4.489185E-1,-1.1635992E-1,-9.7845984E-1,-7.575265E-2,-4.5266505E-2,-2.3406321E-2,-2.5526067E-2,-9.759075E-3,-4.294876E-2,4.45715E-3,6.968097E-2,-4.96117E-2,-5.8213748E-2,-2.26805E-2,-0E0,-3.0657416E-2,2.358285E-2,-6.27523E-2,-3.1189272E-2,3.6598523E-3,-6.2504776E-2,-3.389066E-2],"categories":[],"categories_nodes":[],"categories_segments":[],"categories_sizes":[],"default_left":[0,0,0,0,0,0,0,0,0,0,0,0,0,0,0,0,0,0,0,0,0,0,0,0,0,0,0,0,0,0,0,0,0,0,0,0,0,0,0,0,0,0,0,0,0,0,0,0,0,0,0,0,0,0,0],"id":6,"left_children":[1,3,5,7,9,11,-1,13,-1,15,17,19,21,23,25,27,29,-1,31,33,-1,35,-1,37,39,-1,41,-1,43,-1,45,47,-1,49,51,53,-1,-1,-1,-1,-1,-1,-1,-1,-1,-1,-1,-1,-1,-1,-1,-1,-1,-1,-1],"loss_changes":[4.3397837E3,8.4264355E2,1.9652805E3,1.4505151E2,1.01826416E2,5.5061847E2,0E0,1.4928549E2,0E0,8.6699585E1,4.051697E0,4.5239197E2,1.1820932E2,9.596228E1,5.636326E1,2.0704834E1,3.0686188E1,0E0,3.3287468E0,2.9946844E2,0E0,1.3454071E1,0E0,4.6032196E1,6.044937E1,0E0,4.252894E1,0E0,3.4272217E1,0E0,3.5284363E1,1.4831839E0,0E0,1.580918E2,1.17507E2,1.4694885E1,0E0,0E0,0E0,0E0,0E0,0E0,0E0,0E0,0E0,0E0,0E0,0E0,0E0,0E0,0E0,0E0,0E0,0E0,0E0],"parents":[2147483647,0,0,1,1,2,2,3,3,4,4,5,5,7,7,9,9,10,10,11,11,12,12,13,13,14,14,15,15,16,16,18,18,19,19,21,21,23,23,24,24,26,26,28,28,30,30,31,31,33,33,34,34,35,35],"right_children":[2,4,6,8,10,12,-1,14,-1,16,18,20,22,24,26,28,30,-1,32,34,-1,36,-1,38,40,-1,42,-1,44,-1,46,48,-1,50,52,54,-1,-1,-1,-1,-1,-1,-1,-1,-1,-1,-1,-1,-1,-1,-1,-1,-1,-1,-1],"split_conditions":[1.28E2,1E0,1.4222208E2,1E0,1E0,1E0,8.1322365E-2,8.032053E1,-8.127956E-2,8.032053E1,9.2252625E1,9.5E1,9.5E1,1.2E2,8.1E1,6.0098576E1,8.1E1,-7.538756E-2,9.5779816E1,1E0,8.297992E-2,1E0,7.2524555E-2,5.9193214E1,2.3148148E1,8.4022485E-2,8.109787E1,-6.806686E-2,6.1E1,7.317706E-2,2.747563E1,3.0427198E1,-6.0796883E-2,1E0,7.214258E1,7.802012E1,-7.575265E-2,-4.5266505E-2,-2.3406321E-2,-2.5526067E-2,-9.759075E-3,-4.294876E-2,4.45715E-3,6.968097E-2,-4.96117E-2,-5.8213748E-2,-2.26805E-2,-0E0,-3.0657416E-2,2.358285E-2,-6.27523E-2,-3.1189272E-2,3.6598523E-3,-6.2504776E-2,-3.389066E-2],"split_indices":[7,0,7,5,4,4,0,3,0,3,3,8,8,7,3,3,3,0,3,0,0,5,0,3,10,0,3,0,3,0,10,10,0,5,3,3,0,0,0,0,0,0,0,0,0,0,0,0,0,0,0,0,0,0,0],"split_type":[0,0,0,0,0,0,0,0,0,0,0,0,0,0,0,0,0,0,0,0,0,0,0,0,0,0,0,0,0,0,0,0,0,0,0,0,0,0,0,0,0,0,0,0,0,0,0,0,0,0,0,0,0,0,0],"sum_hessian":[1.5628787E4,8.377917E3,7.2508696E3,6.058726E3,2.3191917E3,5.844431E3,1.4064387E3,5.9797666E3,7.8959496E1,1.9237943E3,3.9539728E2,5.5361973E3,3.0823398E2,4.980988E3,9.987784E2,1.4084972E3,5.152971E2,3.6475095E2,3.0646328E1,5.2736567E3,2.6254053E2,2.9130685E2,1.6927118E1,1.32746E3,3.653528E3,1.9454285E1,9.793241E2,1.8918909E2,1.2193081E3,5.4885917E0,5.0980853E2,1.2500613E1,1.8145714E1,4.0578042E3,1.2158524E3,2.1049268E2,8.0814186E1,3.2622986E2,1.00123016E3,7.7498096E2,2.878547E3,4.7790016E1,9.3153406E2,4.218056E0,1.21509E3,8.507121E1,4.2473734E2,4.9045978E0,7.596016E0,4.006085E3,5.171925E1,3.3014435E2,8.8570807E2,1.0638985E2,1.0410283E2],"tree_param":{"num_deleted":"0","num_feature":"12","num_nodes":"55","size_leaf_vector":"1"}},{"base_weights":[-3.7992082E-4,-3.0591452E-1,6.9588673E-1,-1.17913336E-1,-8.1190807E-1,4.5481658E-1,7.8533456E-2,-2.8450298E-1,3.1433737E-1,-9.9155515E-1,-4.1644752E-1,2.2532967E-1,8.016964E-2,-3.637941E-1,6.2139677E-3,-2.2052051E-1,4.2204672E-1,-8.8941944E-1,-7.359752E-2,-6.476959E-1,-1.7468765E-3,4.215505E-1,-2.9868075E-1,-6.252493E-1,-2.9127657E-1,9.538372E-2,-6.798569E-2,-1.4408137E-1,-8.1340694E-1,4.4180667E-1,-9.694481E-1,-1.0936615E0,-7.104635E-1,-5.227695E-1,-1.2027946E0,8.717502E-2,-1.2239926E0,4.5032787E-1,-1.3371882E0,-8.957673E-1,-4.497078E-2,-4.5010492E-2,-2.6080221E-2,3.1763542E-2,-1.5613322E-2,-2.9764328E-2,2.584058E-3,-8.616029E-3,6.801545E-2,3.3185717E-2,-5.2200384E-2,1.1539071E-2,2.5750944E-2,-5.5907633E-2,-2.1125374E-2,-6.931908E-2,-5.038051E-2,9.02461E-2,-3.9145328E-2,-7.795906E-2,-2.2442846E-2,-6.471988E-2,-4.1532706E-2,-4.3711934E-2,9.149991E-3,-0E0,-6.581207E-2,1.2191257E-2,2.7441636E-2,-7.134873E-2,1.5472084E-2,-7.650067E-2,-3.8465474E-2,6.35736E-3,-4.6639815E-2],"categories":[],"categories_nodes":[],"categories_segments":[],"categories_sizes":[],"default_left":[0,0,0,0,0,0,0,0,0,0,0,0,0,0,0,0,0,0,0,0,0,0,0,0,0,0,0,0,0,0,0,0,0,0,0,0,0,0,0,0,0,0,0,0,0,0,0,0,0,0,0,0,0,0,0,0,0,0,0,0,0,0,0,0,0,0,0,0,0,0,0,0,0,0,0],"id":7,"left_children":[1,3,5,7,9,11,-1,13,15,17,19,21,-1,23,25,27,29,31,-1,33,35,37,39,41,43,-1,45,47,49,51,53,55,57,59,61,63,65,67,69,71,73,-1,-1,-1,-1,-1,-1,-1,-1,-1,-1,-1,-1,-1,-1,-1,-1,-1,-1,-1,-1,-1,-1,-1,-1,-1,-1,-1,-1,-1,-1,-1,-1,-1,-1],"loss_changes":[3.3106187E3,1.0283506E3,9.984238E2,5.683019E2,2.0657544E2,9.799384E2,0E0,1.3150406E2,1.2673772E2,9.4917725E1,8.783653E1,3.1973016E2,0E0,8.407056E1,1.7350871E2,1.5985592E1,5.0869324E1,5.8403687E1,0E0,3.8755066E1,3.6854244E1,1.1522928E2,1.2773091E2,2.5964142E1,6.850766E1,0E0,7.4617676E1,1.3875561E1,1.5508364E1,2.7270325E1,3.8921928E-1,1.546991E1,1.6531235E2,3.4781815E1,4.0093994E-1,2.8614632E1,3.2312698E0,4.4637787E1,6.858238E0,1.6694382E1,9.186625E1,0E0,0E0,0E0,0E0,0E0,0E0,0E0,0E0,0E0,0E0,0E0,0E0,0E0,0E0,0E0,0E0,0E0,0E0,0E0,0E0,0E0,0E0,0E0,0E0,0E0,0E0,0E0,0E0,0E0,0E0,0E0,0E0,0E0,0E0],"parents":[2147483647,0,0,1,1,2,2,3,3,4,4,5,5,7,7,8,8,9,9,10,10,11,11,13,13,14,14,15,15,16,16,17,17,19,19,20,20,21,21,22,22,23,23,24,24,26,26,27,27,28,28,29,29,30,30,31,31,32,32,33,33,34,34,35,35,36,36,37,37,38,38,39,39,40,40],"right_children":[2,4,6,8,10,12,-1,14,16,18,20,22,-1,24,26,28,30,32,-1,34,36,38,40,42,44,-1,46,48,50,52,54,56,58,60,62,64,66,68,70,72,74,-1,-1,-1,-1,-1,-1,-1,-1,-1,-1,-1,-1,-1,-1,-1,-1,-1,-1,-1,-1,-1,-1,-1,-1,-1,-1,-1,-1,-1,-1,-1,-1,-1,-1],"split_conditions":[8.931081E1,1E0,5.1E1,4.53472E1,8.032053E1,9.5E1,7.8533456E-2,7.802012E1,7.5737915E1,1E0,4.53472E1,1E0,8.016964E-2,7.5737915E1,7.9E1,1.6995122E2,1E0,1.680728E2,-7.359752E-2,1E0,1E0,1E0,1.680728E2,5.9193214E1,8E1,9.538372E-2,8.032053E1,1.6904213E2,5.6861202E1,6.520272E1,1.6518471E2,6.0098576E1,1.69E2,1.6518471E2,9.367777E1,1.66197E2,5E1,6.913243E1,1.7812347E2,1.6004793E2,1E0,-4.5010492E-2,-2.6080221E-2,3.1763542E-2,-1.5613322E-2,-2.9764328E-2,2.584058E-3,-8.616029E-3,6.801545E-2,3.3185717E-2,-5.2200384E-2,1.1539071E-2,2.5750944E-2,-5.5907633E-2,-2.1125374E-2,-6.931908E-2,-5.038051E-2,9.02461E-2,-3.9145328E-2,-7.795906E-2,-2.2442846E-2,-6.471988E-2,-4.1532706E-2,-4.3711934E-2,9.149991E-3,-0E0,-6.581207E-2,1.2191257E-2,2.7441636E-2,-7.134873E-2,1.5472084E-2,-7.650067E-2,-3.8465474E-2,6.35736E-3,-4.6639815E-2],"split_indices":[8,0,11,11,3,8,0,3,8,4,11,0,0,8,3,2,5,2,0,4,5,5,2,3,8,0,3,2,3,3,2,3,2,2,3,2,11,3,2,2,4,0,0,0,0,0,0,0,0,0,0,0,0,0,0,0,0,0,0,0,0,0,0,0,0,0,0,0,0,0,0,0,0,0,0],"split_type":[0,0,0,0,0,0,0,0,0,0,0,0,0,0,0,0,0,0,0,0,0,0,0,0,0,0,0,0,0,0,0,0,0,0,0,0,0,0,0,0,0,0,0,0,0,0,0,0,0,0,0,0,0,0,0,0,0,0,0,0,0,0,0,0,0,0,0,0,0,0,0,0,0,0,0],"sum_hessian":[1.5559194E4,1.0815148E4,4.7440464E3,7.887874E3,2.927274E3,3.7219678E3,1.0220784E3,5.694898E3,2.1929763E3,2.0099353E3,9.173387E2,3.1045105E3,6.174572E2,4.475463E3,1.2194352E3,3.66465E2,1.8265112E3,1.6630927E3,3.4684268E2,5.874379E2,3.2990073E2,2.259692E3,8.448186E2,9.66977E2,3.5084858E3,4.4195217E1,1.1752399E3,3.2756262E2,3.8902348E1,1.8026372E3,2.3874083E1,7.705958E2,8.924968E2,4.8342596E2,1.04011955E2,3.088773E2,2.1023443E1,2.2250566E3,3.463529E1,2.4983035E2,5.949882E2,2.5918573E2,7.0779126E2,7.589586E1,3.4325898E3,2.1668164E2,9.585583E2,3.235917E2,3.9709325E0,4.4531155E0,3.444923E1,4.6821057E2,1.3344266E3,1.6409632E1,7.464451E0,1.668821E2,6.0371375E2,2.3452175E1,8.690446E2,2.9055252E1,4.5437073E2,7.841092E1,2.560104E1,2.6050203E1,2.828271E2,1.2490072E0,1.9774435E1,7.224855E2,1.5025712E3,3.3385323E1,1.249966E0,3.7183838E1,2.1264651E2,4.993352E2,9.565304E1],"tree_param":{"num_deleted":"0","num_feature":"12","num_nodes":"75","size_leaf_vector":"1"}},{"base_weights":[-3.8411428E-4,-4.470528E-1,5.1836634E-1,-6.9051534E-1,-1.4312752E-1,2.82368E-1,7.6700404E-2,-1.0111097E0,-5.4725677E-1,-9.580686E-2,-1.2567586E0,7.7628225E-2,2.1815947E-1,-9.6499515E-1,-7.522893E-2,-4.9491143E-1,-7.152435E-2,-4.8086904E-2,-1.1896578E0,-1.3374099E0,-4.2902347E-1,2.881603E-1,-1.056177E0,-1.1174449E0,-7.9383093E-1,-5.51868E-1,-1.557782E-1,-2.8532298E-2,-1.3827294E0,-8.950016E-1,-7.409888E-2,-5.1695025E-1,-6.819663E-2,-6.106034E-1,2.044386E-2,3.165938E-1,-9.5889133E-1,-1.1746951E0,-5.949267E-1,-5.2304413E-2,-7.591885E-2,9.757141E-2,-4.4501897E-2,-2.3092717E-2,-3.8625E-2,8.656209E-2,-1.0840437E-2,-6.0289213E-3,1.1475392E-2,-7.18504E-2,-1.4183409E-2,-5.8841165E-2,-5.7811583E-3,-4.789338E-2,9.5553305E-3,-4.86782E-2,-0E0,1.7007098E-2,-4.4575542E-2,-4.087388E-2,-6.0318988E-2,-6.295491E-2,-3.108119E-2,6.012879E-2,-3.650992E-2],"categories":[],"categories_nodes":[],"categories_segments":[],"categories_sizes":[],"default_left":[0,0,0,0,0,0,0,0,0,0,0,0,0,0,0,0,0,0,0,0,0,0,0,0,0,0,0,0,0,0,0,0,0,0,0,0,0,0,0,0,0,0,0,0,0,0,0,0,0,0,0,0,0,0,0,0,0,0,0,0,0,0,0,0,0],"id":8,"left_children":[1,3,5,7,9,11,-1,13,15,17,19,-1,21,23,-1,25,-1,27,29,31,33,35,37,39,41,43,45,47,49,51,-1,53,-1,55,-1,57,59,61,63,-1,-1,-1,-1,-1,-1,-1,-1,-1,-1,-1,-1,-1,-1,-1,-1,-1,-1,-1,-1,-1,-1,-1,-1,-1,-1],"loss_changes":[3.5886804E3,6.152196E2,1.7156702E3,2.10281E2,1.9433542E2,4.72866E2,0E0,2.8249878E1,1.4548724E2,1.8492186E2,8.011383E0,0E0,4.9440988E2,3.1405151E1,0E0,5.7864746E1,0E0,8.822559E1,8.919998E0,5.996399E-1,3.1639483E0,1.8656058E2,1.3490112E1,1.5151245E1,1.6793561E2,5.00307E1,5.0521004E1,7.98946E1,1.237793E0,1.6583942E1,0E0,3.2646866E0,0E0,3.1524196E0,0E0,1.4650464E2,1.1179886E0,8.073486E0,1.7056385E1,0E0,0E0,0E0,0E0,0E0,0E0,0E0,0E0,0E0,0E0,0E0,0E0,0E0,0E0,0E0,0E0,0E0,0E0,0E0,0E0,0E0,0E0,0E0,0E0,0E0,0E0],"parents":[2147483647,0,0,1,1,2,2,3,3,4,4,5,5,7,7,8,8,9,9,10,10,12,12,13,13,15,15,17,17,18,18,19,19,20,20,21,21,22,22,23,23,24,24,25,25,26,26,27,27,28,28,29,29,31,31,33,33,35,35,36,36,37,37,38,38],"right_children":[2,4,6,8,10,12,-1,14,16,18,20,-1,22,24,-1,26,-1,28,30,32,34,36,38,40,42,44,46,48,50,52,-1,54,-1,56,-1,58,60,62,64,-1,-1,-1,-1,-1,-1,-1,-1,-1,-1,-1,-1,-1,-1,-1,-1,-1,-1,-1,-1,-1,-1,-1,-1,-1,-1],"split_conditions":[1.28E2,5.5E1,1.4222208E2,4.6E1,1E0,1.4444444E0,7.6700404E-2,1E0,1E0,6.4E1,9.2252625E1,7.7628225E-2,1E0,1.6518471E2,-7.522893E-2,8.307093E1,-7.152435E-2,1E0,1.6495276E2,1.1E2,6.3E1,6.4E1,1.7509216E2,1.65E2,1.66E2,1.68E2,8.4E1,7.802012E1,9.367777E1,1.6209593E2,-7.409888E-2,6.2E1,-6.819663E-2,1.7509216E2,2.044386E-2,1E0,7.958817E1,9.044729E1,1.76E2,-5.2304413E-2,-7.591885E-2,9.757141E-2,-4.4501897E-2,-2.3092717E-2,-3.8625E-2,8.656209E-2,-1.0840437E-2,-6.0289213E-3,1.1475392E-2,-7.18504E-2,-1.4183409E-2,-5.8841165E-2,-5.7811583E-3,-4.789338E-2,9.5553305E-3,-4.86782E-2,-0E0,1.7007098E-2,-4.4575542E-2,-4.087388E-2,-6.0318988E-2,-6.295491E-2,-3.108119E-2,6.012879E-2,-3.650992E-2],"split_indices":[7,1,7,1,4,9,0,4,4,1,3,0,4,2,0,3,0,5,2,7,1,1,2,2,2,2,3,3,3,2,0,1,0,2,0,5,3,3,2,0,0,0,0,0,0,0,0,0,0,0,0,0,0,0,0,0,0,0,0,0,0,0,0,0,0],"split_type":[0,0,0,0,0,0,0,0,0,0,0,0,0,0,0,0,0,0,0,0,0,0,0,0,0,0,0,0,0,0,0,0,0,0,0,0,0,0,0,0,0,0,0,0,0,0,0,0,0,0,0,0,0,0,0,0,0,0,0,0,0,0,0,0,0],"sum_hessian":[1.548399E4,8.320708E3,7.1632827E3,4.617568E3,3.7031396E3,5.81511E3,1.3481726E3,1.4212916E3,3.1962764E3,3.5547131E3,1.484266E2,2.7720453E2,5.537906E3,1.3061559E3,1.1513579E2,3.0209255E3,1.7535068E2,3.4085576E3,1.4615552E2,1.3357593E2,1.4850676E1,5.251381E3,2.8652457E2,6.83452E2,6.2270386E2,2.5841885E3,4.367371E2,3.3617205E3,4.683709E1,7.768424E1,6.847127E1,6.0565047E0,1.2751942E2,1.3141973E1,1.7087032E0,5.1361665E3,1.1521433E2,2.2462875E2,6.18958E1,5.873777E2,9.607436E1,1.9601873E1,6.03102E2,1.841389E3,7.4279944E2,1.1711131E1,4.2502594E2,2.4800564E3,8.8166394E2,4.3613285E1,3.2238028E0,5.5833515E1,2.1850725E1,3.7326589E0,2.3238459E0,7.2821803E0,5.859792E0,5.0397827E3,9.63838E1,8.0082214E1,3.5132114E1,1.91888E2,3.2740753E1,2.9688606E0,5.892694E1],"tree_param":{"num_deleted":"0","num_feature":"12","num_nodes":"65","size_leaf_vector":"1"}},{"base_weights":[-4.239232E-4,-4.2650896E-1,4.9583486E-1,-2.4751219E-1,-9.028282E-1,2.6886094E-1,7.4721135E-2,2.142176E-1,-4.0657955E-1,-1.0921603E0,-6.408283E-1,7.545634E-2,2.0743877E-1,-5.3051032E-2,5.0213397E-1,-6.0413E-1,-9.430033E-2,-1.2707263E0,-9.8716724E-1,-9.269825E-1,-3.842809E-1,3.7867916E-1,-2.6634404E-1,-6.5023535E-1,9.1361366E-2,5.473915E-1,-8.0910003E-1,-9.5874226E-1,-4.7914496E-1,-5.2276693E-2,-5.282969E-2,-1.2968953E0,-5.693332E-1,-1.1194475E0,-8.787578E-1,-1.3319558E0,-7.62468E-1,1.0108664E-1,-4.6375987E-1,7.630244E-1,2.4038725E-1,-8.7918603E-1,-6.487764E-3,-5.2983504E-2,-2.3405872E-2,-1.53909E-2,1.0388656E-2,2.525321E-2,4.656025E-2,-1.5926236E-2,-6.7608856E-2,-5.7380557E-2,-2.9274125E-2,-5.814838E-2,-2.2968432E-2,3.1276103E-3,-1.3411442E-2,-4.822013E-2,-6.8782665E-2,-3.1116484E-2,-1.3794008E-3,-4.336341E-2,-6.474087E-2,9.56907E-2,-4.6642758E-2,-5.2317508E-2,-7.258489E-2,7.614333E-2,-4.0051576E-2,-5.0665624E-2,-1.588583E-2,-2.5511224E-2,3.871251E-2,1.3447124E-2,-4.8360094E-2,-6.485705E-2,-3.13407E-2,9.305405E-2,-3.868827E-3],"categories":[],"categories_nodes":[],"categories_segments":[],"categories_sizes":[],"default_left":[0,0,0,0,0,0,0,0,0,0,0,0,0,0,0,0,0,0,0,0,0,0,0,0,0,0,0,0,0,0,0,0,0,0,0,0,0,0,0,0,0,0,0,0,0,0,0,0,0,0,0,0,0,0,0,0,0,0,0,0,0,0,0,0,0,0,0,0,0,0,0,0,0,0,0,0,0,0,0],"id":9,"left_children":[1,3,5,7,9,11,-1,13,15,17,19,-1,21,23,25,27,29,31,33,35,37,39,41,43,45,47,49,51,53,55,-1,57,59,61,63,65,67,-1,69,71,73,75,77,-1,-1,-1,-1,-1,-1,-1,-1,-1,-1,-1,-1,-1,-1,-1,-1,-1,-1,-1,-1,-1,-1,-1,-1,-1,-1,-1,-1,-1,-1,-1,-1,-1,-1,-1,-1],"loss_changes":[3.2586729E3,7.059918E2,1.6118314E3,4.432199E2,1.100166E2,4.406105E2,0E0,1.19230095E2,2.763518E2,2.0923096E1,6.87767E1,0E0,4.490871E2,6.9611885E1,4.4980774E1,1.201167E2,6.978146E1,6.333374E0,9.017822E0,2.6858887E1,9.826795E1,2.1519861E2,2.3349744E2,9.966057E0,3.016005E1,1.0069916E1,5.0444527E0,4.8044434E1,2.5657227E1,4.159162E1,0E0,8.142639E0,2.5469112E-1,1.2904816E1,7.4184784E1,3.0700684E-2,3.0729523E1,0E0,3.831629E1,1.6269653E1,1.03390076E2,4.34906E1,1.3631743E2,0E0,0E0,0E0,0E0,0E0,0E0,0E0,0E0,0E0,0E0,0E0,0E0,0E0,0E0,0E0,0E0,0E0,0E0,0E0,0E0,0E0,0E0,0E0,0E0,0E0,0E0,0E0,0E0,0E0,0E0,0E0,0E0,0E0,0E0,0E0,0E0],"parents":[2147483647,0,0,1,1,2,2,3,3,4,4,5,5,7,7,8,8,9,9,10,10,12,12,13,13,14,14,15,15,16,16,17,17,18,18,19,19,20,20,21,21,22,22,23,23,24,24,25,25,26,26,27,27,28,28,29,29,31,31,32,32,33,33,34,34,35,35,36,36,38,38,39,39,40,40,41,41,42,42],"right_children":[2,4,6,8,10,12,-1,14,16,18,20,-1,22,24,26,28,30,32,34,36,38,40,42,44,46,48,50,52,54,56,-1,58,60,62,64,66,68,-1,70,72,74,76,78,-1,-1,-1,-1,-1,-1,-1,-1,-1,-1,-1,-1,-1,-1,-1,-1,-1,-1,-1,-1,-1,-1,-1,-1,-1,-1,-1,-1,-1,-1,-1,-1,-1,-1,-1,-1],"split_conditions":[1.28E2,1E0,1.4222208E2,1E0,5.5E1,1.4444444E0,7.4721135E-2,5.5E1,5.6E1,4.6E1,1.6904213E2,7.545634E-2,1E0,1.5811905E2,6.4E1,4.6E1,6.4E1,1.82E2,1.6904213E2,1.6209593E2,1.7E2,1E0,1.680728E2,4.6E1,1.2E2,1.666669E0,1.6382886E2,1.6518471E2,1.5022511E2,1.65E2,-5.282969E-2,1E0,1.5009674E0,5E1,1.7E2,5.8E1,1.63E2,1.0108664E-1,1.7021227E2,4E1,6.4E1,1.6411754E2,1.69E2,-5.2983504E-2,-2.3405872E-2,-1.53909E-2,1.0388656E-2,2.525321E-2,4.656025E-2,-1.5926236E-2,-6.7608856E-2,-5.7380557E-2,-2.9274125E-2,-5.814838E-2,-2.2968432E-2,3.1276103E-3,-1.3411442E-2,-4.822013E-2,-6.8782665E-2,-3.1116484E-2,-1.3794008E-3,-4.336341E-2,-6.474087E-2,9.56907E-2,-4.6642758E-2,-5.2317508E-2,-7.258489E-2,7.614333E-2,-4.0051576E-2,-5.0665624E-2,-1.588583E-2,-2.5511224E-2,3.871251E-2,1.3447124E-2,-4.8360094E-2,-6.485705E-2,-3.13407E-2,9.305405E-2,-3.868827E-3],"split_indices":[7,0,7,6,1,9,0,1,1,1,2,0,0,2,1,1,1,2,2,2,2,6,2,1,7,9,2,2,2,2,0,6,9,1,2,1,2,0,2,1,1,2,2,0,0,0,0,0,0,0,0,0,0,0,0,0,0,0,0,0,0,0,0,0,0,0,0,0,0,0,0,0,0,0,0,0,0,0,0],"split_type":[0,0,0,0,0,0,0,0,0,0,0,0,0,0,0,0,0,0,0,0,0,0,0,0,0,0,0,0,0,0,0,0,0,0,0,0,0,0,0,0,0,0,0,0,0,0,0,0,0,0,0,0,0,0,0,0,0,0,0,0,0,0,0,0,0,0,0,0,0,0,0,0,0,0,0,0,0,0,0],"sum_hessian":[1.5407356E4,8.290482E3,7.116874E3,6.0289443E3,2.2615378E3,5.801306E3,1.315568E3,1.5438182E3,4.4851265E3,1.3080444E3,9.534934E2,2.7113522E2,5.530171E3,8.0056244E2,7.432558E2,2.745089E3,1.7400372E3,4.7434293E2,8.3370154E2,4.4734598E2,5.0614743E2,4.063094E3,1.4670767E3,1.5520497E2,6.453575E2,7.199529E2,2.3302917E1,7.108624E2,2.0342267E3,1.6697471E3,7.029009E1,4.5495752E2,1.9385395E1,3.6503046E2,4.6867108E2,1.2425202E2,3.2309393E2,1.4421112E1,4.9172632E2,1.0717639E3,2.9913303E3,4.3484717E2,1.0322295E3,4.3969883E1,1.11235085E2,1.4399855E2,5.0135892E2,6.5378723E2,6.616567E1,1.4394088E1,8.90883E0,4.6837607E2,2.4248637E2,5.3216534E1,1.9810101E3,1.089519E3,5.80228E2,9.3417076E1,3.6154047E2,1.65463E1,2.8390927E0,1.55773E2,2.0925746E2,7.4242663E0,4.612468E2,4.3691765E1,8.056026E1,3.8689456E0,3.19225E2,1.000276E2,3.916987E2,8.200556E0,1.0635634E3,2.9241528E3,6.717728E1,1.5985295E2,2.7499423E2,3.5643337E1,9.965861E2],"tree_param":{"num_deleted":"0","num_feature":"12","num_nodes":"79","size_leaf_vector":"1"}},{"base_weights":[-4.4856538E-4,-1.4514795E-1,4.2015117E-1,6.606383E-3,-5.4424995E-1,6.4336157E-1,-1.743982E-2,-2.0590714E-1,1.883187E-1,-7.44947E-1,-1.6147313E-1,4.138843E-1,7.070727E-2,-4.1739792E-1,2.3273407E-1,-1.659454E-1,-8.9392877E-1,9.8274134E-2,1.3962165E-1,-6.6642445E-1,-1.1329049E0,-3.2542303E-2,-8.2008654E-1,1.2286903E0,1.7954582E-1,-1.8945739E-1,-9.9442726E-1,3.7373352E-1,-2.0118098E-1,-2.1066591E-1,9.7258255E-2,-7.7093434E-1,-6.291763E-2,-5.4717404E-1,2.0282324E-1,-8.457999E-1,-5.128595E-1,-4.867063E-1,-5.9289306E-2,-5.5695075E-1,6.7084916E-2,-1.0037555E0,-4.2131868E-1,5.8918345E-1,1.3170521E0,2.5262812E-1,-1.0654892E0,-1.1469176E-1,-7.6057386E-1,-1.2234983E0,-5.2536523E-1,2.585711E-1,6.302448E-1,-9.5936227E-1,1.3048986E-1,-7.908429E-3,-4.132934E-2,-2.718359E-2,-5.122737E-2,-2.2851149E-2,-6.1020773E-2,9.442403E-2,8.306804E-3,-3.845826E-2,-6.035182E-2,8.629184E-2,-2.8630493E-2,-6.1113376E-2,5.4592352E-2,4.435472E-2,-3.882089E-2,7.966467E-2,1.5586191E-3,-2.8149316E-2,-6.0518887E-2,-4.5301034E-3,-4.1641984E-2,4.425132E-2,-5.179556E-2,-0E0,6.6028684E-2,1.3969925E-2,-5.9430923E-2,-5.618749E-2,1.5682852E-2,-7.2365715E-3,6.7888744E-2,2.6958136E-2,-4.548207E-2,-0E0,-6.286044E-2,-3.543252E-3,-5.9444197E-2,1.4795813E-2,-3.705242E-2,6.1207395E-2,2.720359E-2,-6.05459E-2,-2.7545368E-2,-2.9405264E-2,1.5546642E-2],"categories":[],"categories_nodes":[],"categories_segments":[],"categories_sizes":[],"default_left":[0,0,0,0,0,0,0,0,0,0,0,0,0,0,0,0,0,0,0,0,0,0,0,0,0,0,0,0,0,0,0,0,0,0,0,0,0,0,0,0,0,0,0,0,0,0,0,0,0,0,0,0,0,0,0,0,0,0,0,0,0,0,0,0,0,0,0,0,0,0,0,0,0,0,0,0,0,0,0,0,0,0,0,0,0,0,0,0,0,0,0,0,0,0,0,0,0,0,0,0,0],"id":10,"left_children":[1,3,5,7,9,11,13,15,17,19,21,23,-1,25,27,29,31,-1,33,35,37,39,41,43,45,47,49,51,53,55,-1,57,-1,59,61,63,65,67,-1,69,71,73,75,77,79,81,83,85,87,89,91,93,95,97,99,-1,-1,-1,-1,-1,-1,-1,-1,-1,-1,-1,-1,-1,-1,-1,-1,-1,-1,-1,-1,-1,-1,-1,-1,-1,-1,-1,-1,-1,-1,-1,-1,-1,-1,-1,-1,-1,-1,-1,-1,-1,-1,-1,-1,-1,-1],"loss_changes":[9.324955E2,6.908724E2,3.8337915E2,3.1912845E2,2.4069519E2,4.5739954E2,1.3295142E2,1.03874466E2,3.8405286E2,6.034375E1,9.158775E1,3.8171185E2,0E0,6.633221E1,5.0172035E1,3.400331E2,6.3634796E0,0E0,1.8842612E2,4.5807983E1,9.724335E0,4.783367E1,1.1389488E1,2.275653E1,1.420824E2,1.5181912E1,1.3291107E1,1.7473244E1,5.1109283E1,1.1336919E2,0E0,7.417412E0,0E0,2.0234444E1,2.4424286E2,1.8979126E1,1.2617172E2,3.761454E1,0E0,4.7658512E1,4.1030792E1,8.563545E0,7.560397E0,2.9920126E1,1.6553955E0,5.7140984E1,8.060333E0,1.4391897E1,9.243025E0,3.347107E0,1.4703744E1,1.630417E1,7.4370728E0,4.1292763E0,1.8491114E1,0E0,0E0,0E0,0E0,0E0,0E0,0E0,0E0,0E0,0E0,0E0,0E0,0E0,0E0,0E0,0E0,0E0,0E0,0E0,0E0,0E0,0E0,0E0,0E0,0E0,0E0,0E0,0E0,0E0,0E0,0E0,0E0,0E0,0E0,0E0,0E0,0E0,0E0,0E0,0E0,0E0,0E0,0E0,0E0,0E0,0E0],"parents":[2147483647,0,0,1,1,2,2,3,3,4,4,5,5,6,6,7,7,8,8,9,9,10,10,11,11,13,13,14,14,15,15,16,16,18,18,19,19,20,20,21,21,22,22,23,23,24,24,25,25,26,26,27,27,28,28,29,29,31,31,33,33,34,34,35,35,36,36,37,37,39,39,40,40,41,41,42,42,43,43,44,44,45,45,46,46,47,47,48,48,49,49,50,50,51,51,52,52,53,53,54,54],"right_children":[2,4,6,8,10,12,14,16,18,20,22,24,-1,26,28,30,32,-1,34,36,38,40,42,44,46,48,50,52,54,56,-1,58,-1,60,62,64,66,68,-1,70,72,74,76,78,80,82,84,86,88,90,92,94,96,98,100,-1,-1,-1,-1,-1,-1,-1,-1,-1,-1,-1,-1,-1,-1,-1,-1,-1,-1,-1,-1,-1,-1,-1,-1,-1,-1,-1,-1,-1,-1,-1,-1,-1,-1,-1,-1,-1,-1,-1,-1,-1,-1,-1,-1,-1,-1],"split_conditions":[1.5719382E0,1E0,1.6875E0,6.913243E1,8.032053E1,1.65E0,1.7152619E0,6.9E1,7E1,1E0,1E0,1.625E0,7.070727E-2,1E0,1E0,6.830104E1,1.5009674E0,9.8274134E-2,7.024676E1,1.680728E2,1.4285715E0,1.680728E2,9.2252625E1,1.5948297E0,1E0,1.7E2,2.700513E1,8.032053E1,7.529135E1,6.8E1,9.7258255E-2,1.66E2,-6.291763E-2,1.5598968E0,7.1E1,1.68E2,1.69E2,1.392405E0,-5.9289306E-2,1.4059454E0,1.69E2,8.4E1,9.76109E1,1.5942029E0,1.9362473E1,1E0,3.5555557E1,1.6904213E2,5.6861202E1,1.7142857E0,8.580347E1,3.2430973E1,8.2E1,1.6904213E2,1.680728E2,-7.908429E-3,-4.132934E-2,-2.718359E-2,-5.122737E-2,-2.2851149E-2,-6.1020773E-2,9.442403E-2,8.306804E-3,-3.845826E-2,-6.035182E-2,8.629184E-2,-2.8630493E-2,-6.1113376E-2,5.4592352E-2,4.435472E-2,-3.882089E-2,7.966467E-2,1.5586191E-3,-2.8149316E-2,-6.0518887E-2,-4.5301034E-3,-4.1641984E-2,4.425132E-2,-5.179556E-2,-0E0,6.6028684E-2,1.3969925E-2,-5.9430923E-2,-5.618749E-2,1.5682852E-2,-7.2365715E-3,6.7888744E-2,2.6958136E-2,-4.548207E-2,-0E0,-6.286044E-2,-3.543252E-3,-5.9444197E-2,1.4795813E-2,-3.705242E-2,6.1207395E-2,2.720359E-2,-6.05459E-2,-2.7545368E-2,-2.9405264E-2,1.5546642E-2],"split_indices":[9,0,9,3,3,9,9,3,3,4,4,9,0,0,0,3,9,0,3,2,9,2,3,9,4,2,10,3,3,3,0,2,0,9,3,2,2,9,0,9,2,3,3,9,10,5,10,2,3,9,3,10,3,2,2,0,0,0,0,0,0,0,0,0,0,0,0,0,0,0,0,0,0,0,0,0,0,0,0,0,0,0,0,0,0,0,0,0,0,0,0,0,0,0,0,0,0,0,0,0,0],"split_type":[0,0,0,0,0,0,0,0,0,0,0,0,0,0,0,0,0,0,0,0,0,0,0,0,0,0,0,0,0,0,0,0,0,0,0,0,0,0,0,0,0,0,0,0,0,0,0,0,0,0,0,0,0,0,0,0,0,0,0,0,0,0,0,0,0,0,0,0,0,0,0,0,0,0,0,0,0,0,0,0,0,0,0,0,0,0,0,0,0,0,0,0,0,0,0,0,0,0,0,0,0],"sum_hessian":[1.5320102E4,1.140048E4,3.9196208E3,8.260302E3,3.1401785E3,2.595756E3,1.3238646E3,3.8060676E3,4.4542344E3,2.0579553E3,1.0822233E3,2.0031133E3,5.926429E2,5.0968408E2,8.1418054E2,3.6001711E3,2.0589636E2,1.1642423E2,4.33781E3,1.7171324E3,3.408228E2,9.0743994E2,1.7478336E2,4.4504633E2,1.5580669E3,3.6788412E2,1.4179996E2,6.1557947E2,1.9860107E2,3.5274844E3,7.2686874E1,1.5962523E2,4.6271145E1,3.6358606E2,3.9742239E3,7.863475E2,9.3078503E2,2.8040127E1,3.1278268E2,1.4420822E2,7.6323175E2,1.16730286E2,5.8053074E1,5.6576443E1,3.8846988E2,1.4735659E3,8.4501045E1,3.281966E2,3.968754E1,9.2395134E1,4.940482E1,4.2896027E2,1.8661922E2,5.9746452E1,1.3885461E2,3.2535012E3,2.739832E2,8.854184E1,7.108338E1,3.2426535E2,3.9320717E1,8.221319E1,3.8920107E3,6.550286E2,1.3131885E2,2.2529346E1,9.082557E2,1.9651321E1,8.388805E0,1.7922132E1,1.2628609E2,1.5232384E1,7.479993E2,4.0405674E1,7.6324615E1,3.4213173E1,2.3839901E1,4.8893944E1,7.6824994E0,1.1305792E0,3.8733932E2,1.4486178E3,2.4948112E1,8.177928E1,2.721765E0,3.2373508E2,4.4615116E0,3.199833E0,3.6487705E1,2.8766325E0,8.95185E1,3.1081575E1,1.8323244E1,4.1535114E2,1.3609133E1,1.9564856E1,1.6705437E2,3.3785526E1,2.5960924E1,2.6406017E1,1.124486E2],"tree_param":{"num_deleted":"0","num_feature":"12","num_nodes":"101","size_leaf_vector":"1"}},{"base_weights":[-4.473154E-4,-2.6135737E-1,6.070973E-1,-7.377503E-1,-1.2479579E-1,3.9580235E-1,7.2719924E-2,-8.297303E-1,-3.4121573E-1,-2.5664863E-1,1.8323267E-1,1.9691241E-1,7.1598634E-2,-8.015088E-1,-7.3648565E-2,-8.47024E-1,-1.4188948E-1,-2.2876392E-1,-1.2860943E0,2.206445E-1,-1.1822226E0,2.4250773E-1,-1.0250275E0,-1.1251708E0,-7.493181E-1,-0E0,-1.0573142E0,4.206723E-1,-2.4637447E-1,-4.2549706E-1,-9.618544E-2,-5.2267534E-1,-6.808749E-2,2.5367603E-1,-1.0023797E0,-6.551176E-2,-6.869807E-1,-7.3558027E-1,2.6920226E-1,-1.3166952E0,-5.2380913E-1,-6.4494506E-2,-4.510129E-2,-4.165889E-2,-2.8638456E-2,-4.800797E-2,3.2623496E-2,1.3733831E-2,-5.4893166E-2,5.459811E-3,5.207652E-2,-3.935322E-2,-5.455147E-3,-2.308978E-2,6.960454E-3,-2.6237126E-3,-5.4217305E-2,-5.7991415E-2,8.454246E-3,-8.683632E-3,1.6544146E-2,-6.195147E-2,-2.9242834E-2,-3.923277E-2,-0E0,-7.757522E-3,-5.6897324E-2,1.46288825E-2,-4.0070068E-2,-4.069109E-2,-7.5341344E-2,3.767699E-2,-3.0270467E-2],"categories":[],"categories_nodes":[],"categories_segments":[],"categories_sizes":[],"default_left":[0,0,0,0,0,0,0,0,0,0,0,0,0,0,0,0,0,0,0,0,0,0,0,0,0,0,0,0,0,0,0,0,0,0,0,0,0,0,0,0,0,0,0,0,0,0,0,0,0,0,0,0,0,0,0,0,0,0,0,0,0,0,0,0,0,0,0,0,0,0,0,0,0],"id":11,"left_children":[1,3,5,7,9,11,-1,13,15,17,19,21,-1,23,-1,25,27,29,31,33,35,37,39,41,43,45,47,49,51,53,55,57,-1,59,61,-1,63,65,67,69,71,-1,-1,-1,-1,-1,-1,-1,-1,-1,-1,-1,-1,-1,-1,-1,-1,-1,-1,-1,-1,-1,-1,-1,-1,-1,-1,-1,-1,-1,-1,-1,-1],"loss_changes":[2.420074E3,6.943113E2,8.190438E2,8.5603516E1,3.3744217E2,7.558243E2,0E0,3.1506958E1,4.486403E1,1.6565659E2,1.2721441E2,1.720015E2,0E0,2.8667725E1,0E0,2.2932556E1,1.9372631E1,1.474725E2,6.4435577E0,9.8105835E1,1.4074707E0,7.787315E1,1.392308E1,5.8361816E0,2.2068176E1,1.799252E1,6.51577E0,9.116579E0,2.0031864E1,4.7014526E1,1.4573259E2,8.64231E0,0E0,7.817079E1,3.9408035E0,0E0,1.3193007E0,1.7476418E1,7.27693E1,2.907631E0,5.5051203E0,0E0,0E0,0E0,0E0,0E0,0E0,0E0,0E0,0E0,0E0,0E0,0E0,0E0,0E0,0E0,0E0,0E0,0E0,0E0,0E0,0E0,0E0,0E0,0E0,0E0,0E0,0E0,0E0,0E0,0E0,0E0,0E0],"parents":[2147483647,0,0,1,1,2,2,3,3,4,4,5,5,7,7,8,8,9,9,10,10,11,11,13,13,15,15,16,16,17,17,18,18,19,19,20,20,21,21,22,22,23,23,24,24,25,25,26,26,27,27,28,28,29,29,30,30,31,31,33,33,34,34,36,36,37,37,38,38,39,39,40,40],"right_children":[2,4,6,8,10,12,-1,14,16,18,20,22,-1,24,-1,26,28,30,32,34,36,38,40,42,44,46,48,50,52,54,56,58,-1,60,62,-1,64,66,68,70,72,-1,-1,-1,-1,-1,-1,-1,-1,-1,-1,-1,-1,-1,-1,-1,-1,-1,-1,-1,-1,-1,-1,-1,-1,-1,-1,-1,-1,-1,-1,-1,-1],"split_conditions":[8.931081E1,4.9E1,9.5E1,4.53472E1,4.53472E1,5.1E1,7.2719924E-2,1E0,7.5737915E1,1E0,1E0,1E0,7.1598634E-2,2.2060354E1,-7.3648565E-2,1.59E2,1.579842E2,5.5E1,5E1,6.4E1,5.8E1,4.2E1,1.7142378E2,4.4E1,4.6E1,1.5611942E2,5E1,1.5611942E2,4.2E1,9.044729E1,6.4E1,8.230199E1,-6.808749E-2,7.5737915E1,1.6518471E2,-6.551176E-2,1.7606271E2,5E1,6.4E1,2.6025196E1,1.72E2,-6.4494506E-2,-4.510129E-2,-4.165889E-2,-2.8638456E-2,-4.800797E-2,3.2623496E-2,1.3733831E-2,-5.4893166E-2,5.459811E-3,5.207652E-2,-3.935322E-2,-5.455147E-3,-2.308978E-2,6.960454E-3,-2.6237126E-3,-5.4217305E-2,-5.7991415E-2,8.454246E-3,-8.683632E-3,1.6544146E-2,-6.195147E-2,-2.9242834E-2,-3.923277E-2,-0E0,-7.757522E-3,-5.6897324E-2,1.46288825E-2,-4.0070068E-2,-4.069109E-2,-7.5341344E-2,3.767699E-2,-3.0270467E-2],"split_indices":[8,1,8,11,11,11,0,5,8,5,5,5,0,10,0,2,2,1,1,1,11,1,2,1,1,2,11,2,1,3,1,3,0,8,2,0,2,11,1,10,2,0,0,0,0,0,0,0,0,0,0,0,0,0,0,0,0,0,0,0,0,0,0,0,0,0,0,0,0,0,0,0,0],"split_type":[0,0,0,0,0,0,0,0,0,0,0,0,0,0,0,0,0,0,0,0,0,0,0,0,0,0,0,0,0,0,0,0,0,0,0,0,0,0,0,0,0,0,0,0,0,0,0,0,0,0,0,0,0,0,0,0,0,0,0,0,0,0,0,0,0,0,0,0,0,0,0,0,0],"sum_hessian":[1.5264299E4,1.0679814E4,4.584484E3,2.3766038E3,8.303211E3,3.6722456E3,9.122386E2,1.9263279E3,4.5027597E2,5.815723E3,2.4874875E3,3.083281E3,5.889644E2,1.8504125E3,7.591539E1,1.2473709E2,3.2553888E2,5.6651997E3,1.5052383E2,2.4231394E3,6.434813E1,2.9743103E3,1.08970764E2,2.4990707E2,1.6005054E3,2.4886568E1,9.985052E1,4.9294224E1,2.7624466E2,2.2774712E3,3.3877283E3,1.5594092E1,1.3492975E2,2.3613577E3,6.1781715E1,4.7713898E1,1.6634233E1,7.711128E1,2.897199E3,6.6197655E1,4.277311E1,1.3698618E2,1.129209E2,1.0781301E3,5.223753E2,9.477517E0,1.540905E1,2.244454E0,9.7606064E1,3.4928276E1,1.4365949E1,5.3278748E1,2.2296591E2,2.1410942E3,1.3637677E2,3.2467222E3,1.4100623E2,7.78925E0,7.804842E0,3.5996072E2,2.001397E3,3.6156013E1,2.5625706E1,1.4426584E1,2.2076495E0,3.321341E1,4.3897873E1,2.837173E3,6.0025974E1,2.1780767E1,4.441689E1,1.2115347E0,4.1561577E1],"tree_param":{"num_deleted":"0","num_feature":"12","num_nodes":"73","size_leaf_vector":"1"}},{"base_weights":[-4.8772668E-4,-1.2391516E-1,7.039239E-2,-3.8063738E-1,2.414274E-1,-2.1658286E-1,-8.263518E-1,7.176088E-2,1.8494737E-1,2.2149442E-1,-3.6810043E-1,-9.3260103E-1,-5.450748E-1,3.4093663E-1,-2.4706116E-1,-2.4137591E-1,3.422956E-1,-4.5153812E-1,-1.4675541E-1,-8.964129E-1,-7.026551E-2,7.638089E-2,-5.7135695E-1,7.094585E-1,2.0894246E-1,-6.690019E-1,-8.209119E-2,-2.3988404E-3,-2.9551817E-2,9.075271E-2,1.6128339E-2,-2.189027E-2,-7.061057E-2,1.0206231E-1,-1.0152742E-2,-5.8418572E-2,-4.257368E-2,-9.935342E-3,-3.4372404E-2,3.617036E-2,-3.3235323E-2,1.1617324E-2,-5.8438428E-2,-3.0127818E-2,-6.8601884E-2,-6.663588E-4,-4.1650377E-2],"categories":[],"categories_nodes":[],"categories_segments":[],"categories_sizes":[],"default_left":[0,0,0,0,0,0,0,0,0,0,0,0,0,0,0,0,0,0,0,0,0,0,0,0,0,0,0,0,0,0,0,0,0,0,0,0,0,0,0,0,0,0,0,0,0,0,0],"id":12,"left_children":[1,3,-1,5,7,9,11,-1,13,15,17,19,21,23,25,27,29,31,33,35,-1,-1,37,39,41,43,45,-1,-1,-1,-1,-1,-1,-1,-1,-1,-1,-1,-1,-1,-1,-1,-1,-1,-1,-1,-1],"loss_changes":[2.6395723E3,1.3100669E3,0E0,5.989656E2,3.8728177E2,3.9848553E2,6.415808E1,0E0,3.7126257E2,8.645273E1,8.1930176E1,2.3644287E1,3.4540955E1,1.9610464E2,1.012119E2,2.1230902E1,3.3346634E1,4.0531433E1,1.508665E2,1.5207031E1,0E0,0E0,2.5450317E1,2.1413208E1,9.6278854E1,1.648993E1,5.3952038E1,0E0,0E0,0E0,0E0,0E0,0E0,0E0,0E0,0E0,0E0,0E0,0E0,0E0,0E0,0E0,0E0,0E0,0E0,0E0,0E0],"parents":[2147483647,0,0,1,1,3,3,4,4,5,5,6,6,8,8,9,9,10,10,11,11,12,12,13,13,14,14,15,15,16,16,17,17,18,18,19,19,22,22,23,23,24,24,25,25,26,26],"right_children":[2,4,-1,6,8,10,12,-1,14,16,18,20,22,24,26,28,30,32,34,36,-1,-1,38,40,42,44,46,-1,-1,-1,-1,-1,-1,-1,-1,-1,-1,-1,-1,-1,-1,-1,-1,-1,-1,-1,-1],"split_conditions":[1.4222208E2,1.28E2,7.039239E-2,1E0,1.4444444E0,1E0,8.032053E1,7.176088E-2,1E0,6.2329426E1,7.529135E1,1E0,8.1E1,1E0,7.214258E1,6E1,6.3E1,1E0,7.6E1,6.0098576E1,-7.026551E-2,7.638089E-2,1E0,1E0,1E0,1E0,1E0,-2.3988404E-3,-2.9551817E-2,9.075271E-2,1.6128339E-2,-2.189027E-2,-7.061057E-2,1.0206231E-1,-1.0152742E-2,-5.8418572E-2,-4.257368E-2,-9.935342E-3,-3.4372404E-2,3.617036E-2,-3.3235323E-2,1.1617324E-2,-5.8438428E-2,-3.0127818E-2,-6.8601884E-2,-6.663588E-4,-4.1650377E-2],"split_indices":[7,7,0,0,9,6,3,0,0,3,3,5,3,6,3,3,3,5,3,3,0,0,6,5,5,5,5,0,0,0,0,0,0,0,0,0,0,0,0,0,0,0,0,0,0,0,0],"split_type":[0,0,0,0,0,0,0,0,0,0,0,0,0,0,0,0,0,0,0,0,0,0,0,0,0,0,0,0,0,0,0,0,0,0,0,0,0,0,0,0,0,0,0,0,0,0,0],"sum_hessian":[1.5184718E4,1.3963157E4,1.2215609E3,8.201405E3,5.7617524E3,5.997861E3,2.203544E3,2.5767752E2,5.5040747E3,1.5402802E3,4.4575806E3,1.5947402E3,6.088038E2,4.0450652E3,1.4590095E3,3.1751846E2,1.2227617E3,3.2341167E3,1.223464E3,1.4877001E3,1.0704015E2,5.9543366E0,6.028494E2,1.0634427E3,2.9816226E3,4.075317E2,1.0514779E3,2.0682617E2,1.1069231E2,1.3422545E1,1.2093391E3,3.1919204E3,4.2196297E1,2.8699547E1,1.1947644E3,2.0230283E2,1.2853972E3,1.4550653E2,4.573429E2,1.0540543E3,9.388349E0,2.9338096E3,4.7812828E1,3.7638412E2,3.114757E1,9.657428E2,8.573507E1],"tree_param":{"num_deleted":"0","num_feature":"12","num_nodes":"47","size_leaf_vector":"1"}},{"base_weights":[-4.364523E-4,-1.1825529E-1,6.8998806E-2,-3.6330894E-1,2.3011257E-1,-2.0612806E-1,-7.944599E-1,7.0137225E-2,1.7600499E-1,2.10464E-1,-3.5059544E-1,-8.467182E-1,-2.4310535E-1,3.2462007E-1,-2.3547314E-1,-2.2983326E-1,3.252255E-1,-4.3044105E-1,-1.3933042E-1,-6.2655574E-1,-9.042759E-1,2.78643E-1,-4.4069538E-1,6.7765665E-1,1.9868897E-1,-6.3969314E-1,-7.815982E-2,-2.28062E-3,-2.8171206E-2,8.657426E-2,1.53166745E-2,-2.0316742E-2,-4.768655E-2,9.668805E-2,-9.652666E-3,-6.1808296E-2,-2.9831016E-2,-4.993112E-2,-3.8452424E-2,2.4947328E-2,-6.073084E-2,1.4295712E-2,-2.6964689E-2,2.9449109E-2,4.5652103E-2,-7.4222725E-4,1.3330566E-2,-4.390422E-2,-2.4376633E-2,1.3508397E-2,-9.4172275E-3],"categories":[],"categories_nodes":[],"categories_segments":[],"categories_sizes":[],"default_left":[0,0,0,0,0,0,0,0,0,0,0,0,0,0,0,0,0,0,0,0,0,0,0,0,0,0,0,0,0,0,0,0,0,0,0,0,0,0,0,0,0,0,0,0,0,0,0,0,0,0,0],"id":13,"left_children":[1,3,-1,5,7,9,11,-1,13,15,17,19,21,23,25,27,29,31,33,35,37,39,41,43,45,47,49,-1,-1,-1,-1,-1,-1,-1,-1,-1,-1,-1,-1,-1,-1,-1,-1,-1,-1,-1,-1,-1,-1,-1,-1],"loss_changes":[2.4547617E3,1.1877426E3,0E0,5.526846E2,3.632056E2,3.6066656E2,6.187146E1,0E0,3.3616425E2,7.813839E1,7.4637085E1,2.3320435E1,2.0163353E1,1.7881238E2,9.22565E1,1.9259792E1,3.0473099E1,3.9236633E1,1.3628966E2,5.287155E0,1.7628174E1,1.8415964E1,1.0539057E1,2.0294067E1,4.335698E1,1.3235291E1,4.0465355E1,0E0,0E0,0E0,0E0,0E0,0E0,0E0,0E0,0E0,0E0,0E0,0E0,0E0,0E0,0E0,0E0,0E0,0E0,0E0,0E0,0E0,0E0,0E0,0E0],"parents":[2147483647,0,0,1,1,3,3,4,4,5,5,6,6,8,8,9,9,10,10,11,11,12,12,13,13,14,14,15,15,16,16,17,17,18,18,19,19,20,20,21,21,22,22,23,23,24,24,25,25,26,26],"right_children":[2,4,-1,6,8,10,12,-1,14,16,18,20,22,24,26,28,30,32,34,36,38,40,42,44,46,48,50,-1,-1,-1,-1,-1,-1,-1,-1,-1,-1,-1,-1,-1,-1,-1,-1,-1,-1,-1,-1,-1,-1,-1,-1],"split_conditions":[1.4222208E2,1.28E2,6.8998806E-2,1E0,1.4444444E0,1E0,9.2252625E1,7.0137225E-2,1E0,6.2329426E1,7.529135E1,1E0,1E0,1E0,7.214258E1,6E1,6.3E1,7.5E1,7.6E1,5.718141E1,7.420422E1,1.03E2,1.5E0,8.430373E1,6.520272E1,6.520272E1,1E0,-2.28062E-3,-2.8171206E-2,8.657426E-2,1.53166745E-2,-2.0316742E-2,-4.768655E-2,9.668805E-2,-9.652666E-3,-6.1808296E-2,-2.9831016E-2,-4.993112E-2,-3.8452424E-2,2.4947328E-2,-6.073084E-2,1.4295712E-2,-2.6964689E-2,2.9449109E-2,4.5652103E-2,-7.4222725E-4,1.3330566E-2,-4.390422E-2,-2.4376633E-2,1.3508397E-2,-9.4172275E-3],"split_indices":[7,7,0,0,9,6,3,0,0,3,3,6,6,6,3,3,3,3,3,3,3,3,9,3,3,3,6,0,0,0,0,0,0,0,0,0,0,0,0,0,0,0,0,0,0,0,0,0,0,0,0],"split_type":[0,0,0,0,0,0,0,0,0,0,0,0,0,0,0,0,0,0,0,0,0,0,0,0,0,0,0,0,0,0,0,0,0,0,0,0,0,0,0,0,0,0,0,0,0,0,0,0,0,0,0],"sum_hessian":[1.5093225E4,1.3908333E4,1.1848917E3,8.165674E3,5.7426597E3,5.9871187E3,2.178555E3,2.5068413E2,5.4919756E3,1.5404988E3,4.44662E3,1.9881377E3,1.9041725E2,4.035938E3,1.4560375E3,3.171913E2,1.2233075E3,3.2237812E3,1.2228389E3,4.1877014E2,1.5693676E3,5.1383945E1,1.3903331E2,1.057789E3,2.978149E3,4.052998E2,1.0507377E3,2.0677501E2,1.10416306E2,1.3462111E1,1.2098453E3,3.0861223E3,1.376588E2,2.8885641E1,1.1939532E3,1.5047541E1,4.037226E2,9.1471515E2,6.546524E2,4.6230103E1,5.1538453E0,1.55522375E1,1.2348107E2,7.7497034E2,2.8281863E2,7.1730273E2,2.2608462E3,1.5290874E2,2.5239105E2,2.5071353E2,8.000241E2],"tree_param":{"num_deleted":"0","num_feature":"12","num_nodes":"51","size_leaf_vector":"1"}},{"base_weights":[-3.5726783E-4,-1.1282435E-1,6.772392E-2,-3.4681013E-1,2.1940434E-1,-1.961804E-1,-7.640072E-1,3.515182E-1,-1.4142399E-1,-4.1391283E-1,6.205532E-2,-9.508662E-1,-5.1160115E-1,3.7138522E-1,-9.950556E-1,-6.349003E-1,6.944413E-2,-6.6421336E-1,-2.6399362E-1,9.674893E-2,-9.137752E-1,-1.0636493E0,-5.4452336E-1,-1.198055E0,-4.0827948E-1,3.9349285E-1,-6.355562E-1,-1.042647E0,1.7074374E-2,-8.5115427E-1,-1.5648822E-1,8.581792E-2,2.8179586E-3,-4.072583E-2,-1.8817892E-2,-1.2372167E-2,-7.411472E-2,-1.4498985E-2,8.374467E-3,-3.4529395E-2,-6.284594E-2,-5.0719228E-2,-6.808345E-2,8.2911246E-2,-2.9907128E-2,-4.547858E-2,-6.6087596E-2,-1.78259E-2,-6.357446E-2,-1.93487E-2,2.0660618E-2,-3.7677873E-2,-1.1718652E-2,-1.1080067E-2,-5.835681E-2,-5.5838596E-2,-3.1027118E-2,-3.6700904E-2,9.402769E-3,-5.7868626E-2,3.6623895E-3],"categories":[],"categories_nodes":[],"categories_segments":[],"categories_sizes":[],"default_left":[0,0,0,0,0,0,0,0,0,0,0,0,0,0,0,0,0,0,0,0,0,0,0,0,0,0,0,0,0,0,0,0,0,0,0,0,0,0,0,0,0,0,0,0,0,0,0,0,0,0,0,0,0,0,0,0,0,0,0,0,0],"id":14,"left_children":[1,3,-1,5,7,9,11,13,15,17,19,21,23,25,27,29,31,33,35,37,39,41,43,45,47,49,51,53,-1,55,57,-1,59,-1,-1,-1,-1,-1,-1,-1,-1,-1,-1,-1,-1,-1,-1,-1,-1,-1,-1,-1,-1,-1,-1,-1,-1,-1,-1,-1,-1],"loss_changes":[2.2858357E3,1.077313E3,0E0,5.1022498E2,2.731725E2,3.363496E2,9.995935E1,1.1260181E2,1.6010913E2,1.20941345E2,9.2373726E1,5.4641113E1,6.3640503E1,9.240497E1,4.951782E0,4.6870712E1,1.1726335E2,5.1266785E1,3.9409836E1,7.2361595E1,4.4591675E0,1.0198608E1,3.3744415E1,7.26532E-1,3.4265366E1,6.2615417E1,3.3703613E0,4.9101944E0,0E0,1.7099426E1,2.9704561E1,0E0,8.436561E1,0E0,0E0,0E0,0E0,0E0,0E0,0E0,0E0,0E0,0E0,0E0,0E0,0E0,0E0,0E0,0E0,0E0,0E0,0E0,0E0,0E0,0E0,0E0,0E0,0E0,0E0,0E0,0E0],"parents":[2147483647,0,0,1,1,3,3,4,4,5,5,6,6,7,7,8,8,9,9,10,10,11,11,12,12,13,13,14,14,15,15,16,16,17,17,18,18,19,19,20,20,21,21,22,22,23,23,24,24,25,25,26,26,27,27,29,29,30,30,32,32],"right_children":[2,4,-1,6,8,10,12,14,16,18,20,22,24,26,28,30,32,34,36,38,40,42,44,46,48,50,52,54,-1,56,58,-1,60,-1,-1,-1,-1,-1,-1,-1,-1,-1,-1,-1,-1,-1,-1,-1,-1,-1,-1,-1,-1,-1,-1,-1,-1,-1,-1,-1,-1],"split_conditions":[1.4222208E2,1.28E2,6.772392E-2,1E0,1E0,5.5E1,5.5E1,1E0,1.680728E2,4.8E1,6.4E1,8.307093E1,1.6209593E2,6.4E1,1.7812347E2,6E1,1.69E2,1.6518471E2,1E0,2.3148148E1,1.6495276E2,1.76E2,8.4E1,5.8E1,1E0,4.2E1,1.6518471E2,2.4801588E1,1.7074374E-2,1.35E2,1.6411754E2,8.581792E-2,1.6904213E2,-4.072583E-2,-1.8817892E-2,-1.2372167E-2,-7.411472E-2,-1.4498985E-2,8.374467E-3,-3.4529395E-2,-6.284594E-2,-5.0719228E-2,-6.808345E-2,8.2911246E-2,-2.9907128E-2,-4.547858E-2,-6.6087596E-2,-1.78259E-2,-6.357446E-2,-1.93487E-2,2.0660618E-2,-3.7677873E-2,-1.1718652E-2,-1.1080067E-2,-5.835681E-2,-5.5838596E-2,-3.1027118E-2,-3.6700904E-2,9.402769E-3,-5.7868626E-2,3.6623895E-3],"split_indices":[7,7,0,0,0,1,1,5,2,1,1,3,2,1,2,1,2,2,5,10,2,2,3,1,5,1,2,10,0,7,2,0,2,0,0,0,0,0,0,0,0,0,0,0,0,0,0,0,0,0,0,0,0,0,0,0,0,0,0,0,0],"split_type":[0,0,0,0,0,0,0,0,0,0,0,0,0,0,0,0,0,0,0,0,0,0,0,0,0,0,0,0,0,0,0,0,0,0,0,0,0,0,0,0,0,0,0,0,0,0,0,0,0,0,0,0,0,0,0,0,0,0,0,0,0],"sum_hessian":[1.5001509E4,1.3853694E4,1.1478148E3,8.129544E3,5.7241504E3,5.9760273E3,2.1535164E3,4.191068E3,1.5330824E3,3.24268E3,2.7333474E3,1.2331134E3,9.20403E2,4.1319263E3,5.9141636E1,4.5848328E2,1.0745991E3,1.2108636E3,2.0318163E3,2.64174E3,9.1607445E1,9.61717E2,2.7139645E2,1.1700558E2,8.033974E2,4.0448357E3,8.7090416E1,5.789404E1,1.2475958E0,3.1396155E2,1.4452171E2,3.9565426E1,1.0350337E3,7.919513E2,4.1891232E2,2.0073634E3,2.445286E1,4.064522E2,2.2352878E3,6.0039036E1,3.1568405E1,8.3428845E2,1.2742853E2,4.805446E0,2.66591E2,4.1340534E1,7.566505E1,7.6116046E2,4.223694E1,9.81367E1,3.946699E3,6.497587E1,2.2114544E1,8.883189E0,4.9010853E1,1.4132765E2,1.7263391E2,5.369971E1,9.0822E1,5.7063393E1,9.7797034E2],"tree_param":{"num_deleted":"0","num_feature":"12","num_nodes":"61","size_leaf_vector":"1"}},{"base_weights":[-4.170082E-4,-1.077783E-1,6.655446E-2,-3.3129805E-1,2.0888764E-1,-1.8689096E-1,-7.353584E-1,6.845351E-2,1.5685661E-1,-4.3641588E-1,-1.2698822E-1,-8.049038E-1,-3.4327447E-1,2.922536E-1,-2.1765713E-1,-6.339562E-1,-3.0350575E-1,-3.2600316E-1,-6.356859E-2,-1.1744716E0,-7.721462E-1,8.807345E-2,-3.992619E-1,2.2061853E-1,4.8202595E-1,-7.6032335E-1,6.695348E-3,-2.8427497E-2,-5.8622565E-2,9.686677E-2,-1.8282993E-2,-2.1732574E-2,5.220428E-4,1.4131352E-3,-1.05625065E-2,4.748053E-3,-5.959121E-2,-5.121232E-2,-3.6068223E-2,-1.4151292E-2,-6.378339E-2,1.4152805E-2,-3.52134E-2,8.574825E-2,1.8740859E-2,-5.8321323E-2,-2.6000395E-2,8.450449E-2,-2.782793E-3],"categories":[],"categories_nodes":[],"categories_segments":[],"categories_sizes":[],"default_left":[0,0,0,0,0,0,0,0,0,0,0,0,0,0,0,0,0,0,0,0,0,0,0,0,0,0,0,0,0,0,0,0,0,0,0,0,0,0,0,0,0,0,0,0,0,0,0,0,0],"id":15,"left_children":[1,3,-1,5,7,9,11,-1,13,15,17,19,21,23,25,27,29,31,33,35,37,-1,39,41,43,45,47,-1,-1,-1,-1,-1,-1,-1,-1,-1,-1,-1,-1,-1,-1,-1,-1,-1,-1,-1,-1,-1,-1],"loss_changes":[2.1315725E3,9.7717615E2,0E0,4.714914E2,3.435949E2,8.878058E1,5.6933228E1,0E0,2.774958E2,2.9405655E1,6.0540565E1,1.9075562E1,3.9064205E1,5.4068665E1,1.772146E2,1.4004944E1,9.733243E1,4.267086E1,4.968632E1,3.901825E0,1.8977173E1,0E0,3.0972637E1,1.689896E2,1.4276419E2,3.946901E1,1.09000946E2,0E0,0E0,0E0,0E0,0E0,0E0,0E0,0E0,0E0,0E0,0E0,0E0,0E0,0E0,0E0,0E0,0E0,0E0,0E0,0E0,0E0,0E0],"parents":[2147483647,0,0,1,1,3,3,4,4,5,5,6,6,8,8,9,9,10,10,11,11,12,12,13,13,14,14,15,15,16,16,17,17,18,18,19,19,20,20,22,22,23,23,24,24,25,25,26,26],"right_children":[2,4,-1,6,8,10,12,-1,14,16,18,20,22,24,26,28,30,32,34,36,38,-1,40,42,44,46,48,-1,-1,-1,-1,-1,-1,-1,-1,-1,-1,-1,-1,-1,-1,-1,-1,-1,-1,-1,-1,-1,-1],"split_conditions":[1.4222208E2,1.28E2,6.655446E-2,1E0,1.4444444E0,2.3148148E1,8.7078E1,6.845351E-2,1E0,1.6209593E2,1.2E2,3.8E1,8.8E1,1.6518471E2,1.680728E2,1.6197928E2,1.63E2,1.6518471E2,1.65E2,1E2,2.2546576E1,8.807345E-2,3.3874065E1,1.65E2,1.66E2,1.6411754E2,1.69E2,-2.8427497E-2,-5.8622565E-2,9.686677E-2,-1.8282993E-2,-2.1732574E-2,5.220428E-4,1.4131352E-3,-1.05625065E-2,4.748053E-3,-5.959121E-2,-5.121232E-2,-3.6068223E-2,-1.4151292E-2,-6.378339E-2,1.4152805E-2,-3.52134E-2,8.574825E-2,1.8740859E-2,-5.8321323E-2,-2.6000395E-2,8.450449E-2,-2.782793E-3],"split_indices":[7,7,0,0,9,10,3,0,0,2,7,11,3,2,2,2,2,2,2,7,10,0,10,2,2,2,2,0,0,0,0,0,0,0,0,0,0,0,0,0,0,0,0,0,0,0,0,0,0],"split_type":[0,0,0,0,0,0,0,0,0,0,0,0,0,0,0,0,0,0,0,0,0,0,0,0,0,0,0,0,0,0,0,0,0,0,0,0,0,0,0,0,0,0,0,0,0,0,0,0,0],"sum_hessian":[1.49113545E4,1.380079E4,1.1105642E3,8.0911265E3,5.7096636E3,5.9638643E3,2.1272625E3,2.424866E2,5.467177E3,1.1505073E3,4.813357E3,1.8039144E3,3.2334805E2,4.0167761E3,1.4504005E3,4.5819882E2,6.923085E2,1.1592839E3,3.654073E3,1.399574E2,1.663957E3,6.5683594E0,3.167797E2,2.9210867E3,1.0956895E3,4.2349557E2,1.026905E3,4.1306732E2,4.5131508E1,1.683869E1,6.754698E2,8.769814E2,2.823025E2,2.2519792E3,1.4020936E3,1.3781713E0,1.3857922E2,2.7090366E2,1.3930533E3,2.825253E2,3.4254402E1,2.738166E3,1.8292064E2,8.4880226E1,1.0108092E3,1.5380176E2,2.6969382E2,3.5098633E1,9.918064E2],"tree_param":{"num_deleted":"0","num_feature":"12","num_nodes":"49","size_leaf_vector":"1"}},{"base_weights":[-3.354046E-4,-1.0281729E-1,6.5479E-2,-3.161966E-1,1.9920957E-1,-1.7784272E-1,-7.07391E-1,2.5452322E-1,-8.2743984E-1,2.1749431E-1,-3.1556854E-1,-6.175918E-1,-1.175185E0,6.745378E-2,2.0723417E-1,5.7155248E-2,-9.3169755E-1,-1.5200567E-1,2.941166E-1,-2.9940996E-1,-6.942939E-2,-7.040729E-1,-3.0670032E-1,-8.771258E-1,-6.1261356E-2,5.417947E-1,9.116328E-2,-7.9533076E-1,-6.350009E-2,-2.637544E-2,-6.5674115E-4,1.5408486E-2,-5.765921E-2,-1.7106956E-2,2.4149937E-3,-5.7166874E-2,-3.351868E-2,-8.6066695E-3,-4.8343685E-2,-5.1157165E-2,5.788225E-3,1.8678872E-2,3.5826728E-2,8.483695E-3,-8.069291E-3,-4.1247953E-2,-1.8101191E-2],"categories":[],"categories_nodes":[],"categories_segments":[],"categories_sizes":[],"default_left":[0,0,0,0,0,0,0,0,0,0,0,0,0,0,0,0,0,0,0,0,0,0,0,0,0,0,0,0,0,0,0,0,0,0,0,0,0,0,0,0,0,0,0,0,0,0,0],"id":16,"left_children":[1,3,-1,5,7,9,11,13,15,17,19,21,23,-1,25,-1,27,29,31,33,-1,35,37,39,-1,41,43,45,-1,-1,-1,-1,-1,-1,-1,-1,-1,-1,-1,-1,-1,-1,-1,-1,-1,-1,-1],"loss_changes":[1.9895624E3,8.8630786E2,0E0,4.354901E2,3.2341034E2,3.245407E2,8.6034546E1,2.7835812E2,6.1816666E1,4.374301E1,7.49563E1,4.6657776E1,1.8070068E0,0E0,2.0084224E2,0E0,9.761093E0,1.3513111E1,2.6256905E1,6.491629E1,0E0,1.8020447E1,3.374983E1,8.916592E0,0E0,3.8114105E1,7.6421E1,1.4328613E0,0E0,0E0,0E0,0E0,0E0,0E0,0E0,0E0,0E0,0E0,0E0,0E0,0E0,0E0,0E0,0E0,0E0,0E0,0E0],"parents":[2147483647,0,0,1,1,3,3,4,4,5,5,6,6,7,7,8,8,9,9,10,10,11,11,12,12,14,14,16,16,17,17,18,18,19,19,21,21,22,22,23,23,25,25,26,26,27,27],"right_children":[2,4,-1,6,8,10,12,14,16,18,20,22,24,-1,26,-1,28,30,32,34,-1,36,38,40,-1,42,44,46,-1,-1,-1,-1,-1,-1,-1,-1,-1,-1,-1,-1,-1,-1,-1,-1,-1,-1,-1],"split_conditions":[1.4222208E2,1.28E2,6.5479E-2,1E0,1E0,1E0,1E0,1.4444444E0,1.4059454E0,2.3148148E1,1E0,2.8440954E1,1E0,6.745378E-2,1E0,5.7155248E-2,1E0,2.0957273E1,1E0,3.2467533E1,-6.942939E-2,1.4494776E0,3.28125E1,3.202037E1,-6.1261356E-2,2.8732164E1,1E0,3.341465E1,-6.350009E-2,-2.637544E-2,-6.5674115E-4,1.5408486E-2,-5.765921E-2,-1.7106956E-2,2.4149937E-3,-5.7166874E-2,-3.351868E-2,-8.6066695E-3,-4.8343685E-2,-5.1157165E-2,5.788225E-3,1.8678872E-2,3.5826728E-2,8.483695E-3,-8.069291E-3,-4.1247953E-2,-1.8101191E-2],"split_indices":[7,7,0,0,4,6,4,9,9,10,5,10,6,0,6,0,5,10,5,10,0,9,10,10,0,10,0,10,0,0,0,0,0,0,0,0,0,0,0,0,0,0,0,0,0,0,0],"split_type":[0,0,0,0,0,0,0,0,0,0,0,0,0,0,0,0,0,0,0,0,0,0,0,0,0,0,0,0,0,0,0,0,0,0,0,0,0,0,0,0,0,0,0,0,0,0,0],"sum_hessian":[1.4821138E4,1.3747797E4,1.073341E3,8.0570933E3,5.6907036E3,5.9551284E3,2.101965E3,5.401665E3,2.890388E2,1.5373708E3,4.4177573E3,1.7682377E3,3.3372733E2,2.2099039E2,5.180675E3,1.3281659E1,2.757571E2,2.6258737E2,1.2747836E3,4.3551963E3,6.256078E1,1.380175E3,3.8806262E2,5.473921E1,2.789881E2,1.3314076E3,3.8492668E3,2.0236555E2,7.3391556E1,6.8410255E1,1.9417712E2,1.2644257E3,1.03578205E1,3.8798787E3,4.7531796E2,9.2589905E1,1.2875852E3,3.250788E2,6.2983826E1,4.8107075E1,6.63213E0,6.8302014E2,6.4838745E2,2.9384265E3,9.108404E2,1.8664189E2,1.5723675E1],"tree_param":{"num_deleted":"0","num_feature":"12","num_nodes":"47","size_leaf_vector":"1"}},{"base_weights":[-3.1606556E-4,-3.363429E-1,1.369626E-1,-6.687984E-1,-2.3330425E-1,4.318623E-1,3.8559195E-2,-1.0516984E0,-5.5424E-1,-3.3011174E-1,1.2775959E-1,5.338429E-1,7.099459E-2,-2.458289E-1,1.5349774E-1,-6.26356E-1,-1.1749412E0,-2.2862317E-1,-6.622786E-1,6.4980045E-2,-4.523858E-1,1.0056199E0,2.2764744E-2,4.0624425E-1,7.1243757E-1,-2.522557E-1,4.2798707E-1,-1.1343049E-1,-5.878762E-1,4.4243593E-2,4.1089824E-1,-1.611776E-1,-6.2993616E-2,-6.111234E-2,-3.633311E-1,-4.9719114E-2,-7.5258386E-1,-5.274119E-1,-9.0304804E-1,2.017381E-1,-2.8809655E-1,-3.4629905E-1,-7.0433855E-1,1.3338547E-4,1.0820382E0,1.5622722E-1,-3.0545083E-1,3.1076184E-1,6.895721E-1,7.3001003E-1,-7.977926E-1,-6.980831E-1,3.4306943E-3,2.0996392E-2,7.853729E-1,-8.764059E-2,-1.0534143E0,-8.0424184E-1,-4.123028E-1,7.255731E-2,-8.1444484E-1,1.1549236E0,3.1089333E-1,-3.766337E-2,5.8981705E-2,5.448656E-2,-4.533465E-2,-1.304777E-2,2.6064461E-2,-5.1229354E-2,-1.0179958E-2,-2.8960992E-2,2.5201559E-2,-5.0447594E-2,-2.0009486E-2,-5.364917E-3,1.777628E-2,-2.5324864E-2,1.0223464E-2,-1.3130836E-2,-4.0900808E-2,-5.5508282E-2,-3.0714199E-2,-6.368955E-3,1.7083867E-2,1.43615035E-2,5.7324536E-2,-4.244709E-3,1.6024435E-2,6.205751E-5,-3.7195448E-2,-2.6641425E-3,2.0245234E-2,3.6073714E-2,-2.1761848E-2,2.1023924E-2,3.9560493E-2,-4.96045E-2,8.398139E-4,-4.496899E-2,2.1866425E-3,-3.0629132E-2,9.034327E-3,7.040225E-2,-2.5970368E-3,4.2579554E-2,-1.4923233E-2,-1.0691819E-2,4.663752E-3,-6.1474707E-2,-8.620189E-3,-5.424846E-2,-2.8360799E-2,-5.168922E-2,-1.51733225E-2,4.8278044E-3,-3.864948E-2,-5.6822926E-2,-2.2682449E-2,4.0498143E-3,5.831899E-2,2.2508925E-2,2.9979942E-3],"categories":[],"categories_nodes":[],"categories_segments":[],"categories_sizes":[],"default_left":[0,0,0,0,0,0,0,0,0,0,0,0,0,0,0,0,0,0,0,0,0,0,0,0,0,0,0,0,0,0,0,0,0,0,0,0,0,0,0,0,0,0,0,0,0,0,0,0,0,0,0,0,0,0,0,0,0,0,0,0,0,0,0,0,0,0,0,0,0,0,0,0,0,0,0,0,0,0,0,0,0,0,0,0,0,0,0,0,0,0,0,0,0,0,0,0,0,0,0,0,0,0,0,0,0,0,0,0,0,0,0,0,0,0,0,0,0,0,0,0,0,0,0],"id":17,"left_children":[1,3,5,7,9,11,13,15,17,19,21,23,25,27,29,31,33,35,37,39,41,43,45,47,49,51,53,55,57,59,61,63,-1,-1,65,67,69,71,73,75,77,79,81,83,85,87,89,91,93,95,97,99,101,103,105,107,109,111,113,115,117,119,121,-1,-1,-1,-1,-1,-1,-1,-1,-1,-1,-1,-1,-1,-1,-1,-1,-1,-1,-1,-1,-1,-1,-1,-1,-1,-1,-1,-1,-1,-1,-1,-1,-1,-1,-1,-1,-1,-1,-1,-1,-1,-1,-1,-1,-1,-1,-1,-1,-1,-1,-1,-1,-1,-1,-1,-1,-1,-1,-1,-1],"loss_changes":[6.796493E2,1.4563873E2,3.0320258E2,4.228894E1,1.14373E2,9.585782E1,2.5644757E2,9.637985E0,2.675647E1,1.247832E2,6.3134876E1,4.5291992E1,6.718353E1,1.0174759E2,1.5691531E2,1.5583223E1,5.0168304E0,1.8177322E1,1.7323486E1,2.9528124E1,5.16362E1,5.088333E0,2.717017E1,3.1390564E1,2.3549835E1,3.508275E1,3.983701E1,3.878399E1,2.2601288E1,9.5231415E1,1.2234848E2,2.9686073E1,0E0,0E0,1.2177172E1,1.8378662E1,6.404787E0,2.0981506E1,9.450043E0,2.120203E1,1.865839E1,5.3956757E1,1.8982086E1,5.268163E-1,2.089035E0,1.7719002E1,2.4411581E1,3.101278E1,1.147052E1,1.4573425E1,2.1582618E0,1.7196594E1,2.1287565E1,1.4195167E1,1.1314659E1,3.6404724E1,5.5231476E0,1.644983E1,2.2533169E1,7.7009895E1,1.26922455E1,1.5964355E0,5.1070175E1,0E0,0E0,0E0,0E0,0E0,0E0,0E0,0E0,0E0,0E0,0E0,0E0,0E0,0E0,0E0,0E0,0E0,0E0,0E0,0E0,0E0,0E0,0E0,0E0,0E0,0E0,0E0,0E0,0E0,0E0,0E0,0E0,0E0,0E0,0E0,0E0,0E0,0E0,0E0,0E0,0E0,0E0,0E0,0E0,0E0,0E0,0E0,0E0,0E0,0E0,0E0,0E0,0E0,0E0,0E0,0E0,0E0,0E0,0E0,0E0],"parents":[2147483647,0,0,1,1,2,2,3,3,4,4,5,5,6,6,7,7,8,8,9,9,10,10,11,11,12,12,13,13,14,14,15,15,16,16,17,17,18,18,19,19,20,20,21,21,22,22,23,23,24,24,25,25,26,26,27,27,28,28,29,29,30,30,31,31,34,34,35,35,36,36,37,37,38,38,39,39,40,40,41,41,42,42,43,43,44,44,45,45,46,46,47,47,48,48,49,49,50,50,51,51,52,52,53,53,54,54,55,55,56,56,57,57,58,58,59,59,60,60,61,61,62,62],"right_children":[2,4,6,8,10,12,14,16,18,20,22,24,26,28,30,32,34,36,38,40,42,44,46,48,50,52,54,56,58,60,62,64,-1,-1,66,68,70,72,74,76,78,80,82,84,86,88,90,92,94,96,98,100,102,104,106,108,110,112,114,116,118,120,122,-1,-1,-1,-1,-1,-1,-1,-1,-1,-1,-1,-1,-1,-1,-1,-1,-1,-1,-1,-1,-1,-1,-1,-1,-1,-1,-1,-1,-1,-1,-1,-1,-1,-1,-1,-1,-1,-1,-1,-1,-1,-1,-1,-1,-1,-1,-1,-1,-1,-1,-1,-1,-1,-1,-1,-1,-1,-1,-1,-1],"split_conditions":[5.1E1,4.3E1,1E0,2.3225431E1,1.574715E0,1E0,2.4691359E1,1E0,1E0,1E0,1.625E0,2.8732164E1,1.7021227E2,1E0,1.5719382E0,1.68E2,1.7812347E2,1.5652488E0,1E0,1E0,1E0,2.3384354E1,1E0,1.5719382E0,1E0,5.7E1,2.718163E1,6.4E1,5.7E1,1E0,1.625E0,1.6518471E2,-6.2993616E-2,-6.111234E-2,1.79E2,1.7021227E2,1.6314312E0,1.75E0,1.7606271E2,1.6004793E2,2.8732164E1,1.5625E0,2.3075098E1,1.7509216E2,1.5948297E0,1.65E0,1.7142857E0,2.3148148E1,6.4E1,5.4E1,1.6716673E2,3.0795847E1,1.6309195E2,1.71E2,1E0,1.5263158E0,2.420598E1,1.6904213E2,1.6209593E2,6.4E1,1.680728E2,1.574715E0,1.6875E0,-3.766337E-2,5.8981705E-2,5.448656E-2,-4.533465E-2,-1.304777E-2,2.6064461E-2,-5.1229354E-2,-1.0179958E-2,-2.8960992E-2,2.5201559E-2,-5.0447594E-2,-2.0009486E-2,-5.364917E-3,1.777628E-2,-2.5324864E-2,1.0223464E-2,-1.3130836E-2,-4.0900808E-2,-5.5508282E-2,-3.0714199E-2,-6.368955E-3,1.7083867E-2,1.43615035E-2,5.7324536E-2,-4.244709E-3,1.6024435E-2,6.205751E-5,-3.7195448E-2,-2.6641425E-3,2.0245234E-2,3.6073714E-2,-2.1761848E-2,2.1023924E-2,3.9560493E-2,-4.96045E-2,8.398139E-4,-4.496899E-2,2.1866425E-3,-3.0629132E-2,9.034327E-3,7.040225E-2,-2.5970368E-3,4.2579554E-2,-1.4923233E-2,-1.0691819E-2,4.663752E-3,-6.1474707E-2,-8.620189E-3,-5.424846E-2,-2.8360799E-2,-5.168922E-2,-1.51733225E-2,4.8278044E-3,-3.864948E-2,-5.6822926E-2,-2.2682449E-2,4.0498143E-3,5.831899E-2,2.2508925E-2,2.9979942E-3],"split_indices":[1,1,6,10,9,0,10,6,6,6,9,10,2,0,9,2,2,9,0,0,0,10,0,9,5,1,10,1,1,5,9,2,0,0,2,2,9,9,2,2,10,9,10,2,9,9,9,10,1,1,2,10,2,2,5,9,10,2,2,1,2,9,9,0,0,0,0,0,0,0,0,0,0,0,0,0,0,0,0,0,0,0,0,0,0,0,0,0,0,0,0,0,0,0,0,0,0,0,0,0,0,0,0,0,0,0,0,0,0,0,0,0,0,0,0,0,0,0,0,0,0,0,0],"split_type":[0,0,0,0,0,0,0,0,0,0,0,0,0,0,0,0,0,0,0,0,0,0,0,0,0,0,0,0,0,0,0,0,0,0,0,0,0,0,0,0,0,0,0,0,0,0,0,0,0,0,0,0,0,0,0,0,0,0,0,0,0,0,0,0,0,0,0,0,0,0,0,0,0,0,0,0,0,0,0,0,0,0,0,0,0,0,0,0,0,0,0,0,0,0,0,0,0,0,0,0,0,0,0,0,0,0,0,0,0,0,0,0,0,0,0,0,0,0,0,0,0,0,0],"sum_hessian":[1.4727407E4,4.2717876E3,1.045562E4,1.00696576E3,3.264822E3,2.6130015E3,7.842618E3,2.2711871E2,7.7984705E2,2.5757695E3,6.8905237E2,2.035444E3,5.775576E2,2.2554404E3,5.5871777E3,5.466774E1,1.7245097E2,1.9699263E2,5.8285443E2,6.0801154E2,1.967758E3,7.126757E1,6.177848E2,1.1926746E3,8.4276935E2,3.0267606E2,2.7488156E2,1.629013E3,6.2642737E2,3.9253442E3,1.6618339E3,3.3423565E1,2.1244177E1,1.6141478E2,1.1036206E1,1.491948E2,4.7797844E1,3.7901007E2,2.0384435E2,4.3989807E2,1.6811346E2,1.3894517E3,5.7830646E2,5.6375093E0,6.563006E1,4.4102286E2,1.7676195E2,8.965072E2,2.9616742E2,8.344246E2,8.344747E0,1.0977027E2,1.9290578E2,1.3016562E2,1.4471594E2,1.5881578E3,4.0855145E1,2.761313E2,3.5029605E2,3.8023806E3,1.2296341E2,1.9381026E2,1.4680236E3,2.4051817E1,9.371746E0,2.2059011E0,8.830305E0,1.1033834E2,3.885645E1,3.0194208E1,1.7603636E1,3.621799E2,1.683017E1,1.6589835E2,3.7946E1,1.4529025E2,2.9460785E2,1.1713503E2,5.0978436E1,1.1836467E3,2.0580486E2,9.990071E1,4.7840576E2,3.9521616E0,1.6853478E0,6.32333E0,5.9306732E1,1.77861E2,2.6316187E2,1.04512024E2,7.224993E1,1.8329056E2,7.132166E2,2.8912875E2,7.038672E0,1.4169289E2,6.9273175E2,6.881386E0,1.4633607E0,8.653708E1,2.3233192E1,4.1376904E1,1.5152887E2,5.0162754E0,1.25149345E2,1.372221E2,7.4938345E0,9.3697833E2,6.511795E2,3.2917576E1,7.937571E0,1.2217088E2,1.5396042E2,4.898558E1,3.013105E2,3.6997358E3,1.02644966E2,6.1969498E1,6.0993908E1,2.6766973E0,1.9113356E2,9.417228E2,5.2630084E2],"tree_param":{"num_deleted":"0","num_feature":"12","num_nodes":"123","size_leaf_vector":"1"}},{"base_weights":[-3.9335183E-4,-1.9701505E-1,4.7798365E-1,-7.199451E-2,-5.5804205E-1,3.0009043E-1,6.515807E-2,2.6439798E-1,-1.8724181E-1,-4.575934E-1,-1.0792841E0,1.3820401E-1,6.471273E-2,-5.331502E-2,3.4313244E-1,-2.865552E-1,6.8110384E-2,-7.877101E-1,-2.7238733E-1,-6.0016066E-2,-8.175102E-1,1.9232066E-1,-8.6345726E-1,1.3451909E-1,-4.0424374E-1,3.5615045E-1,-1.1364285E0,-3.392619E-1,-2.4808054E-3,-3.7339157E-1,1.5727018E-1,-1.0959601E0,-7.169047E-1,8.986538E-2,-3.2604626E-1,4.962502E-2,-8.564952E-1,5.4121256E-1,6.428681E-2,-1.2123212E0,-7.310485E-1,-4.288419E-4,8.818713E-2,-3.596827E-2,-7.559226E-3,8.260413E-2,1.703607E-2,7.0321755E-3,-6.889128E-2,-1.438068E-2,-2.7907202E-2,9.030959E-2,-3.5559807E-3,7.9233736E-2,-2.3072116E-2,-3.1038702E-3,1.18320985E-2,-3.7757307E-2,-5.8613043E-2,7.6693E-2,-3.667998E-2,-2.5145715E-2,-8.9227187E-4,-9.228077E-3,-4.540234E-2,3.835867E-2,2.0374324E-2,7.7502965E-3,-1.0608047E-2,-0E0,-6.3639484E-2,-1.2898422E-2,-3.865424E-2],"categories":[],"categories_nodes":[],"categories_segments":[],"categories_sizes":[],"default_left":[0,0,0,0,0,0,0,0,0,0,0,0,0,0,0,0,0,0,0,0,0,0,0,0,0,0,0,0,0,0,0,0,0,0,0,0,0,0,0,0,0,0,0,0,0,0,0,0,0,0,0,0,0,0,0,0,0,0,0,0,0,0,0,0,0,0,0,0,0,0,0,0,0],"id":18,"left_children":[1,3,5,7,9,11,-1,13,15,17,19,21,-1,23,25,27,29,31,33,-1,35,37,39,41,43,45,47,49,51,53,55,57,59,-1,61,-1,63,65,67,69,71,-1,-1,-1,-1,-1,-1,-1,-1,-1,-1,-1,-1,-1,-1,-1,-1,-1,-1,-1,-1,-1,-1,-1,-1,-1,-1,-1,-1,-1,-1,-1,-1],"loss_changes":[1.3808397E3,4.6928775E2,6.261074E2,2.998446E2,1.3831696E2,5.6556384E2,0E0,4.9533966E1,1.4626666E2,1.3644073E2,1.0652161E1,1.642646E2,0E0,2.6102043E1,3.0902206E1,6.196634E1,6.3528347E1,1.5106171E1,1.6076593E2,0E0,1.1759964E1,1.2815155E2,4.4259186E0,6.061274E1,1.036755E1,2.9283615E1,5.3053303E0,3.881375E1,8.045693E1,4.7583275E1,2.3530624E1,1.0466003E0,2.6735718E1,0E0,7.653331E1,0E0,4.031952E0,2.2087128E1,5.290658E1,2.9174843E0,1.4440346E0,0E0,0E0,0E0,0E0,0E0,0E0,0E0,0E0,0E0,0E0,0E0,0E0,0E0,0E0,0E0,0E0,0E0,0E0,0E0,0E0,0E0,0E0,0E0,0E0,0E0,0E0,0E0,0E0,0E0,0E0,0E0,0E0],"parents":[2147483647,0,0,1,1,2,2,3,3,4,4,5,5,7,7,8,8,9,9,10,10,11,11,13,13,14,14,15,15,16,16,17,17,18,18,20,20,21,21,22,22,23,23,24,24,25,25,26,26,27,27,28,28,29,29,30,30,31,31,32,32,34,34,36,36,37,37,38,38,39,39,40,40],"right_children":[2,4,6,8,10,12,-1,14,16,18,20,22,-1,24,26,28,30,32,34,-1,36,38,40,42,44,46,48,50,52,54,56,58,60,-1,62,-1,64,66,68,70,72,-1,-1,-1,-1,-1,-1,-1,-1,-1,-1,-1,-1,-1,-1,-1,-1,-1,-1,-1,-1,-1,-1,-1,-1,-1,-1,-1,-1,-1,-1,-1,-1],"split_conditions":[8.931081E1,1E0,9.5E1,1E0,1E0,1.5564862E0,6.515807E-2,6.2329426E1,1.5719382E0,1.680728E2,8.032053E1,1E0,6.471273E-2,6E1,1E0,8.109787E1,7.5737915E1,6.0098576E1,1.69E2,-6.0016066E-2,8.1E1,1E0,1.6518471E2,5.9193214E1,6.0098576E1,6.3E1,6.423381E1,1.68E2,8.2E1,1.5942029E0,6.520272E1,1E0,6.1E1,8.986538E-2,8.307093E1,4.962502E-2,8.2E1,1.6E2,1E0,5.2E1,1.6794777E2,-4.288419E-4,8.818713E-2,-3.596827E-2,-7.559226E-3,8.260413E-2,1.703607E-2,7.0321755E-3,-6.889128E-2,-1.438068E-2,-2.7907202E-2,9.030959E-2,-3.5559807E-3,7.9233736E-2,-2.3072116E-2,-3.1038702E-3,1.18320985E-2,-3.7757307E-2,-5.8613043E-2,7.6693E-2,-3.667998E-2,-2.5145715E-2,-8.9227187E-4,-9.228077E-3,-4.540234E-2,3.835867E-2,2.0374324E-2,7.7502965E-3,-1.0608047E-2,-0E0,-6.3639484E-2,-1.2898422E-2,-3.865424E-2],"split_indices":[8,0,8,6,4,9,0,3,9,2,3,4,0,3,4,3,8,3,2,0,3,6,2,3,3,3,3,2,3,9,3,6,3,0,3,0,3,2,0,3,2,0,0,0,0,0,0,0,0,0,0,0,0,0,0,0,0,0,0,0,0,0,0,0,0,0,0,0,0,0,0,0,0],"split_type":[0,0,0,0,0,0,0,0,0,0,0,0,0,0,0,0,0,0,0,0,0,0,0,0,0,0,0,0,0,0,0,0,0,0,0,0,0,0,0,0,0,0,0,0,0,0,0,0,0,0,0,0,0,0,0,0,0,0,0,0,0,0,0,0,0,0,0,0,0,0,0,0,0],"sum_hessian":[1.4678016E4,1.0404002E4,4.2740137E3,7.7307085E3,2.673294E3,3.5187654E3,7.552482E2,1.970918E3,5.7597905E3,2.2453142E3,4.2797974E2,3.0284102E3,4.903553E2,3.9029132E2,1.5806266E3,4.1481685E3,1.6116217E3,8.036533E2,1.4416609E3,2.8645145E2,1.415283E2,2.8751877E3,1.5322229E2,2.5409558E2,1.3619574E2,1.568681E3,1.1945626E1,3.4971624E3,6.5100635E2,2.687652E2,1.3428564E3,1.4338974E2,6.602636E2,3.455415E1,1.4071067E3,1.6822371E0,1.3984607E2,7.690819E2,2.106106E3,3.6628178E1,1.1659411E2,2.351268E2,1.8968786E1,5.813814E1,7.8057594E1,1.5579215E1,1.5531018E3,1.7024682E0,1.0243158E1,2.8350942E3,6.62068E2,2.1684835E1,6.2932153E2,9.8585415E0,2.5890665E2,3.5524814E2,9.8760834E2,3.141496E1,1.1197478E2,3.302677E0,6.5696094E2,8.9220734E2,5.1489935E2,1.130847E1,1.285376E2,2.810206E2,4.880613E2,1.5877552E3,5.183506E2,1.7822245E0,3.4845955E1,1.1650168E1,1.0494394E2],"tree_param":{"num_deleted":"0","num_feature":"12","num_nodes":"73","size_leaf_vector":"1"}},{"base_weights":[-3.0388866E-4,-6.807533E-2,6.419225E-2,-1.8797795E-1,2.872534E-1,-4.017311E-1,3.7656035E-2,1.3156168E-1,6.379082E-2,-2.819819E-1,-7.2724557E-1,7.936262E-2,-9.670295E-1,4.7802493E-1,8.231836E-3,-5.954362E-1,-1.718335E-1,-8.292507E-1,-4.1325405E-1,4.142718E-1,-3.8623746E-2,-8.643882E-1,-5.999161E-2,7.2518384E-1,3.3865574E-1,1.3462508E-1,-3.133943E-1,-3.9668117E-2,-1.1894158E-2,4.9179187E-3,-1.29078105E-2,-5.067685E-2,-3.6322143E-2,-4.905813E-2,-1.2482875E-2,2.5866091E-2,4.259067E-4,3.0109019E-3,-1.6792903E-2,-4.497699E-2,4.2465985E-2,3.7534807E-2,-3.411059E-2,-3.4877513E-2,2.0349609E-2,-9.053551E-3,1.3322981E-2,-3.6043163E-2,-6.9516287E-3],"categories":[],"categories_nodes":[],"categories_segments":[],"categories_sizes":[],"default_left":[0,0,0,0,0,0,0,0,0,0,0,0,0,0,0,0,0,0,0,0,0,0,0,0,0,0,0,0,0,0,0,0,0,0,0,0,0,0,0,0,0,0,0,0,0,0,0,0,0],"id":19,"left_children":[1,3,-1,5,7,9,11,13,-1,15,17,19,21,23,25,27,29,31,33,35,37,39,-1,41,43,45,47,-1,-1,-1,-1,-1,-1,-1,-1,-1,-1,-1,-1,-1,-1,-1,-1,-1,-1,-1,-1,-1,-1],"loss_changes":[1.2690591E3,5.9048016E2,0E0,5.0006314E2,5.3706244E2,2.0659113E2,2.1100157E2,1.289259E2,0E0,1.3393033E2,4.4471375E1,1.9162393E2,1.688385E0,2.6276855E1,9.0753746E1,7.066168E1,6.7466125E1,1.8036377E1,3.1938087E1,5.2545425E1,1.0543473E2,1.0462662E1,0E0,1.1209702E1,3.6664787E1,6.695008E1,4.40823E1,0E0,0E0,0E0,0E0,0E0,0E0,0E0,0E0,0E0,0E0,0E0,0E0,0E0,0E0,0E0,0E0,0E0,0E0,0E0,0E0,0E0,0E0],"parents":[2147483647,0,0,1,1,3,3,4,4,5,5,6,6,7,7,9,9,10,10,11,11,12,12,13,13,14,14,15,15,16,16,17,17,18,18,19,19,20,20,21,21,23,23,24,24,25,25,26,26],"right_children":[2,4,-1,6,8,10,12,14,-1,16,18,20,22,24,26,28,30,32,34,36,38,40,-1,42,44,46,48,-1,-1,-1,-1,-1,-1,-1,-1,-1,-1,-1,-1,-1,-1,-1,-1,-1,-1,-1,-1,-1,-1],"split_conditions":[9.5E1,8.931081E1,6.419225E-2,5.5E1,1.5564862E0,1E0,6.4E1,1E0,6.379082E-2,4.6E1,1.5719382E0,1E0,1.69E2,1.6E2,1E0,1.6518471E2,1E0,4.6E1,1.6716673E2,1E0,1E0,1.680728E2,-5.999161E-2,1E0,1.6004793E2,1.5811905E2,1.680728E2,-3.9668117E-2,-1.1894158E-2,4.9179187E-3,-1.29078105E-2,-5.067685E-2,-3.6322143E-2,-4.905813E-2,-1.2482875E-2,2.5866091E-2,4.259067E-4,3.0109019E-3,-1.6792903E-2,-4.497699E-2,4.2465985E-2,3.7534807E-2,-3.411059E-2,-3.4877513E-2,2.0349609E-2,-9.053551E-3,1.3322981E-2,-3.6043163E-2,-6.9516287E-3],"split_indices":[8,8,0,1,9,0,1,6,0,1,9,6,2,2,0,2,6,1,2,0,0,2,0,5,2,2,2,0,0,0,0,0,0,0,0,0,0,0,0,0,0,0,0,0,0,0,0,0,0],"split_type":[0,0,0,0,0,0,0,0,0,0,0,0,0,0,0,0,0,0,0,0,0,0,0,0,0,0,0,0,0,0,0,0,0,0,0,0,0,0,0,0,0,0,0,0,0,0,0,0,0],"sum_hessian":[1.4585067E4,1.385609E4,7.28977E2,1.0361903E4,3.4941863E3,5.321379E3,5.040525E3,3.0211487E3,4.7303766E2,3.8940986E3,1.4272802E3,4.8418687E3,1.9865637E2,7.9053613E2,2.2306125E3,1.0091015E3,2.884997E3,1.0736224E3,3.5365775E2,1.2611781E3,3.5806904E3,1.4590254E2,5.275383E1,2.8071634E2,5.0981982E2,1.6032728E3,6.2733966E2,6.4707324E2,3.6202823E2,6.970732E2,2.187924E3,3.7637616E2,6.972462E2,7.617453E1,2.774832E2,1.00432544E3,2.5685263E2,2.6870547E3,8.9363586E2,1.4418694E2,1.7156091E0,2.7698386E2,3.7324965E0,2.9949806E1,4.7987E2,4.7095828E2,1.1323145E3,1.8526186E2,4.420778E2],"tree_param":{"num_deleted":"0","num_feature":"12","num_nodes":"49","size_leaf_vector":"1"}},{"base_weights":[-2.657087E-4,-8.846756E-2,6.254439E-2,-2.7587336E-1,1.7545125E-1,-4.6950215E-1,-4.29751E-2,6.3892476E-2,1.3130659E-1,-3.493694E-1,-8.063436E-1,6.843715E-2,-3.873016E-1,2.4027216E-1,-1.7093956E-1,-5.719162E-1,-2.1829587E-1,-9.1924477E-1,-4.2289343E-1,9.8475546E-2,-8.0212504E-1,-1.074653E0,-2.8841278E-1,2.6146597E-1,-7.052786E-1,-6.7287964E-1,3.2234672E-2,-3.5679128E-2,-1.5218121E-2,-1.8273551E-2,-4.563688E-3,-4.3305527E-2,-6.2190663E-2,8.522959E-2,-2.3860758E-2,1.138067E-3,1.6830835E-2,-2.9298544E-2,-5.7086855E-2,-3.892887E-2,-6.027312E-2,-2.3314836E-2,-4.6084495E-3,-2.6876653E-2,1.4086488E-2,-4.150675E-2,-1.4469326E-2,-5.371778E-2,-2.2026818E-2,8.0889374E-2,-1.2940177E-3],"categories":[],"categories_nodes":[],"categories_segments":[],"categories_sizes":[],"default_left":[0,0,0,0,0,0,0,0,0,0,0,0,0,0,0,0,0,0,0,0,0,0,0,0,0,0,0,0,0,0,0,0,0,0,0,0,0,0,0,0,0,0,0,0,0,0,0,0,0,0,0],"id":20,"left_children":[1,3,-1,5,7,9,11,-1,13,15,17,19,21,23,25,27,29,31,33,35,37,39,41,43,45,47,49,-1,-1,-1,-1,-1,-1,-1,-1,-1,-1,-1,-1,-1,-1,-1,-1,-1,-1,-1,-1,-1,-1,-1,-1],"loss_changes":[1.5997358E3,6.701824E2,0E0,3.5702972E2,2.7271594E2,1.7388281E2,1.3833444E2,0E0,1.7833804E2,9.2489624E1,4.7663025E1,7.095808E1,5.8621277E1,7.989525E1,1.4659467E2,4.38132E1,3.735582E1,1.1857727E1,3.1379002E1,4.7270164E1,4.4353485E0,1.3722153E0,2.665673E1,6.3225555E1,3.4911995E0,3.691118E1,9.504488E1,0E0,0E0,0E0,0E0,0E0,0E0,0E0,0E0,0E0,0E0,0E0,0E0,0E0,0E0,0E0,0E0,0E0,0E0,0E0,0E0,0E0,0E0,0E0,0E0],"parents":[2147483647,0,0,1,1,3,3,4,4,5,5,6,6,8,8,9,9,10,10,11,11,12,12,13,13,14,14,15,15,16,16,17,17,18,18,19,19,20,20,21,21,22,22,23,23,24,24,25,25,26,26],"right_children":[2,4,-1,6,8,10,12,-1,14,16,18,20,22,24,26,28,30,32,34,36,38,40,42,44,46,48,50,-1,-1,-1,-1,-1,-1,-1,-1,-1,-1,-1,-1,-1,-1,-1,-1,-1,-1,-1,-1,-1,-1,-1,-1],"split_conditions":[1.4222208E2,1.28E2,6.254439E-2,5.5E1,1.4444444E0,1E0,1E0,6.3892476E-2,1E0,4.8E1,8.307093E1,6.4E1,1.6209593E2,6.4E1,1.680728E2,1.6518471E2,1.6209593E2,1.76E2,8.4E1,7.802012E1,1.6495276E2,5.8E1,1.7021227E2,4.2E1,1.6518471E2,1.6411754E2,1.69E2,-3.5679128E-2,-1.5218121E-2,-1.8273551E-2,-4.563688E-3,-4.3305527E-2,-6.2190663E-2,8.522959E-2,-2.3860758E-2,1.138067E-3,1.6830835E-2,-2.9298544E-2,-5.7086855E-2,-3.892887E-2,-6.027312E-2,-2.3314836E-2,-4.6084495E-3,-2.6876653E-2,1.4086488E-2,-4.150675E-2,-1.4469326E-2,-5.371778E-2,-2.2026818E-2,8.0889374E-2,-1.2940177E-3],"split_indices":[7,7,0,1,9,0,0,0,0,1,3,1,2,1,2,2,2,2,3,3,2,1,2,1,2,2,2,0,0,0,0,0,0,0,0,0,0,0,0,0,0,0,0,0,0,0,0,0,0,0,0],"split_type":[0,0,0,0,0,0,0,0,0,0,0,0,0,0,0,0,0,0,0,0,0,0,0,0,0,0,0,0,0,0,0,0,0,0,0,0,0,0,0,0,0,0,0,0,0,0,0,0,0,0,0],"sum_hessian":[1.4497656E4,1.3545037E4,9.526185E2,7.9217173E3,5.62332E3,4.3232456E3,3.5984722E3,2.1392314E2,5.4093965E3,3.1908162E3,1.1324291E3,2.7188845E3,8.7958746E2,3.9774966E3,1.4319E3,1.1788064E3,2.0120099E3,8.7167804E2,2.607511E2,2.6304695E3,8.841517E1,1.0751146E2,7.72076E2,3.892231E3,8.526563E1,4.119698E2,1.01993024E3,7.673181E2,4.1148825E2,9.2850256E2,1.0835073E3,7.5668115E2,1.1499684E2,4.7501473E0,2.5600095E2,1.9991528E3,6.313166E2,5.8258347E1,3.0156818E1,3.83763E1,6.9135155E1,4.022023E2,3.6987372E2,9.43981E1,3.7978328E3,6.3121426E1,2.2144207E1,1.4757263E2,2.6439716E2,3.446799E1,9.854623E2],"tree_param":{"num_deleted":"0","num_feature":"12","num_nodes":"51","size_leaf_vector":"1"}},{"base_weights":[-2.6530607E-4,-8.451142E-2,6.177283E-2,-2.635501E-1,1.6729271E-1,-6.271798E-1,-1.4841251E-1,6.289158E-2,1.2498594E-1,-3.3071277E-1,-7.157975E-1,1.7230973E-1,-2.5857186E-1,1.7557456E-1,-8.465091E-1,-6.564756E-1,-2.0531736E-1,-8.270641E-1,-4.88706E-1,-1.9391721E-1,2.489925E-1,-2.1917547E-1,-1.1587284E0,4.5926192E-1,7.852862E-2,-1.040504E0,-6.467979E-1,-2.645853E-2,-5.346902E-2,-8.11189E-3,-5.6213863E-2,-4.280153E-2,-1.1082941E-2,-2.6560897E-2,9.523073E-4,3.021021E-5,-2.6434377E-2,1.4015718E-2,-5.5616785E-2,-1.8073317E-2,-4.378513E-3,-5.968653E-2,-3.672272E-2,1.7134553E-2,3.4511477E-2,5.182015E-3,-4.672671E-2,-7.241712E-3,-5.2662708E-2,-1.4730188E-2,-4.0044654E-2],"categories":[],"categories_nodes":[],"categories_segments":[],"categories_sizes":[],"default_left":[0,0,0,0,0,0,0,0,0,0,0,0,0,0,0,0,0,0,0,0,0,0,0,0,0,0,0,0,0,0,0,0,0,0,0,0,0,0,0,0,0,0,0,0,0,0,0,0,0,0,0],"id":21,"left_children":[1,3,-1,5,7,9,11,-1,13,15,17,19,21,23,25,27,29,31,33,35,37,39,41,43,45,47,49,-1,-1,-1,-1,-1,-1,-1,-1,-1,-1,-1,-1,-1,-1,-1,-1,-1,-1,-1,-1,-1,-1,-1,-1],"loss_changes":[1.499383E3,6.0825415E2,0E0,3.295714E2,2.5761407E2,4.878119E1,2.1186089E2,0E0,2.6529327E2,1.7315376E1,3.5315002E1,4.3152195E1,1.570611E2,1.4099356E2,8.157425E0,4.40633E0,1.17580385E1,1.613794E1,1.0746399E1,1.7538706E1,5.431241E1,7.983247E1,4.6447754E-2,3.4195312E1,9.7184135E1,5.9095764E-1,6.4780617E0,0E0,0E0,0E0,0E0,0E0,0E0,0E0,0E0,0E0,0E0,0E0,0E0,0E0,0E0,0E0,0E0,0E0,0E0,0E0,0E0,0E0,0E0,0E0,0E0],"parents":[2147483647,0,0,1,1,3,3,4,4,5,5,6,6,8,8,9,9,10,10,11,11,12,12,13,13,14,14,15,15,16,16,17,17,18,18,19,19,20,20,21,21,22,22,23,23,24,24,25,25,26,26],"right_children":[2,4,-1,6,8,10,12,-1,14,16,18,20,22,24,26,28,30,32,34,36,38,40,42,44,46,48,50,-1,-1,-1,-1,-1,-1,-1,-1,-1,-1,-1,-1,-1,-1,-1,-1,-1,-1,-1,-1,-1,-1,-1,-1],"split_conditions":[1.4222208E2,1.28E2,6.177283E-2,4.9E1,1.4444444E0,1E0,1E0,6.289158E-2,1E0,7.9E1,4.6E1,6.2329426E1,1E0,1E0,7.802012E1,1.15E2,1E0,9.2252625E1,1.6445082E0,6E1,6.4E1,5.6E1,9.044729E1,8.307093E1,6.4E1,5.2E1,8.4E1,-2.645853E-2,-5.346902E-2,-8.11189E-3,-5.6213863E-2,-4.280153E-2,-1.1082941E-2,-2.6560897E-2,9.523073E-4,3.021021E-5,-2.6434377E-2,1.4015718E-2,-5.5616785E-2,-1.8073317E-2,-4.378513E-3,-5.968653E-2,-3.672272E-2,1.7134553E-2,3.4511477E-2,5.182015E-3,-4.672671E-2,-7.241712E-3,-5.2662708E-2,-1.4730188E-2,-4.0044654E-2],"split_indices":[7,7,0,1,9,6,6,0,4,8,1,3,4,6,3,7,4,3,9,3,1,1,3,3,1,3,3,0,0,0,0,0,0,0,0,0,0,0,0,0,0,0,0,0,0,0,0,0,0,0,0],"split_type":[0,0,0,0,0,0,0,0,0,0,0,0,0,0,0,0,0,0,0,0,0,0,0,0,0,0,0,0,0,0,0,0,0,0,0,0,0,0,0,0,0,0,0,0,0,0,0,0,0,0,0],"sum_hessian":[1.4404157E4,1.3486944E4,9.1721313E2,7.8834897E3,5.6034546E3,1.8926981E3,5.9907915E3,2.0667694E2,5.396778E3,4.3903354E2,1.4536646E3,1.5301594E3,4.4606323E3,5.131708E3,2.6506995E2,1.1856289E2,3.2047067E2,9.7061334E2,4.8305127E2,2.632645E2,1.2668949E3,4.2765083E3,1.8412396E2,1.3048162E3,3.8268918E3,1.2891814E2,1.3615182E2,9.503592E1,2.3526964E1,3.0888763E2,1.1583041E1,9.2471515E2,4.5898182E1,4.465554E2,3.6495876E1,1.668295E2,9.6435005E1,1.2403129E3,2.6582031E1,2.0513293E3,2.225179E3,1.6565215E2,1.8471819E1,8.718965E2,4.3291965E2,3.7365593E3,9.033242E1,2.706796E0,1.2621134E2,4.4199497E1,9.195232E1],"tree_param":{"num_deleted":"0","num_feature":"12","num_nodes":"51","size_leaf_vector":"1"}},{"base_weights":[-2.7679282E-4,-1.7483822E-1,2.6766127E-1,-5.205513E-1,-7.233854E-2,6.367849E-2,2.1691546E-1,-2.0011736E-1,-6.2104404E-1,-3.624511E-2,-9.365523E-1,7.648576E-2,6.1830366E-1,1.22032985E-1,-3.096609E-1,-1.031762E0,-5.641185E-1,2.3764622E-1,-1.2995656E-1,-2.4216095E-1,-1.0005013E0,1.2536795E-1,-8.487736E-1,6.06276E-2,1.3293318E-1,-4.731718E-2,2.6218346E-1,-2.2325695E-1,-9.831477E-1,-6.1967563E-2,-7.455863E-1,-5.208821E-1,-1.1131432E0,1.3445015E-1,4.9731767E-1,-3.129979E-1,-3.2350007E-2,-1.0146065E0,4.893627E-2,-1.1095793E0,-7.6390916E-1,-1.0563059E0,1.5717968E-1,-1.1812601E0,-7.291066E-1,1.728203E-1,-6.897854E-1,2.8665998E-4,3.1475358E-2,-3.4195434E-2,-6.4988285E-3,-6.0548592E-2,-5.1540593E-3,9.060575E-3,-5.0724536E-2,-3.1062895E-2,-1.6343564E-2,-5.6412604E-2,-8.12608E-3,-2.9836057E-2,8.409346E-3,2.636818E-2,-4.9466267E-2,-1.4598819E-2,-5.638371E-2,1.7880676E-2,-3.5045312E-3,-5.689795E-2,-0E0,-3.5298638E-2,-5.959962E-2,-4.3253414E-2,-4.330174E-3,-5.995235E-2,-7.85441E-3,2.310327E-2,2.3854836E-3,-6.127904E-2,-0E0,5.4834377E-2,-3.831416E-2,9.995926E-3,